SVM-light Version V6.02
1 # kernel type
3 # kernel parameter -d 
1 # kernel parameter -g 
1 # kernel parameter -s 
1 # kernel parameter -r 
empty# kernel parameter -u 
35 # highest feature index 
284 # number of training documents 
210 # number of support vectors plus 1 
-1.6649852 # threshold b, each following line is a SV (starting with alpha*y)
-0.00039777084121604027507762557647197 1:0.6501205 2:0.53160512 3:0.46298119 4:0.28855082 5:0.97470051 6:0.52902228 7:0.68964052 8:0.63406587 9:0.69067901 10:0.63562506 11:0.43830219 12:0.41430503 13:0.37444448 14:0.82039428 15:0.59352952 16:0.73461044 17:0.77734417 18:0.78311282 19:0.80202234 20:0.3777993 21:0.38695621 22:0.2717303 23:0.57224756 24:0.72468996 25:0.66095644 26:0.78421986 27:0.72660309 28:0.32550958 29:0.29458317 30:0.34980413 31:0.87687498 32:0.63377082 33:0.6823948 34:0.79355299 35:0.8841297 #
-0.00038953006901122535620557441049527 1:0.84699208 2:0.53373188 3:0.57694936 4:0.49022704 5:0.75478572 6:0.45161965 7:0.58329004 8:0.49635229 9:0.88713205 10:0.93002313 11:0.57432884 12:0.61576092 13:0.48955306 14:0.69539887 15:0.54552275 16:0.66595656 17:0.61558515 18:0.89872772 19:0.55226719 20:0.6032213 21:0.46446216 22:0.76743424 23:0.4757812 24:0.63932997 25:0.56663597 26:0.89319307 27:0.98303038 28:0.58415675 29:0.67857468 30:0.46045238 31:0.697954 32:0.59518427 33:0.78890586 34:0.73500764 35:0.9986009 #
-0.00039777084121604027507762557647197 1:0.63513857 2:0.42650244 3:0.46035865 4:0.39165172 5:0.9106369 6:0.32860029 7:0.36470601 8:0.32990605 9:0.59106231 10:0.65038282 11:0.46335542 12:0.49680966 13:0.45389712 14:0.80306196 15:0.38642836 16:0.40311393 17:0.36341164 18:0.61330765 19:0.56813377 20:0.48821366 21:0.55075264 22:0.45477799 23:0.44027656 24:0.46665764 25:0.40886897 26:0.53698504 27:0.61092192 28:0.54802847 29:0.57093215 30:0.52469265 31:0.88268858 32:0.48314106 33:0.46385238 34:0.43486392 35:0.58476323 #
-0.00039777084121604027507762557647197 1:0.71804124 2:0.30197111 3:0.37467542 4:0.33207196 5:0.85032642 6:0.29905692 7:0.29295915 8:0.27948323 9:0.70853525 10:0.82758999 11:0.47094274 12:0.54346663 13:0.49063015 14:0.65201384 15:0.42822281 16:0.40762892 17:0.39648268 18:0.81184196 19:0.57486612 20:0.42322734 21:0.49963245 22:0.45469183 23:0.96816713 24:0.42547157 25:0.38804603 26:0.36146086 27:0.57434142 28:0.7656917 29:0.68061078 30:0.75814635 31:0.69732755 32:0.5589503 33:0.54257232 34:0.47014955 35:0.70865738 #
-0.00039777084121604027507762557647197 1:0.88919276 2:0.50187069 3:0.60499817 4:0.53160566 5:0.81179935 6:0.36310935 7:0.40995443 8:0.39973348 9:0.86251867 10:0.952865 11:0.53028345 12:0.61651409 13:0.54477686 14:0.93721884 15:0.38182315 16:0.43247718 17:0.43012932 18:0.91603494 19:0.95988494 20:0.49558437 21:0.61078495 22:0.5645352 23:0.89708507 24:0.46320897 25:0.55279458 26:0.54271209 27:0.88394487 28:0.86871499 29:0.54382086 30:0.61256576 31:0.59005612 32:0.44141006 33:0.55941755 34:0.52208847 35:0.87350392 #
0.00039777084121604027507762557647197 1:0.91156381 2:0.4560951 3:0.51570541 4:0.39100301 5:0.56115913 6:0.36679327 7:0.44881779 8:0.44738099 9:0.92969292 10:0.97059691 11:0.51872355 12:0.57884014 13:0.44261569 14:0.55179542 15:0.38188532 16:0.50866079 17:0.50267464 18:0.966043 19:0.88474256 20:0.44930038 21:0.49687162 22:0.43014434 23:0.6072734 24:0.41247648 25:0.44580427 26:0.42766309 27:0.91430998 28:0.94866514 29:0.54254943 30:0.58474874 31:0.50019646 32:0.58307528 33:0.41391048 34:0.47455457 35:0.51286316 #
0.00039777084121604027507762557647197 1:0.91148502 2:0.54226452 3:0.58162028 4:0.49079803 5:0.85064232 6:0.5712148 7:0.55108625 8:0.3747941 9:0.84780324 10:0.95630479 11:0.58952093 12:0.53657842 13:0.40176302 14:0.88142848 15:0.44406199 16:0.50628221 17:0.42015654 18:0.91337067 19:0.9515515 20:0.62068576 21:0.66048253 22:0.54748148 23:0.89739501 24:0.64463741 25:0.6332804 26:0.49795374 27:0.92420435 28:0.66631687 29:0.61864376 30:0.43756539 31:0.95756269 32:0.51857108 33:0.55964756 34:0.51951849 35:0.98598021 #
0.00039777084121604027507762557647197 1:0.50632834 2:0.33472055 3:0.32971627 4:0.40445623 5:0.96616882 6:0.64312345 7:0.53578049 8:0.41327029 9:0.54389566 10:0.5470379 11:0.37770247 12:0.37142861 13:0.44650102 14:0.94070691 15:0.70032972 16:0.57180077 17:0.47931999 18:0.59830642 19:0.52772558 20:0.35930464 21:0.3545303 22:0.46934408 23:0.68708664 24:0.60529715 25:0.46349815 26:0.56431794 27:0.57377148 28:0.41012868 29:0.40359813 30:0.50183409 31:0.97873789 32:0.74398291 33:0.63588822 34:0.51122165 35:0.62720484 #
0.00039777084121604027507762557647197 1:0.55568779 2:0.46270758 3:0.51458395 4:0.46188441 5:0.93127513 6:0.196917 7:0.15140508 8:0.12878284 9:0.47512868 10:0.61890024 11:0.5166685 12:0.57005233 13:0.50578016 14:0.9631502 15:0.25695544 16:0.1993424 17:0.17646386 18:0.53606623 19:0.57051027 20:0.54308087 21:0.62395507 22:0.50684696 23:0.97232264 24:0.21311595 25:0.1815839 26:0.16759138 27:0.46869814 28:0.65891832 29:0.60534286 30:0.65288943 31:0.5660184 32:0.30947626 33:0.26471952 34:0.22831048 35:0.55063576 #
0.00039777084121604027507762557647197 1:0.44647321 2:0.36140296 3:0.43913299 4:0.41698506 5:0.94058514 6:0.2952477 7:0.26318404 8:0.21703537 9:0.43539426 10:0.49061999 11:0.38982269 12:0.45364714 13:0.39660913 14:0.93224806 15:0.29695675 16:0.314704 17:0.27138802 18:0.48485586 19:0.44545704 20:0.39214706 21:0.48464626 22:0.47459042 23:0.32580265 24:0.32836232 25:0.25807574 26:0.41880113 27:0.53580946 28:0.4777925 29:0.55434722 30:0.50330371 31:0.97447151 32:0.34494701 33:0.40589595 34:0.28830466 35:0.51151943 #
-0.00039777084121604027507762557647197 1:0.19838811 2:0.15520157 3:0.22065055 4:0.28917393 5:0.78644544 6:0.21614714 7:0.097096689 8:0.07061889 9:0.19082978 10:0.2059077 11:0.16910557 12:0.26565903 13:0.35065359 14:0.97174203 15:0.26175058 16:0.13585308 17:0.089230374 18:0.19170719 19:0.16768228 20:0.16348286 21:0.2476377 22:0.32650471 23:0.81994468 24:0.24527831 25:0.11871495 26:0.073623829 27:0.16163275 28:0.21804255 29:0.19718157 30:0.31096151 31:0.41036829 32:0.30257696 33:0.15418479 34:0.094285987 35:0.201858 #
-0.00039777084121604027507762557647197 1:0.24455819 2:0.30641961 3:0.59443891 4:0.59540266 5:0.94057012 6:0.30509499 7:0.11626671 8:0.10364646 9:0.22375305 10:0.26138398 11:0.3113229 12:0.6970551 13:0.73403782 14:0.99697661 15:0.29439363 16:0.15397388 17:0.15182799 18:0.25625589 19:0.25670412 20:0.34244639 21:0.63778841 22:0.67916852 23:0.97018504 24:0.32422581 25:0.13019951 26:0.14804856 27:0.25023845 28:0.26961359 29:0.37530094 30:0.75390953 31:0.80706197 32:0.3216317 33:0.15729058 34:0.18294238 35:0.28124091 #
0.00039777084121604027507762557647197 1:0.86019319 2:0.51103902 3:0.54008806 4:0.35462737 5:0.70367527 6:0.61949432 7:0.94387722 8:0.72348148 9:0.90316343 10:0.88692486 11:0.50864357 12:0.52371955 13:0.33694726 14:0.82977808 15:0.56703705 16:0.81295907 17:0.72037065 18:0.92858124 19:0.84601939 20:0.62175453 21:0.61335039 22:0.42539099 23:0.81610119 24:0.71297222 25:0.85916275 26:0.92807668 27:0.88464683 28:0.64006138 29:0.61966741 30:0.40595558 31:0.96403044 32:0.69865185 33:0.9468208 34:0.84054655 35:0.97584182 #
0.00039777084121604027507762557647197 1:0.7704109 2:0.61676496 3:0.65377206 4:0.39218628 5:0.96112531 6:0.45635086 7:0.67192835 8:0.65534192 9:0.76867026 10:0.84083253 11:0.67813647 12:0.72889417 13:0.43524909 14:0.90462434 15:0.55428815 16:0.751652 17:0.7249878 18:0.83551604 19:0.79239118 20:0.6700111 21:0.70751506 22:0.38756594 23:0.53978711 24:0.76475829 25:0.71936381 26:0.84356678 27:0.99272609 28:0.75742722 29:0.77751929 30:0.45600969 31:0.93120563 32:0.58619452 33:0.83207995 34:0.80299085 35:0.92601103 #
0.00039777084121604027507762557647197 1:0.86767954 2:0.65558612 3:0.60465556 4:0.36114272 5:0.60554725 6:0.37569171 7:0.64259708 8:0.73639882 9:0.87594569 10:0.9506169 11:0.74406028 12:0.69888324 13:0.43654382 14:0.60681546 15:0.43902698 16:0.70824677 17:0.79083246 18:0.97884923 19:0.88969892 20:0.75812352 21:0.69202036 22:0.40905663 23:0.68235183 24:0.43763763 25:0.76728016 26:0.84774619 27:0.9357208 28:0.85645074 29:0.82661968 30:0.49338943 31:0.70099741 32:0.4829883 33:0.76928645 34:0.84582967 35:0.9897328 #
0.00039777084121604027507762557647197 1:0.81595111 2:0.43610412 3:0.32351202 4:0.2082531 5:0.53902251 6:0.22924539 7:0.34606177 8:0.43590304 9:0.85229188 10:0.91529548 11:0.49612087 12:0.41486815 13:0.30860615 14:0.48413932 15:0.32944381 16:0.44914886 17:0.51497471 18:0.94423825 19:0.87148052 20:0.45338368 21:0.33570111 22:0.23216988 23:0.54847175 24:0.27349129 25:0.40987399 26:0.49859035 27:0.90353155 28:0.96876043 29:0.53360897 30:0.44961619 31:0.34278503 32:0.48611769 33:0.37393522 34:0.52106881 35:0.57350999 #
0.00039777084121604027507762557647197 1:0.70172131 2:0.57156903 3:0.58048511 4:0.74941444 5:0.90848231 6:0.70445907 7:0.56388277 8:0.51287401 9:0.68660891 10:0.70143729 11:0.57175666 12:0.60384148 13:0.66480887 14:0.95254564 15:0.68672609 16:0.6822263 17:0.55165631 18:0.68037593 19:0.8177079 20:0.69283783 21:0.69692683 22:0.84014136 23:0.96152127 24:0.75887638 25:0.65903187 26:0.61374193 27:0.81236631 28:0.85919201 29:0.73949081 30:0.74102396 31:0.74897337 32:0.76175642 33:0.73833466 34:0.62115884 35:0.82341576 #
-0.00039777084121604027507762557647197 1:0.91641253 2:0.69615293 3:0.80382669 4:0.46061352 5:0.87804753 6:0.40152749 7:0.57109809 8:0.44551301 9:0.9071703 10:0.93788397 11:0.76756978 12:0.88149732 13:0.55150014 14:0.81313282 15:0.38874391 16:0.50512248 17:0.44852918 18:0.8699351 19:0.97695446 20:0.71501446 21:0.80526924 22:0.44599536 23:0.89080083 24:0.45592323 25:0.62960833 26:0.49708366 27:0.94308734 28:0.7415911 29:0.85843736 30:0.49322402 31:0.8646788 32:0.46760172 33:0.62878412 34:0.53561753 35:0.97576213 #
0.00021156364336857207478215237017594 1:0.18641517 2:0.092586771 3:0.14315541 4:0.27913159 5:0.99967545 6:0.56898254 7:0.52306867 8:0.20651096 9:0.20271245 10:0.20620964 11:0.10220876 12:0.14697696 13:0.28560573 14:0.94270337 15:0.62356895 16:0.55061644 17:0.19801071 18:0.22352514 19:0.17742054 20:0.10509797 21:0.1582574 22:0.32166082 23:0.99986756 24:0.62308353 25:0.56610823 26:0.21796234 27:0.19521953 28:0.19664243 29:0.12571049 30:0.17938735 31:0.33595681 32:0.68688738 33:0.55678779 34:0.2034587 35:0.22128037 #
-0.00039777084121604027507762557647197 1:0.40819809 2:0.1188808 3:0.1085256 4:0.12664458 5:0.79236758 6:0.59531456 7:0.8365792 8:0.48711157 9:0.50509465 10:0.47236443 11:0.13367933 12:0.12516573 13:0.15744708 14:0.98281354 15:0.69986588 16:0.90879607 17:0.64282751 18:0.59966677 19:0.46049473 20:0.15855679 21:0.14205544 22:0.18093061 23:0.69464099 24:0.9178679 25:0.64041269 26:0.57463986 27:0.47264445 28:0.16876578 29:0.15574358 30:0.17331007 31:0.87506187 32:0.72170115 33:0.97296989 34:0.62487525 35:0.60954887 #
-0.00039777084121604027507762557647197 1:0.45425072 2:0.074583054 3:0.060292508 4:0.061464019 5:0.44653699 6:0.16846171 7:0.81550437 8:0.74788052 9:0.57799083 10:0.59418362 11:0.092791893 12:0.078687146 13:0.091750503 14:0.60226917 15:0.30551472 16:0.92251992 17:0.90432084 18:0.75454634 19:0.52595699 20:0.10136658 21:0.078891806 22:0.080646187 23:0.53268534 24:0.27995354 25:0.95818436 26:0.72311151 27:0.50372136 28:0.11670078 29:0.092722356 30:0.090973541 31:0.49029556 32:0.23119123 33:0.87978905 34:0.8546589 35:0.6634782 #
0.00039777084121604027507762557647197 1:0.50499314 2:0.29667327 3:0.37763277 4:0.30276614 5:0.96635693 6:0.27381602 7:0.28497699 8:0.23297575 9:0.53151876 10:0.63578218 11:0.38593629 12:0.44214383 13:0.43131185 14:0.74431777 15:0.42291358 16:0.39118975 17:0.30591249 18:0.6243611 19:0.51092088 20:0.37944528 21:0.46540976 22:0.32273111 23:0.27692145 24:0.30967206 25:0.24238639 26:0.49893761 27:0.72538757 28:0.56110305 29:0.59478569 30:0.46826193 31:0.7311433 32:0.39565003 33:0.40335423 34:0.30891839 35:0.70037943 #
0.00039777084121604027507762557647197 1:0.95794851 2:0.3319656 3:0.34354499 4:0.21349335 5:0.5495584 6:0.21401139 7:0.34377855 8:0.33852136 9:0.96688789 10:0.96527642 11:0.34847778 12:0.34493136 13:0.21670628 14:0.55117261 15:0.33245665 16:0.53768069 17:0.42324102 18:0.97195041 19:0.99097568 20:0.32716742 21:0.3572675 22:0.22472782 23:0.63150078 24:0.25821006 25:0.39488375 26:0.39656109 27:0.97830111 28:0.37172011 29:0.3603628 30:0.2581096 31:0.5470798 32:0.34229878 33:0.46329519 34:0.38381606 35:0.98343587 #
-0.00039777084121604027507762557647197 1:0.72094929 2:0.47804722 3:0.37764132 4:0.35679215 5:0.94283372 6:0.46993968 7:0.49670392 8:0.47355825 9:0.76768756 10:0.81009364 11:0.52610862 12:0.40680405 13:0.44089121 14:0.89867789 15:0.56106657 16:0.61754358 17:0.55739486 18:0.87809914 19:0.79727644 20:0.4933323 21:0.39287475 22:0.36776361 23:0.94789839 24:0.50877339 25:0.50567555 26:0.47715163 27:0.85609853 28:0.93757141 29:0.58070678 30:0.45244512 31:0.47236958 32:0.94547778 33:0.58188242 34:0.59525102 35:0.53614086 #
0.00039777084121604027507762557647197 1:0.8093785 2:0.20700575 3:0.21294239 4:0.29368776 5:0.21169674 6:0.099346183 7:0.15299909 8:0.82749695 9:0.82579064 10:0.17766824 11:0.17144461 12:0.23545596 13:0.90529799 14:0.16198798 15:0.075655453 16:0.14766547 17:0.83128196 18:0.81815475 19:0.2087485 20:0.20641389 21:0.2751126 22:0.99101222 23:0.21180645 24:0.095572487 25:0.19983891 26:0.81071889 27:0.8328858 28:0.20757329 29:0.19154623 30:0.25697857 31:0.96011358 32:0.18963611 33:0.074672893 34:0.19250026 35:0.83508772 #
0.00039777084121604027507762557647197 1:0.5665887 2:0.44667971 3:0.46305481 4:0.43951505 5:0.20487398 6:0.13961872 7:0.17748781 8:0.55414999 9:0.60073894 10:0.40032351 11:0.40942103 12:0.35965675 13:0.88326508 14:0.18036389 15:0.16761437 16:0.22390942 17:0.59246725 18:0.59343398 19:0.37961856 20:0.40305713 21:0.37443331 22:0.88140959 23:0.19231477 24:0.14537087 25:0.17921907 26:0.58517963 27:0.66064548 28:0.42582637 29:0.43312401 30:0.4154678 31:0.9444133 32:0.21564496 33:0.17875884 34:0.21160422 35:0.64652276 #
0.00039777084121604027507762557647197 1:0.97716945 2:0.56995648 3:0.61370081 4:0.3366169 5:0.34414345 6:0.1692348 7:0.18501842 8:0.22737646 9:0.91882265 10:0.58733785 11:0.6762985 12:0.40836236 13:0.33705589 14:0.1889959 15:0.20704919 16:0.24932711 17:0.93056107 18:0.93344462 19:0.64269108 20:0.65168732 21:0.38761872 22:0.34480318 23:0.18110469 24:0.20389862 25:0.24872921 26:0.87904692 27:0.99991149 28:0.70204198 29:0.71895915 30:0.47719333 31:0.37108117 32:0.20419079 33:0.23197375 34:0.28246349 35:0.92111182 #
-0.00039777084121604027507762557647197 1:0.15518869 2:0.078216203 3:0.081150033 4:0.21676886 5:0.65887338 6:0.18314143 7:0.10334257 8:0.11384366 9:0.20904052 10:0.11095288 11:0.19829158 12:0.42630979 13:0.98070771 14:0.61856973 15:0.44398534 16:0.19930293 17:0.15363757 18:0.13084848 19:0.069586389 20:0.083855033 21:0.24124242 22:0.69273531 23:0.18220769 24:0.098503388 25:0.088450506 26:0.20879431 27:0.13883659 28:0.22550584 29:0.50096405 30:0.72623491 31:0.47898665 32:0.24261332 33:0.11162967 #
0.00039777084121604027507762557647197 1:0.87825251 2:0.51939505 3:0.49849775 4:0.30942237 5:0.91377199 6:0.40417519 7:0.62801892 8:0.53523666 9:0.89032274 10:0.96194637 11:0.57975817 12:0.58869249 13:0.39819279 14:0.96839541 15:0.49898437 16:0.72436792 17:0.65746319 18:0.98939329 19:0.93336552 20:0.55832398 21:0.55519736 22:0.33868703 23:0.99270916 24:0.44638044 25:0.68920237 26:0.60912317 27:0.93861938 28:0.99380934 29:0.63646603 30:0.63527292 31:0.40839735 32:0.9666726 33:0.49119526 34:0.75115204 35:0.66163051 #
-0.00039777084121604027507762557647197 1:0.96155369 2:0.74868578 3:0.73412776 4:0.58568591 5:0.86915064 6:0.29835558 7:0.35168594 8:0.35952616 9:0.88361293 10:0.99283022 11:0.78804678 12:0.75107485 13:0.62001801 14:0.8127901 15:0.3723245 16:0.42762974 17:0.4181731 18:0.89887345 19:0.96444392 20:0.79045326 21:0.83811265 22:0.58031815 23:0.88999856 24:0.35946044 25:0.39889827 26:0.42344096 27:0.90490329 28:0.89362586 29:0.89407516 30:0.68593979 31:0.90589595 32:0.42950037 33:0.48272404 34:0.48013687 35:0.94936782 #
-0.00039777084121604027507762557647197 1:0.95561177 2:0.64517814 3:0.64155418 4:0.43938234 5:0.87208605 6:0.38150796 7:0.53855902 8:0.54369086 9:0.89848459 10:0.91787153 11:0.60365283 12:0.59355366 13:0.40305492 14:0.90936452 15:0.37467617 16:0.52735847 17:0.56856954 18:0.8874315 19:0.95119375 20:0.63592726 21:0.6081416 22:0.42028564 23:0.8490566 24:0.37517482 25:0.5251686 26:0.5245412 27:0.90444499 28:0.96749401 29:0.6546365 30:0.6397894 31:0.44539818 32:0.99937314 33:0.40787962 34:0.55039483 35:0.59996015 #
-0.00039777084121604027507762557647197 1:0.91139084 2:0.43506694 3:0.39826912 4:0.41310751 5:0.79223996 6:0.45213798 7:0.55964792 8:0.62525678 9:0.95517421 10:0.91859645 11:0.43224162 12:0.36122352 13:0.34902659 14:0.88513631 15:0.44621497 16:0.54120797 17:0.62969005 18:0.93705779 19:0.95359772 20:0.53796494 21:0.48325935 22:0.45973942 23:0.8633011 24:0.53468782 25:0.63462716 26:0.72910428 27:0.95235693 28:0.5585714 29:0.43441799 30:0.39371541 31:0.90701127 32:0.48352024 33:0.60168803 34:0.72075546 35:0.97945464 #
0.00039777084121604027507762557647197 1:0.38838509 2:0.24411069 3:0.24987465 4:0.33794749 5:0.97632456 6:0.53543776 7:0.49388051 8:0.36565214 9:0.40059164 10:0.4298096 11:0.27405274 12:0.28034616 13:0.40240246 14:0.61877173 15:0.58547938 16:0.44738486 17:0.46614179 18:0.41784316 19:0.2674669 20:0.28204116 21:0.38753906 22:0.98919547 23:0.56759626 24:0.53383601 25:0.40899992 26:0.44082722 27:0.45149833 28:0.31375864 29:0.32571292 30:0.44285592 31:0.95303714 32:0.63761884 33:0.61076719 34:0.4781912 35:0.4762297 #
0.0002292095515459499372595830735122 1:0.59253055 2:0.32688671 3:0.41622084 4:0.31575742 5:0.91238779 6:0.22330444 7:0.25707403 8:0.25306532 9:0.58186442 10:0.68808985 11:0.37674442 12:0.41426736 13:0.30600572 14:0.83129489 15:0.25866795 16:0.33457723 17:0.32843867 18:0.67539686 19:0.63901013 20:0.34919873 21:0.43193239 22:0.32032642 23:0.25195509 24:0.26994669 25:0.27397564 26:0.62708217 27:0.75553715 28:0.45081639 29:0.48302853 30:0.35779056 31:0.82969749 32:0.26303339 33:0.34215644 34:0.33806086 35:0.73274809 #
-0.00039777084121604027507762557647197 1:0.16501129 2:0.074500129 3:0.092663452 4:0.14237088 5:0.93927556 6:0.51074857 7:0.51525909 8:0.20068267 9:0.18608157 10:0.17547746 11:0.07777828 12:0.10077117 13:0.16338871 14:0.98504841 15:0.57174432 16:0.58074147 17:0.24297215 18:0.20014559 19:0.1807532 20:0.08017239 21:0.11098024 22:0.17681509 23:0.99829447 24:0.62851059 25:0.60773927 26:0.29911646 27:0.22102849 28:0.18143813 29:0.08908847 30:0.11850437 31:0.1763498 32:0.58766139 33:0.59496343 34:0.25766772 35:0.20948368 #
-0.00039777084121604027507762557647197 1:0.53882098 2:0.4256489 3:0.4561083 4:0.42220801 5:0.24314001 6:0.18161468 7:0.2102643 8:0.48497897 9:0.52698559 10:0.35163295 11:0.42806667 12:0.42707601 13:0.98306036 14:0.27027231 15:0.20678139 16:0.24036448 17:0.49559385 18:0.57033074 19:0.39408627 20:0.41884074 21:0.40170762 22:0.97499216 23:0.26657358 24:0.22356953 25:0.26628441 26:0.52869892 27:0.59550649 28:0.3779124 29:0.44759655 30:0.43517959 31:0.97074074 32:0.30168653 33:0.24449216 34:0.27751848 35:0.56325001 #
0.00039777084121604027507762557647197 1:0.85708576 2:0.63611031 3:0.53257477 4:0.53924268 5:0.67543066 6:0.48110375 7:0.4388732 8:0.45161641 9:0.75753629 10:0.92676854 11:0.69949287 12:0.57914382 13:0.63979441 14:0.66630501 15:0.58666617 16:0.51291597 17:0.5173949 18:0.81800377 19:0.97191548 20:0.73511422 21:0.65266323 22:0.60893029 23:0.73333198 24:0.54634535 25:0.55456334 26:0.54621863 27:0.86399418 28:0.83965462 29:0.72920668 30:0.74841285 31:0.7379387 32:0.6666714 33:0.60476846 34:0.62216157 35:0.90658385 #
0.00039777084121604027507762557647197 1:0.97234648 2:0.38935456 3:0.36712173 4:0.26559606 5:0.46068186 6:0.25464848 7:0.29369345 8:0.37622169 9:0.98745292 10:0.92913985 11:0.39098498 12:0.29879731 13:0.21824792 14:0.50739276 15:0.254711 16:0.30967602 17:0.36995137 18:0.94407403 19:0.97743469 20:0.37581983 21:0.3096301 22:0.26760998 23:0.43262202 24:0.25813141 25:0.32260859 26:0.38387346 27:0.96931726 28:0.40060958 29:0.30960581 30:0.25875273 31:0.55274552 32:0.27611533 33:0.34805787 34:0.3900151 35:0.99822676 #
-0.00039777084121604027507762557647197 1:0.79448885 2:0.05687625 3:0.037581328 4:0.038823221 5:0.19527665 6:0.080631927 7:0.47965136 8:0.58260769 9:0.94383454 10:0.91647881 11:0.068315238 12:0.041622698 13:0.036141969 14:0.21739505 15:0.11221221 16:0.56698883 17:0.63799673 18:0.88700455 19:0.061878651 20:0.046125159 21:0.052398201 22:0.22042418 23:0.10233831 24:0.56719744 25:0.66482294 26:0.995058 27:0.84426755 28:0.069696017 29:0.04825962 30:0.04647541 31:0.21379469 32:0.10642702 33:0.56143731 34:0.65282774 35:0.96753401 #
-0.00039777084121604027507762557647197 1:0.85107327 2:0.35442245 3:0.24113178 4:0.098978311 5:0.14047207 6:0.093307368 7:0.19882931 8:0.30906513 9:0.82302952 10:0.89472526 11:0.40574265 12:0.26168519 13:0.11414166 14:0.14733335 15:0.10239594 16:0.23013954 17:0.35354042 18:0.84499884 19:0.97473085 20:0.42894351 21:0.33631232 22:0.11794096 23:0.14926678 24:0.092469767 25:0.2260748 26:0.33997703 27:0.92637515 28:0.50544006 29:0.40711692 30:0.14927588 31:0.17163791 32:0.095485292 33:0.25268513 34:0.38939437 35:0.96594059 #
0.00039777084121604027507762557647197 1:0.85014397 2:0.63218558 3:0.54597664 4:0.32926577 5:0.55253941 6:0.41415146 7:0.66333288 8:0.68662792 9:0.87258017 10:0.93535584 11:0.68119603 12:0.56906641 13:0.36348146 14:0.60567921 15:0.49801466 16:0.73410928 17:0.79566509 18:0.97185791 19:0.9093858 20:0.64937699 21:0.56159842 22:0.36278838 23:0.59110832 24:0.49347031 25:0.73075563 26:0.75519747 27:0.94673514 28:0.97337079 29:0.68482679 30:0.60837996 31:0.41708791 32:0.63702369 33:0.53212553 34:0.76979285 35:0.79121339 #
0.00039777084121604027507762557647197 1:0.91290301 2:0.55691969 3:0.53831464 4:0.46575457 5:0.78541481 6:0.44758925 7:0.48498368 8:0.49729705 9:0.90609902 10:0.96443558 11:0.59703958 12:0.57496601 13:0.49637809 14:0.82904315 15:0.50300378 16:0.54334772 17:0.56301069 18:0.96006721 19:0.96606731 20:0.59912729 21:0.56803352 22:0.50283146 23:0.83107334 24:0.50788498 25:0.54998386 26:0.56275636 27:0.95974874 28:0.6634627 29:0.62882459 30:0.54597491 31:0.85803944 32:0.53361869 33:0.57365167 34:0.6052497 35:0.99963772 #
-0.00039777084121604027507762557647197 1:0.48282343 2:0.38022429 3:0.46378142 4:0.480896 5:0.92950213 6:0.53858149 7:0.55974007 8:0.44133288 9:0.55320925 10:0.55164504 11:0.45245045 12:0.47724551 13:0.50173146 14:0.92680645 15:0.55522716 16:0.49687704 17:0.44312569 18:0.56481105 19:0.51999378 20:0.43018779 21:0.48092356 22:0.54225105 23:0.95993733 24:0.60886788 25:0.56800038 26:0.51656479 27:0.59931028 28:0.56642014 29:0.47807252 30:0.52357507 31:0.55011052 32:0.60102707 33:0.58715659 34:0.51233095 35:0.60222733 #
0.00039777084121604027507762557647197 1:0.40265158 2:0.44886422 3:0.45519418 4:0.39700717 5:0.95935953 6:0.36619821 7:0.35240239 8:0.27028883 9:0.37264892 10:0.4818258 11:0.51427519 12:0.5570026 13:0.46809694 14:0.90794027 15:0.47110704 16:0.4891645 17:0.41998494 18:0.46438107 19:0.39887428 20:0.51681316 21:0.54689687 22:0.42259446 23:0.40712026 24:0.35814884 25:0.28722349 26:0.364943 27:0.48693851 28:0.66352981 29:0.68525761 30:0.54864156 31:0.95398289 32:0.46747696 33:0.45188987 34:0.38071612 35:0.45622393 #
0.00039777084121604027507762557647197 1:0.8888886 2:0.40680972 3:0.31927463 4:0.27441874 5:0.68309802 6:0.31244466 7:0.31370679 8:0.36342558 9:0.87649 10:0.94305754 11:0.4673571 12:0.37190583 13:0.32299539 14:0.58694476 15:0.36744577 16:0.38951409 17:0.43795952 18:0.93912673 19:0.89286488 20:0.42501014 21:0.34138063 22:0.31103814 23:0.74041504 24:0.36956835 25:0.38022134 26:0.42231441 27:0.90505159 28:0.98316073 29:0.49906793 30:0.4034892 31:0.37003627 32:0.63765413 33:0.43779072 34:0.44427642 35:0.50326031 #
0.00039777084121604027507762557647197 1:0.81340587 2:0.40081328 3:0.4050647 4:0.57155389 5:0.89878631 6:0.63742238 7:0.68939012 8:0.64185792 9:0.96259165 10:0.87693185 11:0.42541319 12:0.4263587 13:0.52157593 14:0.95806652 15:0.63113689 16:0.68674147 17:0.66573071 18:0.90340579 19:0.43226537 20:0.43348932 21:0.58180243 22:0.93987316 23:0.66744196 24:0.75412142 25:0.64261222 26:0.97194368 27:0.93340296 28:0.46164522 29:0.45527112 30:0.57026303 31:0.93205994 32:0.65506715 33:0.74215788 34:0.63726735 35:0.99423891 #
0.00039777084121604027507762557647197 1:0.9289338 2:0.75594145 3:0.67731941 4:0.46947035 5:0.71431261 6:0.38773772 7:0.41560754 8:0.54698229 9:0.89222383 10:0.98585385 11:0.80519181 12:0.68442488 13:0.4869166 14:0.66988331 15:0.40610039 16:0.43103778 17:0.61745256 18:0.99613565 19:0.9690308 20:0.77433395 21:0.74865472 22:0.51263559 23:0.76216877 24:0.4552502 25:0.51653177 26:0.64120984 27:0.8774392 28:0.87759733 29:0.78033966 30:0.53729695 31:0.73483479 32:0.47990748 33:0.53596783 34:0.69604903 35:0.93538874 #
-0.00039777084121604027507762557647197 1:0.77504742 2:0.25374007 3:0.21078019 4:0.19637744 5:0.33767495 6:0.22940411 7:0.31567961 8:0.36246985 9:0.81262946 10:0.78402168 11:0.25037518 12:0.19775063 13:0.20208278 14:0.40187213 15:0.23880044 16:0.36302242 17:0.40389505 18:0.82070076 19:0.96729171 20:0.23707418 21:0.19907632 22:0.1957902 23:0.35145912 24:0.26242214 25:0.34319064 26:0.39223588 27:0.99101323 28:0.98805499 29:0.22645038 30:0.17773746 31:0.19709633 32:0.39812496 33:0.25541937 34:0.34506083 35:0.39510342 #
-0.00039777084121604027507762557647197 1:0.95223296 2:0.38747689 3:0.35794777 4:0.10861147 5:0.18639614 6:0.11677434 7:0.24161904 8:0.30508173 9:0.94929236 10:0.95353979 11:0.39579716 12:0.38623032 13:0.12208306 14:0.21087743 15:0.13747002 16:0.24236386 17:0.31011572 18:0.94672996 19:0.98399097 20:0.39873803 21:0.37194502 22:0.12686077 23:0.23238467 24:0.17127463 25:0.27925479 26:0.36809123 27:0.97109598 28:0.42078787 29:0.40268588 30:0.14120378 31:0.2413862 32:0.1754363 33:0.26895866 34:0.36420256 35:0.98825663 #
-0.00039777084121604027507762557647197 1:0.95006984 2:0.62331367 3:0.46319255 4:0.22336881 5:0.40340689 6:0.15631264 7:0.18650107 8:0.20054568 9:0.80992526 10:0.9264372 11:0.67748386 12:0.46453056 13:0.27222255 14:0.46760073 15:0.20435032 16:0.22464699 17:0.24819224 18:0.79165447 19:0.95870036 20:0.56356812 21:0.43137145 22:0.25082403 23:0.41484132 24:0.15913357 25:0.17561401 26:0.18692875 27:0.83429492 28:0.63988829 29:0.5093056 30:0.30416837 31:0.48962203 32:0.19880432 33:0.20635121 34:0.21945155 35:0.88757575 #
0.00039777084121604027507762557647197 1:0.6542325 2:0.4854359 3:0.45205766 4:0.40505442 5:0.88652408 6:0.64035296 7:0.72899348 8:0.61143488 9:0.70518887 10:0.70943898 11:0.54095149 12:0.50377601 13:0.45549771 14:0.99464303 15:0.69462264 16:0.81986856 17:0.69207364 18:0.76056933 19:0.72838998 20:0.50927716 21:0.4974519 22:0.46204191 23:0.95795065 24:0.70743251 25:0.81643206 26:0.68449247 27:0.79166406 28:0.77686441 29:0.57145506 30:0.55198324 31:0.50121939 32:0.74492717 33:0.86770135 34:0.71860844 35:0.81898367 #
0.00039777084121604027507762557647197 1:0.70009047 2:0.39297616 3:0.45126191 4:0.34944531 5:0.94578117 6:0.50788003 7:0.7285279 8:0.58248341 9:0.75225705 10:0.73918378 11:0.45462945 12:0.52430815 13:0.42918774 14:0.97287279 15:0.58861804 16:0.8216933 17:0.66346675 18:0.79789698 19:0.71217328 20:0.44505915 21:0.50155079 22:0.38469261 23:0.99089795 24:0.58508313 25:0.85057825 26:0.71170235 27:0.77150738 28:0.75515872 29:0.51624799 30:0.57583296 31:0.45695075 32:0.66854197 33:0.94421369 34:0.77187341 35:0.81139147 #
0.00039777084121604027507762557647197 1:0.94542575 2:0.62944907 3:0.57047111 4:0.34277406 5:0.49930379 6:0.3049987 7:0.39764386 8:0.52910185 9:0.91792047 10:0.98614717 11:0.70463318 12:0.68697554 13:0.41672 14:0.47194722 15:0.36788771 16:0.45354053 17:0.58905357 18:0.97380549 19:0.91113049 20:0.72923356 21:0.67051142 22:0.39287794 23:0.55264932 24:0.36196804 25:0.47693452 26:0.61712515 27:0.88232028 28:0.86494023 29:0.84442115 30:0.49039653 31:0.53580314 32:0.43882394 33:0.53282589 34:0.66803753 35:0.94594312 #
0.00039777084121604027507762557647197 1:0.84851897 2:0.40751269 3:0.33732903 4:0.32308891 5:0.38696638 6:0.29804245 7:0.2708624 8:0.35141346 9:0.83675045 10:0.86787653 11:0.42410186 12:0.327526 13:0.33185413 14:0.38335982 15:0.29635736 16:0.32442605 17:0.39912608 18:0.85534048 19:0.94351828 20:0.42737183 21:0.37376159 22:0.37838885 23:0.38867381 24:0.33169645 25:0.31037915 26:0.40819782 27:0.8897059 28:0.47560009 29:0.38548744 30:0.38719359 31:0.42392096 32:0.32391551 33:0.34818098 34:0.44645429 35:0.95769066 #
-0.00039777084121604027507762557647197 1:0.91759002 2:0.066261239 3:0.055386331 4:0.060289599 5:0.14385803 6:0.17038064 7:0.35512745 8:0.38013938 9:0.89765322 10:0.067940332 11:0.053534061 12:0.049720362 13:0.22319144 14:0.18654889 15:0.38123402 16:0.41925517 17:0.96868604 18:0.94162989 19:0.071055926 20:0.055644691 21:0.058447421 22:0.18234549 23:0.26423618 24:0.46295217 25:0.54684925 26:0.99999678 27:0.88978893 28:0.074558742 29:0.051144451 30:0.0484959 31:0.23686332 32:0.23046976 33:0.40898672 34:0.50129604 35:0.98237914 #
0.00039777084121604027507762557647197 1:0.88429564 2:0.61936581 3:0.72283787 4:0.53158545 5:0.74389279 6:0.33718771 7:0.35785294 8:0.36068794 9:0.80196303 10:0.93404597 11:0.67177713 12:0.79066581 13:0.61597997 14:0.7433908 15:0.39025173 16:0.41045064 17:0.41449821 18:0.83079922 19:0.91801733 20:0.66592783 21:0.73058057 22:0.54180628 23:0.74979299 24:0.34878957 25:0.41986576 26:0.4181127 27:0.81702381 28:0.77189416 29:0.80298001 30:0.65412599 31:0.78070104 32:0.41593418 33:0.46419948 34:0.46586165 35:0.91803533 #
0.00039777084121604027507762557647197 1:0.39865899 2:0.2955302 3:0.42846426 4:0.33487087 5:0.85937232 6:0.25388804 7:0.26086384 8:0.16582608 9:0.37623787 10:0.43284982 11:0.32571113 12:0.49118778 13:0.3812547 14:0.8924318 15:0.31963819 16:0.31726253 17:0.22672303 18:0.41350615 19:0.36242837 20:0.29614565 21:0.5039956 22:0.36430457 23:0.860838 24:0.27084976 25:0.25966933 26:0.19944926 27:0.35886157 28:0.42429268 29:0.36134449 30:0.50764918 31:0.50095493 32:0.33852366 33:0.30684277 34:0.21562117 35:0.40363353 #
-0.00039777084121604027507762557647197 1:0.53803694 2:0.21231036 3:0.36479193 4:0.31496745 5:0.80473012 6:0.41806138 7:0.92077816 8:0.58086079 9:0.63317961 10:0.58349103 11:0.20878781 12:0.41446537 13:0.36175868 14:0.96862495 15:0.43897781 16:0.85517794 17:0.60168189 18:0.72800046 19:0.50568968 20:0.22746657 21:0.41287199 22:0.35117352 23:0.96009547 24:0.52874446 25:0.91003197 26:0.63050187 27:0.63060027 28:0.52527058 29:0.25898549 30:0.46319512 31:0.4027223 32:0.45791897 33:0.88067269 34:0.61929661 35:0.64609647 #
-0.00039777084121604027507762557647197 1:0.89140683 2:0.50907642 3:0.48532841 4:0.46720773 5:0.9137767 6:0.33768189 7:0.37438077 8:0.4181827 9:0.83544433 10:0.96555561 11:0.62340099 12:0.60688961 13:0.57104647 14:0.82891214 15:0.42801827 16:0.47122723 17:0.51077014 18:0.93785763 19:0.85339159 20:0.62063229 21:0.63207614 22:0.5297032 23:0.98304975 24:0.42045972 25:0.45667312 26:0.51319677 27:0.78864384 28:0.7452352 29:0.74499339 30:0.66433793 31:0.94335693 32:0.51072651 33:0.57077044 34:0.64155656 35:0.97103137 #
0.00039777084121604027507762557647197 1:0.82088017 2:0.77281547 3:0.86580509 4:0.51439232 5:0.52780825 6:0.25568122 7:0.19806655 8:0.2885007 9:0.68530566 10:0.88157421 11:0.868128 12:0.9696914 13:0.5550577 14:0.53822142 15:0.27806515 16:0.23648262 17:0.34483242 18:0.75149399 19:0.82824141 20:0.87031859 21:0.97483331 22:0.58558357 23:0.53672427 24:0.28189355 25:0.21576762 26:0.2920053 27:0.71385032 28:0.85269481 29:0.95292413 30:0.66562092 31:0.54641539 32:0.28704974 33:0.22973998 34:0.30105382 35:0.74180818 #
0.00039777084121604027507762557647197 1:0.84677571 2:0.69381118 3:0.91208792 4:0.5810889 5:0.792377 6:0.17719266 7:0.23486693 8:0.18339418 9:0.70504367 10:0.82974827 11:0.63070762 12:0.83399397 13:0.52058256 14:0.68199158 15:0.18537652 16:0.25780308 17:0.22222129 18:0.69114667 19:0.77675486 20:0.66181767 21:0.8773964 22:0.54148549 23:0.71406561 24:0.20392156 25:0.26461083 26:0.24745463 27:0.63752818 28:0.88907868 29:0.85355616 30:0.64180952 31:0.83467352 32:0.2507717 33:0.30829415 34:0.28106043 35:0.70217693 #
0.00039777084121604027507762557647197 1:0.38296419 2:0.39714819 3:0.39693269 4:0.5886268 5:0.91403311 6:0.33633679 7:0.28116047 8:0.16493325 9:0.32315287 10:0.44712532 11:0.429243 12:0.43558434 13:0.58053452 14:0.82644266 15:0.43489835 16:0.36205059 17:0.23962817 18:0.35402319 19:0.38644513 20:0.45238692 21:0.42867619 22:0.70429713 23:0.35993928 24:0.30832079 25:0.18719357 26:0.33407652 27:0.46706328 28:0.46452415 29:0.54510272 30:0.72171026 31:0.90109706 32:0.51376265 33:0.38428393 34:0.26607141 35:0.35576946 #
-0.00039777084121604027507762557647197 1:0.67799109 2:0.73783708 3:0.88484341 4:0.6570937 5:0.91931099 6:0.28877899 7:0.24440061 8:0.26371545 9:0.59169787 10:0.70417559 11:0.723984 12:0.8832714 13:0.65561408 14:0.92227131 15:0.30501947 16:0.27963358 17:0.32515648 18:0.60290736 19:0.70490372 20:0.71672273 21:0.86865699 22:0.64767087 23:0.86057425 24:0.31437141 25:0.28994995 26:0.3106235 27:0.59988534 28:0.77774394 29:0.7866773 30:0.87155467 31:0.7130028 32:0.37895066 33:0.31854963 34:0.37066868 35:0.66600019 #
0.00039777084121604027507762557647197 1:0.59556639 2:0.26059496 3:0.27932799 4:0.16850951 5:0.636738 6:0.30466619 7:0.79410118 8:0.77990353 9:0.71244186 10:0.74780154 11:0.31442547 12:0.32936108 13:0.19834734 14:0.66334593 15:0.36208183 16:0.88998514 17:0.84696835 18:0.90323162 19:0.67923617 20:0.30616882 21:0.32628697 22:0.18855292 23:0.69974154 24:0.37689632 25:0.92417955 26:0.8327288 27:0.71998847 28:0.3764227 29:0.38956219 30:0.23025058 31:0.70833582 32:0.38016108 33:0.93533731 34:0.91859746 35:0.844311 #
0.00039777084121604027507762557647197 1:0.85002071 2:0.28231204 3:0.2579574 4:0.21576363 5:0.43797529 6:0.367057 7:0.64439154 8:0.72691232 9:0.98275644 10:0.86133313 11:0.29873636 12:0.27226889 13:0.21761695 14:0.46837613 15:0.39379838 16:0.60666895 17:0.68145609 18:0.87094873 19:0.40746152 20:0.3310445 21:0.26059237 22:0.4788672 23:0.43356782 24:0.71629465 25:0.79985464 26:0.98074961 27:0.8556326 28:0.47850496 29:0.40578848 30:0.27591604 31:0.50643957 32:0.44724098 33:0.70238638 34:0.79897332 35:0.97196686 #
0.00039777084121604027507762557647197 1:0.86661988 2:0.88953823 3:0.89361274 4:0.45590356 5:0.65285486 6:0.33049497 7:0.33617541 8:0.32842165 9:0.68245059 10:0.84225911 11:0.91375846 12:0.9163906 13:0.49531564 14:0.69002753 15:0.38579965 16:0.36537883 17:0.35124576 18:0.61476851 19:0.84523451 20:0.9073984 21:0.90913808 22:0.47253528 23:0.66462898 24:0.37831628 25:0.3814508 26:0.34387514 27:0.6174401 28:0.94660199 29:0.95241117 30:0.56770962 31:0.74918044 32:0.43307751 33:0.42075455 34:0.38707319 35:0.7454555 #
-0.00039777084121604027507762557647197 1:0.73190761 2:0.2531555 3:0.16705011 4:0.099631049 5:0.23869152 6:0.14167705 7:0.54330826 8:0.7069912 9:0.91259521 10:0.82881433 11:0.28627822 12:0.18321452 13:0.11899315 14:0.23813397 15:0.17879023 16:0.63022482 17:0.7680704 18:0.97347212 19:0.82589751 20:0.29132211 21:0.19426201 22:0.11107346 23:0.26316112 24:0.18492097 25:0.58174902 26:0.75809282 27:0.98238766 28:0.83005685 29:0.29901066 30:0.19654039 31:0.13539492 32:0.24623236 33:0.20376898 34:0.63081276 35:0.80101758 #
-0.00039777084121604027507762557647197 1:0.53985566 2:0.47245952 3:0.364537 4:0.43740875 5:0.25237367 6:0.31618035 7:0.31625378 8:0.93468922 9:0.9792484 10:0.45241314 11:0.42502335 12:0.25618979 13:0.48321933 14:0.2066586 15:0.28748938 16:0.31760007 17:0.94531476 18:0.9501425 19:0.64907181 20:0.55309194 21:0.41510469 22:0.51689035 23:0.31572667 24:0.42904565 25:0.48208863 26:0.87203479 27:0.90754217 28:0.6055426 29:0.50542748 30:0.33161148 31:0.61242098 32:0.28357276 33:0.42359748 34:0.49981177 35:0.86695307 #
0.00039777084121604027507762557647197 1:0.67845094 2:0.5344367 3:0.62533569 4:0.4507992 5:0.98628902 6:0.63491988 7:0.57145149 8:0.40196392 9:0.66562688 10:0.67926121 11:0.55010462 12:0.67334384 13:0.4873012 14:0.94072962 15:0.66962492 16:0.66765308 17:0.47644791 18:0.67814624 19:0.6882962 20:0.53077817 21:0.66727018 22:0.45908606 23:0.98867369 24:0.68431336 25:0.62527537 26:0.43094832 27:0.68458331 28:0.82627875 29:0.62630087 30:0.73484403 31:0.56549412 32:0.75887418 33:0.69555563 34:0.48512349 35:0.8164742 #
0.00039777084121604027507762557647197 1:0.82849246 2:0.41548952 3:0.56065387 4:0.66094697 5:0.97526562 6:0.50360364 7:0.3197301 8:0.31912169 9:0.78252268 10:0.87484622 11:0.47835627 12:0.58879369 13:0.65151423 14:0.9800244 15:0.49041545 16:0.35644272 17:0.36634311 18:0.82210976 19:0.98909098 20:0.54768342 21:0.63623083 22:0.73322684 23:0.55788434 24:0.36493406 25:0.41102374 26:0.89205623 27:0.92336786 28:0.58131158 29:0.63868344 30:0.66112137 31:0.96694046 32:0.50628871 33:0.39525786 34:0.43750569 35:0.84791255 #
0.00039777084121604027507762557647197 1:0.90307271 2:0.46596321 3:0.51547366 4:0.43097156 5:0.88699031 6:0.4331066 7:0.44807604 8:0.42650643 9:0.91617227 10:0.95247692 11:0.48516113 12:0.53248703 13:0.4467769 14:0.89413005 15:0.4803921 16:0.50409645 17:0.48793143 18:0.97006094 19:0.92120183 20:0.48165622 21:0.53245682 22:0.44674024 23:0.90901548 24:0.48322824 25:0.50805748 26:0.47275308 27:0.93006712 28:0.99065495 29:0.56358612 30:0.59492975 31:0.51133108 32:0.95088184 33:0.51389176 34:0.52842373 35:0.50765687 #
0.00039777084121604027507762557647197 1:0.99722958 2:0.34860259 3:0.21470103 4:0.15791942 5:0.19706862 6:0.1378722 7:0.28116786 8:0.35030124 9:0.96163517 10:0.39334416 11:0.23643203 12:0.14392249 13:0.22359794 14:0.13092113 15:0.28194341 16:0.37979692 17:0.97853106 18:0.97352248 19:0.42215762 20:0.25633627 21:0.19322957 22:0.25883952 23:0.18045859 24:0.27275056 25:0.36406457 26:0.95286429 27:0.99991447 28:0.4602229 29:0.28026021 30:0.19171363 31:0.29770225 32:0.18891303 33:0.28087947 34:0.39137971 35:0.97310114 #
0.00039777084121604027507762557647197 1:0.90417784 2:0.19584873 3:0.16149069 4:0.19956294 5:0.58697939 6:0.19655418 7:0.25307027 8:0.34590951 9:0.93229139 10:0.95028377 11:0.22697839 12:0.1961638 13:0.23294263 14:0.57952064 15:0.22020797 16:0.31032133 17:0.41363809 18:0.97335732 19:0.96450865 20:0.24582092 21:0.20143814 22:0.2259848 23:0.62477398 24:0.23196951 25:0.31482321 26:0.42448637 27:0.97530347 28:0.27621901 29:0.2393446 30:0.27139702 31:0.61225563 32:0.25766927 33:0.32619917 34:0.44289848 35:0.99869704 #
0.00039777084121604027507762557647197 1:0.80817169 2:0.31355661 3:0.39546692 4:0.41198248 5:0.78693926 6:0.39096633 7:0.35581994 8:0.21668518 9:0.7388078 10:0.64078468 11:0.26913902 12:0.30960223 13:0.25406122 14:0.96244365 15:0.24145113 16:0.25429872 17:0.16723441 18:0.61304438 19:0.64744037 20:0.28963506 21:0.38082844 22:0.4423548 23:0.74278879 24:0.41963384 25:0.37116918 26:0.24174458 27:0.62159926 28:0.73275459 29:0.32380289 30:0.35174122 31:0.29117098 32:0.28467762 33:0.27670345 34:0.20202257 35:0.72446644 #
0.00039777084121604027507762557647197 1:0.91246051 2:0.56719089 3:0.60043818 4:0.29063708 5:0.41705275 6:0.24584915 7:0.35718489 8:0.40832919 9:0.86053348 10:0.94485539 11:0.63943893 12:0.66122466 13:0.33130005 14:0.50604457 15:0.25556299 16:0.38984314 17:0.47249332 18:0.84778857 19:0.9572894 20:0.59068298 21:0.60515851 22:0.32007167 23:0.43746251 24:0.27479184 25:0.40215459 26:0.444181 27:0.94233811 28:0.62714916 29:0.66486621 30:0.39772299 31:0.54530537 32:0.28009686 33:0.43563664 34:0.48524845 35:0.9715808 #
-0.00039777084121604027507762557647197 1:0.9211303 2:0.58023089 3:0.52840364 4:0.43348691 5:0.84170055 6:0.36149821 7:0.41818887 8:0.36029926 9:0.87900037 10:0.96481764 11:0.59874755 12:0.58113027 13:0.47948089 14:0.85431182 15:0.41433054 16:0.44338834 17:0.40476999 18:0.93264663 19:0.86148578 20:0.79902005 21:0.72668642 22:0.60467476 23:0.56368762 24:0.60773069 25:0.48799753 26:0.87543494 27:0.87752765 28:0.81545645 29:0.76832002 30:0.66213018 31:0.97688711 32:0.5880273 33:0.58234769 34:0.5290612 35:0.83824629 #
-0.00036415021976243366202963258615455 1:0.70213383 2:0.45413741 3:0.51881951 4:0.60566008 5:0.91596729 6:0.43752679 7:0.53693527 8:0.43360835 9:0.72134346 10:0.73156965 11:0.44718531 12:0.46821883 13:0.54561323 14:0.59263033 15:0.7000469 16:0.5887922 17:0.77355397 18:0.7967779 19:0.54190338 20:0.54319638 21:0.63445395 22:0.9174602 23:0.51525861 24:0.58124352 25:0.5359804 26:0.77845639 27:0.82252306 28:0.54143369 29:0.51332343 30:0.56736493 31:0.97736657 32:0.64072198 33:0.6888473 34:0.67145002 35:0.84118193 #
0.00039777084121604027507762557647197 1:0.57956082 2:0.32480624 3:0.3627435 4:0.31586072 5:0.92573571 6:0.26069847 7:0.15996188 8:0.17688915 9:0.56814748 10:0.62049842 11:0.3447279 12:0.39418516 13:0.31010816 14:0.88158208 15:0.24497262 16:0.18163761 17:0.20672917 18:0.57812154 19:0.65230668 20:0.32500941 21:0.39444816 22:0.33928913 23:0.99320179 24:0.27329731 25:0.18115143 26:0.20349616 27:0.636213 28:0.72211397 29:0.42041966 30:0.44920778 31:0.41715482 32:0.3128514 33:0.2283114 34:0.23625262 35:0.68942672 #
-0.00039777084121604027507762557647197 1:0.95913672 2:0.61138052 3:0.46706209 4:0.3809801 5:0.55974001 6:0.24601263 7:0.25465411 8:0.34584713 9:0.82562476 10:0.64440674 11:0.52500349 12:0.33567083 13:0.53309017 14:0.23124141 15:0.27191472 16:0.37235722 17:0.82925767 18:0.89259976 19:0.7402088 20:0.57860321 21:0.38394994 22:0.53608656 23:0.29295912 24:0.29900399 25:0.37394187 26:0.76296371 27:0.94032609 28:0.74257338 29:0.6182856 30:0.34887215 31:0.52567679 32:0.26852846 33:0.3383702 34:0.43278301 35:0.78004748 #
-0.00039777084121604027507762557647197 1:0.58072817 2:0.41393402 3:0.5060398 4:0.4591012 5:0.91794342 6:0.43869531 7:0.29028288 8:0.30293936 9:0.66354132 10:0.58829039 11:0.32901329 12:0.44720116 13:0.38444394 14:0.87967813 15:0.34743464 16:0.29272193 17:0.29738006 18:0.65762198 19:0.63311785 20:0.45082667 21:0.56583327 22:0.56838906 23:0.50407749 24:0.38153088 25:0.43438116 26:0.72560632 27:0.66706699 28:0.41536653 29:0.56789595 30:0.46412498 31:0.96306789 32:0.39037675 33:0.36685506 34:0.3789677 35:0.73531836 #
0.00039777084121604027507762557647197 1:0.81508493 2:0.35588345 3:0.34142801 4:0.38027164 5:0.82131469 6:0.48944783 7:0.58364087 8:0.5480563 9:0.84150916 10:0.90769118 11:0.41233376 12:0.38941672 13:0.41742522 14:0.85665429 15:0.49660882 16:0.63290763 17:0.59822071 18:0.92554158 19:0.91353959 20:0.45006824 21:0.42706701 22:0.43805444 23:0.91400939 24:0.55456269 25:0.65936875 26:0.6262666 27:0.93888479 28:0.96862018 29:0.50355637 30:0.49144733 31:0.49131435 32:0.98552781 33:0.59392112 34:0.72102571 35:0.6674664 #
-0.00039777084121604027507762557647197 1:0.90079093 2:0.65554017 3:0.63086224 4:0.34825471 5:0.71590459 6:0.2830472 7:0.31383809 8:0.39497569 9:0.83064717 10:0.99200916 11:0.7750107 12:0.71753246 13:0.39689451 14:0.59331226 15:0.33139828 16:0.36582041 17:0.48053133 18:0.91412085 19:0.88881963 20:0.79387379 21:0.7643292 22:0.40998536 23:0.79271656 24:0.32766101 25:0.41340899 26:0.50995845 27:0.78827983 28:0.93396056 29:0.87925005 30:0.48591858 31:0.71351188 32:0.3992472 33:0.46981409 34:0.61086684 35:0.93650693 #
0.00039777084121604027507762557647197 1:0.55718642 2:0.24281335 3:0.23596674 4:0.30473474 5:0.45651442 6:0.42175099 7:0.36199465 8:0.58042759 9:0.60398948 10:0.28867072 11:0.26154777 12:0.33754176 13:0.90184581 14:0.5528931 15:0.51861358 16:0.45907453 17:0.6436463 18:0.56784397 19:0.22335625 20:0.23944567 21:0.32630432 22:0.99579757 23:0.5158242 24:0.46236524 25:0.36277345 26:0.59445363 27:0.62093925 28:0.27865261 29:0.27590826 30:0.36196721 31:0.95584065 32:0.57646298 33:0.52685559 34:0.44531873 35:0.65123391 #
-0.00039777084121604027507762557647197 1:0.40384573 2:0.12646081 3:0.12553121 4:0.097358197 5:0.66657323 6:0.52380013 7:0.93929088 8:0.6934725 9:0.46922401 10:0.47948447 11:0.18673334 12:0.17787668 13:0.1415244 14:0.68852556 15:0.59244579 16:0.97109216 17:0.76618284 18:0.58439463 19:0.43677765 20:0.14531684 21:0.1468278 22:0.13202673 23:0.82534868 24:0.61279482 25:0.96537805 26:0.68883866 27:0.52810848 28:0.48426256 29:0.17687845 30:0.17588539 31:0.12850171 32:0.65395045 33:0.5378564 34:0.74019599 35:0.58100301 #
0.00039777084121604027507762557647197 1:0.7389667 2:0.52219015 3:0.52949274 4:0.38525692 5:0.71382564 6:0.23695545 7:0.6174078 8:0.70417207 9:0.82828391 10:0.89221978 11:0.55583781 12:0.58512396 13:0.43745339 14:0.74363852 15:0.29305017 16:0.76392978 17:0.80063117 18:0.81618994 19:0.52972585 20:0.56998545 21:0.42206547 22:0.75763071 23:0.28291398 24:0.68157965 25:0.76289338 26:0.94139999 27:0.85905325 28:0.58130008 29:0.64691412 30:0.48171967 31:0.848167 32:0.31580287 33:0.72433162 34:0.83798021 35:0.97120732 #
-0.00039777084121604027507762557647197 1:0.4781976 2:0.29434434 3:0.36089572 4:0.31346077 5:0.77255756 6:0.49766171 7:0.51790923 8:0.32824329 9:0.49636868 10:0.53556615 11:0.27950665 12:0.38470227 13:0.33428583 14:0.93616629 15:0.49443412 16:0.48352823 17:0.35054025 18:0.55494082 19:0.51273942 20:0.29011545 21:0.34386969 22:0.32834297 23:0.91095656 24:0.61853099 25:0.65289062 26:0.460058 27:0.57841009 28:0.50848138 29:0.29775676 30:0.38473082 31:0.35325268 32:0.57924348 33:0.6070469 34:0.44208026 35:0.5662877 #
-0.00039777084121604027507762557647197 1:0.91715276 2:0.32145157 3:0.29012573 4:0.24069865 5:0.55628949 6:0.19372055 7:0.21566761 8:0.26550442 9:0.89256728 10:0.35278204 11:0.34213322 12:0.31976795 13:0.50779665 14:0.26587427 15:0.24909742 16:0.3093988 17:0.97202754 18:0.84565836 19:0.4407877 20:0.39864287 21:0.31216463 22:0.60706878 23:0.23598699 24:0.29432473 25:0.39801127 26:0.85121441 27:0.97116154 28:0.58137822 29:0.52910984 30:0.47897148 31:0.59698737 32:0.36204037 33:0.34856981 34:0.45067123 35:0.96898246 #
-0.00039777084121604027507762557647197 1:0.43892345 2:0.27831274 3:0.34320369 4:0.41325769 5:0.92745495 6:0.47826976 7:0.50357115 8:0.40170708 9:0.48743248 10:0.46504015 11:0.30869839 12:0.36618033 13:0.45903674 14:0.84344703 15:0.58650982 16:0.61105669 17:0.48920932 18:0.51815498 19:0.5015853 20:0.35371041 21:0.38638672 22:0.46533257 23:0.57437664 24:0.59316689 25:0.46993947 26:0.52852976 27:0.5168758 28:0.36857668 29:0.40225092 30:0.52047068 31:0.89198607 32:0.62952459 33:0.6312204 34:0.53686088 35:0.56892955 #
0.00039777084121604027507762557647197 1:0.93662864 2:0.61387539 3:0.49495557 4:0.43598193 5:0.78425527 6:0.45232567 7:0.51686049 8:0.57818103 9:0.89460415 10:0.9162603 11:0.61783665 12:0.54311627 13:0.43389452 14:0.8514629 15:0.44066009 16:0.51710588 17:0.58968771 18:0.87926942 19:0.96010494 20:0.59453559 21:0.50239134 22:0.44727483 23:0.82634413 24:0.46305034 25:0.50240362 26:0.56776899 27:0.94507837 28:0.66285133 29:0.57574886 30:0.47961387 31:0.84398133 32:0.47048038 33:0.51737791 34:0.59322619 35:0.97214895 #
0.00039777084121604027507762557647197 1:0.4568412 2:0.45755213 3:0.2579461 4:0.32687601 5:0.17019239 6:0.15895644 7:0.19766486 8:0.96223176 9:0.99728739 10:0.4495635 11:0.41472235 12:0.20958471 13:0.39639232 14:0.15145987 15:0.15887865 16:0.2135506 17:0.9715687 18:0.87128174 19:0.52372789 20:0.48486766 21:0.28021491 22:0.35014713 23:0.20754339 24:0.20620081 25:0.27514085 26:0.89072907 27:0.90015566 28:0.54780591 29:0.46518919 30:0.25666261 31:0.44138411 32:0.1954603 33:0.20617707 34:0.27841949 35:0.87616187 #
-0.00039777084121604027507762557647197 1:0.67549562 2:0.42268747 3:0.57930326 4:0.54583961 5:0.871445 6:0.3058047 7:0.42562675 8:0.38827395 9:0.71678478 10:0.72595286 11:0.39582586 12:0.55104476 13:0.50535399 14:0.88070518 15:0.34589487 16:0.44055513 17:0.45432976 18:0.73429263 19:0.64969683 20:0.45045277 21:0.62449956 22:0.5471223 23:0.87095094 24:0.35787639 25:0.47281376 26:0.44920766 27:0.71269774 28:0.73669547 29:0.49694631 30:0.65971524 31:0.57784355 32:0.40780661 33:0.49235779 34:0.50786436 35:0.80119067 #
0.00039777084121604027507762557647197 1:0.76282537 2:0.27105245 3:0.45646611 4:0.15192582 5:0.95715129 6:0.1305998 7:0.56750733 8:0.4436563 9:0.82996261 10:0.91666543 11:0.33953917 12:0.52570146 13:0.18047471 14:0.89477295 15:0.17202584 16:0.67130446 17:0.52661502 18:0.97333992 19:0.84172577 20:0.3379249 21:0.49433717 22:0.15415165 23:0.1893456 24:0.76406085 25:0.60915458 26:0.93227464 27:0.83952272 28:0.48591492 29:0.61164647 30:0.20915255 31:0.93931037 32:0.15584038 33:0.71612 34:0.56949955 35:0.93071443 #
-0.00039777084121604027507762557647197 1:0.68591017 2:0.5889473 3:0.55897057 4:0.57157564 5:0.88989508 6:0.46405977 7:0.5602954 8:0.50769949 9:0.67580235 10:0.64866978 11:0.58076841 12:0.56019336 13:0.57599223 14:0.97295505 15:0.48998955 16:0.5580678 17:0.5087319 18:0.66123509 19:0.7476365 20:0.71997923 21:0.6238305 22:0.58716083 23:0.91015857 24:0.50925791 25:0.59989172 26:0.58815771 27:0.77075124 28:0.74276972 29:0.71916783 30:0.63186896 31:0.61420172 32:0.51035929 33:0.56711477 34:0.58308983 35:0.76341212 #
0.00039777084121604027507762557647197 1:0.27644145 2:0.11207623 3:0.12171622 4:0.20705125 5:0.86244059 6:0.43809405 7:0.41179207 8:0.27821732 9:0.30177313 10:0.30365342 11:0.12294486 12:0.12390516 13:0.19523197 14:0.9119004 15:0.45411977 16:0.45647901 17:0.29646555 18:0.31531981 19:0.28309658 20:0.14320873 21:0.15142913 22:0.26288038 23:0.95984614 24:0.52101797 25:0.48226199 26:0.36105642 27:0.28808179 28:0.30468792 29:0.17876704 30:0.17941822 31:0.24284022 32:0.52417576 33:0.48945346 34:0.35543999 35:0.29672197 #
0.00039777084121604027507762557647197 1:0.9894008 2:0.58866227 3:0.53671217 4:0.46768376 5:0.65882361 6:0.46744037 7:0.40995979 8:0.49340937 9:0.93671167 10:0.55715501 11:0.49935174 12:0.42094991 13:0.76445556 14:0.33544421 15:0.38335177 16:0.47361615 17:0.95077258 18:0.9668979 19:0.70675772 20:0.64089423 21:0.55575889 22:0.65893584 23:0.50802642 24:0.52804947 25:0.63953412 26:0.95681006 27:0.94403887 28:0.67350435 29:0.60543317 30:0.49528524 31:0.82993913 32:0.42405632 33:0.5023129 34:0.57475924 35:0.92832434 #
-0.00039777084121604027507762557647197 1:0.49360529 2:0.33807036 3:0.49264801 4:0.52616113 5:0.92667145 6:0.46138388 7:0.38559738 8:0.26346007 9:0.45963594 10:0.5080362 11:0.40342531 12:0.56437701 13:0.59605742 14:0.84598625 15:0.54055649 16:0.44385904 17:0.32045928 18:0.47829378 19:0.53308523 20:0.40394011 21:0.57202566 22:0.58668524 23:0.50849897 24:0.43931603 25:0.31047609 26:0.52055198 27:0.57379568 28:0.48857415 29:0.62187928 30:0.67601073 31:0.91783094 32:0.58881551 33:0.48949867 34:0.3716476 35:0.54114854 #
0.00039777084121604027507762557647197 1:0.55564547 2:0.39400864 3:0.53218025 4:0.44858223 5:0.94240731 6:0.33428636 7:0.64817345 8:0.61349416 9:0.64196652 10:0.61000228 11:0.44090465 12:0.60186905 13:0.46165144 14:0.92380512 15:0.36893082 16:0.70976514 17:0.67024291 18:0.73133785 19:0.62783867 20:0.44048259 21:0.58308977 22:0.44626015 23:0.94818854 24:0.37797728 25:0.75552034 26:0.7179032 27:0.7624613 28:0.64563596 29:0.50916827 30:0.6589421 31:0.49452478 32:0.4043285 33:0.77466708 34:0.74819624 35:0.73649132 #
0.00039777084121604027507762557647197 1:0.58366829 2:0.33530238 3:0.28460592 4:0.34871671 5:0.93867576 6:0.54497492 7:0.60481954 8:0.62846047 9:0.660945 10:0.66895914 11:0.37260807 12:0.36316136 13:0.42082864 14:0.92888337 15:0.63051206 16:0.71371382 17:0.69270152 18:0.75148386 19:0.67239827 20:0.33300656 21:0.33193213 22:0.419792 23:0.6180414 24:0.64172614 25:0.68318081 26:0.75971675 27:0.70922506 28:0.36815426 29:0.3993369 30:0.48139414 31:0.90927088 32:0.68028015 33:0.74995518 34:0.74789697 35:0.8015914 #
-0.00039777084121604027507762557647197 1:0.70003307 2:0.48295084 3:0.57913226 4:0.47550309 5:0.90440464 6:0.24268872 7:0.27825397 8:0.25941277 9:0.62590075 10:0.69059485 11:0.51506042 12:0.56394708 13:0.50182468 14:0.89149332 15:0.29647073 16:0.34228262 17:0.3188493 18:0.62083608 19:0.6495223 20:0.47847605 21:0.58910418 22:0.44512761 23:0.86742777 24:0.25180724 25:0.2834647 26:0.27903399 27:0.61375922 28:0.77893353 29:0.54862738 30:0.64117312 31:0.57072771 32:0.32959837 33:0.32764125 34:0.36092085 35:0.758394 #
-0.00039777084121604027507762557647197 1:0.85950089 2:0.28662837 3:0.32933617 4:0.28521499 5:0.56960386 6:0.26892826 7:0.26614285 8:0.28023463 9:0.86956674 10:0.92654079 11:0.34283981 12:0.45755613 13:0.39292634 14:0.4687562 15:0.33215639 16:0.35010058 17:0.35581049 18:0.92262852 19:0.85460126 20:0.40143216 21:0.42391437 22:0.38556272 23:0.61755878 24:0.31950659 25:0.31364629 26:0.38254681 27:0.83830285 28:0.99579948 29:0.57001412 30:0.59925431 31:0.57344121 32:0.59184003 33:0.42088112 34:0.43130389 35:0.51828843 #
-0.00039777084121604027507762557647197 1:0.677311 2:0.5750379 3:0.66643965 4:0.60194892 5:0.94425261 6:0.43941635 7:0.41605893 8:0.39087507 9:0.59376204 10:0.68380624 11:0.51407212 12:0.54605943 13:0.49890545 14:0.42516759 15:0.40048593 16:0.41107219 17:0.6564185 18:0.71194452 19:0.60800648 20:0.68477488 21:0.55979598 22:0.84623086 23:0.43018281 24:0.41114226 25:0.40081602 26:0.6394214 27:0.72826809 28:0.55009615 29:0.59175175 30:0.53131181 31:0.99601305 32:0.44222361 33:0.42631257 34:0.42898008 35:0.69687903 #
0.00039777084121604027507762557647197 1:0.85610145 2:0.35616171 3:0.32284051 4:0.33882993 5:0.91536176 6:0.39890859 7:0.45201549 8:0.44649401 9:0.86636603 10:0.93207234 11:0.37661138 12:0.36634463 13:0.42691943 14:0.87776649 15:0.51314247 16:0.54822272 17:0.52408528 18:0.92388338 19:0.9063431 20:0.46556696 21:0.39255261 22:0.38563982 23:0.44791579 24:0.50846118 25:0.4968636 26:0.91422045 27:0.93742388 28:0.54935646 29:0.47469851 30:0.55202967 31:0.97429466 32:0.56099838 33:0.56895298 34:0.56253332 35:0.92268342 #
0.00039777084121604027507762557647197 1:0.66067988 2:0.36275333 3:0.38191989 4:0.53645289 5:0.88346928 6:0.60502887 7:0.63022512 8:0.54335946 9:0.69885802 10:0.75110912 11:0.47677612 12:0.45842564 13:0.54877478 14:0.87221181 15:0.63678843 16:0.6540693 17:0.58650798 18:0.76810229 19:0.63844234 20:0.42333102 21:0.46048668 22:0.64154965 23:0.71949041 24:0.66355485 25:0.58848011 26:0.68736815 27:0.71860594 28:0.55844843 29:0.54590821 30:0.63548291 31:0.93340623 32:0.70968276 33:0.72888625 34:0.63506651 35:0.70357561 #
0.00039777084121604027507762557647197 1:0.60444707 2:0.25608626 3:0.26158375 4:0.26359439 5:0.95905119 6:0.44199303 7:0.34227175 8:0.23247842 9:0.55782902 10:0.74262363 11:0.31519294 12:0.31564799 13:0.27360716 14:0.93962234 15:0.4908627 16:0.41080499 17:0.31567088 18:0.67711216 19:0.60724157 20:0.36311135 21:0.35140726 22:0.31586283 23:0.97188401 24:0.52860761 25:0.42556107 26:0.35329458 27:0.51038647 28:0.75314558 29:0.43321756 30:0.3978048 31:0.31502652 32:0.5417999 33:0.43344244 34:0.3205218 35:0.64047873 #
-0.00039777084121604027507762557647197 1:0.7914319 2:0.4040544 3:0.3892549 4:0.44423351 5:0.74618357 6:0.44684541 7:0.47224307 8:0.50858361 9:0.84625828 10:0.84093958 11:0.47615033 12:0.43405387 13:0.52115732 14:0.74568295 15:0.51072919 16:0.56937826 17:0.60871047 18:0.8884517 19:0.87119347 20:0.42163396 21:0.39896736 22:0.4579581 23:0.77600467 24:0.49492222 25:0.48710465 26:0.53996879 27:0.91100037 28:0.93387145 29:0.50675249 30:0.44591868 31:0.51936245 32:0.81042308 33:0.53210098 34:0.57720774 35:0.62637877 #
0.00039777084121604027507762557647197 1:0.94219977 2:0.39143357 3:0.40612063 4:0.31909963 5:0.61541516 6:0.2695215 7:0.33451071 8:0.31021059 9:0.93712276 10:0.990502 11:0.42886493 12:0.43705422 13:0.35805979 14:0.54617488 15:0.34025186 16:0.41805306 17:0.38669032 18:0.97744626 19:0.90848553 20:0.37134925 21:0.37933537 22:0.31734982 23:0.58867061 24:0.28989381 25:0.36785057 26:0.34678894 27:0.88941115 28:0.99029374 29:0.44937545 30:0.46427199 31:0.38117531 32:0.51123375 33:0.33478102 34:0.44413361 35:0.40913567 #
0.00039777084121604027507762557647197 1:0.82967782 2:0.35960492 3:0.34416613 4:0.28948537 5:0.54702532 6:0.2489249 7:0.31861401 8:0.30799043 9:0.82553065 10:0.87477094 11:0.39455557 12:0.38807917 13:0.32317302 14:0.5265342 15:0.27272993 16:0.35735026 17:0.35074392 18:0.87668139 19:0.99781924 20:0.38415039 21:0.3297849 22:0.2878724 23:0.56053847 24:0.25793159 25:0.34916314 26:0.37274516 27:0.98204058 28:0.40180665 29:0.37061918 30:0.31250522 31:0.50776827 32:0.26396805 33:0.36212873 34:0.37126943 35:0.9845981 #
0.00039777084121604027507762557647197 1:0.41836935 2:0.27971628 3:0.31239772 4:0.30848986 5:0.95591927 6:0.34496137 7:0.30371344 8:0.27526817 9:0.40410456 10:0.48018056 11:0.33398837 12:0.36974326 13:0.47967881 14:0.86359149 15:0.52367258 16:0.3855103 17:0.34618852 18:0.47119114 19:0.46478495 20:0.32163787 21:0.35668531 22:0.33462062 23:0.37598747 24:0.33560455 25:0.31106448 26:0.44670725 27:0.5006963 28:0.36525938 29:0.40410221 30:0.52854031 31:0.8561101 32:0.54754853 33:0.40101382 34:0.36478737 35:0.48352441 #
-0.00039777084121604027507762557647197 1:0.91249841 2:0.43997261 3:0.43576929 4:0.27759778 5:0.52208602 6:0.2260592 7:0.3423931 8:0.33620977 9:0.84541982 10:0.90902597 11:0.46558055 12:0.46414837 13:0.29500067 14:0.51023042 15:0.24491288 16:0.38706258 17:0.37549177 18:0.85311085 19:0.92986482 20:0.45684496 21:0.42591241 22:0.26970893 23:0.50678682 24:0.24237397 25:0.34455693 26:0.34871474 27:0.86827689 28:0.54695475 29:0.51238996 30:0.33669421 31:0.53106129 32:0.28349137 33:0.38760063 34:0.41439089 35:0.94591171 #
0.00039777084121604027507762557647197 1:0.73667544 2:0.40502721 3:0.39611822 4:0.48371208 5:0.90697432 6:0.55351293 7:0.4847059 8:0.48031712 9:0.73417944 10:0.77539706 11:0.46388686 12:0.44571367 13:0.46445432 14:0.83851236 15:0.49844566 16:0.57806718 17:0.60152578 18:0.79606086 19:0.76562548 20:0.46578643 21:0.439742 22:0.54598927 23:0.63096857 24:0.55045283 25:0.55353963 26:0.78217572 27:0.7884165 28:0.51424086 29:0.50327587 30:0.51602185 31:0.88274711 32:0.52082634 33:0.619654 34:0.6405189 35:0.8277272 #
-0.00039777084121604027507762557647197 1:0.87551332 2:0.69804639 3:0.51096797 4:0.38435689 5:0.49072137 6:0.2532981 7:0.28369761 8:0.41904527 9:0.78507018 10:0.95028228 11:0.73608589 12:0.54553229 13:0.3939046 14:0.51212436 15:0.25723469 16:0.30351955 17:0.46907327 18:0.84160161 19:0.92643577 20:0.6916033 21:0.53258818 22:0.42769557 23:0.53583461 24:0.29150248 25:0.37998745 26:0.50069851 27:0.8475374 28:0.73175722 29:0.57179016 30:0.45346284 31:0.56983936 32:0.29700664 33:0.39043319 34:0.51297605 35:0.90965301 #
0.00039777084121604027507762557647197 1:0.72125423 2:0.44601515 3:0.43240327 4:0.17767149 5:0.52180278 6:0.41036445 7:0.66727072 8:0.64352727 9:0.86254776 10:0.80314392 11:0.43426493 12:0.37884161 13:0.18111721 14:0.54188365 15:0.47368577 16:0.72885209 17:0.7324788 18:0.96284181 19:0.80419379 20:0.42003518 21:0.39685389 22:0.1903147 23:0.580378 24:0.4756135 25:0.74518299 26:0.7025134 27:0.96040374 28:0.84901357 29:0.47945985 30:0.43332952 31:0.20962843 32:0.5595091 33:0.50189203 34:0.75936216 35:0.72396147 #
-0.00039777084121604027507762557647197 1:0.61521524 2:0.39793313 3:0.38745758 4:0.33691606 5:0.75048256 6:0.34299722 7:0.45756057 8:0.49623045 9:0.67804539 10:0.64163327 11:0.38873696 12:0.35907689 13:0.34187496 14:0.90914494 15:0.34072897 16:0.46505243 17:0.50774992 18:0.72125387 19:0.68235457 20:0.43014762 21:0.43726435 22:0.39612868 23:0.78082234 24:0.38589072 25:0.49766201 26:0.5320369 27:0.74314713 28:0.68669879 29:0.42755744 30:0.42603379 31:0.39704478 32:0.37738904 33:0.50306731 34:0.5432294 35:0.74381262 #
0.00039777084121604027507762557647197 1:0.87786245 2:0.55598563 3:0.64371395 4:0.53667718 5:0.96740735 6:0.35991734 7:0.31967905 8:0.36184859 9:0.8343038 10:0.87430638 11:0.56811053 12:0.67256224 13:0.5618754 14:0.37951705 15:0.34454927 16:0.40426061 17:0.8467133 18:0.90198314 19:0.52493423 20:0.61761934 21:0.51137155 22:0.86554295 23:0.33593234 24:0.29999894 25:0.3147065 26:0.87478334 27:0.95782799 28:0.59219056 29:0.68499666 30:0.5571506 31:0.95951676 32:0.37909111 33:0.3275736 34:0.36131614 35:0.95005494 #
-0.00039777084121604027507762557647197 1:0.73447913 2:0.38749912 3:0.37857214 4:0.4219178 5:0.93327779 6:0.45070961 7:0.46226567 8:0.49266484 9:0.74380624 10:0.70001572 11:0.38616613 12:0.36484993 13:0.36194435 14:0.9352138 15:0.45069277 16:0.44859907 17:0.45283556 18:0.72017586 19:0.79798275 20:0.45185342 21:0.47064552 22:0.45742404 23:0.50125319 24:0.54041892 25:0.57244217 26:0.78704679 27:0.72049648 28:0.45349643 29:0.44831502 30:0.43185133 31:0.96370977 32:0.48827663 33:0.50894737 34:0.51607674 35:0.72050226 #
0.00039777084121604027507762557647197 1:0.64223653 2:0.41345748 3:0.37558275 4:0.49056178 5:0.88206106 6:0.46639305 7:0.44920701 8:0.41463786 9:0.62294477 10:0.67265087 11:0.38474908 12:0.34651884 13:0.45256129 14:0.99445677 15:0.51221925 16:0.48512265 17:0.50577796 18:0.68883383 19:0.74283469 20:0.4279094 21:0.40303233 22:0.52657866 23:0.90721887 24:0.51041186 25:0.44309515 26:0.38781652 27:0.71086025 28:0.77055085 29:0.40865389 30:0.37927821 31:0.49106517 32:0.49321344 33:0.42844778 34:0.40884182 35:0.74392712 #
-0.00039777084121604027507762557647197 1:0.82877105 2:0.49841312 3:0.51331025 4:0.37541348 5:0.70099294 6:0.3626264 7:0.44602332 8:0.48370737 9:0.82938808 10:0.85840708 11:0.4931145 12:0.51405746 13:0.33950102 14:0.70193136 15:0.37300247 16:0.48972607 17:0.53992403 18:0.83509475 19:0.89158762 20:0.55961186 21:0.56578034 22:0.39472628 23:0.67117399 24:0.36247021 25:0.4131017 26:0.45371273 27:0.91177917 28:0.97148257 29:0.52707595 30:0.54407865 31:0.36705351 32:0.67620784 33:0.36450431 34:0.47980675 35:0.53002739 #
0.00039777084121604027507762557647197 1:0.85954136 2:0.50474596 3:0.41642857 4:0.32851145 5:0.53275514 6:0.35657802 7:0.48961505 8:0.54784995 9:0.90071809 10:0.9439621 11:0.57216388 12:0.44785875 13:0.32536796 14:0.57186139 15:0.37500322 16:0.51939726 17:0.60242057 18:0.95954949 19:0.9231689 20:0.58305216 21:0.45934904 22:0.35649201 23:0.59501636 24:0.42605889 25:0.57114381 26:0.61752307 27:0.9586426 28:0.62960804 29:0.51735294 30:0.3725034 31:0.63326377 32:0.42914188 33:0.56089401 34:0.64115638 35:0.98733735 #
-0.00039777084121604027507762557647197 1:0.94454825 2:0.4900142 3:0.47545975 4:0.30528325 5:0.46539763 6:0.3571842 7:0.38817051 8:0.47530654 9:0.93329442 10:0.97708851 11:0.56201541 12:0.55456382 13:0.32485676 14:0.51028186 15:0.45877266 16:0.47615239 17:0.55260807 18:0.86607575 19:0.53945971 20:0.48968261 21:0.3142572 22:0.45463362 23:0.38617861 24:0.36845791 25:0.43039101 26:0.85783386 27:0.88535416 28:0.66972053 29:0.59710532 30:0.32056218 31:0.52336448 32:0.41943634 33:0.41463029 34:0.48484781 35:0.89415383 #
0.00039777084121604027507762557647197 1:0.52975023 2:0.28584719 3:0.43956971 4:0.58992237 5:0.96479189 6:0.5666365 7:0.42313603 8:0.3491694 9:0.51318276 10:0.5109629 11:0.31024042 12:0.48021638 13:0.618424 14:0.87889433 15:0.54913664 16:0.40418181 17:0.34319118 18:0.50258118 19:0.46588713 20:0.29890919 21:0.48455909 22:0.65133595 23:0.62062925 24:0.5026682 25:0.39865312 26:0.46156326 27:0.48198515 28:0.36266735 29:0.543778 30:0.6708523 31:0.90773934 32:0.60243541 33:0.51465327 34:0.39828065 35:0.48747393 #
0.00039777084121604027507762557647197 1:0.90051228 2:0.4144035 3:0.45610747 4:0.35949644 5:0.57431209 6:0.35621011 7:0.39313534 8:0.48858681 9:0.96669167 10:0.9485085 11:0.45245332 12:0.4575375 13:0.39179403 14:0.6192252 15:0.39262062 16:0.46201551 17:0.54174608 18:0.93166131 19:0.46950254 20:0.50759006 21:0.41485682 22:0.58632416 23:0.41619372 24:0.51341307 25:0.61564946 26:0.99004805 27:0.90233111 28:0.51867473 29:0.49378571 30:0.42534393 31:0.63967556 32:0.42566013 33:0.48093104 34:0.6106869 35:0.94228309 #
-0.00039777084121604027507762557647197 1:0.51888758 2:0.3187739 3:0.43513325 4:0.44940746 5:0.97064066 6:0.46804571 7:0.47997653 8:0.48580161 9:0.6018793 10:0.65679801 11:0.42322236 12:0.55339998 13:0.53210974 14:0.90614516 15:0.6380204 16:0.64175004 17:0.65781367 18:0.76938993 19:0.59611452 20:0.3591547 21:0.48369896 22:0.45093653 23:0.46770957 24:0.53767186 25:0.50229073 26:0.7122336 27:0.71949589 28:0.45756727 29:0.59524781 30:0.53751898 31:0.92016345 32:0.64577729 33:0.63383305 34:0.64775872 35:0.82100803 #
-0.00039777084121604027507762557647197 1:0.92723507 2:0.3147372 3:0.37290791 4:0.23429966 5:0.48220265 6:0.26730084 7:0.35840613 8:0.35894716 9:0.95533442 10:0.93441111 11:0.32965413 12:0.35206145 13:0.22888574 14:0.6396389 15:0.2737098 16:0.33507854 17:0.36611956 18:0.9772796 19:0.4017112 20:0.43663868 21:0.3086729 22:0.64407694 23:0.30983859 24:0.44499305 25:0.42586157 26:0.99023032 27:0.92043728 28:0.36730397 29:0.39406645 30:0.28753862 31:0.71902114 32:0.32704192 33:0.39471588 34:0.41925293 35:0.94386744 #
0.00039777084121604027507762557647197 1:0.73722482 2:0.5443753 3:0.60214257 4:0.30463445 5:0.63083053 6:0.44380334 7:0.65272629 8:0.60453427 9:0.87608969 10:0.80043715 11:0.5172686 12:0.57089144 13:0.3005107 14:0.66784602 15:0.42578766 16:0.64630914 17:0.66706538 18:0.88176984 19:0.76145649 20:0.5494619 21:0.57419848 22:0.32887238 23:0.62524831 24:0.52670324 25:0.68951756 26:0.65659243 27:0.88818258 28:0.86758322 29:0.57705671 30:0.61088955 31:0.37986484 32:0.71406734 33:0.45749816 34:0.68509132 35:0.70624441 #
-0.00039777084121604027507762557647197 1:0.84726846 2:0.51713365 3:0.50831378 4:0.36862722 5:0.60528523 6:0.34788424 7:0.46202832 8:0.50555068 9:0.86691982 10:0.8833034 11:0.54800177 12:0.59264106 13:0.35564008 14:0.61397046 15:0.35306734 16:0.49706441 17:0.53979963 18:0.90932542 19:0.93859613 20:0.52216172 21:0.57570219 22:0.39007515 23:0.62851173 24:0.41526356 25:0.55073076 26:0.57620269 27:0.94754755 28:0.97765076 29:0.59238058 30:0.65949601 31:0.40353587 32:0.64050347 33:0.4172281 34:0.62407488 35:0.6328072 #
-0.00039777084121604027507762557647197 1:0.7143048 2:0.48661569 3:0.45913303 4:0.29599264 5:0.65212196 6:0.36109784 7:0.46444255 8:0.58218962 9:0.7445032 10:0.83202666 11:0.57919317 12:0.55618042 13:0.3667208 14:0.58038926 15:0.45776665 16:0.59261346 17:0.71921772 18:0.89107013 19:0.84785414 20:0.51929295 21:0.48400158 22:0.30500194 23:0.6422807 24:0.40216833 25:0.45928419 26:0.56961745 27:0.85828733 28:0.99477959 29:0.60387969 30:0.58772135 31:0.39456978 32:0.59578741 33:0.5178864 34:0.58658528 35:0.67590189 #
-0.00039777084121604027507762557647197 1:0.97560495 2:0.63622451 3:0.82494491 4:0.54208088 5:0.76904535 6:0.33321002 7:0.42819378 8:0.40591049 9:0.88392919 10:0.66599095 11:0.89944971 12:0.54805809 13:0.81325418 14:0.35761517 15:0.43825552 16:0.44409168 17:0.89044386 18:0.95174378 19:0.6521678 20:0.84989685 21:0.58624756 22:0.80084932 23:0.37946805 24:0.4742983 25:0.4755564 26:0.85471457 27:0.99582046 28:0.72492278 29:0.89565778 30:0.64880842 31:0.86645335 32:0.40571189 33:0.51251829 34:0.53252965 35:0.89106882 #
-0.00039777084121604027507762557647197 1:0.79228902 2:0.60344803 3:0.63240981 4:0.54017574 5:0.79764897 6:0.48026082 7:0.52641892 8:0.51763618 9:0.85718012 10:0.78063756 11:0.60157132 12:0.6334182 13:0.52384436 14:0.80567187 15:0.48157972 16:0.56019604 17:0.55967247 18:0.84202272 19:0.8841207 20:0.5332582 21:0.56100023 22:0.45454299 23:0.77991092 24:0.4175078 25:0.44785723 26:0.44533637 27:0.94523466 28:0.91728115 29:0.5355047 30:0.57913548 31:0.50401986 32:0.77789026 33:0.45435479 34:0.53022647 35:0.52421296 #
0.00038855221608400931747329121179746 1:0.90197271 2:0.30203667 3:0.2410852 4:0.25386038 5:0.33409685 6:0.26121023 7:0.33309594 8:0.3742196 9:0.93312871 10:0.95883542 11:0.34286472 12:0.29382855 13:0.30538923 14:0.36458009 15:0.26479328 16:0.2865538 17:0.40305477 18:0.96586823 19:0.99058104 20:0.31929642 21:0.22614817 22:0.22948381 23:0.32246482 24:0.26961124 25:0.37370726 26:0.40296808 27:0.9718067 28:0.38882959 29:0.24208763 30:0.26364601 31:0.34584519 32:0.27124473 33:0.35992324 34:0.44483736 35:0.99238265 #
-3.9645780420713666418464082852324e-05 1:0.78579307 2:0.68331975 3:0.88404512 4:0.75294644 5:0.92261672 6:0.48101062 7:0.41319984 8:0.36204368 9:0.63415658 10:0.75320071 11:0.7213304 12:0.94580573 13:0.81934273 14:0.97667122 15:0.51880252 16:0.46095195 17:0.39428326 18:0.62162697 19:0.91448975 20:0.740906 21:0.89932668 22:0.76077354 23:0.94937533 24:0.52767134 25:0.38594419 26:0.32498771 27:0.7457813 28:0.93466532 29:0.73188102 30:0.95419866 31:0.81250739 32:0.48805141 33:0.39295065 34:0.31436652 35:0.77855951 #
0.00039777084121604027507762557647197 1:0.42021731 2:0.28031236 3:0.32171184 4:0.37865776 5:0.97464371 6:0.48207051 7:0.39097455 8:0.30260774 9:0.39778942 10:0.45829371 11:0.28929138 12:0.32665333 13:0.35068643 14:0.93746722 15:0.49534714 16:0.42548111 17:0.35640666 18:0.43781644 19:0.45930317 20:0.29816923 21:0.34489277 22:0.41080686 23:0.52030426 24:0.42357647 25:0.3180252 26:0.44150689 27:0.51133686 28:0.32953987 29:0.34838507 30:0.39109296 31:0.95924717 32:0.53595287 33:0.42202809 34:0.33577815 35:0.47390252 #
-0.00039777084121604027507762557647197 1:0.91267383 2:0.38649607 3:0.3722786 4:0.22695409 5:0.37099934 6:0.25289524 7:0.30945417 8:0.37786224 9:0.8904624 10:0.95292276 11:0.42560163 12:0.42075685 13:0.30376816 14:0.36854553 15:0.32660609 16:0.37909877 17:0.41488802 18:0.91563171 19:0.9838593 20:0.45104375 21:0.44058797 22:0.32136336 23:0.50114584 24:0.3671906 25:0.43086851 26:0.42340147 27:0.98369527 28:0.49221966 29:0.51360226 30:0.42876112 31:0.48442075 32:0.43546525 33:0.4919655 34:0.47635487 35:0.96353835 #
0.00039777084121604027507762557647197 1:0.65209961 2:0.84996074 3:0.8852573 4:0.45951489 5:0.658023 6:0.37414163 7:0.56553471 8:0.4323779 9:0.51097345 10:0.65601945 11:0.85240126 12:0.94057721 13:0.54624677 14:0.61692983 15:0.45649293 16:0.59368253 17:0.44413334 18:0.5456301 19:0.59804505 20:0.88091731 21:0.97326988 22:0.50001079 23:0.68987703 24:0.43549669 25:0.57326686 26:0.46819133 27:0.49046507 28:0.69967484 29:0.89583045 30:0.59886634 31:0.70507783 32:0.52165419 33:0.68074173 34:0.49066052 35:0.55588025 #
-0.00039777084121604027507762557647197 1:0.94134551 2:0.43144894 3:0.40300438 4:0.29257816 5:0.42740327 6:0.21794313 7:0.37105381 8:0.42445689 9:0.9328289 10:0.49895662 11:0.47521392 12:0.32917634 13:0.39551479 14:0.23108926 15:0.3871488 16:0.45377907 17:0.97585607 18:0.87278503 19:0.49929723 20:0.44136456 21:0.30613562 22:0.45804477 23:0.24310137 24:0.44565019 25:0.54373288 26:0.87248093 27:0.98046798 28:0.60329562 29:0.55105406 30:0.39264822 31:0.45141685 32:0.29232186 33:0.48077598 34:0.59301203 35:0.97383362 #
0.00039777084121604027507762557647197 1:0.85062993 2:0.37712345 3:0.38142139 4:0.31047222 5:0.74747914 6:0.33640957 7:0.3860524 8:0.4289189 9:0.8498652 10:0.96945149 11:0.50873739 12:0.50571704 13:0.42997321 14:0.63927895 15:0.47788358 16:0.53885335 17:0.5927512 18:0.96346211 19:0.89564401 20:0.46508348 21:0.4836176 22:0.37729257 23:0.84210855 24:0.42939779 25:0.45754319 26:0.53779256 27:0.92157805 28:0.97629112 29:0.60828584 30:0.59947771 31:0.46870813 32:0.72699314 33:0.54791367 34:0.5565992 35:0.64806527 #
-0.00039777084121604027507762557647197 1:0.54946572 2:0.52980781 3:0.46842623 4:0.49879313 5:0.8420527 6:0.45840511 7:0.42776251 8:0.3373197 9:0.52091855 10:0.62545949 11:0.55099082 12:0.45999008 13:0.43964565 14:0.95745111 15:0.4154596 16:0.42768356 17:0.37485468 18:0.5915463 19:0.55484384 20:0.56061006 21:0.52898121 22:0.53755641 23:0.90634453 24:0.48236868 25:0.46658733 26:0.3832396 27:0.53003049 28:0.65090388 29:0.56359661 30:0.5048641 31:0.51009423 32:0.45907092 33:0.47722039 34:0.43376258 35:0.60374284 #
-0.00039777084121604027507762557647197 1:0.92122716 2:0.5535689 3:0.52647001 4:0.36154571 5:0.87342829 6:0.30094832 7:0.29296783 8:0.34511435 9:0.88068634 10:0.95025182 11:0.63743609 12:0.60583204 13:0.41459709 14:0.79264754 15:0.39818975 16:0.42615011 17:0.42479441 18:0.86258125 19:0.90763783 20:0.51733083 21:0.49311849 22:0.3286036 23:0.81189227 24:0.26877466 25:0.26948914 26:0.31632259 27:0.88625842 28:0.57895559 29:0.53093582 30:0.37964794 31:0.76531756 32:0.3253814 33:0.35438445 34:0.38941991 35:0.94188768 #
0.00039777084121604027507762557647197 1:0.92777562 2:0.59127384 3:0.63430065 4:0.37308469 5:0.5773223 6:0.30602106 7:0.48836979 8:0.49681827 9:0.93013978 10:0.95677447 11:0.58762789 12:0.64967012 13:0.38068715 14:0.60549366 15:0.36890763 16:0.56491238 17:0.56626958 18:0.96660274 19:0.92973965 20:0.562042 21:0.60841131 22:0.37363681 23:0.61704987 24:0.35959664 25:0.55309629 26:0.55556494 27:0.92613053 28:0.9922536 29:0.63596112 30:0.69280404 31:0.4233239 32:0.62466335 33:0.35692888 34:0.5555107 35:0.56338722 #
-0.00039777084121604027507762557647197 1:0.88625413 2:0.50123894 3:0.36984569 4:0.29345343 5:0.41378173 6:0.33818659 7:0.40163961 8:0.5633595 9:0.90185583 10:0.97856241 11:0.54838413 12:0.40137541 13:0.3496733 14:0.39586824 15:0.48037958 16:0.52287447 17:0.69945872 18:0.94562823 19:0.90464431 20:0.52150196 21:0.35638824 22:0.2954686 23:0.43405911 24:0.38490221 25:0.50575399 26:0.60248888 27:0.97334069 28:0.95835406 29:0.57745177 30:0.42010105 31:0.35083595 32:0.44091755 33:0.47615671 34:0.6387676 35:0.69011545 #
-0.00039777084121604027507762557647197 1:0.79867798 2:0.51518565 3:0.4961476 4:0.36233115 5:0.54492009 6:0.32397947 7:0.37514105 8:0.51158977 9:0.80248868 10:0.82878828 11:0.59113765 12:0.5216589 13:0.45461667 14:0.53214633 15:0.44924527 16:0.44720799 17:0.57559979 18:0.84374237 19:0.90253913 20:0.36041746 21:0.41437224 22:0.35041401 23:0.53844106 24:0.2955558 25:0.4028084 26:0.47327867 27:0.94924903 28:0.98668432 29:0.40861249 30:0.42859352 31:0.4273769 32:0.54754555 33:0.39658222 34:0.44770369 35:0.49946401 #
0.00039777084121604027507762557647197 1:0.89164037 2:0.22155786 3:0.22447239 4:0.28090519 5:0.90427268 6:0.44447702 7:0.41661027 8:0.40138623 9:0.89301759 10:0.95308459 11:0.25761291 12:0.22794302 13:0.25123429 14:0.91467756 15:0.43521401 16:0.44414246 17:0.47310877 18:0.96203369 19:0.94427335 20:0.22108425 21:0.26012403 22:0.33011717 23:0.94215143 24:0.50415522 25:0.46110207 26:0.45207819 27:0.94582909 28:0.9714424 29:0.26163441 30:0.23726602 31:0.28709012 32:0.95586497 33:0.46594846 34:0.46862152 35:0.5077523 #
-0.00039777084121604027507762557647197 1:0.59335655 2:0.54190654 3:0.35072792 4:0.59163529 5:0.18639454 6:0.26750886 7:0.30676827 8:0.91655576 9:0.98327059 10:0.58350301 11:0.53571188 12:0.32471582 13:0.59335577 14:0.18752339 15:0.28266266 16:0.32756746 17:0.89692765 18:0.93889558 19:0.63524705 20:0.57312268 21:0.37170243 22:0.62493843 23:0.23291236 24:0.31537423 25:0.36586344 26:0.84285265 27:0.9667573 28:0.71198714 29:0.63306761 30:0.39265519 31:0.73445487 32:0.21860126 33:0.33211082 34:0.38829741 35:0.90376461 #
-0.00039777084121604027507762557647197 1:0.84176457 2:0.37385246 3:0.30946532 4:0.26653132 5:0.63414335 6:0.37905288 7:0.47077915 8:0.45073405 9:0.89422423 10:0.87547177 11:0.42643681 12:0.37207329 13:0.32540944 14:0.61378872 15:0.46725377 16:0.52819538 17:0.52783835 18:0.96735448 19:0.85801792 20:0.36352772 21:0.31028798 22:0.27939656 23:0.6777764 24:0.40590695 25:0.48695159 26:0.44280115 27:0.94097072 28:0.9258368 29:0.42236871 30:0.39857146 31:0.34159967 32:0.65674758 33:0.46940491 34:0.52395135 35:0.51314545 #
-0.00039777084121604027507762557647197 1:0.76346636 2:0.41082725 3:0.36251679 4:0.25595334 5:0.64596373 6:0.3198303 7:0.50837237 8:0.58942294 9:0.87278032 10:0.84417063 11:0.46877697 12:0.42224437 13:0.31133732 14:0.59853262 15:0.3863126 16:0.57096195 17:0.64028531 18:0.94011694 19:0.80507219 20:0.48176953 21:0.42371514 22:0.29188594 23:0.70627308 24:0.37111005 25:0.59840852 26:0.66586971 27:0.93936169 28:0.89234346 29:0.53873682 30:0.47951627 31:0.35572448 32:0.66943002 33:0.46273881 34:0.66151416 35:0.73928112 #
0.00039777084121604027507762557647197 1:0.67689782 2:0.38579321 3:0.36834404 4:0.32692251 5:0.96621865 6:0.36335084 7:0.33657476 8:0.3407391 9:0.67494684 10:0.76835263 11:0.4870317 12:0.48112264 13:0.51039785 14:0.56699646 15:0.48346949 16:0.44932669 17:0.76515049 18:0.67193902 19:0.42946935 20:0.41074708 21:0.35198453 22:0.97529387 23:0.39379048 24:0.37934577 25:0.39689523 26:0.68879861 27:0.82706237 28:0.63826895 29:0.58826983 30:0.62006152 31:0.98715192 32:0.6254909 33:0.51782322 34:0.50135946 35:0.79082185 #
0.00039777084121604027507762557647197 1:0.94722223 2:0.38883948 3:0.41335416 4:0.27766651 5:0.39924005 6:0.28859296 7:0.39225435 8:0.39381614 9:0.95620155 10:0.43719029 11:0.44592044 12:0.30035713 13:0.39820734 14:0.33481759 15:0.43449125 16:0.44193104 17:0.99710512 18:0.92255509 19:0.4092361 20:0.44846144 21:0.3217428 22:0.43503562 23:0.33982745 24:0.42316827 25:0.43314144 26:0.94799161 27:0.98216391 28:0.47854125 29:0.5007962 30:0.34888768 31:0.45991606 32:0.3711043 33:0.48651791 34:0.49850523 35:0.99019796 #
0.00039777084121604027507762557647197 1:0.88250393 2:0.5770421 3:0.59458357 4:0.38009945 5:0.86784613 6:0.277004 7:0.29510778 8:0.32999253 9:0.80310309 10:0.84996253 11:0.56762308 12:0.55265898 13:0.36069563 14:0.82818776 15:0.29866955 16:0.29063135 17:0.33358157 18:0.77725607 19:0.84512508 20:0.54202628 21:0.54364318 22:0.32792762 23:0.79823738 24:0.25109744 25:0.27765325 26:0.31588989 27:0.77628767 28:0.67688972 29:0.66616035 30:0.44725153 31:0.89246714 32:0.32771653 33:0.34807703 34:0.40570989 35:0.90448326 #
-0.00039777084121604027507762557647197 1:0.68682969 2:0.50955033 3:0.58828223 4:0.63247532 5:0.96017075 6:0.44226831 7:0.49386343 8:0.410265 9:0.63407409 10:0.71061569 11:0.48508674 12:0.51797646 13:0.47214007 14:0.38596964 15:0.52853101 16:0.47370207 17:0.67268032 18:0.71572983 19:0.45935681 20:0.52782428 21:0.60889363 22:0.91961759 23:0.42251948 24:0.44154057 25:0.36276913 26:0.65133858 27:0.80712157 28:0.47147611 29:0.52528846 30:0.50804627 31:0.9728269 32:0.41569057 33:0.50158399 34:0.45298424 35:0.77298927 #
-0.00039777084121604027507762557647197 1:0.61403865 2:0.34695098 3:0.32923323 4:0.37355599 5:0.91237068 6:0.40725011 7:0.45863661 8:0.38945794 9:0.68757141 10:0.74058783 11:0.48343128 12:0.43916354 13:0.45258495 14:0.85447758 15:0.5517382 16:0.59779638 17:0.50242668 18:0.87563688 19:0.67981905 20:0.396218 21:0.3434943 22:0.45062062 23:0.42473578 24:0.49549407 25:0.4399699 26:0.72012055 27:0.74682772 28:0.48331067 29:0.40253925 30:0.48168433 31:0.85994726 32:0.52541387 33:0.55931538 34:0.50356197 35:0.80046505 #
0.00039777084121604027507762557647197 1:0.79782927 2:0.85515207 3:0.33945128 4:0.64093113 5:0.19470999 6:0.27444381 7:0.26263425 8:0.87225181 9:0.96803129 10:0.76053065 11:0.83487016 12:0.36643666 13:0.69474965 14:0.20959499 15:0.31311598 16:0.30884764 17:0.86090219 18:0.91239303 19:0.75476563 20:0.83664209 21:0.4067139 22:0.65254748 23:0.25711811 24:0.33443788 25:0.32529283 26:0.78843892 27:0.96048528 28:0.8056742 29:0.85622025 30:0.43810925 31:0.75719261 32:0.24337067 33:0.35154703 34:0.34452969 35:0.81187224 #
0.00039777084121604027507762557647197 1:0.91808647 2:0.4526594 3:0.42328364 4:0.35993361 5:0.43189827 6:0.3934918 7:0.41977763 8:0.63850361 9:0.97091031 10:0.95768934 11:0.49830988 12:0.44051018 13:0.35122809 14:0.52536142 15:0.38629425 16:0.47329998 17:0.66575962 18:0.97479016 19:0.9459129 20:0.51559436 21:0.50356257 22:0.43144891 23:0.4497987 24:0.46601325 25:0.47081599 26:0.66861916 27:0.98139608 28:0.94056374 29:0.56965667 30:0.53612328 31:0.42889032 32:0.53519559 33:0.4555524 34:0.51835454 35:0.72932774 #
-0.00039777084121604027507762557647197 1:0.58426607 2:0.12316962 3:0.28507671 4:0.25890586 5:0.93786108 6:0.42285928 7:0.69556671 8:0.44125128 9:0.68799162 10:0.75644577 11:0.14112221 12:0.43400094 13:0.41781789 14:0.96194261 15:0.56482238 16:0.85144144 17:0.58977127 18:0.88831198 19:0.68780082 20:0.13610831 21:0.31115094 22:0.30579263 23:0.46871474 24:0.69658595 25:0.50078303 26:0.80771834 27:0.72946769 28:0.15929745 29:0.41991094 30:0.42480582 31:0.81779295 32:0.50617474 33:0.80144882 34:0.50332338 35:0.86258781 #
-0.00039777084121604027507762557647197 1:0.60670906 2:0.35849074 3:0.4508504 4:0.54117 5:0.9456495 6:0.59527487 7:0.62219626 8:0.48571041 9:0.57685095 10:0.70160878 11:0.36159408 12:0.47314209 13:0.51442236 14:0.93335593 15:0.56816179 16:0.6234569 17:0.54354018 18:0.67671674 19:0.6260218 20:0.3747384 21:0.52554405 22:0.60931104 23:0.6436131 24:0.68311548 25:0.5551548 26:0.63334233 27:0.72236478 28:0.38127923 29:0.52913356 30:0.60488808 31:0.99143726 32:0.61836368 33:0.72418058 34:0.6289984 35:0.73897636 #
-0.00039777084121604027507762557647197 1:0.73334926 2:0.32362977 3:0.37501687 4:0.37982392 5:0.90676439 6:0.46951073 7:0.50321054 8:0.51719105 9:0.75149173 10:0.78094488 11:0.38074979 12:0.44018763 13:0.47198209 14:0.77724624 15:0.56306875 16:0.63066816 17:0.65487468 18:0.80819541 19:0.666538 20:0.35426417 21:0.44567931 22:0.43517861 23:0.48879156 24:0.50883633 25:0.46478909 26:0.70310664 27:0.71543187 28:0.40950674 29:0.45403188 30:0.54538417 31:0.81652427 32:0.60158008 33:0.59655225 34:0.55155534 35:0.72623348 #
0.00039777084121604027507762557647197 1:0.87590665 2:0.55455571 3:0.39339301 4:0.34358674 5:0.485533 6:0.47699741 7:0.43881026 8:0.47041163 9:0.87020844 10:0.93499494 11:0.56433916 12:0.40015447 13:0.32289666 14:0.51617008 15:0.51767695 16:0.51534808 17:0.5357669 18:0.93243587 19:0.90245438 20:0.59541702 21:0.40740496 22:0.36433965 23:0.49812835 24:0.51260877 25:0.47598669 26:0.49425319 27:0.91123366 28:0.9665274 29:0.63061732 30:0.44932675 31:0.34368119 32:0.55633223 33:0.53494227 34:0.54474616 35:0.58129978 #
0.00039777084121604027507762557647197 1:0.86501908 2:0.55005097 3:0.49802956 4:0.3962073 5:0.43135688 6:0.32005453 7:0.36669505 8:0.44593048 9:0.83374959 10:0.91944182 11:0.60524583 12:0.56745178 13:0.4509089 14:0.45166939 15:0.35873824 16:0.41385743 17:0.50349772 18:0.89021075 19:0.95174879 20:0.60545486 21:0.55805826 22:0.44801697 23:0.47946361 24:0.36219677 25:0.42497367 26:0.51301467 27:0.91427165 28:0.67964715 29:0.63998622 30:0.51512891 31:0.52258736 32:0.40842158 33:0.47100967 34:0.57080925 35:0.96800846 #
0.00039777084121604027507762557647197 1:0.85218626 2:0.58155715 3:0.46104881 4:0.35766822 5:0.51016265 6:0.28058341 7:0.36091194 8:0.43178609 9:0.807908 10:0.95458961 11:0.66181898 12:0.5330953 13:0.40593648 14:0.45007536 15:0.32036838 16:0.42668635 17:0.49156588 18:0.87228441 19:0.89395642 20:0.63468903 21:0.52654952 22:0.36965486 23:0.52150941 24:0.29879048 25:0.38210139 26:0.46101311 27:0.83995199 28:0.74998379 29:0.63892037 30:0.45278627 31:0.50945234 32:0.36126697 33:0.4882662 34:0.54588217 35:0.93321604 #
0.00039777084121604027507762557647197 1:0.42035937 2:0.29737231 3:0.3374922 4:0.35888752 5:0.96511078 6:0.51378417 7:0.47876108 8:0.37851 9:0.46899012 10:0.50589722 11:0.37645003 12:0.413912 13:0.46972501 14:0.93756032 15:0.63853639 16:0.58978444 17:0.49119881 18:0.5856148 19:0.50281769 20:0.32269597 21:0.36226428 22:0.40379837 23:0.56665927 24:0.53264463 25:0.43876034 26:0.55298305 27:0.54833114 28:0.38934317 29:0.43552306 30:0.48887786 31:0.88311923 32:0.66217101 33:0.62671399 34:0.49774507 35:0.6153267 #
-0.00039777084121604027507762557647197 1:0.86461747 2:0.59969908 3:0.69152117 4:0.42633578 5:0.8223533 6:0.31870481 7:0.42324689 8:0.34690425 9:0.76306063 10:0.86521524 11:0.56164718 12:0.6154381 13:0.40546554 14:0.94121188 15:0.32875332 16:0.40514266 17:0.375218 18:0.74971193 19:0.83915806 20:0.67084008 21:0.69125026 22:0.46756557 23:0.86118084 24:0.37036666 25:0.46232155 26:0.38777372 27:0.76266789 28:0.87587547 29:0.62160087 30:0.65203464 31:0.51177984 32:0.38718766 33:0.46231109 34:0.42472804 35:0.79372293 #
0.00039777084121604027507762557647197 1:0.47392985 2:0.41092777 3:0.42676896 4:0.38456637 5:0.95273536 6:0.50076592 7:0.50080949 8:0.37428582 9:0.46831575 10:0.55926853 11:0.45837402 12:0.47641611 13:0.43990448 14:0.90030062 15:0.59328908 16:0.61551112 17:0.46730706 18:0.5484674 19:0.5220446 20:0.4531019 21:0.48656887 22:0.4258917 23:0.57079703 24:0.56921214 25:0.42874023 26:0.51458228 27:0.59793162 28:0.49627048 29:0.51182199 30:0.46867913 31:0.90708846 32:0.63609517 33:0.65016341 34:0.50157404 35:0.58587694 #
-0.00039777084121604027507762557647197 1:0.99178427 2:0.52867466 3:0.50957781 4:0.36753345 5:0.66143179 6:0.30898115 7:0.40399912 8:0.454301 9:0.96740711 10:0.93683332 11:0.54238868 12:0.52150804 13:0.36746535 14:0.71537256 15:0.32335928 16:0.40723506 17:0.48398486 18:0.91221666 19:0.98329991 20:0.58256119 21:0.56804115 22:0.38632819 23:0.74352574 24:0.39179322 25:0.50920409 26:0.53051859 27:0.94418359 28:0.62256384 29:0.66908538 30:0.44965357 31:0.85766214 32:0.42787984 33:0.53296536 34:0.57783848 35:0.9430033 #
-0.00039777084121604027507762557647197 1:0.9310621 2:0.5882526 3:0.57285935 4:0.43401274 5:0.83209783 6:0.35997006 7:0.37142223 8:0.38095149 9:0.81929833 10:0.89247388 11:0.52460063 12:0.54828995 13:0.40590972 14:0.84157407 15:0.39978644 16:0.41398725 17:0.45523345 18:0.77824026 19:0.93980753 20:0.52990985 21:0.59290087 22:0.41375038 23:0.81324351 24:0.38255847 25:0.34383148 26:0.39311352 27:0.84605199 28:0.58871472 29:0.65830886 30:0.4398438 31:0.83399868 32:0.41935441 33:0.35546333 34:0.42406622 35:0.88672286 #
0.00039777084121604027507762557647197 1:0.47515678 2:0.26373804 3:0.2624332 4:0.32923242 5:0.94961959 6:0.50948769 7:0.47373945 8:0.38012466 9:0.49649873 10:0.57486582 11:0.33508793 12:0.33943269 13:0.45951614 14:0.91029549 15:0.63028175 16:0.55187827 17:0.44834805 18:0.6079762 19:0.47578955 20:0.30747429 21:0.32285717 22:0.38924137 23:0.54534018 24:0.52150047 25:0.434187 26:0.50969863 27:0.56003976 28:0.38672397 29:0.39927265 30:0.52309847 31:0.89489752 32:0.67500609 33:0.57748801 34:0.48261657 35:0.60884041 #
0.00039777084121604027507762557647197 1:0.46965107 2:0.368826 3:0.47507265 4:0.49951544 5:0.8735705 6:0.36744767 7:0.4450908 8:0.49325249 9:0.54421443 10:0.53244328 11:0.35571051 12:0.36529317 13:0.43369067 14:0.41489801 15:0.44109964 16:0.50204045 17:0.60056859 18:0.53024292 19:0.35159326 20:0.43684626 21:0.531115 22:0.8469252 23:0.39324123 24:0.47088414 25:0.51156533 26:0.62466305 27:0.56863403 28:0.35963836 29:0.37728348 30:0.46156931 31:0.9970746 32:0.44607285 33:0.46051115 34:0.51204187 35:0.66774851 #
-0.00039777084121604027507762557647197 1:0.91083145 2:0.44119254 3:0.433422 4:0.26525646 5:0.76742232 6:0.23495983 7:0.3716203 8:0.43287745 9:0.89084268 10:0.98903936 11:0.54404008 12:0.57929254 13:0.41821748 14:0.54612237 15:0.37012997 16:0.48973691 17:0.5351932 18:0.98475695 19:0.92449087 20:0.49867859 21:0.51407516 22:0.30448726 23:0.82571751 24:0.30075234 25:0.52990097 26:0.55772859 27:0.85536611 28:0.68051463 29:0.6700483 30:0.48848704 31:0.61390704 32:0.43034139 33:0.63412678 34:0.69787991 35:0.98999292 #
-0.00039777084121604027507762557647197 1:0.72104001 2:0.39157513 3:0.39280677 4:0.26553431 5:0.70568019 6:0.2894915 7:0.47307205 8:0.47786304 9:0.7634182 10:0.83839107 11:0.49457541 12:0.51220119 13:0.3880856 14:0.65676075 15:0.37449089 16:0.59266627 17:0.58839315 18:0.88246477 19:0.80600083 20:0.45510358 21:0.43091711 22:0.30537277 23:0.77269423 24:0.32732412 25:0.53281051 26:0.55125713 27:0.86696303 28:0.9223364 29:0.57287031 30:0.56386662 31:0.4232071 32:0.72539538 33:0.41394547 34:0.6345377 35:0.68380445 #
-0.00039777084121604027507762557647197 1:0.97619474 2:0.4100771 3:0.42652425 4:0.2964282 5:0.77664471 6:0.2756241 7:0.35436204 8:0.36943045 9:0.94174325 10:0.4572134 11:0.50131363 12:0.29923207 13:0.81458074 14:0.3034856 15:0.46099696 16:0.49246773 17:0.98397511 18:0.9275862 19:0.46339789 20:0.47814459 21:0.32244617 22:0.8281436 23:0.31498584 24:0.38654619 25:0.41804159 26:0.90287912 27:0.95885676 28:0.54114264 29:0.56400758 30:0.37361607 31:0.8937645 32:0.34381747 33:0.42741126 34:0.45965874 35:0.95649552 #
0.00039777084121604027507762557647197 1:0.90350389 2:0.34590232 3:0.31198838 4:0.29096889 5:0.9213782 6:0.26373279 7:0.36911815 8:0.38053602 9:0.93575692 10:0.95761603 11:0.31683007 12:0.31021616 13:0.24594375 14:0.83157712 15:0.27612826 16:0.41174987 17:0.42080486 18:0.87018049 19:0.34039414 20:0.29927298 21:0.2703917 22:0.94613051 23:0.31349856 24:0.40537271 25:0.43114749 26:0.89151937 27:0.96318024 28:0.37758648 29:0.34285146 30:0.26965919 31:0.85058117 32:0.30748183 33:0.40841854 34:0.43868452 35:0.99721909 #
0.00039777084121604027507762557647197 1:0.58122438 2:0.21075459 3:0.17163165 4:0.24254258 5:0.95763695 6:0.37358207 7:0.45643988 8:0.29662195 9:0.60852849 10:0.65699226 11:0.23355925 12:0.18813489 13:0.25474843 14:0.97827554 15:0.46096683 16:0.51235294 17:0.37427962 18:0.69931483 19:0.64304835 20:0.26623011 21:0.2183851 22:0.30170164 23:0.9943186 24:0.45615491 25:0.53008759 26:0.39244965 27:0.68916756 28:0.66833442 29:0.32193154 30:0.23745036 31:0.26877764 32:0.42416319 33:0.49565378 34:0.36168897 35:0.71150368 #
0.00039777084121604027507762557647197 1:0.47469819 2:0.15472843 3:0.19009991 4:0.26365241 5:0.98330861 6:0.36066172 7:0.36011207 8:0.34663329 9:0.55131489 10:0.55961472 11:0.18098965 12:0.21752869 13:0.30364561 14:0.91252166 15:0.47400817 16:0.47871003 17:0.46164921 18:0.62477726 19:0.51974607 20:0.18786851 21:0.2254502 22:0.29270616 23:0.41493434 24:0.46504864 25:0.43379778 26:0.59474427 27:0.59729517 28:0.22662207 29:0.27818117 30:0.34031406 31:0.92765051 32:0.4930577 33:0.53012717 34:0.49359396 35:0.66795164 #
-0.00039777084121604027507762557647197 1:0.65371436 2:0.40687987 3:0.50204509 4:0.38550007 5:0.92663968 6:0.35506946 7:0.40218061 8:0.37422472 9:0.6838423 10:0.72906393 11:0.43865457 12:0.51393765 13:0.38563085 14:0.86413145 15:0.36215857 16:0.41114315 17:0.38517222 18:0.75688684 19:0.64876765 20:0.39361963 21:0.48110598 22:0.37547541 23:0.92984438 24:0.36562592 25:0.43237653 26:0.44173774 27:0.68859029 28:0.82472056 29:0.45144379 30:0.55789459 31:0.461932 32:0.43312708 33:0.47897798 34:0.51805449 35:0.86317688 #
-0.00039777084121604027507762557647197 1:0.79438108 2:0.27602416 3:0.31161067 4:0.26106426 5:0.56860316 6:0.34078729 7:0.54186708 8:0.59651089 9:0.91098249 10:0.89356518 11:0.34325576 12:0.33022147 13:0.29440141 14:0.62086326 15:0.39069441 16:0.59616894 17:0.62599754 18:0.78801572 19:0.34735823 20:0.4101052 21:0.32097226 22:0.6502201 23:0.42221659 24:0.61772639 25:0.68113798 26:0.82944584 27:0.84194195 28:0.42145827 29:0.42179164 30:0.34755388 31:0.67529225 32:0.45645574 33:0.64486039 34:0.70416546 35:0.89568448 #
-0.00039777084121604027507762557647197 1:0.54899144 2:0.34075066 3:0.4856801 4:0.48164493 5:0.73671979 6:0.53684574 7:0.61838067 8:0.51018167 9:0.59238958 10:0.55470651 11:0.41505939 12:0.61160582 13:0.56610316 14:0.86839473 15:0.48432994 16:0.49187824 17:0.45502374 18:0.58195513 19:0.43780598 20:0.42450902 21:0.60834396 22:0.60730505 23:0.88391733 24:0.63275886 25:0.67475092 26:0.61554903 27:0.5186339 28:0.43703702 29:0.58782429 30:0.74354029 31:0.74928284 32:0.57778752 33:0.57863605 34:0.5565269 35:0.49798456 #
-0.00039777084121604027507762557647197 1:0.73526663 2:0.46293157 3:0.46305653 4:0.42002943 5:0.858854 6:0.43513712 7:0.49304533 8:0.48230031 9:0.74495846 10:0.74760211 11:0.47492668 12:0.51927036 13:0.47011155 14:0.52620667 15:0.55191869 16:0.52407485 17:0.7447741 18:0.72575045 19:0.49780917 20:0.47584555 21:0.43778875 22:0.90399182 23:0.47217903 24:0.53222895 25:0.55219543 26:0.71950972 27:0.75891113 28:0.49318194 29:0.5307616 30:0.46488485 31:0.95530981 32:0.50513464 33:0.56124568 34:0.60688442 35:0.79258293 #
-0.00039777084121604027507762557647197 1:0.87079132 2:0.3162466 3:0.33712992 4:0.29611731 5:0.50702572 6:0.33058584 7:0.53570378 8:0.5631634 9:0.95071155 10:0.90763223 11:0.31803939 12:0.32322106 13:0.27931583 14:0.62173754 15:0.32082769 16:0.55085778 17:0.59679008 18:0.99024856 19:0.92760581 20:0.31275812 21:0.36439562 22:0.2984454 23:0.60416758 24:0.41767073 25:0.52895427 26:0.5567444 27:0.91410619 28:0.3214345 29:0.35535279 30:0.29481605 31:0.65242654 32:0.35328013 33:0.55519766 34:0.55875164 35:0.9756856 #
0.00039777084121604027507762557647197 1:0.90181518 2:0.52713001 3:0.39186543 4:0.16490425 5:0.4994747 6:0.19691519 7:0.42916599 8:0.54319656 9:0.94002831 10:0.92843181 11:0.51330793 12:0.42333987 13:0.17816147 14:0.56777984 15:0.27690133 16:0.47584435 17:0.59584707 18:0.98153913 19:0.90526229 20:0.46114936 21:0.38875332 22:0.18003803 23:0.56218129 24:0.26008192 25:0.51473409 26:0.59807378 27:0.91273332 28:0.57184207 29:0.50887889 30:0.20731403 31:0.59923428 32:0.28082052 33:0.50660378 34:0.62762094 35:0.98797691 #
0.00039777084121604027507762557647197 1:0.84374106 2:0.61391908 3:0.61213446 4:0.36053538 5:0.5750891 6:0.28373963 7:0.35333499 8:0.38914078 9:0.766316 10:0.91141033 11:0.67364323 12:0.70380348 13:0.36065188 14:0.54801649 15:0.337228 16:0.39631993 17:0.43597433 18:0.80410093 19:0.89208448 20:0.71025407 21:0.72411519 22:0.35516414 23:0.57712018 24:0.30088505 25:0.38024741 26:0.48901626 27:0.73224974 28:0.78425008 29:0.8334657 30:0.50079578 31:0.63578504 32:0.34964341 33:0.43024877 34:0.55084729 35:0.83122021 #
0.00039777084121604027507762557647197 1:0.95423543 2:0.72023267 3:0.7305401 4:0.40361232 5:0.84319752 6:0.26286933 7:0.26653042 8:0.29516378 9:0.85250008 10:0.84407997 11:0.61303365 12:0.62420249 13:0.34533009 14:0.79981732 15:0.23601776 16:0.25955042 17:0.29289201 18:0.76051211 19:0.84352911 20:0.62276679 21:0.64040792 22:0.35049349 23:0.78926319 24:0.24411148 25:0.24983846 26:0.28745317 27:0.74577236 28:0.72662121 29:0.75142789 30:0.4589572 31:0.90224177 32:0.28062254 33:0.28585243 34:0.34586897 35:0.90119392 #
-0.00039777084121604027507762557647197 1:0.83370918 2:0.68921131 3:0.75119269 4:0.58567971 5:0.78254604 6:0.4438352 7:0.45043501 8:0.41441968 9:0.78872335 10:0.77337569 11:0.60368347 12:0.71744835 13:0.48810303 14:0.86889482 15:0.43055907 16:0.4550271 17:0.48124179 18:0.7583769 19:0.58314627 20:0.66503018 21:0.53722757 22:0.77120787 23:0.43043447 24:0.4448927 25:0.39781156 26:0.96067232 27:0.95869797 28:0.5264402 29:0.64070302 30:0.48858118 31:0.89614272 32:0.43841347 33:0.47193214 34:0.45730934 35:0.96140194 #
-0.00039777084121604027507762557647197 1:0.79816937 2:0.55540216 3:0.79907161 4:0.57051879 5:0.81307977 6:0.40843865 7:0.3893058 8:0.28625485 9:0.60428602 10:0.71346527 11:0.54097176 12:0.71643984 13:0.47912654 14:0.9422971 15:0.37797582 16:0.36920571 17:0.30805269 18:0.60521144 19:0.83716273 20:0.55095959 21:0.81833732 22:0.6199373 23:0.83676738 24:0.4403272 25:0.42158142 26:0.32394898 27:0.67684221 28:0.83256078 29:0.5708614 30:0.76806462 31:0.55002552 32:0.41776013 33:0.42694435 34:0.36201727 35:0.75305802 #
-0.00039777084121604027507762557647197 1:0.90895045 2:0.606574 3:0.60026014 4:0.45821851 5:0.78898114 6:0.34046808 7:0.46765846 8:0.3889522 9:0.7964173 10:0.9104262 11:0.67126095 12:0.67174667 13:0.48913005 14:0.88942724 15:0.36564761 16:0.45607191 17:0.38864434 18:0.78410739 19:0.95268178 20:0.60312098 21:0.64519089 22:0.49295303 23:0.83507574 24:0.36683077 25:0.49401039 26:0.39906898 27:0.85920304 28:0.6669752 29:0.65544748 30:0.53174478 31:0.92867398 32:0.41349119 33:0.49270907 34:0.41074976 35:0.88278508 #
-0.00039777084121604027507762557647197 1:0.84617019 2:0.56659144 3:0.40921727 4:0.32110134 5:0.57661295 6:0.39850023 7:0.55264932 8:0.60677099 9:0.838283 10:0.91097242 11:0.63410842 12:0.43864313 13:0.28922859 14:0.55519569 15:0.43033165 16:0.67088163 17:0.70440286 18:0.88905066 19:0.86382449 20:0.52793342 21:0.4555431 22:0.36593524 23:0.61700284 24:0.41183963 25:0.55608326 26:0.60251892 27:0.83809537 28:0.598629 29:0.49017248 30:0.3194896 31:0.62901932 32:0.44773185 33:0.59420502 34:0.65466785 35:0.95231622 #
0.00039777084121604027507762557647197 1:0.93270046 2:0.51056486 3:0.3443484 4:0.34553543 5:0.42813829 6:0.24844363 7:0.37298465 8:0.46119958 9:0.93065917 10:0.92143726 11:0.5656088 12:0.40568438 13:0.37228173 14:0.41600472 15:0.31754264 16:0.43067226 17:0.52290326 18:0.94339544 19:0.467455 20:0.29082376 21:0.31989333 22:0.44721732 23:0.25446737 24:0.35005674 25:0.4196569 26:0.98454326 27:0.99467313 28:0.53630137 29:0.36086991 30:0.36947799 31:0.47299749 32:0.30551416 33:0.42032525 34:0.48602805 35:0.99612844 #
0.00039777084121604027507762557647197 1:0.92695016 2:0.22358844 3:0.2700665 4:0.36222455 5:0.82308412 6:0.31723294 7:0.23586971 8:0.17524493 9:0.93208271 10:0.98383248 11:0.27260137 12:0.32654768 13:0.43054333 14:0.86653143 15:0.43828157 16:0.30883732 17:0.26159701 18:0.91340679 19:0.22853461 20:0.31275553 21:0.40594786 22:0.82740009 23:0.34169668 24:0.26442581 25:0.19617535 26:0.92836833 27:0.96288085 28:0.31440336 29:0.41296044 30:0.50362742 31:0.90370077 32:0.44881618 33:0.33764899 34:0.27585593 35:0.98726249 #
0.00039777084121604027507762557647197 1:0.88487709 2:0.25765333 3:0.23441514 4:0.25559822 5:0.6967113 6:0.29430574 7:0.36608106 8:0.35514423 9:0.90324533 10:0.94861037 11:0.29129046 12:0.27602807 13:0.30850214 14:0.58946347 15:0.36864576 16:0.41819102 17:0.41468775 18:0.97774035 19:0.86905098 20:0.39147487 21:0.31791568 22:0.31794012 23:0.79321933 24:0.33813661 25:0.40527499 26:0.41618031 27:0.88028312 28:0.97360772 29:0.47236249 30:0.4075467 31:0.40943182 32:0.71407747 33:0.42614606 34:0.46259698 35:0.48654139 #
-0.00039777084121604027507762557647197 1:0.78413457 2:0.36084735 3:0.37342149 4:0.40271091 5:0.68174988 6:0.53557181 7:0.56151354 8:0.54209405 9:0.79857278 10:0.81129116 11:0.3713243 12:0.39017656 13:0.4195185 14:0.72738826 15:0.56062394 16:0.619326 17:0.62138015 18:0.8492952 19:0.89881283 20:0.31261101 21:0.32409272 22:0.36316571 23:0.67374796 24:0.50270343 25:0.54039979 26:0.51933032 27:0.93220794 28:0.96146876 29:0.34155399 30:0.36475369 31:0.39241299 32:0.70275092 33:0.53730476 34:0.60903317 35:0.57680786 #
-0.00039777084121604027507762557647197 1:0.81499666 2:0.35182947 3:0.34077245 4:0.27536011 5:0.72653294 6:0.33723786 7:0.4754242 8:0.4544059 9:0.86475635 10:0.90464562 11:0.36811534 12:0.37801281 13:0.31511039 14:0.74393862 15:0.37124917 16:0.51205969 17:0.51921588 18:0.95420802 19:0.92563862 20:0.35836866 21:0.36249325 22:0.37405911 23:0.84467977 24:0.44487089 25:0.57686746 26:0.51499861 27:0.89255208 28:0.36794516 29:0.36602065 30:0.35034919 31:0.78569734 32:0.40106106 33:0.53503442 34:0.51232481 35:0.95146292 #
0.00039777084121604027507762557647197 1:0.34400621 2:0.15748392 3:0.18906787 4:0.35566497 5:0.95175141 6:0.62475473 7:0.38999224 8:0.23882754 9:0.32754761 10:0.38555619 11:0.18899348 12:0.26600432 13:0.3911244 14:0.94727218 15:0.55687177 16:0.47640929 17:0.33834207 18:0.3706122 19:0.34280029 20:0.18783401 21:0.22608727 22:0.45018071 23:0.99080807 24:0.72503132 25:0.39070654 26:0.25357783 27:0.33665222 28:0.40192848 29:0.25064808 30:0.29647973 31:0.45859683 32:0.61567962 33:0.5186851 34:0.35380682 35:0.38575864 #
-0.00039777084121604027507762557647197 1:0.74604303 2:0.31482103 3:0.33492219 4:0.33998817 5:0.7936036 6:0.42312416 7:0.47189552 8:0.45919678 9:0.80521542 10:0.77057558 11:0.32087794 12:0.36315516 13:0.36933574 14:0.8596881 15:0.4154774 16:0.47005248 17:0.47687608 18:0.79735088 19:0.70146489 20:0.45986918 21:0.47541198 22:0.44147691 23:0.95803255 24:0.51562166 25:0.65723938 26:0.62573385 27:0.74356413 28:0.72702277 29:0.48095733 30:0.51439404 31:0.49530071 32:0.54856324 33:0.65489483 34:0.63941842 35:0.74880022 #
-0.00039777084121604027507762557647197 1:0.89455479 2:0.39543691 3:0.30384904 4:0.26523882 5:0.55535585 6:0.3830142 7:0.55401939 8:0.56819206 9:0.9042238 10:0.94436252 11:0.40705815 12:0.30858952 13:0.2768524 14:0.6304124 15:0.40482327 16:0.58020419 17:0.61218601 18:0.95814955 19:0.95472825 20:0.44999155 21:0.35863721 22:0.32572696 23:0.63611329 24:0.47873047 25:0.68287206 26:0.72584373 27:0.92912787 28:0.46916601 29:0.35213724 30:0.32129583 31:0.70505679 32:0.43356237 33:0.63502938 34:0.66874748 35:0.97160387 #
-0.00039777084121604027507762557647197 1:0.82052845 2:0.41350195 3:0.32479018 4:0.26214623 5:0.61548889 6:0.43240288 7:0.67505395 8:0.63955915 9:0.87658834 10:0.89856619 11:0.43830508 12:0.3606303 13:0.30739459 14:0.72904342 15:0.53042477 16:0.71491313 17:0.68611956 18:0.97022825 19:0.88902307 20:0.38659528 21:0.30388114 22:0.2659677 23:0.65596277 24:0.48181638 25:0.7038781 26:0.68452591 27:0.96924269 28:0.91381729 29:0.39789224 30:0.31391612 31:0.28200635 32:0.68128294 33:0.47926489 34:0.74862266 35:0.70075876 #
-0.00039777084121604027507762557647197 1:0.90300477 2:0.40068972 3:0.42380974 4:0.31384721 5:0.53138167 6:0.30782875 7:0.46857077 8:0.43771523 9:0.88569516 10:0.44413543 11:0.45121008 12:0.35828307 13:0.66655755 14:0.3621203 15:0.49889672 16:0.49611786 17:0.9973979 18:0.91372001 19:0.48236027 20:0.47391924 21:0.38662139 22:0.67023551 23:0.39275265 24:0.58008784 25:0.58418238 26:0.89985389 27:0.89373279 28:0.48284629 29:0.4935804 30:0.40400237 31:0.75013918 32:0.41524535 33:0.58790004 34:0.58872163 35:0.89313138 #
