SVM-light Version V6.02
1 # kernel type
3 # kernel parameter -d 
1 # kernel parameter -g 
1 # kernel parameter -s 
1 # kernel parameter -r 
empty# kernel parameter -u 
35 # highest feature index 
692 # number of training documents 
670 # number of support vectors plus 1 
0.63013674 # threshold b, each following line is a SV (starting with alpha*y)
-0.00034062013332638950815003942018677 1:0.90664542 2:0.47664452 3:0.48631012 4:0.46833506 5:0.87732649 6:0.38922709 7:0.44703719 8:0.44214734 9:0.8581233 10:0.91307396 11:0.54661286 12:0.50582051 13:0.48648018 14:0.91017282 15:0.4387978 16:0.45108658 17:0.46002659 18:0.86660677 19:0.87511641 20:0.52543026 21:0.48823449 22:0.49670693 23:0.97585833 24:0.46554193 25:0.54119515 26:0.55436707 27:0.84178907 28:0.89502734 29:0.60917926 30:0.54770893 31:0.59410274 32:0.54057366 33:0.58019125 34:0.59854519 35:0.89046311 #
-0.00034062013332638950815003942018677 1:0.73667544 2:0.40502721 3:0.39611822 4:0.48371208 5:0.90697432 6:0.55351293 7:0.4847059 8:0.48031712 9:0.73417944 10:0.77539706 11:0.46388686 12:0.44571367 13:0.46445432 14:0.83851236 15:0.49844566 16:0.57806718 17:0.60152578 18:0.79606086 19:0.76562548 20:0.46578643 21:0.439742 22:0.54598927 23:0.63096857 24:0.55045283 25:0.55353963 26:0.78217572 27:0.7884165 28:0.51424086 29:0.50327587 30:0.51602185 31:0.88274711 32:0.52082634 33:0.619654 34:0.6405189 35:0.8277272 #
-0.00034062013332638950815003942018677 1:0.89306331 2:0.48411226 3:0.49172315 4:0.49238154 5:0.64632434 6:0.46054009 7:0.54102749 8:0.48685974 9:0.9203819 10:0.92644113 11:0.53191918 12:0.50775367 13:0.51432562 14:0.74292189 15:0.52190202 16:0.62252098 17:0.58595359 18:0.87056679 19:0.52595091 20:0.53974789 21:0.56981307 22:0.72262555 23:0.53857023 24:0.60269076 25:0.50562549 26:0.864721 27:0.8849237 28:0.56227338 29:0.54299653 30:0.5551694 31:0.83429337 32:0.51482153 33:0.66473889 34:0.59112918 35:0.93585348 #
-0.00034062013332638950815003942018677 1:0.98954332 2:0.43138587 3:0.56614238 4:0.5006575 5:0.72757405 6:0.55273497 7:0.56471497 8:0.55613911 9:0.94529629 10:0.50183439 11:0.5879187 12:0.55642414 13:0.84437299 14:0.53666854 15:0.61653137 16:0.63666058 17:0.97432154 18:0.9559747 19:0.52064121 20:0.62829822 21:0.61787367 22:0.79504913 23:0.64955801 24:0.66418952 25:0.68378228 26:0.99553317 27:0.97851849 28:0.55073851 29:0.66678977 30:0.64844429 31:0.84763849 32:0.57160425 33:0.64208221 34:0.67001575 35:0.97195572 #
-0.00034062013332638950815003942018677 1:0.67020571 2:0.44708827 3:0.40830204 4:0.50884175 5:0.95470309 6:0.67781323 7:0.71575183 8:0.66275507 9:0.70663053 10:0.76927781 11:0.40981364 12:0.40132448 13:0.46900809 14:0.93728203 15:0.72488564 16:0.69534951 17:0.66675782 18:0.85285538 19:0.69576722 20:0.55988997 21:0.55406827 22:0.5843026 23:0.69430631 24:0.83935136 25:0.82668769 26:0.74760395 27:0.79032326 28:0.52762216 29:0.53792071 30:0.56830156 31:0.93062234 32:0.77762532 33:0.80224925 34:0.84205729 35:0.84047353 #
0.00034062013332638950815003942018677 1:0.79816937 2:0.55540216 3:0.79907161 4:0.57051879 5:0.81307977 6:0.40843865 7:0.3893058 8:0.28625485 9:0.60428602 10:0.71346527 11:0.54097176 12:0.71643984 13:0.47912654 14:0.9422971 15:0.37797582 16:0.36920571 17:0.30805269 18:0.60521144 19:0.83716273 20:0.55095959 21:0.81833732 22:0.6199373 23:0.83676738 24:0.4403272 25:0.42158142 26:0.32394898 27:0.67684221 28:0.83256078 29:0.5708614 30:0.76806462 31:0.55002552 32:0.41776013 33:0.42694435 34:0.36201727 35:0.75305802 #
0.00034062013332638950815003942018677 1:0.86853749 2:0.3565293 3:0.36910996 4:0.27553859 5:0.80590993 6:0.27195773 7:0.46884879 8:0.35878295 9:0.80516803 10:0.39968225 11:0.40753326 12:0.36091965 13:0.7686134 14:0.38521326 15:0.5065614 16:0.45445606 17:0.96656328 18:0.85308689 19:0.41543704 20:0.44451216 21:0.35921904 22:0.8603062 23:0.30330616 24:0.50214088 25:0.42598811 26:0.80184764 27:0.8978169 28:0.4881345 29:0.53867656 30:0.40441376 31:0.80969042 32:0.34721261 33:0.4878149 34:0.41168565 35:0.85762709 #
0.00022910988581739460609454361872395 1:0.84527379 2:0.46906146 3:0.4172228 4:0.37983888 5:0.80830103 6:0.61725265 7:0.6277566 8:0.62058216 9:0.92270184 10:0.91945922 11:0.52061504 12:0.43217248 13:0.36524329 14:0.88781482 15:0.57718372 16:0.62628168 17:0.68682551 18:0.98623943 19:0.84518021 20:0.50849241 21:0.46822575 22:0.43459097 23:0.97190899 24:0.71344709 25:0.76282406 26:0.76863617 27:0.97182095 28:0.87608248 29:0.60888839 30:0.55814415 31:0.45704216 32:0.71925974 33:0.80790442 34:0.84283829 35:0.97491711 #
0.00034062013332638950815003942018677 1:0.72440141 2:0.55319273 3:0.71047175 4:0.55503273 5:0.88280201 6:0.56007648 7:0.65009111 8:0.51286322 9:0.73565328 10:0.75800669 11:0.58801812 12:0.71919465 13:0.5326885 14:0.92800432 15:0.53151435 16:0.67519492 17:0.59588784 18:0.75800461 19:0.80691004 20:0.59810847 21:0.74827403 22:0.6190291 23:0.9797197 24:0.64358699 25:0.72865009 26:0.61815691 27:0.78931391 28:0.85003561 29:0.62878633 30:0.72792518 31:0.60465086 32:0.6103757 33:0.71915883 34:0.66327775 35:0.80031258 #
0.00034062013332638950815003942018677 1:0.90511763 2:0.48147506 3:0.39791083 4:0.3319957 5:0.47766697 6:0.38594505 7:0.53746945 8:0.49766961 9:0.94121468 10:0.9847284 11:0.53845447 12:0.46452874 13:0.37712583 14:0.53231096 15:0.48924276 16:0.62434804 17:0.55186391 18:0.8839488 19:0.49832243 20:0.47048417 21:0.37837979 22:0.55113262 23:0.46134084 24:0.62562132 25:0.60961777 26:0.88194013 27:0.90003413 28:0.56153715 29:0.54623866 30:0.44162369 31:0.60878485 32:0.56074709 33:0.70694047 34:0.64665389 35:0.93287539 #
0.00034062013332638950815003942018677 1:0.13539058 2:0.086980432 3:0.11160372 4:0.099523433 5:0.076010503 6:0.068997361 7:0.068877853 8:0.13886742 9:0.135105 10:0.07206732 11:0.074515224 12:0.080874063 13:0.97851908 14:0.077088691 15:0.071207672 16:0.083671361 17:0.13865188 18:0.14130235 19:0.083180577 20:0.10704315 21:0.097694322 22:0.99378902 23:0.096871793 24:0.083041847 25:0.073259138 26:0.14554073 27:0.1356446 28:0.076031484 29:0.083693333 30:0.079437681 31:0.96497232 32:0.066681817 33:0.061490651 34:0.063721441 35:0.13762218 #
-0.00034062013332638950815003942018677 1:0.36625105 2:0.18879801 3:0.4337559 4:0.52482015 5:0.96332282 6:0.28015223 7:0.12321519 8:0.10089313 9:0.34888119 10:0.35025403 11:0.15577048 12:0.31391293 13:0.27997455 14:0.96177602 15:0.16272259 16:0.084653512 17:0.082930744 18:0.33578995 19:0.40249157 20:0.17647912 21:0.43306315 22:0.49039555 23:0.91808844 24:0.28166911 25:0.14917472 26:0.11974993 27:0.39189348 28:0.40007165 29:0.16739434 30:0.35231027 31:0.32337102 32:0.19118987 33:0.11078157 34:0.095938541 35:0.38713434 #
0.00034062013332638950815003942018677 1:0.81361878 2:0.42839938 3:0.448569 4:0.50229913 5:0.84581214 6:0.55907953 7:0.71701074 8:0.74030578 9:0.82456791 10:0.9302752 11:0.47719291 12:0.50546199 13:0.52892601 14:0.54453129 15:0.75918049 16:0.74226826 17:0.92755079 18:0.86899585 19:0.49666271 20:0.45358992 21:0.53026819 22:0.90519786 23:0.67417896 24:0.89434308 25:0.94676244 26:0.8830325 27:0.92611074 28:0.52973711 29:0.51290387 30:0.58606005 31:0.97104883 32:0.589194 33:0.90292501 34:0.92623341 35:0.90752774 #
0.00034062013332638950815003942018677 1:0.76494902 2:0.50391579 3:0.51249689 4:0.44839793 5:0.93674552 6:0.63405949 7:0.77530342 8:0.67668998 9:0.79464084 10:0.82895744 11:0.54857469 12:0.54717416 13:0.48756969 14:0.94686562 15:0.70387459 16:0.80905318 17:0.74790215 18:0.87711179 19:0.82526445 20:0.53606468 21:0.56112498 22:0.5103308 23:0.71913564 24:0.82811236 25:0.75369692 26:0.83774632 27:0.87787277 28:0.56391472 29:0.58111566 30:0.52513433 31:0.95588094 32:0.71885103 33:0.88115066 34:0.79853278 35:0.9037618 #
-0.00034062013332638950815003942018677 1:0.83733404 2:0.66691208 3:0.73486727 4:0.5694046 5:0.86098331 6:0.71560949 7:0.72902042 8:0.75187421 9:0.85252476 10:0.89951247 11:0.70978999 12:0.75983578 13:0.63408011 14:0.88569367 15:0.80110776 16:0.77884513 17:0.7890144 18:0.93119186 19:0.88440394 20:0.6785689 21:0.68261307 22:0.58934444 23:0.92477554 24:0.8208825 25:0.77769506 26:0.8294366 27:0.88852447 28:0.96470827 29:0.77562726 30:0.78935176 31:0.70342296 32:0.92750639 33:0.83591747 34:0.83981633 35:0.96603256 #
0.00034062013332638950815003942018677 1:0.76346636 2:0.41082725 3:0.36251679 4:0.25595334 5:0.64596373 6:0.3198303 7:0.50837237 8:0.58942294 9:0.87278032 10:0.84417063 11:0.46877697 12:0.42224437 13:0.31133732 14:0.59853262 15:0.3863126 16:0.57096195 17:0.64028531 18:0.94011694 19:0.80507219 20:0.48176953 21:0.42371514 22:0.29188594 23:0.70627308 24:0.37111005 25:0.59840852 26:0.66586971 27:0.93936169 28:0.89234346 29:0.53873682 30:0.47951627 31:0.35572448 32:0.66943002 33:0.46273881 34:0.66151416 35:0.73928112 #
-0.00034062013332638950815003942018677 1:0.79448885 2:0.05687625 3:0.037581328 4:0.038823221 5:0.19527665 6:0.080631927 7:0.47965136 8:0.58260769 9:0.94383454 10:0.91647881 11:0.068315238 12:0.041622698 13:0.036141969 14:0.21739505 15:0.11221221 16:0.56698883 17:0.63799673 18:0.88700455 19:0.061878651 20:0.046125159 21:0.052398201 22:0.22042418 23:0.10233831 24:0.56719744 25:0.66482294 26:0.995058 27:0.84426755 28:0.069696017 29:0.04825962 30:0.04647541 31:0.21379469 32:0.10642702 33:0.56143731 34:0.65282774 35:0.96753401 #
-0.00034062013332638950815003942018677 1:0.91759002 2:0.066261239 3:0.055386331 4:0.060289599 5:0.14385803 6:0.17038064 7:0.35512745 8:0.38013938 9:0.89765322 10:0.067940332 11:0.053534061 12:0.049720362 13:0.22319144 14:0.18654889 15:0.38123402 16:0.41925517 17:0.96868604 18:0.94162989 19:0.071055926 20:0.055644691 21:0.058447421 22:0.18234549 23:0.26423618 24:0.46295217 25:0.54684925 26:0.99999678 27:0.88978893 28:0.074558742 29:0.051144451 30:0.0484959 31:0.23686332 32:0.23046976 33:0.40898672 34:0.50129604 35:0.98237914 #
0.00034062013332638950815003942018677 1:0.83071494 2:0.5352487 3:0.50821722 4:0.47089669 5:0.84169084 6:0.73440272 7:0.75379401 8:0.78958774 9:0.86818165 10:0.94008064 11:0.5907566 12:0.57269925 13:0.47681496 14:0.86796004 15:0.81299257 16:0.80917364 17:0.86094517 18:0.95579726 19:0.87176967 20:0.58865285 21:0.54521942 22:0.470902 23:0.9025203 24:0.76438069 25:0.7542609 26:0.7758407 27:0.89847535 28:0.9604786 29:0.67004079 30:0.60899132 31:0.48567653 32:0.91735679 33:0.89191091 34:0.88666689 35:0.89681858 #
0.00034062013332638950815003942018677 1:0.77831459 2:0.60486126 3:0.59476483 4:0.52514768 5:0.86950761 6:0.50700343 7:0.72556686 8:0.62896854 9:0.81258142 10:0.86132234 11:0.63949376 12:0.63632268 13:0.54801142 14:0.98300409 15:0.56066501 16:0.78220451 17:0.69612151 18:0.94313723 19:0.83788586 20:0.64474356 21:0.637375 22:0.57077354 23:0.88738894 24:0.56829655 25:0.71540225 26:0.6483714 27:0.86216664 28:0.91011125 29:0.68989766 30:0.70052135 31:0.59732282 32:0.60673058 33:0.7895726 34:0.75066119 35:0.95892566 #
0.00034062013332638950815003942018677 1:0.46495798 2:0.25527829 3:0.26436284 4:0.32327813 5:0.96765327 6:0.28049976 7:0.19544667 8:0.18086964 9:0.43882269 10:0.48319343 11:0.26882103 12:0.27451438 13:0.3674247 14:0.97860396 15:0.34247243 16:0.2455506 17:0.24001765 18:0.48067468 19:0.42493561 20:0.29175857 21:0.30836961 22:0.35809281 23:0.28493255 24:0.23492226 25:0.21375558 26:0.40986362 27:0.4784224 28:0.37243971 29:0.38974363 30:0.44754457 31:0.98599339 32:0.35062554 33:0.28166613 34:0.27088591 35:0.47817212 #
-0.00034062013332638950815003942018677 1:0.86105597 2:0.62503844 3:0.63458461 4:0.52936018 5:0.80968183 6:0.56840205 7:0.70583695 8:0.66261089 9:0.87443006 10:0.92206293 11:0.68112266 12:0.68883622 13:0.57763523 14:0.88593495 15:0.6304704 16:0.76621419 17:0.73547983 18:0.92363149 19:0.93020195 20:0.67975998 21:0.68077046 22:0.57900006 23:0.87472761 24:0.64028418 25:0.77191448 26:0.73445582 27:0.93939674 28:0.98384231 29:0.73944527 30:0.74370772 31:0.64029074 32:0.94326502 33:0.67986137 34:0.81250668 35:0.78189653 #
-0.00034062013332638950815003942018677 1:0.81023055 2:0.66449475 3:0.70530254 4:0.63252926 5:0.82908189 6:0.57124895 7:0.59728295 8:0.53675717 9:0.77698541 10:0.88575536 11:0.73277503 12:0.80565959 13:0.68621945 14:0.91525006 15:0.61034042 16:0.64147729 17:0.60375535 18:0.83546007 19:0.82988244 20:0.74021381 21:0.82976264 22:0.70565802 23:0.90199447 24:0.63367844 25:0.65983671 26:0.59766722 27:0.8037895 28:0.91731972 29:0.82320762 30:0.88696986 31:0.80720437 32:0.67938566 33:0.70541209 34:0.67120415 35:0.86723983 #
-0.00034062013332638950815003942018677 1:0.84780616 2:0.22711857 3:0.25366825 4:0.15658116 5:0.24037203 6:0.20029587 7:0.29362088 8:0.25526544 9:0.85838622 10:0.8459112 11:0.25274327 12:0.28922373 13:0.17541362 14:0.23914284 15:0.22360039 16:0.32266161 17:0.28715143 18:0.8627246 19:0.20469414 20:0.20708999 21:0.14326185 22:0.22311305 23:0.18779628 24:0.25824431 25:0.22748885 26:0.99367106 27:0.99779278 28:0.24002947 29:0.23641849 30:0.15933496 31:0.2155485 32:0.2107521 33:0.29521024 34:0.25740498 35:0.99812269 #
0.00034062013332638950815003942018677 1:0.76601011 2:0.62420899 3:0.6896621 4:0.56824291 5:0.94414049 6:0.44477862 7:0.50804991 8:0.51561487 9:0.73294544 10:0.87892908 11:0.75039744 12:0.80928898 13:0.72283524 14:0.94164985 15:0.55026865 16:0.59576708 17:0.59328413 18:0.79720032 19:0.87222266 20:0.69677258 21:0.7692318 22:0.60535949 23:0.97647172 24:0.49402171 25:0.5891037 26:0.59253204 27:0.83106494 28:0.98824608 29:0.79448843 30:0.83880234 31:0.75179541 32:0.62861413 33:0.67804062 34:0.68795717 35:0.91701895 #
0.00034062013332638950815003942018677 1:0.96828622 2:0.43587586 3:0.29189163 4:0.14296877 5:0.30112883 6:0.11658148 7:0.15561627 8:0.21688104 9:0.81650186 10:0.49616733 11:0.37359244 12:0.1695928 13:0.277192 14:0.12726487 15:0.16223994 16:0.23810315 17:0.8411274 18:0.86630225 19:0.50945526 20:0.32448724 21:0.15801249 22:0.3658329 23:0.18220448 24:0.22307748 25:0.29826045 26:0.75596863 27:0.91042179 28:0.59055054 29:0.40584344 30:0.20444804 31:0.3325862 32:0.18027094 33:0.22449091 34:0.31374121 35:0.78682166 #
0.00034062013332638950815003942018677 1:0.75496781 2:0.12122133 3:0.13505518 4:0.10873849 5:0.24856518 6:0.14011289 7:0.50550836 8:0.56378621 9:0.97565907 10:0.83535463 11:0.12322394 12:0.10659613 13:0.084310338 14:0.34534791 15:0.1754856 16:0.5497967 17:0.64167404 18:0.8541733 19:0.10780056 20:0.11580648 21:0.096791871 22:0.2756688 23:0.18346409 24:0.65847272 25:0.7389099 26:0.9919883 27:0.76611489 28:0.10187577 29:0.089336462 30:0.067947373 31:0.30319563 32:0.14146245 33:0.61595839 34:0.72502917 35:0.91744101 #
-0.00034062013332638950815003942018677 1:0.20939247 2:0.16452248 3:0.17186987 4:0.26353565 5:0.8258183 6:0.30369386 7:0.27866274 8:0.23516206 9:0.21786377 10:0.21661395 11:0.14310448 12:0.14253187 13:0.26196614 14:0.41204998 15:0.38152033 16:0.33427832 17:0.22899112 18:0.23627508 19:0.16287346 20:0.1546773 21:0.29381055 22:0.85792643 23:0.3417612 24:0.31233233 25:0.27636701 26:0.23936586 27:0.25811496 28:0.1518413 29:0.13487114 30:0.26792902 31:0.91455686 32:0.40171957 33:0.35928479 34:0.31730255 35:0.27671546 #
-0.00034062013332638950815003942018677 1:0.25106514 2:0.10006209 3:0.13471104 4:0.15138899 5:0.95033377 6:0.40194121 7:0.30680096 8:0.16166113 9:0.2374889 10:0.27375436 11:0.11711877 12:0.16473308 13:0.23504525 14:0.98290175 15:0.53502256 16:0.46240908 17:0.20729314 18:0.26952708 19:0.27045935 20:0.092580907 21:0.14355278 22:0.17743535 23:0.43681797 24:0.35619241 25:0.17875411 26:0.26738408 27:0.29041636 28:0.10630572 29:0.16906984 30:0.23202328 31:0.84785771 32:0.52461159 33:0.47629449 34:0.22106421 35:0.28326768 #
0.00034062013332638950815003942018677 1:0.85137594 2:0.74997771 3:0.71100199 4:0.58429474 5:0.75057131 6:0.53366488 7:0.61590707 8:0.55849779 9:0.79617345 10:0.92410493 11:0.81312591 12:0.80324233 13:0.62664986 14:0.84590262 15:0.59420979 16:0.68353438 17:0.62056369 18:0.85172671 19:0.93005401 20:0.81614119 21:0.75381678 22:0.63063174 23:0.82818049 24:0.60060412 25:0.68578619 26:0.62274247 27:0.86189234 28:0.88285023 29:0.85085428 30:0.71911758 31:0.93826103 32:0.66703129 33:0.76038188 34:0.66520268 35:0.93851757 #
0.00032290127789358824463711306052005 1:0.90081716 2:0.65613502 3:0.7089774 4:0.55532551 5:0.84718239 6:0.51170903 7:0.66124338 8:0.57050574 9:0.83678764 10:0.93163931 11:0.6744414 12:0.69879317 13:0.57825637 14:0.86471421 15:0.52327919 16:0.70444143 17:0.60050684 18:0.90602309 19:0.94455707 20:0.77556634 21:0.8158626 22:0.65487862 23:0.97732222 24:0.5825271 25:0.74192512 26:0.66584474 27:0.90180993 28:0.95733482 29:0.76147735 30:0.78421783 31:0.68889475 32:0.57722241 33:0.76542652 34:0.65953612 35:0.93466693 #
-0.00034062013332638950815003942018677 1:0.89318657 2:0.71487856 3:0.67534208 4:0.60483742 5:0.97709388 6:0.51961058 7:0.45259115 8:0.46943283 9:0.78805548 10:0.97007412 11:0.78763568 12:0.72926092 13:0.66436893 14:0.8855955 15:0.62707692 16:0.59341204 17:0.62176913 18:0.88265759 19:0.84510165 20:0.77831364 21:0.73115313 22:0.69018996 23:0.59660953 24:0.55970615 25:0.57448387 26:0.80750167 27:0.95422018 28:0.89794439 29:0.83063912 30:0.76757586 31:0.9059853 32:0.6827836 33:0.68022472 34:0.68859285 35:0.93018919 #
-0.00034062013332638950815003942018677 1:0.90614486 2:0.72978795 3:0.76346123 4:0.6394729 5:0.84765065 6:0.46495345 7:0.51549608 8:0.51267803 9:0.90893382 10:0.94670957 11:0.73035431 12:0.7869947 13:0.65045345 14:0.91116154 15:0.47526574 16:0.53274 17:0.53514183 18:0.96389318 19:0.94831842 20:0.71887672 21:0.75377381 22:0.71708548 23:0.95934731 24:0.50247151 25:0.65039766 26:0.63225764 27:0.87517095 28:0.94796669 29:0.74647194 30:0.80846268 31:0.77159286 32:0.53785092 33:0.64257878 34:0.65899557 35:0.90397531 #
0.00034062013332638950815003942018677 1:0.31829825 2:0.17712338 3:0.4202742 4:0.48300532 5:0.84495533 6:0.37637794 7:0.4353511 8:0.24696259 9:0.39259607 10:0.40266499 11:0.21729021 12:0.39216518 13:0.34144947 14:0.95634115 15:0.35640755 16:0.46412715 17:0.32095158 18:0.48928666 19:0.32476804 20:0.21136716 21:0.45901442 22:0.52651793 23:0.87606317 24:0.44614634 25:0.54069597 26:0.28734395 27:0.40760016 28:0.42668885 29:0.244948 30:0.37433606 31:0.41118258 32:0.40273738 33:0.51816308 34:0.38116691 35:0.52623093 #
0.00034062013332638950815003942018677 1:0.4631913 2:0.48976156 3:0.34006444 4:0.51443779 5:0.2235491 6:0.27961487 7:0.28881186 8:0.92665058 9:0.85185432 10:0.41305515 11:0.42301095 12:0.22732189 13:0.5396322 14:0.12831607 15:0.29615912 16:0.33415982 17:0.81338739 18:0.88812464 19:0.29985139 20:0.37813905 21:0.22721413 22:0.47053155 23:0.19749302 24:0.21177554 25:0.17389111 26:0.81444269 27:0.94782245 28:0.28966805 29:0.32746622 30:0.17606331 31:0.53087288 32:0.11117702 33:0.19440389 34:0.18429486 35:0.88899857 #
0.00034062013332638950815003942018677 1:0.76592612 2:0.1785377 3:0.09997873 4:0.11574841 5:0.23984621 6:0.16167107 7:0.33282709 8:0.4464286 9:0.88448298 10:0.81214106 11:0.2088649 12:0.12040351 13:0.14556436 14:0.24459146 15:0.19923742 16:0.38960415 17:0.48665762 18:0.91577363 19:0.75779605 20:0.29453731 21:0.21456772 22:0.16312908 23:0.34732246 24:0.24847665 25:0.48786998 26:0.57275647 27:0.9328469 28:0.81087381 29:0.33151433 30:0.22136107 31:0.23025492 32:0.32835996 33:0.28258762 34:0.52584857 35:0.64123577 #
-0.00034062013332638950815003942018677 1:0.16501129 2:0.074500129 3:0.092663452 4:0.14237088 5:0.93927556 6:0.51074857 7:0.51525909 8:0.20068267 9:0.18608157 10:0.17547746 11:0.07777828 12:0.10077117 13:0.16338871 14:0.98504841 15:0.57174432 16:0.58074147 17:0.24297215 18:0.20014559 19:0.1807532 20:0.08017239 21:0.11098024 22:0.17681509 23:0.99829447 24:0.62851059 25:0.60773927 26:0.29911646 27:0.22102849 28:0.18143813 29:0.08908847 30:0.11850437 31:0.1763498 32:0.58766139 33:0.59496343 34:0.25766772 35:0.20948368 #
0.00034062013332638950815003942018677 1:0.76360023 2:0.46164206 3:0.42423823 4:0.41725177 5:0.87867469 6:0.35106471 7:0.56296045 8:0.66012901 9:0.85817313 10:0.83935386 11:0.50364655 12:0.50854748 13:0.45293233 14:0.83657396 15:0.36677089 16:0.6822834 17:0.72138542 18:0.94280976 19:0.85823905 20:0.43646997 21:0.47398755 22:0.41691318 23:0.86718595 24:0.37189001 25:0.55090159 26:0.60428637 27:0.93895155 28:0.93470931 29:0.50644177 30:0.53470635 31:0.46329656 32:0.85856438 33:0.3960405 34:0.64443612 35:0.67840385 #
-0.00034062013332638950815003942018677 1:0.15518869 2:0.078216203 3:0.081150033 4:0.21676886 5:0.65887338 6:0.18314143 7:0.10334257 8:0.11384366 9:0.20904052 10:0.11095288 11:0.19829158 12:0.42630979 13:0.98070771 14:0.61856973 15:0.44398534 16:0.19930293 17:0.15363757 18:0.13084848 19:0.069586389 20:0.083855033 21:0.24124242 22:0.69273531 23:0.18220769 24:0.098503388 25:0.088450506 26:0.20879431 27:0.13883659 28:0.22550584 29:0.50096405 30:0.72623491 31:0.47898665 32:0.24261332 33:0.11162967 #
-0.00034062013332638950815003942018677 1:0.86019319 2:0.51103902 3:0.54008806 4:0.35462737 5:0.70367527 6:0.61949432 7:0.94387722 8:0.72348148 9:0.90316343 10:0.88692486 11:0.50864357 12:0.52371955 13:0.33694726 14:0.82977808 15:0.56703705 16:0.81295907 17:0.72037065 18:0.92858124 19:0.84601939 20:0.62175453 21:0.61335039 22:0.42539099 23:0.81610119 24:0.71297222 25:0.85916275 26:0.92807668 27:0.88464683 28:0.64006138 29:0.61966741 30:0.40595558 31:0.96403044 32:0.69865185 33:0.9468208 34:0.84054655 35:0.97584182 #
0.00034062013332638950815003942018677 1:0.40644526 2:0.30945757 3:0.36383551 4:0.39652818 5:0.82742447 6:0.36843464 7:0.5022158 8:0.35040906 9:0.45505401 10:0.40843692 11:0.27563959 12:0.27603954 13:0.29466218 14:0.96550971 15:0.25393721 16:0.38112652 17:0.30220902 18:0.4304702 19:0.42796606 20:0.35115153 21:0.37785199 22:0.45194948 23:0.86273837 24:0.46037921 25:0.61711162 26:0.44779703 27:0.48807216 28:0.39585721 29:0.35697937 30:0.38848549 31:0.34670633 32:0.33256683 33:0.44503802 34:0.37353793 35:0.41493103 #
0.00034062013332638950815003942018677 1:0.3690137 2:0.3261213 3:0.47337133 4:0.51073176 5:0.94727629 6:0.24676354 7:0.22558543 8:0.21174508 9:0.31716681 10:0.47394142 11:0.43641552 12:0.58134735 13:0.61973071 14:0.85265821 15:0.32184693 16:0.31027827 17:0.28342316 18:0.41981593 19:0.35198706 20:0.39399055 21:0.50752598 22:0.5508166 23:0.31339875 24:0.2938832 25:0.2588838 26:0.33582857 27:0.44011158 28:0.510342 29:0.65627396 30:0.66184396 31:0.91431099 32:0.39705259 33:0.3733477 34:0.30774045 35:0.415824 #
0.00027769996675774955008364486275241 1:0.79125434 2:0.48060524 3:0.44927943 4:0.34614483 5:0.71046609 6:0.53332198 7:0.84429801 8:0.67318892 9:0.87385625 10:0.86358762 11:0.52728534 12:0.47894749 13:0.40844762 14:0.73075783 15:0.61344165 16:0.83689797 17:0.77563524 18:0.92959791 19:0.73735875 20:0.50230247 21:0.46455932 22:0.38994277 23:0.7938776 24:0.61177862 25:0.88746238 26:0.79163778 27:0.88173687 28:0.83955872 29:0.51628411 30:0.51066726 31:0.4448075 32:0.80162179 33:0.67368484 34:0.85784721 35:0.94048071 #
-0.00034062013332638950815003942018677 1:0.78921574 2:0.58456272 3:0.65183365 4:0.61155939 5:0.92666638 6:0.57686108 7:0.70162201 8:0.68584657 9:0.87437159 10:0.82657737 11:0.61440808 12:0.65788907 13:0.56323004 14:0.96056187 15:0.58039194 16:0.71682984 17:0.69918174 18:0.89370805 19:0.87134844 20:0.58959842 21:0.66827208 22:0.70599771 23:0.95805413 24:0.64854026 25:0.6948486 26:0.69396544 27:0.91874748 28:0.92158628 29:0.65289259 30:0.69014388 31:0.64944124 32:0.62539494 33:0.68942583 34:0.64759284 35:0.94072104 #
-0.00034062013332638950815003942018677 1:0.85107327 2:0.35442245 3:0.24113178 4:0.098978311 5:0.14047207 6:0.093307368 7:0.19882931 8:0.30906513 9:0.82302952 10:0.89472526 11:0.40574265 12:0.26168519 13:0.11414166 14:0.14733335 15:0.10239594 16:0.23013954 17:0.35354042 18:0.84499884 19:0.97473085 20:0.42894351 21:0.33631232 22:0.11794096 23:0.14926678 24:0.092469767 25:0.2260748 26:0.33997703 27:0.92637515 28:0.50544006 29:0.40711692 30:0.14927588 31:0.17163791 32:0.095485292 33:0.25268513 34:0.38939437 35:0.96594059 #
-0.00034062013332638950815003942018677 1:0.96864015 2:0.22502132 3:0.19867268 4:0.1151282 5:0.20549698 6:0.096622102 7:0.19662951 8:0.19659089 9:0.99377555 10:0.98281109 11:0.23663744 12:0.20610046 13:0.1113342 14:0.24102487 15:0.097294919 16:0.20369349 17:0.20792615 18:0.89489281 19:0.28206673 20:0.27519441 21:0.16771053 22:0.26163355 23:0.1456655 24:0.34915003 25:0.33731896 26:0.9087404 27:0.90246922 28:0.30861044 29:0.2852976 30:0.17184952 31:0.31166178 32:0.12958673 33:0.32618847 34:0.33515757 35:0.89797449 #
0.00034062013332638950815003942018677 1:0.71121007 2:0.45874026 3:0.56675094 4:0.63382787 5:0.85687864 6:0.74890256 7:0.7141552 8:0.57530469 9:0.74564141 10:0.73800385 11:0.4926759 12:0.58352876 13:0.67900807 14:0.94957227 15:0.8269254 16:0.79749584 17:0.65088314 18:0.75018454 19:0.68998724 20:0.50994527 21:0.62252772 22:0.68239272 23:0.95397913 24:0.88045639 25:0.7873975 26:0.69233453 27:0.74736887 28:0.74703139 29:0.58002335 30:0.63154942 31:0.71905082 32:0.9061445 33:0.86473185 34:0.75473309 35:0.76741552 #
0.00034062013332638950815003942018677 1:0.77905327 2:0.56614774 3:0.50021213 4:0.42353672 5:0.87746924 6:0.58293933 7:0.76947993 8:0.67628199 9:0.76141846 10:0.81662285 11:0.67247516 12:0.68033814 13:0.49053428 14:0.98938936 15:0.66744363 16:0.83247334 17:0.77368414 18:0.77988887 19:0.74971324 20:0.66561812 21:0.60477853 22:0.4689275 23:0.99265939 24:0.73150522 25:0.8761856 26:0.77214384 27:0.69913 28:0.83416605 29:0.73579878 30:0.7300787 31:0.60304093 32:0.79044706 33:0.90038568 34:0.82492357 35:0.78895533 #
0.00034062013332638950815003942018677 1:0.86102557 2:0.66378248 3:0.64741522 4:0.57286781 5:0.86613506 6:0.52223128 7:0.52171493 8:0.46545026 9:0.8121286 10:0.93731642 11:0.75390476 12:0.75571012 13:0.65854669 14:0.89435786 15:0.58338422 16:0.56211126 17:0.52342445 18:0.88838929 19:0.87351179 20:0.74274164 21:0.73616523 22:0.62530822 23:0.98420119 24:0.59691054 25:0.59292388 26:0.53302753 27:0.81588447 28:0.98723805 29:0.85880643 30:0.8610639 31:0.76989675 32:0.68090498 33:0.66255456 34:0.60182297 35:0.92660719 #
-0.00034062013332638950815003942018677 1:0.8968668 2:0.80024749 3:0.91157073 4:0.81849211 5:0.97298682 6:0.60982722 7:0.53344446 8:0.4774383 9:0.75233215 10:0.94269359 11:0.8204236 12:0.94889593 13:0.85698026 14:0.98929238 15:0.60379726 16:0.6047498 17:0.54642105 18:0.79066676 19:0.91192734 20:0.7900787 21:0.93873233 22:0.8779577 23:0.98292762 24:0.63066936 25:0.55900896 26:0.52901942 27:0.82050008 28:0.94421631 29:0.81850284 30:0.95073974 31:0.88658392 32:0.62566793 33:0.60577542 34:0.58183563 35:0.84783012 #
0.00034062013332638950815003942018677 1:0.21133406 2:0.12273328 3:0.092511833 4:0.048848879 5:0.99113065 6:0.04594085 7:0.05981857 8:0.088423349 9:0.19509605 10:0.2170421 11:0.13605265 12:0.1165996 13:0.069932647 14:0.98169678 15:0.072072238 16:0.092302367 17:0.11507797 18:0.20552742 19:0.17857078 20:0.11889131 21:0.085008137 22:0.060395379 23:0.054524079 24:0.06863416 25:0.09235815 26:0.17589098 27:0.20703895 28:0.13512628 29:0.11719142 30:0.090486199 31:0.99982262 32:0.084186807 33:0.094332732 34:0.10519592 35:0.20645662 #
0.00034062013332638950815003942018677 1:0.53073138 2:0.52851969 3:0.7227239 4:0.48735577 5:0.52468169 6:0.14650799 7:0.20179842 8:0.21000449 9:0.4232783 10:0.55914891 11:0.5779897 12:0.88426787 13:0.56611466 14:0.49249348 15:0.20013539 16:0.24917161 17:0.23701753 18:0.42741966 19:0.49031338 20:0.60826039 21:0.86087221 22:0.49345919 23:0.54441416 24:0.18484163 25:0.25220129 26:0.2344308 27:0.37362403 28:0.53579277 29:0.69603956 30:0.65084952 31:0.54845417 32:0.23613358 33:0.25652882 34:0.24098392 35:0.40389913 #
-0.00034062013332638950815003942018677 1:0.40441793 2:0.11129278 3:0.10267393 4:0.11120932 5:0.42725348 6:0.25530967 7:0.88437879 8:0.59816462 9:0.49325415 10:0.44730613 11:0.11318175 12:0.095876202 13:0.1012608 14:0.50345826 15:0.3345159 16:0.91873127 17:0.79028952 18:0.56683409 19:0.40346894 20:0.12701946 21:0.13389897 22:0.13487825 23:0.51165456 24:0.31823894 25:0.83657849 26:0.51084143 27:0.41976097 28:0.13652056 29:0.13021077 30:0.12590334 31:0.48070377 32:0.30597103 33:0.92963874 34:0.75885355 35:0.52828026 #
-0.00034062013332638950815003942018677 1:0.43407914 2:0.10959908 3:0.08252506 4:0.069573991 5:0.43327308 6:0.17693129 7:0.81548029 8:0.67514831 9:0.56067812 10:0.52935141 11:0.11709134 12:0.087476477 13:0.071403094 14:0.50864464 15:0.22734883 16:0.95230734 17:0.85735017 18:0.70839238 19:0.47555336 20:0.11819527 21:0.090893254 22:0.093137003 23:0.59341955 24:0.28549442 25:0.88372165 26:0.65527767 27:0.4415254 28:0.12540737 29:0.096328832 30:0.080589913 31:0.48613834 32:0.23455904 33:0.93262285 34:0.80566394 35:0.59860528 #
-0.00034062013332638950815003942018677 1:0.45425072 2:0.074583054 3:0.060292508 4:0.061464019 5:0.44653699 6:0.16846171 7:0.81550437 8:0.74788052 9:0.57799083 10:0.59418362 11:0.092791893 12:0.078687146 13:0.091750503 14:0.60226917 15:0.30551472 16:0.92251992 17:0.90432084 18:0.75454634 19:0.52595699 20:0.10136658 21:0.078891806 22:0.080646187 23:0.53268534 24:0.27995354 25:0.95818436 26:0.72311151 27:0.50372136 28:0.11670078 29:0.092722356 30:0.090973541 31:0.49029556 32:0.23119123 33:0.87978905 34:0.8546589 35:0.6634782 #
0.00034062013332638950815003942018677 1:0.78579307 2:0.68331975 3:0.88404512 4:0.75294644 5:0.92261672 6:0.48101062 7:0.41319984 8:0.36204368 9:0.63415658 10:0.75320071 11:0.7213304 12:0.94580573 13:0.81934273 14:0.97667122 15:0.51880252 16:0.46095195 17:0.39428326 18:0.62162697 19:0.91448975 20:0.740906 21:0.89932668 22:0.76077354 23:0.94937533 24:0.52767134 25:0.38594419 26:0.32498771 27:0.7457813 28:0.93466532 29:0.73188102 30:0.95419866 31:0.81250739 32:0.48805141 33:0.39295065 34:0.31436652 35:0.77855951 #
0.00034062013332638950815003942018677 1:0.87463707 2:0.55562931 3:0.73949885 4:0.53632325 5:0.85019964 6:0.46530688 7:0.58054745 8:0.51147431 9:0.9640435 10:0.95088565 11:0.65068167 12:0.81315511 13:0.65229517 14:0.88385886 15:0.48416421 16:0.52549922 17:0.49847966 18:0.99932814 19:0.83009696 20:0.66631377 21:0.85290599 22:0.59796947 23:0.84739715 24:0.57627362 25:0.69171894 26:0.57860303 27:0.9599027 28:0.92489237 29:0.76344633 30:0.89427763 31:0.68455398 32:0.91661042 33:0.56313282 34:0.67499876 35:0.59287983 #
-0.00034062013332638950815003942018677 1:0.98360121 2:0.78467435 3:0.80507243 4:0.54005128 5:0.85406691 6:0.4384816 7:0.4768073 8:0.4182812 9:0.91337734 10:0.90983981 11:0.81836355 12:0.79438257 13:0.52628291 14:0.90384316 15:0.45512494 16:0.54148686 17:0.42197701 18:0.83719146 19:0.85538417 20:0.78254408 21:0.79029745 22:0.52987492 23:0.89558095 24:0.46387932 25:0.50936425 26:0.46865803 27:0.76032186 28:0.93518114 29:0.88087189 30:0.84523588 31:0.60661584 32:0.49178213 33:0.54189336 34:0.44610777 35:0.84057039 #
-0.00034062013332638950815003942018677 1:0.84012544 2:0.70929068 3:0.68061537 4:0.58851796 5:0.93277836 6:0.54783553 7:0.67990661 8:0.65735257 9:0.79093456 10:0.92254955 11:0.75460416 12:0.69384509 13:0.5666644 14:0.95312101 15:0.55601251 16:0.65006655 17:0.63946551 18:0.86116099 19:0.90068597 20:0.70312262 21:0.70399916 22:0.5776602 23:0.93324041 24:0.50448376 25:0.6301024 26:0.63781953 27:0.86987275 28:0.74316567 29:0.7206232 30:0.57340974 31:0.98993093 32:0.56757766 33:0.67348188 34:0.66377658 35:0.95654488 #
-0.00034062013332638950815003942018677 1:0.81795466 2:0.55523455 3:0.64213961 4:0.57442939 5:0.85926425 6:0.62955743 7:0.64701855 8:0.64054316 9:0.83799613 10:0.85892957 11:0.57275844 12:0.68603498 13:0.64246911 14:0.85259241 15:0.70020694 16:0.68513972 17:0.70330739 18:0.8741703 19:0.76083803 20:0.62539423 21:0.78235143 22:0.68182641 23:0.73835003 24:0.77117515 25:0.73267603 26:0.85422957 27:0.80827379 28:0.64999121 29:0.83032686 30:0.74797755 31:0.94655305 32:0.78119695 33:0.79421884 34:0.7860648 35:0.90154153 #
0.00034062013332638950815003942018677 1:0.82263935 2:0.17529516 3:0.12494055 4:0.10278014 5:0.28761789 6:0.15020953 7:0.35148859 8:0.61108392 9:0.98414189 10:0.87431693 11:0.2109683 12:0.13883314 13:0.10743132 14:0.34941983 15:0.18253008 16:0.35810015 17:0.60880923 18:0.7640453 19:0.24863772 20:0.1461626 21:0.14793961 22:0.3652415 23:0.23426655 24:0.46047217 25:0.727404 26:0.99461979 27:0.7939775 28:0.27959809 29:0.15887406 30:0.15316287 31:0.4182449 32:0.24739568 33:0.44836989 34:0.7278325 35:0.99834502 #
0.00034062013332638950815003942018677 1:0.76068604 2:0.24090075 3:0.20811896 4:0.13552195 5:0.24831706 6:0.19890761 7:0.38624054 8:0.47863552 9:0.84452802 10:0.78353357 11:0.28116894 12:0.23168635 13:0.11748727 14:0.32027817 15:0.21472284 16:0.37455246 17:0.46193394 18:0.83850211 19:0.90412676 20:0.25221941 21:0.24256042 22:0.16762684 23:0.29182771 24:0.28101456 25:0.45276722 26:0.4935551 27:0.8627882 28:0.28161362 29:0.21971321 30:0.13915975 31:0.32208544 32:0.23361953 33:0.42941466 34:0.4959693 35:0.93656379 #
-0.00034062013332638950815003942018677 1:0.60670906 2:0.35849074 3:0.4508504 4:0.54117 5:0.9456495 6:0.59527487 7:0.62219626 8:0.48571041 9:0.57685095 10:0.70160878 11:0.36159408 12:0.47314209 13:0.51442236 14:0.93335593 15:0.56816179 16:0.6234569 17:0.54354018 18:0.67671674 19:0.6260218 20:0.3747384 21:0.52554405 22:0.60931104 23:0.6436131 24:0.68311548 25:0.5551548 26:0.63334233 27:0.72236478 28:0.38127923 29:0.52913356 30:0.60488808 31:0.99143726 32:0.61836368 33:0.72418058 34:0.6289984 35:0.73897636 #
0.00034062013332638950815003942018677 1:0.83224434 2:0.62566423 3:0.67142844 4:0.56270784 5:0.94290566 6:0.56658673 7:0.61649227 8:0.62532681 9:0.80894196 10:0.88359988 11:0.71140301 12:0.70477933 13:0.55745202 14:0.61338419 15:0.71418667 16:0.69722319 17:0.87108016 18:0.80482143 19:0.63933837 20:0.63903791 21:0.59814638 22:0.93527269 23:0.5928883 24:0.67656708 25:0.64717638 26:0.85291469 27:0.92492598 28:0.72228676 29:0.72988766 30:0.630481 31:0.99472833 32:0.63351721 33:0.76074719 34:0.72174758 35:0.91225219 #
0.00034062013332638950815003942018677 1:0.90625554 2:0.55378729 3:0.54150128 4:0.40801868 5:0.82156211 6:0.50504166 7:0.67473805 8:0.61637694 9:0.92375541 10:0.94112283 11:0.52344853 12:0.53634357 13:0.43355143 14:0.93018359 15:0.55752945 16:0.71963286 17:0.683716 18:0.96291041 19:0.94514674 20:0.51606315 21:0.51431656 22:0.44281921 23:0.87422472 24:0.57306641 25:0.76380378 26:0.71038288 27:0.94371921 28:0.53890467 29:0.58739257 30:0.47422659 31:0.97608089 32:0.6679365 33:0.83238608 34:0.77710873 35:0.98316455 #
-0.00034062013332638950815003942018677 1:0.72278285 2:0.4659355 3:0.49501359 4:0.5163182 5:0.88404661 6:0.54443771 7:0.80360901 8:0.7460416 9:0.89647949 10:0.79150993 11:0.59553498 12:0.68671501 13:0.66628975 14:0.86097246 15:0.68527657 16:0.87415659 17:0.84029782 18:0.99924982 19:0.76188129 20:0.47262406 21:0.57587969 22:0.57845634 23:0.9987601 24:0.62337929 25:0.86185902 26:0.83217174 27:0.92884547 28:0.79214132 29:0.58017337 30:0.72425669 31:0.67465514 32:0.94623214 33:0.69892067 34:0.8840155 35:0.87174255 #
-0.00034062013332638950815003942018677 1:0.8289786 2:0.4230645 3:0.40887222 4:0.37119949 5:0.79771686 6:0.5921306 7:0.71088988 8:0.67018169 9:0.87515223 10:0.91635472 11:0.47909373 12:0.47233284 13:0.42304114 14:0.86365807 15:0.66190118 16:0.7589708 17:0.72397685 18:0.9560349 19:0.87965274 20:0.54936439 21:0.54274535 22:0.50020444 23:0.91685462 24:0.68448406 25:0.84538442 26:0.81552267 27:0.90267551 28:0.98195565 29:0.6103999 30:0.5660637 31:0.56399298 32:0.79502976 33:0.90960747 34:0.8405515 35:0.96718347 #
0.00034062013332638950815003942018677 1:0.5538165 2:0.19905086 3:0.25369206 4:0.23437352 5:0.8339811 6:0.3322562 7:0.54934448 8:0.42637342 9:0.59052664 10:0.5222472 11:0.17539573 12:0.20349941 13:0.19523792 14:0.87000811 15:0.38101184 16:0.60648584 17:0.50684565 18:0.60689467 19:0.56812114 20:0.1608367 21:0.23257333 22:0.21853462 23:0.43416673 24:0.55265272 25:0.50475442 26:0.66522515 27:0.50501847 28:0.15185419 29:0.17494492 30:0.19263463 31:0.8456226 32:0.33740246 33:0.56986499 34:0.42608663 35:0.59940714 #
0.00034062013332638950815003942018677 1:0.50747663 2:0.32117525 3:0.43053007 4:0.43544728 5:0.95995647 6:0.28149343 7:0.26608816 8:0.18378626 9:0.42704883 10:0.56667829 11:0.3483918 12:0.44867462 13:0.45121869 14:0.90402567 15:0.35747987 16:0.3299821 17:0.25829536 18:0.47764164 19:0.50752223 20:0.35167107 21:0.47557756 22:0.46867955 23:0.30802792 24:0.30064887 25:0.24155472 26:0.44896382 27:0.56874663 28:0.45171472 29:0.52295798 30:0.50009388 31:0.9385168 32:0.35564464 33:0.32495058 34:0.2701253 35:0.51611584 #
-0.00034062013332638950815003942018677 1:0.94186199 2:0.39632818 3:0.24853732 4:0.14656347 5:0.27607673 6:0.10296664 7:0.13673563 8:0.2170728 9:0.80212331 10:0.43582004 11:0.29181457 12:0.17106049 13:0.27767569 14:0.14205424 15:0.16152273 16:0.2618559 17:0.88044512 18:0.78768069 19:0.43874034 20:0.30644527 21:0.17445783 22:0.31559384 23:0.16456769 24:0.21066111 25:0.31346244 26:0.70995617 27:0.81786472 28:0.48750392 29:0.37837037 30:0.20849794 31:0.31400001 32:0.2026615 33:0.23603374 34:0.33417267 35:0.74527627 #
-0.00034062013332638950815003942018677 1:0.35830268 2:0.19489238 3:0.20744658 4:0.37863195 5:0.94327825 6:0.3086921 7:0.23184238 8:0.18806325 9:0.33245915 10:0.40815061 11:0.26489964 12:0.3133418 13:0.53293544 14:0.81276 15:0.36460903 16:0.27283868 17:0.23809111 18:0.37872034 19:0.36658567 20:0.20985511 21:0.23347488 22:0.43065724 23:0.35041976 24:0.26066372 25:0.20266674 26:0.33568218 27:0.44582906 28:0.28282425 29:0.34063083 30:0.56593198 31:0.86975133 32:0.40803885 33:0.31787637 34:0.27071196 35:0.40183735 #
-0.00034062013332638950815003942018677 1:0.54980844 2:0.42959613 3:0.43742156 4:0.41630989 5:0.90134114 6:0.46127477 7:0.48533833 8:0.47255701 9:0.57245564 10:0.55182767 11:0.4294984 12:0.42394182 13:0.39499432 14:0.96256369 15:0.46286985 16:0.50527656 17:0.49878499 18:0.57895154 19:0.58426636 20:0.45024124 21:0.46955875 22:0.43352747 23:0.89984679 24:0.50367075 25:0.53945386 26:0.50229967 27:0.61760151 28:0.62091684 29:0.45855904 30:0.47619864 31:0.42420316 32:0.50374383 33:0.53569597 34:0.51612931 35:0.63916641 #
-0.00034062013332638950815003942018677 1:0.66067988 2:0.36275333 3:0.38191989 4:0.53645289 5:0.88346928 6:0.60502887 7:0.63022512 8:0.54335946 9:0.69885802 10:0.75110912 11:0.47677612 12:0.45842564 13:0.54877478 14:0.87221181 15:0.63678843 16:0.6540693 17:0.58650798 18:0.76810229 19:0.63844234 20:0.42333102 21:0.46048668 22:0.64154965 23:0.71949041 24:0.66355485 25:0.58848011 26:0.68736815 27:0.71860594 28:0.55844843 29:0.54590821 30:0.63548291 31:0.93340623 32:0.70968276 33:0.72888625 34:0.63506651 35:0.70357561 #
0.00034062013332638950815003942018677 1:0.84997505 2:0.52848709 3:0.49425238 4:0.53428155 5:0.82262141 6:0.61992115 7:0.64358085 8:0.60840535 9:0.80156243 10:0.89858449 11:0.58783001 12:0.52062136 13:0.59262073 14:0.89808267 15:0.65877253 16:0.70991927 17:0.66547972 18:0.85831541 19:0.80916768 20:0.66543978 21:0.59936279 22:0.60905516 23:0.91338295 24:0.72398251 25:0.74396235 26:0.73966843 27:0.77581823 28:0.86966848 29:0.74982691 30:0.67903715 31:0.70379502 32:0.76044905 33:0.83610636 34:0.80281281 35:0.8298822 #
-0.00034062013332638950815003942018677 1:0.86324435 2:0.64799541 3:0.72181022 4:0.62753779 5:0.91506934 6:0.60089409 7:0.58252925 8:0.55072391 9:0.80188483 10:0.93875355 11:0.70348775 12:0.79598945 13:0.67391479 14:0.94019324 15:0.62845623 16:0.61394477 17:0.57126629 18:0.82911581 19:0.879228 20:0.66841453 21:0.77444988 22:0.6524393 23:0.93086898 24:0.64879066 25:0.62359828 26:0.58367044 27:0.80582947 28:0.77241045 29:0.84313989 30:0.72904015 31:0.9576385 32:0.66804618 33:0.67339939 34:0.63386202 35:0.91760433 #
-0.00034062013332638950815003942018677 1:0.97387409 2:0.74163252 3:0.741238 4:0.6014753 5:0.74793565 6:0.43060219 7:0.54665941 8:0.71148139 9:0.89548296 10:0.94376653 11:0.69706446 12:0.65892607 13:0.5199948 14:0.89153928 15:0.41724658 16:0.50756222 17:0.69789588 18:0.8975594 19:0.75057983 20:0.78689134 21:0.62133163 22:0.7945773 23:0.54274404 24:0.65265328 25:0.787718 26:0.9691186 27:0.97062308 28:0.72435927 29:0.77123588 30:0.57222098 31:0.98331743 32:0.50091588 33:0.58509767 34:0.72174567 35:0.96185762 #
0.00034062013332638950815003942018677 1:0.29324436 2:0.2356012 3:0.22049579 4:0.73457128 5:0.15875138 6:0.2167643 7:0.20269936 8:0.93210059 9:0.89597636 10:0.34430423 11:0.33907998 12:0.3489143 13:0.58721477 14:0.34120724 15:0.33783361 16:0.27297723 17:0.88149661 18:0.91805643 19:0.23571545 20:0.22687101 21:0.23158158 22:0.75526422 23:0.18213935 24:0.20923151 25:0.17561387 26:0.90675163 27:0.97371578 28:0.3246429 29:0.33989546 30:0.40590033 31:0.64276129 32:0.30892485 33:0.28372258 34:0.25726801 35:0.95744205 #
-0.00034062013332638950815003942018677 1:0.14088748 2:0.12726314 3:0.12513816 4:0.16704182 5:0.96058875 6:0.22037914 7:0.18673503 8:0.18393026 9:0.15275514 10:0.15683585 11:0.16990395 12:0.1951395 13:0.29544365 14:0.81246358 15:0.32997641 16:0.24603157 17:0.24315029 18:0.18184835 19:0.15305947 20:0.12917325 21:0.1363662 22:0.19311988 23:0.24967149 24:0.20021449 25:0.20133194 26:0.16842373 27:0.17975022 28:0.18255723 29:0.21703117 30:0.34334883 31:0.82656497 32:0.35034233 33:0.25979215 34:0.24614532 35:0.19830756 #
-0.00034062013332638950815003942018677 1:0.81100678 2:0.38063553 3:0.20996085 4:0.18151318 5:0.30513817 6:0.14403401 7:0.17288902 8:0.31004047 9:0.83358496 10:0.88332319 11:0.46132904 12:0.22219859 13:0.18286353 14:0.24762437 15:0.14423867 16:0.18673435 17:0.35267192 18:0.90447897 19:0.86679935 20:0.368031 21:0.27371427 22:0.20391564 23:0.33335012 24:0.18167879 25:0.20971496 26:0.34356695 27:0.87784809 28:0.96983427 29:0.47728676 30:0.34672219 31:0.23321724 32:0.29156274 33:0.1618623 34:0.21973781 35:0.38308954 #
-0.00034062013332638950815003942018677 1:0.75605226 2:0.28647637 3:0.18536328 4:0.11100385 5:0.4852249 6:0.158939 7:0.39376521 8:0.47473231 9:0.80227494 10:0.81020397 11:0.31992573 12:0.21601583 13:0.16465071 14:0.41476417 15:0.25541371 16:0.56027681 17:0.63827521 18:0.83270091 19:0.88732481 20:0.15587084 21:0.10802233 22:0.098655343 23:0.46979263 24:0.13517411 25:0.30106384 26:0.32278794 27:0.95342493 28:0.95206571 29:0.18080291 30:0.1330903 31:0.13819723 32:0.31856391 33:0.21348193 34:0.41193083 35:0.42243844 #
-0.00034062013332638950815003942018677 1:0.77504742 2:0.25374007 3:0.21078019 4:0.19637744 5:0.33767495 6:0.22940411 7:0.31567961 8:0.36246985 9:0.81262946 10:0.78402168 11:0.25037518 12:0.19775063 13:0.20208278 14:0.40187213 15:0.23880044 16:0.36302242 17:0.40389505 18:0.82070076 19:0.96729171 20:0.23707418 21:0.19907632 22:0.1957902 23:0.35145912 24:0.26242214 25:0.34319064 26:0.39223588 27:0.99101323 28:0.98805499 29:0.22645038 30:0.17773746 31:0.19709633 32:0.39812496 33:0.25541937 34:0.34506083 35:0.39510342 #
0.00034062013332638950815003942018677 1:0.6744867 2:0.54473233 3:0.64487106 4:0.51465034 5:0.95242411 6:0.60828733 7:0.67558444 8:0.52004361 9:0.75835329 10:0.76677799 11:0.59967744 12:0.63417637 13:0.59026533 14:0.92016643 15:0.61185831 16:0.71275151 17:0.56855345 18:0.81222552 19:0.76807523 20:0.63587278 21:0.7141633 22:0.57030237 23:0.69982755 24:0.7430405 25:0.586716 26:0.81051672 27:0.87270844 28:0.68576872 29:0.71478134 30:0.65782338 31:0.99619979 32:0.72848988 33:0.82125336 34:0.65507823 35:0.86591971 #
0.00034062013332638950815003942018677 1:0.84316015 2:0.52412063 3:0.56850702 4:0.47855601 5:0.79329687 6:0.52318764 7:0.73085737 8:0.76325554 9:0.90276891 10:0.87369168 11:0.65410393 12:0.66467571 13:0.52776957 14:0.78371328 15:0.51410627 16:0.71519524 17:0.75200498 18:0.8927545 19:0.86818552 20:0.60005081 21:0.60851115 22:0.53849566 23:0.8129279 24:0.60454792 25:0.76180774 26:0.77682304 27:0.87713689 28:0.66541159 29:0.65209329 30:0.57940519 31:0.81374818 32:0.591932 33:0.73000669 34:0.76393217 35:0.94809765 #
-0.00034062013332638950815003942018677 1:0.78182626 2:0.44762671 3:0.39901862 4:0.34233564 5:0.71442252 6:0.4472968 7:0.86404592 8:0.78734809 9:0.85390055 10:0.91422367 11:0.51336044 12:0.45539048 13:0.38935593 14:0.8288883 15:0.52854013 16:0.98184627 17:0.95674044 18:0.8854605 19:0.55124068 20:0.4498499 21:0.39466974 22:0.86903805 23:0.58998358 24:0.98586255 25:0.95625693 26:0.98891115 27:0.89164907 28:0.60060233 29:0.51856333 30:0.42679843 31:0.84651726 32:0.57987052 33:0.95962733 34:0.90724754 35:0.96763515 #
-0.00034062013332638950815003942018677 1:0.66124511 2:0.63502485 3:0.57037514 4:0.76390886 5:0.51888466 6:0.66121483 7:0.67505485 8:0.93435502 9:0.99738896 10:0.61198318 11:0.60273701 12:0.54080296 13:0.76053482 14:0.49175772 15:0.64824086 16:0.67560136 17:0.95891696 18:0.96137071 19:0.72553051 20:0.69352108 21:0.6343115 22:0.77950484 23:0.57870859 24:0.74929017 25:0.74056345 26:0.96551323 27:0.9991073 28:0.70152175 29:0.63548261 30:0.58325404 31:0.82151186 32:0.54034179 33:0.70824772 34:0.76502919 35:0.99842674 #
0.00034062013332638950815003942018677 1:0.97864705 2:0.53972518 3:0.47005457 4:0.25608963 5:0.30460611 6:0.16029555 7:0.25720486 8:0.28585708 9:0.9427157 10:0.94692945 11:0.53071547 12:0.44646659 13:0.22767407 14:0.32653302 15:0.14090179 16:0.24172139 17:0.28926647 18:0.90271026 19:0.98168498 20:0.50187302 21:0.41331592 22:0.26769781 23:0.3009603 24:0.15158026 25:0.21090263 26:0.24915753 27:0.94295359 28:0.51929599 29:0.40394369 30:0.25778112 31:0.35833028 32:0.13919854 33:0.21213575 34:0.28273994 35:0.96620369 #
0.00034062013332638950815003942018677 1:0.81237131 2:0.27000567 3:0.19153 4:0.16931127 5:0.47362751 6:0.29850909 7:0.36000571 8:0.33766901 9:0.89704168 10:0.89222425 11:0.32854104 12:0.22861105 13:0.21232918 14:0.45712635 15:0.36020488 16:0.38015592 17:0.39908293 18:0.97063524 19:0.8537851 20:0.21226543 21:0.19037595 22:0.17716737 23:0.49694756 24:0.30401179 25:0.36186785 26:0.32118538 27:0.91044647 28:0.9456073 29:0.29838458 30:0.24660254 31:0.22605541 32:0.46796384 33:0.35207132 34:0.41459808 35:0.37192807 #
0.00034062013332638950815003942018677 1:0.95006984 2:0.62331367 3:0.46319255 4:0.22336881 5:0.40340689 6:0.15631264 7:0.18650107 8:0.20054568 9:0.80992526 10:0.9264372 11:0.67748386 12:0.46453056 13:0.27222255 14:0.46760073 15:0.20435032 16:0.22464699 17:0.24819224 18:0.79165447 19:0.95870036 20:0.56356812 21:0.43137145 22:0.25082403 23:0.41484132 24:0.15913357 25:0.17561401 26:0.18692875 27:0.83429492 28:0.63988829 29:0.5093056 30:0.30416837 31:0.48962203 32:0.19880432 33:0.20635121 34:0.21945155 35:0.88757575 #
0.00034062013332638950815003942018677 1:0.53002912 2:0.38901165 3:0.52614719 4:0.48009491 5:0.84424365 6:0.35016319 7:0.43279129 8:0.27496183 9:0.53346455 10:0.51190311 11:0.31380042 12:0.43799272 13:0.3898527 14:0.98836988 15:0.29665014 16:0.38100711 17:0.27007452 18:0.49797904 19:0.57081246 20:0.38119048 21:0.56706119 22:0.50045776 23:0.7909072 24:0.40422702 25:0.48111209 26:0.29339674 27:0.56334215 28:0.55790979 29:0.31380132 30:0.44301879 31:0.39011589 32:0.30216217 33:0.3924844 34:0.27477273 35:0.55662483 #
-0.00034062013332638950815003942018677 1:0.7812863 2:0.51831812 3:0.51883984 4:0.46196738 5:0.83191568 6:0.51878315 7:0.71745902 8:0.66047394 9:0.81718975 10:0.87111008 11:0.58049148 12:0.5681892 13:0.49759981 14:0.84949702 15:0.64286655 16:0.84306413 17:0.7647624 18:0.89635211 19:0.90514761 20:0.60994846 21:0.65017122 22:0.53908169 23:0.871023 24:0.60567969 25:0.75583839 26:0.6698761 27:0.96305054 28:0.93149668 29:0.67613739 30:0.71030855 31:0.58547187 32:0.87811852 33:0.66701269 34:0.82948273 35:0.76708621 #
-0.00034062013332638950815003942018677 1:0.89097124 2:0.66852456 3:0.6566329 4:0.46889517 5:0.75940406 6:0.4542945 7:0.61828965 8:0.57809508 9:0.8624177 10:0.95525408 11:0.70074093 12:0.68643129 13:0.50070971 14:0.81782246 15:0.51588702 16:0.71704805 17:0.67908931 18:0.92131513 19:0.96074772 20:0.69803399 21:0.69211102 22:0.49841154 23:0.81064647 24:0.50465888 25:0.68847096 26:0.65705413 27:0.91772938 28:0.76562744 29:0.746158 30:0.55597717 31:0.8553741 32:0.54223502 33:0.72945154 34:0.69490123 35:0.95855665 #
-0.00034062013332638950815003942018677 1:0.74906641 2:0.50061464 3:0.5575071 4:0.51212668 5:0.83844638 6:0.58779335 7:0.66632259 8:0.53917533 9:0.74861306 10:0.84305537 11:0.59131104 12:0.64837706 13:0.55890107 14:0.90418112 15:0.68462026 16:0.7511133 17:0.60797274 18:0.85643822 19:0.79206151 20:0.56950241 21:0.61578977 22:0.57127512 23:0.90961045 24:0.66275942 25:0.75804615 26:0.6127072 27:0.79664344 28:0.91348779 29:0.69693035 30:0.7361452 31:0.61536801 32:0.75400019 33:0.83316416 34:0.67961913 35:0.89578062 #
0.00034062013332638950815003942018677 1:0.9007917 2:0.32638597 3:0.23765752 4:0.16970284 5:0.37237981 6:0.31503564 7:0.32651287 8:0.42444435 9:0.95983434 10:0.95968819 11:0.37100127 12:0.23991904 13:0.19321106 14:0.42527103 15:0.33328506 16:0.3584539 17:0.46603698 18:0.85132271 19:0.33625764 20:0.1780898 21:0.14384453 22:0.40872815 23:0.31083632 24:0.3263579 25:0.44246647 26:0.90247053 27:0.89586508 28:0.38689712 29:0.20561434 30:0.17995615 31:0.45763993 32:0.38461435 33:0.3727755 34:0.46416923 35:0.94303268 #
0.00034062013332638950815003942018677 1:0.56727833 2:0.49411967 3:0.38511452 4:0.46295407 5:0.69153708 6:0.44310668 7:0.32815337 8:0.36706528 9:0.56928521 10:0.54453856 11:0.38087684 12:0.22133538 13:0.35588044 14:0.3329142 15:0.21742731 16:0.32299066 17:0.55697346 18:0.60311764 19:0.48548171 20:0.38502935 21:0.47846863 22:0.68383151 23:0.50483549 24:0.3831082 25:0.41238326 26:0.62001479 27:0.59590369 28:0.42165065 29:0.31155881 30:0.38982147 31:0.96968353 32:0.35231721 33:0.24025229 34:0.35038936 35:0.59913892 #
0.00034062013332638950815003942018677 1:0.6970489 2:0.45396054 3:0.50419837 4:0.43583089 5:0.30007568 6:0.2354866 7:0.22771011 8:0.63008183 9:0.70158494 10:0.4463309 11:0.47467557 12:0.35574052 13:0.87503934 14:0.24272776 15:0.21911572 16:0.21965824 17:0.61560124 18:0.69045794 19:0.49855801 20:0.53750783 21:0.42350912 22:0.94382954 23:0.28411973 24:0.22812954 25:0.23538087 26:0.62485403 27:0.70724589 28:0.4917095 29:0.53575844 30:0.43655246 31:0.95784724 32:0.27175584 33:0.25849986 34:0.27986607 35:0.64040291 #
-0.00034062013332638950815003942018677 1:0.93358123 2:0.23947398 3:0.26366788 4:0.15319265 5:0.38730612 6:0.19368131 7:0.20899278 8:0.21257038 9:0.94057977 10:0.98511773 11:0.27858871 12:0.28911456 13:0.16691105 14:0.31886518 15:0.20543073 16:0.2240629 17:0.24061574 18:0.85653126 19:0.29473463 20:0.28391567 21:0.17495824 22:0.3679336 23:0.2419052 24:0.23844783 25:0.25842756 26:0.83845365 27:0.88360023 28:0.35673502 29:0.33356994 30:0.18474276 31:0.34404418 32:0.24581759 33:0.25471649 34:0.30095538 35:0.86624593 #
-0.00034062013332638950815003942018677 1:0.53882098 2:0.4256489 3:0.4561083 4:0.42220801 5:0.24314001 6:0.18161468 7:0.2102643 8:0.48497897 9:0.52698559 10:0.35163295 11:0.42806667 12:0.42707601 13:0.98306036 14:0.27027231 15:0.20678139 16:0.24036448 17:0.49559385 18:0.57033074 19:0.39408627 20:0.41884074 21:0.40170762 22:0.97499216 23:0.26657358 24:0.22356953 25:0.26628441 26:0.52869892 27:0.59550649 28:0.3779124 29:0.44759655 30:0.43517959 31:0.97074074 32:0.30168653 33:0.24449216 34:0.27751848 35:0.56325001 #
0.00034062013332638950815003942018677 1:0.6549415 2:0.080517143 3:0.10265449 4:0.092512727 5:0.25304386 6:0.11791489 7:0.42088947 8:0.61254436 9:0.93857247 10:0.75718063 11:0.10034391 12:0.10042926 13:0.072987393 14:0.28613949 15:0.16623993 16:0.50273138 17:0.65008432 18:0.9671796 19:0.77458549 20:0.10466495 21:0.10284197 22:0.086546659 23:0.25204849 24:0.13764454 25:0.53412431 26:0.70311588 27:0.75996238 28:0.12478016 29:0.10612749 30:0.072125107 31:0.26147869 32:0.14769265 33:0.52051032 34:0.71171778 35:0.98768413 #
-0.00034062013332638950815003942018677 1:0.70172131 2:0.57156903 3:0.58048511 4:0.74941444 5:0.90848231 6:0.70445907 7:0.56388277 8:0.51287401 9:0.68660891 10:0.70143729 11:0.57175666 12:0.60384148 13:0.66480887 14:0.95254564 15:0.68672609 16:0.6822263 17:0.55165631 18:0.68037593 19:0.8177079 20:0.69283783 21:0.69692683 22:0.84014136 23:0.96152127 24:0.75887638 25:0.65903187 26:0.61374193 27:0.81236631 28:0.85919201 29:0.73949081 30:0.74102396 31:0.74897337 32:0.76175642 33:0.73833466 34:0.62115884 35:0.82341576 #
-0.00034062013332638950815003942018677 1:0.89855015 2:0.45611206 3:0.42393121 4:0.50112247 5:0.8608408 6:0.5863654 7:0.70899326 8:0.76762599 9:0.9762153 10:0.91007954 11:0.51358885 12:0.4385753 13:0.51071268 14:0.91385072 15:0.56591797 16:0.71864533 17:0.73122591 18:0.95955002 19:0.90659761 20:0.53719777 21:0.51709843 22:0.57480127 23:0.92119735 24:0.71408898 25:0.81196183 26:0.85792488 27:0.90597677 28:0.5931077 29:0.54151827 30:0.6226123 31:0.99712646 32:0.68262637 33:0.83474034 34:0.8002336 35:0.9735316 #
-0.00034062013332638950815003942018677 1:0.80823505 2:0.50108969 3:0.57476056 4:0.45894006 5:0.83926135 6:0.53448606 7:0.76267725 8:0.66363591 9:0.80423737 10:0.89343166 11:0.56551838 12:0.63556898 13:0.49901846 14:0.95355368 15:0.55142051 16:0.80593675 17:0.7078836 18:0.86446077 19:0.8526504 20:0.5591256 21:0.62009352 22:0.48927566 23:0.88756442 24:0.61892527 25:0.74618816 26:0.67706931 27:0.86521542 28:0.9118697 29:0.61541796 30:0.65656704 31:0.51852429 32:0.59920198 33:0.7660085 34:0.70620823 35:0.93495846 #
0.00034062013332638950815003942018677 1:0.83502221 2:0.49755207 3:0.48375916 4:0.34007514 5:0.87978536 6:0.42618957 7:0.73983109 8:0.83012885 9:0.8878057 10:0.8697871 11:0.59359479 12:0.64244324 13:0.37447631 14:0.6966877 15:0.44433436 16:0.81538415 17:0.87514102 18:0.9090808 19:0.93379164 20:0.53271282 21:0.49104756 22:0.41942576 23:0.93618125 24:0.52729034 25:0.86211473 26:0.87316656 27:0.96047896 28:0.60022277 29:0.62290126 30:0.48882794 31:0.80159211 32:0.54138219 33:0.87199825 34:0.83317906 35:0.95646793 #
0.00034062013332638950815003942018677 1:0.90004599 2:0.35887286 3:0.24640559 4:0.23336981 5:0.37931165 6:0.17056946 7:0.33755079 8:0.46179864 9:0.96536696 10:0.95000273 11:0.43398938 12:0.29868209 13:0.2619158 14:0.34738356 15:0.20968302 16:0.35437974 17:0.49816912 18:0.85392469 19:0.40225711 20:0.29492077 21:0.24170442 22:0.37418428 23:0.19112484 24:0.33851478 25:0.47887999 26:0.92805028 27:0.91163176 28:0.47081625 29:0.34858471 30:0.26954731 31:0.35120305 32:0.22091171 33:0.35469526 34:0.52310181 35:0.9649986 #
-0.00034062013332638950815003942018677 1:0.95223296 2:0.38747689 3:0.35794777 4:0.10861147 5:0.18639614 6:0.11677434 7:0.24161904 8:0.30508173 9:0.94929236 10:0.95353979 11:0.39579716 12:0.38623032 13:0.12208306 14:0.21087743 15:0.13747002 16:0.24236386 17:0.31011572 18:0.94672996 19:0.98399097 20:0.39873803 21:0.37194502 22:0.12686077 23:0.23238467 24:0.17127463 25:0.27925479 26:0.36809123 27:0.97109598 28:0.42078787 29:0.40268588 30:0.14120378 31:0.2413862 32:0.1754363 33:0.26895866 34:0.36420256 35:0.98825663 #
-0.00034062013332638950815003942018677 1:0.91277963 2:0.38784015 3:0.35028976 4:0.23864257 5:0.2726976 6:0.17669308 7:0.23867854 8:0.28778923 9:0.89624727 10:0.99093527 11:0.42563552 12:0.39917269 13:0.26198217 14:0.27062932 15:0.21359861 16:0.28399062 17:0.34108302 18:0.95429385 19:0.96557742 20:0.37811947 21:0.32612494 22:0.20724289 23:0.23894863 24:0.17777543 25:0.26956743 26:0.31308845 27:0.94942558 28:0.44936621 29:0.40570015 30:0.23759711 31:0.23112813 32:0.20417069 33:0.29996163 34:0.35196406 35:0.98902792 #
-0.00034062013332638950815003942018677 1:0.90511709 2:0.62979019 3:0.52379668 4:0.22134124 5:0.35877368 6:0.16544496 7:0.17993344 8:0.31768459 9:0.77780879 10:0.86302108 11:0.5985021 12:0.48972893 13:0.13878316 14:0.36503258 15:0.08690922 16:0.13554421 17:0.30276689 18:0.78547239 19:0.99686557 20:0.60724348 21:0.49562183 22:0.16092001 23:0.3224549 24:0.14532156 25:0.12315247 26:0.27750224 27:0.90186912 28:0.58655685 29:0.50278962 30:0.15268381 31:0.3986612 32:0.10173915 33:0.12881035 34:0.30075374 35:0.92710137 #
0.00034062013332638950815003942018677 1:0.69672906 2:0.55984247 3:0.65277541 4:0.70909804 5:0.87854367 6:0.63291794 7:0.69278091 8:0.50255263 9:0.70174807 10:0.70315135 11:0.56239253 12:0.61497313 13:0.62490463 14:0.88843066 15:0.59269619 16:0.67243123 17:0.56323332 18:0.71652699 19:0.75997108 20:0.66914302 21:0.74067932 22:0.78569913 23:0.98717028 24:0.76549822 25:0.75685972 26:0.5765326 27:0.75123769 28:0.76518852 29:0.64533484 30:0.75897855 31:0.71771288 32:0.68925291 33:0.73225981 34:0.60920304 35:0.76138383 #
0.00034062013332638950815003942018677 1:0.6395188 2:0.36729404 3:0.42000011 4:0.42166764 5:0.83422071 6:0.58885181 7:0.9227891 8:0.58793879 9:0.77334738 10:0.71512532 11:0.38323537 12:0.42724109 13:0.47623143 14:0.93343449 15:0.69908154 16:0.98259878 17:0.69319457 18:0.83733284 19:0.6805585 20:0.43301553 21:0.51522952 22:0.44494152 23:0.89249027 24:0.64973241 25:0.67421639 26:0.79367936 27:0.71214789 28:0.45868301 29:0.56286925 30:0.51003569 31:0.94519091 32:0.7732023 33:0.98672605 34:0.77195805 35:0.82376474 #
0.00034062013332638950815003942018677 1:0.78239387 2:0.57360768 3:0.61734766 4:0.55114192 5:0.97992921 6:0.52595168 7:0.52916372 8:0.42912599 9:0.77145362 10:0.91183656 11:0.67027253 12:0.72942924 13:0.64381582 14:0.92298192 15:0.63523751 16:0.6505217 17:0.51438385 18:0.87972689 19:0.8446098 20:0.59118283 21:0.66297263 22:0.58989745 23:0.99125165 24:0.54949498 25:0.52882767 26:0.45374262 27:0.80315542 28:0.97016144 29:0.73360997 30:0.74955153 31:0.7479834 32:0.72065288 33:0.73513591 34:0.57659054 35:0.97083509 #
-0.00034062013332638950815003942018677 1:0.75590092 2:0.52397871 3:0.43581259 4:0.47266626 5:0.879022 6:0.69987166 7:0.76466298 8:0.63833988 9:0.81169194 10:0.83722281 11:0.56698215 12:0.47520164 13:0.50571042 14:0.69299859 15:0.77529973 16:0.69742721 17:0.88261008 18:0.89409566 19:0.66059345 20:0.52537835 21:0.4586426 22:0.9456957 23:0.75388628 24:0.69582516 25:0.64002919 26:0.90112805 27:0.94298935 28:0.64693159 29:0.55358332 30:0.49863356 31:0.99391621 32:0.7016595 33:0.71214545 34:0.65319401 35:0.97483611 #
0.00034062013332638950815003942018677 1:0.93444145 2:0.37921831 3:0.36845627 4:0.19484411 5:0.33138561 6:0.13901588 7:0.30140916 8:0.37353122 9:0.96456867 10:0.95447475 11:0.39728844 12:0.38155642 13:0.19055554 14:0.32425043 15:0.15920722 16:0.33297652 17:0.41712454 18:0.94508111 19:0.9548617 20:0.37168163 21:0.36926147 22:0.19196412 23:0.36578795 24:0.16143034 25:0.29821891 26:0.39505374 27:0.96774811 28:0.38753474 29:0.36642265 30:0.2172706 31:0.35849509 32:0.18579428 33:0.31654617 34:0.43260908 35:0.9967922 #
0.00034062013332638950815003942018677 1:0.89207876 2:0.54097176 3:0.43003443 4:0.21301746 5:0.26691994 6:0.18711479 7:0.23832352 8:0.4675048 9:0.85097635 10:0.91677809 11:0.59214026 12:0.49306202 13:0.22867903 14:0.26628786 15:0.18278472 16:0.2361753 17:0.49323186 18:0.89005047 19:0.9251954 20:0.47456673 21:0.44009346 22:0.247072 23:0.31382087 24:0.25756148 25:0.29853094 26:0.44256756 27:0.95627767 28:0.98344398 29:0.47402984 30:0.46417829 31:0.26848942 32:0.33334634 33:0.21966961 34:0.27595186 35:0.44275039 #
-0.00034062013332638950815003942018677 1:0.16123384 2:0.062032372 3:0.063193187 4:0.15233284 5:0.94562507 6:0.48099181 7:0.34846422 8:0.21236275 9:0.19620126 10:0.1861832 11:0.074643344 12:0.083188511 13:0.17630282 14:0.92211121 15:0.54029578 16:0.44429609 17:0.25840092 18:0.22829263 19:0.11623906 20:0.061064441 21:0.07830859 22:0.1796646 23:0.95416135 24:0.57632798 25:0.42585659 26:0.26610389 27:0.15965085 28:0.15179081 29:0.082613587 30:0.11660916 31:0.19254747 32:0.6108675 33:0.47191849 34:0.28438592 35:0.18278064 #
-0.00034062013332638950815003942018677 1:0.57956082 2:0.32480624 3:0.3627435 4:0.31586072 5:0.92573571 6:0.26069847 7:0.15996188 8:0.17688915 9:0.56814748 10:0.62049842 11:0.3447279 12:0.39418516 13:0.31010816 14:0.88158208 15:0.24497262 16:0.18163761 17:0.20672917 18:0.57812154 19:0.65230668 20:0.32500941 21:0.39444816 22:0.33928913 23:0.99320179 24:0.27329731 25:0.18115143 26:0.20349616 27:0.636213 28:0.72211397 29:0.42041966 30:0.44920778 31:0.41715482 32:0.3128514 33:0.2283114 34:0.23625262 35:0.68942672 #
0.00034062013332638950815003942018677 1:0.82993418 2:0.33061257 3:0.3204543 4:0.31268364 5:0.70581836 6:0.68367904 7:0.772457 8:0.79395717 9:0.90347886 10:0.94833189 11:0.39325061 12:0.42148793 13:0.34621453 14:0.84592497 15:0.64225376 16:0.75641429 17:0.76954651 18:0.79382002 19:0.46468502 20:0.42301032 21:0.36298269 22:0.79900765 23:0.72857916 24:0.84379035 25:0.79475814 26:0.92446727 27:0.896299 28:0.48614919 29:0.48761338 30:0.42054543 31:0.9227699 32:0.80143946 33:0.92237115 34:0.80376458 35:0.97085959 #
0.00034062013332638950815003942018677 1:0.91534132 2:0.53986001 3:0.54365629 4:0.44122648 5:0.77735525 6:0.47666937 7:0.59597528 8:0.56938654 9:0.91780567 10:0.98941487 11:0.60117942 12:0.65797615 13:0.51310438 14:0.85344696 15:0.56603569 16:0.67094088 17:0.65585011 18:0.9006561 19:0.59815586 20:0.59807396 21:0.54541701 22:0.87014878 23:0.59379059 24:0.70876032 25:0.68696016 26:0.90811735 27:0.96244794 28:0.68040162 29:0.69473457 30:0.63533634 31:0.90688503 32:0.65996909 33:0.81730705 34:0.74470848 35:0.97782785 #
-0.00034062013332638950815003942018677 1:0.93202591 2:0.50656718 3:0.49914852 4:0.47914571 5:0.67333061 6:0.53555316 7:0.64915758 8:0.60708761 9:0.95252943 10:0.99947995 11:0.54020584 12:0.53352952 13:0.48835027 14:0.73160219 15:0.57814854 16:0.6433661 17:0.680314 18:0.90308684 19:0.57200646 20:0.57976645 21:0.54298955 22:0.7772091 23:0.61933231 24:0.75790513 25:0.72589272 26:0.91395921 27:0.96602094 28:0.6100207 29:0.62531078 30:0.56722051 31:0.8592245 32:0.65510595 33:0.76039219 34:0.79375803 35:0.98515475 #
-0.00034062013332638950815003942018677 1:0.89382255 2:0.48641744 3:0.5039174 4:0.45904332 5:0.73336953 6:0.55402935 7:0.70314127 8:0.73110694 9:0.98716813 10:0.89809752 11:0.51793158 12:0.50762361 13:0.48805919 14:0.8750217 15:0.58610922 16:0.74323893 17:0.75655681 18:0.8752709 19:0.52047968 20:0.54397476 21:0.50298411 22:0.78505725 23:0.58442628 24:0.72727144 25:0.70766115 26:0.95258331 27:0.91632062 28:0.55701804 29:0.53004265 30:0.54744709 31:0.92415744 32:0.60712653 33:0.761154 34:0.73070145 35:0.96268964 #
-0.00034062013332638950815003942018677 1:0.89831543 2:0.58803642 3:0.5080297 4:0.3918758 5:0.63168311 6:0.47732747 7:0.6660248 8:0.63444871 9:0.9241339 10:0.96416563 11:0.64458364 12:0.57345414 13:0.4312107 14:0.69085026 15:0.52826136 16:0.70865607 17:0.68405676 18:0.96332973 19:0.96264637 20:0.72429633 21:0.662525 22:0.4761456 23:0.69243419 24:0.50675023 25:0.73548824 26:0.69159085 27:0.97923648 28:0.98739088 29:0.7638604 30:0.72861773 31:0.55049908 32:0.74662405 33:0.56414777 34:0.79669505 35:0.7676608 #
0.00034062013332638950815003942018677 1:0.5786438 2:0.34285474 3:0.36621013 4:0.34666103 5:0.95474613 6:0.28561184 7:0.24643773 8:0.24255465 9:0.54526299 10:0.57770789 11:0.36250633 12:0.38094693 13:0.36793941 14:0.90233058 15:0.28022206 16:0.25917029 17:0.26386672 18:0.52266473 19:0.5458855 20:0.37837249 21:0.38786179 22:0.3762919 23:0.31946337 24:0.31009477 25:0.31514713 26:0.49400952 27:0.5979411 28:0.47946483 29:0.47149178 30:0.45624295 31:0.93875706 32:0.34260777 33:0.32184711 34:0.325582 35:0.57546681 #
0.00034062013332638950815003942018677 1:0.81787944 2:0.486393 3:0.55570048 4:0.44697908 5:0.56074595 6:0.39077848 7:0.42585719 8:0.64971781 9:0.90245718 10:0.87429738 11:0.5432933 12:0.53597033 13:0.4411467 14:0.6676237 15:0.43284792 16:0.53194588 17:0.75216621 18:0.9391976 19:0.88619757 20:0.49819398 21:0.62578589 22:0.51383495 23:0.55971766 24:0.41290435 25:0.48262253 26:0.73658395 27:0.92555147 28:0.9131434 29:0.55281347 30:0.56548148 31:0.49208462 32:0.67017889 33:0.42274329 34:0.56017751 35:0.81422746 #
-0.00034062013332638950815003942018677 1:0.43892345 2:0.27831274 3:0.34320369 4:0.41325769 5:0.92745495 6:0.47826976 7:0.50357115 8:0.40170708 9:0.48743248 10:0.46504015 11:0.30869839 12:0.36618033 13:0.45903674 14:0.84344703 15:0.58650982 16:0.61105669 17:0.48920932 18:0.51815498 19:0.5015853 20:0.35371041 21:0.38638672 22:0.46533257 23:0.57437664 24:0.59316689 25:0.46993947 26:0.52852976 27:0.5168758 28:0.36857668 29:0.40225092 30:0.52047068 31:0.89198607 32:0.62952459 33:0.6312204 34:0.53686088 35:0.56892955 #
0.00034062013332638950815003942018677 1:0.83894318 2:0.50560206 3:0.51150763 4:0.57920313 5:0.75298476 6:0.39233515 7:0.53925681 8:0.70791632 9:0.95834446 10:0.88399845 11:0.53503513 12:0.57462406 13:0.63750148 14:0.79241729 15:0.62869972 16:0.72210407 17:0.88431418 18:0.97810942 19:0.80259472 20:0.44973403 21:0.54801083 22:0.65680152 23:0.75532085 24:0.42991349 25:0.54434603 26:0.73452127 27:0.96818757 28:0.86010724 29:0.53955805 30:0.63248456 31:0.68580723 32:0.85843182 33:0.64700073 34:0.73935103 35:0.87102115 #
0.00034062013332638950815003942018677 1:0.7537291 2:0.55890548 3:0.63097423 4:0.49722308 5:0.89858466 6:0.52427155 7:0.6632033 8:0.59890437 9:0.82540125 10:0.85551292 11:0.58750153 12:0.69801128 13:0.54662561 14:0.58239692 15:0.74053979 16:0.62821466 17:0.89013851 18:0.80898172 19:0.59120405 20:0.65213603 21:0.50130105 22:0.87723947 23:0.55542934 24:0.74634337 25:0.65584666 26:0.86699855 27:0.86625433 28:0.57447195 29:0.64457804 30:0.53126258 31:0.9843421 32:0.61015975 33:0.74597311 34:0.67614883 35:0.90972018 #
0.00034062013332638950815003942018677 1:0.82847363 2:0.51370406 3:0.60437185 4:0.49876282 5:0.7878986 6:0.53527999 7:0.70269352 8:0.6540997 9:0.78526777 10:0.9732157 11:0.61945105 12:0.66401619 13:0.52567947 14:0.83497417 15:0.54480398 16:0.66085368 17:0.6554839 18:0.90449005 19:0.90065145 20:0.48716456 21:0.62062448 22:0.59722465 23:0.91104728 24:0.55380809 25:0.71695423 26:0.69236165 27:0.83330953 28:0.61269486 29:0.68272358 30:0.58728039 31:0.91915739 32:0.54885226 33:0.68975985 34:0.69624907 35:0.96653038 #
-0.00034062013332638950815003942018677 1:0.86035937 2:0.59528494 3:0.53024697 4:0.47909355 5:0.80501562 6:0.50758499 7:0.49643016 8:0.589508 9:0.86745363 10:0.96054393 11:0.67166203 12:0.58686 13:0.48627844 14:0.84386915 15:0.54255396 16:0.54137164 17:0.68905818 18:0.84958184 19:0.6912635 20:0.62992197 21:0.59523898 22:0.86976957 23:0.61053073 24:0.57713014 25:0.64329129 26:0.81067199 27:0.95620966 28:0.79944134 29:0.71577251 30:0.5964871 31:0.90385354 32:0.6438728 33:0.63167423 34:0.73583484 35:0.93442786 #
0.00034062013332638950815003942018677 1:0.7522583 2:0.24115978 3:0.28345576 4:0.29927242 5:0.41806117 6:0.30764449 7:0.401483 8:0.40032208 9:0.77910805 10:0.78532571 11:0.24953528 12:0.2891632 13:0.30489588 14:0.45346475 15:0.33341625 16:0.45617542 17:0.4759177 18:0.81159323 19:0.88923669 20:0.20460641 21:0.31615481 22:0.31391445 23:0.41749573 24:0.29286227 25:0.33071488 26:0.33935305 27:0.91680485 28:0.93910474 29:0.2193763 30:0.31688461 31:0.32279569 32:0.4709048 33:0.28570056 34:0.40383101 35:0.39660355 #
-0.00034062013332638950815003942018677 1:0.91601998 2:0.47511768 3:0.5726549 4:0.46927315 5:0.7953614 6:0.43081206 7:0.63823688 8:0.45662886 9:0.95052987 10:0.95858502 11:0.50657868 12:0.59745026 13:0.49307185 14:0.78853178 15:0.49938366 16:0.66572404 17:0.53835469 18:0.95012122 19:0.54478258 20:0.6678037 21:0.52032799 22:0.88556117 23:0.51999491 24:0.66548926 25:0.53206557 26:0.97996986 27:0.98170513 28:0.58639306 29:0.66719031 30:0.55388266 31:0.86442828 32:0.55845356 33:0.74792176 34:0.58304191 35:0.98533827 #
-0.00034062013332638950815003942018677 1:0.94452173 2:0.59190619 3:0.51318049 4:0.36312553 5:0.64536375 6:0.37319884 7:0.54639745 8:0.60503834 9:0.97717524 10:0.96660769 11:0.68025982 12:0.60075277 13:0.46426061 14:0.58587599 15:0.45290819 16:0.63650578 17:0.68375957 18:0.87185079 19:0.73991787 20:0.64607906 21:0.5417586 22:0.71576583 23:0.45370364 24:0.59629202 25:0.65987319 26:0.8965959 27:0.93813831 28:0.81230795 29:0.69996113 30:0.61507815 31:0.70108253 32:0.47009826 33:0.61957878 34:0.69042605 35:0.98732293 #
-0.00034062013332638950815003942018677 1:0.91933954 2:0.65438008 3:0.74493128 4:0.55194491 5:0.82292068 6:0.32271984 7:0.27686241 8:0.38144875 9:0.80644721 10:0.75849509 11:0.76587558 12:0.61092651 13:0.71606851 14:0.41306615 15:0.41313231 16:0.50844586 17:0.88411993 18:0.86462504 19:0.82963163 20:0.93019491 21:0.68441898 22:0.98359853 23:0.45574951 24:0.35176441 25:0.45162264 26:0.73060709 27:0.92766631 28:0.88296348 29:0.87104475 30:0.76432759 31:0.88558996 32:0.55139226 33:0.48357177 34:0.56373149 35:0.81651378 #
0.00034062013332638950815003942018677 1:0.42828313 2:0.29095203 3:0.42570046 4:0.50901383 5:0.88566399 6:0.54955286 7:0.40439716 8:0.33867311 9:0.42214957 10:0.51210046 11:0.353475 12:0.46499094 13:0.51942998 14:0.90295655 15:0.51643354 16:0.45873883 17:0.41111156 18:0.48432764 19:0.42853525 20:0.3249349 21:0.46859127 22:0.56800622 23:0.97486037 24:0.66205853 25:0.48339844 26:0.46003169 27:0.42434889 28:0.50460708 29:0.43495941 30:0.51243156 31:0.56885815 32:0.59638995 33:0.51619506 34:0.46457288 35:0.49946034 #
0.00034062013332638950815003942018677 1:0.60485166 2:0.23007539 3:0.25543797 4:0.36435226 5:0.91935503 6:0.69952196 7:0.63172579 8:0.41804108 9:0.66918486 10:0.62325048 11:0.23033215 12:0.27018222 13:0.34302112 14:0.96469778 15:0.73456353 16:0.67608464 17:0.4256354 18:0.68455708 19:0.63280898 20:0.21366273 21:0.26116142 22:0.41787803 23:0.99841291 24:0.80937368 25:0.75543869 26:0.50487626 27:0.70553106 28:0.64664036 29:0.22597854 30:0.28536063 31:0.39194861 32:0.82425004 33:0.74897212 34:0.53021204 35:0.69043463 #
0.00034062013332638950815003942018677 1:0.53911841 2:0.27902243 3:0.35667738 4:0.37561649 5:0.82289302 6:0.37304336 7:0.39068568 8:0.28169054 9:0.54465133 10:0.57005036 11:0.30696738 12:0.36702293 13:0.37458742 14:0.83973038 15:0.36372676 16:0.42160037 17:0.30432919 18:0.57340318 19:0.48494264 20:0.41661552 21:0.50539428 22:0.48251402 23:0.95096982 24:0.44680771 25:0.46431357 26:0.37634084 27:0.45091945 28:0.53593218 29:0.4452351 30:0.50849313 31:0.55559874 32:0.48490405 33:0.50588435 34:0.41217795 35:0.50573033 #
-0.00034062013332638950815003942018677 1:0.19838811 2:0.15520157 3:0.22065055 4:0.28917393 5:0.78644544 6:0.21614714 7:0.097096689 8:0.07061889 9:0.19082978 10:0.2059077 11:0.16910557 12:0.26565903 13:0.35065359 14:0.97174203 15:0.26175058 16:0.13585308 17:0.089230374 18:0.19170719 19:0.16768228 20:0.16348286 21:0.2476377 22:0.32650471 23:0.81994468 24:0.24527831 25:0.11871495 26:0.073623829 27:0.16163275 28:0.21804255 29:0.19718157 30:0.31096151 31:0.41036829 32:0.30257696 33:0.15418479 34:0.094285987 35:0.201858 #
-3.3643504000951951482534241222311e-05 1:0.34400621 2:0.15748392 3:0.18906787 4:0.35566497 5:0.95175141 6:0.62475473 7:0.38999224 8:0.23882754 9:0.32754761 10:0.38555619 11:0.18899348 12:0.26600432 13:0.3911244 14:0.94727218 15:0.55687177 16:0.47640929 17:0.33834207 18:0.3706122 19:0.34280029 20:0.18783401 21:0.22608727 22:0.45018071 23:0.99080807 24:0.72503132 25:0.39070654 26:0.25357783 27:0.33665222 28:0.40192848 29:0.25064808 30:0.29647973 31:0.45859683 32:0.61567962 33:0.5186851 34:0.35380682 35:0.38575864 #
0.00034062013332638950815003942018677 1:0.89433092 2:0.4384039 3:0.41140035 4:0.31925246 5:0.5861277 6:0.36244071 7:0.57407051 8:0.5881235 9:0.94248462 10:0.9599371 11:0.49463886 12:0.44970709 13:0.35944551 14:0.61544693 15:0.4049069 16:0.60376167 17:0.66193223 18:0.87818706 19:0.4996736 20:0.45230365 21:0.35049328 22:0.60093731 23:0.40983161 24:0.61174345 25:0.64273274 26:0.89032745 27:0.92521805 28:0.55479336 29:0.51516545 30:0.3971357 31:0.64821577 32:0.46140456 33:0.66909951 34:0.68175048 35:0.96594304 #
0.00034062013332638950815003942018677 1:0.97560495 2:0.63622451 3:0.82494491 4:0.54208088 5:0.76904535 6:0.33321002 7:0.42819378 8:0.40591049 9:0.88392919 10:0.66599095 11:0.89944971 12:0.54805809 13:0.81325418 14:0.35761517 15:0.43825552 16:0.44409168 17:0.89044386 18:0.95174378 19:0.6521678 20:0.84989685 21:0.58624756 22:0.80084932 23:0.37946805 24:0.4742983 25:0.4755564 26:0.85471457 27:0.99582046 28:0.72492278 29:0.89565778 30:0.64880842 31:0.86645335 32:0.40571189 33:0.51251829 34:0.53252965 35:0.89106882 #
0.00034062013332638950815003942018677 1:0.90084523 2:0.56976467 3:0.59175217 4:0.45814207 5:0.88695115 6:0.4535408 7:0.58481419 8:0.51230037 9:0.89270163 10:0.61806166 11:0.63980824 12:0.48076856 13:0.92778581 14:0.47235182 15:0.57807028 16:0.53681058 17:0.98406816 18:0.93323869 19:0.62398595 20:0.62930924 21:0.53158444 22:0.90956068 23:0.49230319 24:0.54590464 25:0.50742936 26:0.89843869 27:0.98917228 28:0.65262163 29:0.68786043 30:0.56053191 31:0.92099679 32:0.43987873 33:0.53097457 34:0.49557185 35:0.97907972 #
-0.00034062013332638950815003942018677 1:0.93345702 2:0.61873955 3:0.65456414 4:0.52063954 5:0.87989223 6:0.53860319 7:0.6381914 8:0.68747109 9:0.96887684 10:0.86406028 11:0.54638118 12:0.55786932 13:0.45685735 14:0.97388196 15:0.55991542 16:0.72032213 17:0.73239774 18:0.9184708 19:0.97561991 20:0.6060915 21:0.63338441 22:0.5345332 23:0.87384772 24:0.53569824 25:0.6178453 26:0.66652429 27:0.95995981 28:0.58423948 29:0.57274741 30:0.48912844 31:0.95656812 32:0.54320937 33:0.70252281 34:0.66886151 35:0.9309321 #
0.00034062013332638950815003942018677 1:0.80433714 2:0.14483359 3:0.1081712 4:0.052625962 5:0.21572605 6:0.080223463 7:0.47035393 8:0.56034786 9:0.88739723 10:0.91015512 11:0.16406919 12:0.12198069 13:0.070065111 14:0.21913055 15:0.11379243 16:0.55327326 17:0.63455832 18:0.8512131 19:0.1368086 20:0.098389283 21:0.06481114 22:0.23244169 23:0.11145666 24:0.55003405 25:0.59488916 26:0.9308641 27:0.86304677 28:0.15830246 29:0.11469238 30:0.082670987 31:0.22488102 32:0.11087871 33:0.55267024 34:0.6182707 35:0.94112641 #
0.00034062013332638950815003942018677 1:0.33365458 2:0.28797057 3:0.45309576 4:0.38554463 5:0.98409557 6:0.23076633 7:0.25229207 8:0.21804683 9:0.32401872 10:0.42802158 11:0.36798891 12:0.57485974 13:0.52964747 14:0.82272494 15:0.33249614 16:0.45562097 17:0.37832218 18:0.4260318 19:0.31959403 20:0.29448256 21:0.46079111 22:0.42177156 23:0.29731426 24:0.31398097 25:0.28528988 26:0.32610089 27:0.45590037 28:0.39538682 29:0.63184798 30:0.55985653 31:0.8843106 32:0.38370723 33:0.4793644 34:0.4109832 35:0.45506492 #
-0.00034062013332638950815003942018677 1:0.97440398 2:0.57295918 3:0.74168867 4:0.59695441 5:0.86220205 6:0.48709652 7:0.5235039 8:0.5931558 9:0.89888197 10:0.973333 11:0.61358505 12:0.74170357 13:0.5675388 14:0.83254236 15:0.50893223 16:0.55638683 17:0.61522478 18:0.91901881 19:0.96481758 20:0.57460499 21:0.73131251 22:0.61274755 23:0.84057766 24:0.49448302 25:0.46738434 26:0.51777536 27:0.92935026 28:0.65281194 29:0.78120673 30:0.64259601 31:0.91110057 32:0.50966537 33:0.51429832 34:0.53544474 35:0.9770875 #
-0.00034062013332638950815003942018677 1:0.88072103 2:0.57605445 3:0.54424471 4:0.42096823 5:0.89144349 6:0.43636516 7:0.50671297 8:0.532184 9:0.83453894 10:0.97635323 11:0.64918292 12:0.60957289 13:0.44522452 14:0.76533049 15:0.51063728 16:0.51208651 17:0.59134829 18:0.94171852 19:0.91988808 20:0.75164157 21:0.69925123 22:0.55295312 23:0.61439818 24:0.66676348 25:0.67013246 26:0.8457256 27:0.99588847 28:0.81621081 29:0.76478428 30:0.53831339 31:0.88804048 32:0.64880395 33:0.65203059 34:0.70790231 35:0.98845571 #
0.00034062013332638950815003942018677 1:0.44036144 2:0.26825523 3:0.41163889 4:0.32667151 5:0.99494427 6:0.37654346 7:0.50592381 8:0.32125008 9:0.49969929 10:0.4596318 11:0.28523967 12:0.45500347 13:0.35687768 14:0.93722355 15:0.47137243 16:0.58506083 17:0.37915817 18:0.52326959 19:0.47224632 20:0.26806056 21:0.40247905 22:0.37082955 23:0.41503727 24:0.54093385 25:0.36489293 26:0.5303368 27:0.47799563 28:0.31173646 29:0.48047391 30:0.42744172 31:0.93003714 32:0.45753852 33:0.571024 34:0.41620395 35:0.54571611 #
0.00034062013332638950815003942018677 1:0.41772875 2:0.34270191 3:0.35378048 4:0.36736515 5:0.96117395 6:0.39278597 7:0.43884587 8:0.40494642 9:0.43492845 10:0.48132288 11:0.42247343 12:0.4136101 13:0.4407239 14:0.9656626 15:0.53149253 16:0.52325678 17:0.50804913 18:0.49925157 19:0.45510888 20:0.39414018 21:0.42752457 22:0.40520084 23:0.45441541 24:0.47485113 25:0.42857149 26:0.45771986 27:0.49271336 28:0.45573911 29:0.48615569 30:0.44009972 31:0.93984878 32:0.50478846 33:0.52645254 34:0.4779411 35:0.50463611 #
0.00034062013332638950815003942018677 1:0.90356058 2:0.46704292 3:0.50048399 4:0.28720143 5:0.48258755 6:0.20581397 7:0.24814579 8:0.22353998 9:0.83904409 10:0.9168095 11:0.40284097 12:0.43130428 13:0.30086759 14:0.49653149 15:0.23330237 16:0.25366771 17:0.27054527 18:0.84960991 19:0.91247952 20:0.39242461 21:0.44418082 22:0.30090317 23:0.52264786 24:0.19433701 25:0.22461714 26:0.22032803 27:0.84788448 28:0.42440996 29:0.4467026 30:0.33730036 31:0.53815192 32:0.24027547 33:0.27291504 34:0.2757237 35:0.94139087 #
0.00034062013332638950815003942018677 1:0.81297195 2:0.55535287 3:0.48965457 4:0.3870838 5:0.79484338 6:0.62515748 7:0.610201 8:0.62594312 9:0.89855212 10:0.84820998 11:0.55446804 12:0.46771649 13:0.43647727 14:0.93954599 15:0.70739067 16:0.61690301 17:0.63980633 18:0.91432291 19:0.88173282 20:0.59064448 21:0.50322205 22:0.45317337 23:0.85490423 24:0.7061314 25:0.67931819 26:0.70709878 27:0.91916931 28:0.90808582 29:0.61705655 30:0.51213473 31:0.50700551 32:0.78879279 33:0.71254373 34:0.76278794 35:0.98110747 #
-0.00034062013332638950815003942018677 1:0.54528773 2:0.4674207 3:0.76991004 4:0.56446886 5:0.84314024 6:0.23694369 7:0.14848183 8:0.13624464 9:0.48150787 10:0.57039386 11:0.49931613 12:0.99343836 13:0.69452673 14:0.73386806 15:0.26615512 16:0.2198472 17:0.20645423 18:0.52283669 19:0.47134221 20:0.48057497 21:0.91338587 22:0.61454529 23:0.82211286 24:0.2382402 25:0.15788963 26:0.15806116 27:0.40161988 28:0.549954 29:0.60749185 30:0.74711788 31:0.78340638 32:0.29156128 33:0.18807644 34:0.20068984 35:0.49925897 #
-0.00034062013332638950815003942018677 1:0.86362326 2:0.2685636 3:0.47277352 4:0.35913461 5:0.67013144 6:0.13986172 7:0.21107431 8:0.409881 9:0.88461643 10:0.27629122 11:0.56065917 12:0.42681077 13:0.6505422 14:0.11192982 15:0.19935708 16:0.42028463 17:0.99425256 18:0.91661853 19:0.31513849 20:0.49022478 21:0.37485996 22:0.70540375 23:0.14726244 24:0.30119565 25:0.51472145 26:0.99630934 27:0.85110581 28:0.3741183 29:0.63201892 30:0.52501553 31:0.75663561 32:0.14978252 33:0.25505564 34:0.50284415 35:0.94073033 #
-0.00034062013332638950815003942018677 1:0.84938347 2:0.50655031 3:0.44725579 4:0.31766632 5:0.94406086 6:0.22180216 7:0.27548689 8:0.29949269 9:0.78251451 10:0.75258642 11:0.75491679 12:0.60938323 13:0.61434913 14:0.38465926 15:0.39741415 16:0.44060501 17:0.92453516 18:0.87485248 19:0.62326401 20:0.54984367 21:0.41824672 22:0.92959952 23:0.25896469 24:0.31534237 25:0.35114145 26:0.80528951 27:0.99975473 28:0.85661715 29:0.85480732 30:0.74869627 31:0.73059678 32:0.35942334 33:0.40791097 34:0.42739597 35:0.92825925 #
0.00034062013332638950815003942018677 1:0.91139084 2:0.43506694 3:0.39826912 4:0.41310751 5:0.79223996 6:0.45213798 7:0.55964792 8:0.62525678 9:0.95517421 10:0.91859645 11:0.43224162 12:0.36122352 13:0.34902659 14:0.88513631 15:0.44621497 16:0.54120797 17:0.62969005 18:0.93705779 19:0.95359772 20:0.53796494 21:0.48325935 22:0.45973942 23:0.8633011 24:0.53468782 25:0.63462716 26:0.72910428 27:0.95235693 28:0.5585714 29:0.43441799 30:0.39371541 31:0.90701127 32:0.48352024 33:0.60168803 34:0.72075546 35:0.97945464 #
0.00034062013332638950815003942018677 1:0.82354671 2:0.59436351 3:0.49530876 4:0.4337377 5:0.84234089 6:0.56026119 7:0.57552093 8:0.59045142 9:0.88462365 10:0.86724705 11:0.57163382 12:0.44715163 13:0.42222083 14:0.99656773 15:0.52476078 16:0.59074229 17:0.61963677 18:0.89261806 19:0.77296168 20:0.58204442 21:0.50431824 22:0.47132406 23:0.87793142 24:0.69979733 25:0.69317311 26:0.71033323 27:0.88653266 28:0.77995884 29:0.57193112 30:0.4521803 31:0.42711303 32:0.65510458 33:0.65015715 34:0.68917847 35:0.839697 #
0.00034062013332638950815003942018677 1:0.82397145 2:0.27089164 3:0.32229164 4:0.33608925 5:0.75006378 6:0.52255231 7:0.74573565 8:0.59204572 9:0.91471159 10:0.84730452 11:0.29398209 12:0.2968536 13:0.30806375 14:0.85113448 15:0.55149895 16:0.70168394 17:0.61555505 18:0.97281975 19:0.85426193 20:0.33964089 21:0.38122559 22:0.3847734 23:0.80681825 24:0.65291697 25:0.77325803 26:0.99530131 27:0.8367967 28:0.36711794 29:0.36878443 30:0.37115645 31:0.93027622 32:0.6429342 33:0.83913511 34:0.77371633 35:0.98405403 #
-0.00034062013332638950815003942018677 1:0.7971285 2:0.44250932 3:0.46463764 4:0.40673029 5:0.84347332 6:0.50650197 7:0.59334111 8:0.57291496 9:0.84166348 10:0.92192101 11:0.47737363 12:0.49144837 13:0.44539821 14:0.96447051 15:0.54630792 16:0.71077687 17:0.6033653 18:0.93723971 19:0.93083817 20:0.45031965 21:0.51291269 22:0.4454383 23:0.98578912 24:0.6152451 25:0.74455744 26:0.68709439 27:0.98325747 28:0.95655239 29:0.46187004 30:0.51958036 31:0.46788704 32:0.99264139 33:0.59937942 34:0.73399168 35:0.6343168 #
-0.00034062013332638950815003942018677 1:0.89890999 2:0.44850647 3:0.47744292 4:0.46790358 5:0.77109534 6:0.54542422 7:0.67125511 8:0.51661217 9:0.84228647 10:0.94330996 11:0.48997456 12:0.58684814 13:0.56986898 14:0.80152559 15:0.68359405 16:0.80143821 17:0.59943259 18:0.91892439 19:0.91803819 20:0.49276856 21:0.57201803 22:0.53824031 23:0.83515084 24:0.60030144 25:0.70628697 26:0.5737161 27:0.89455175 28:0.55269158 29:0.65517402 30:0.67267257 31:0.85269207 32:0.71183294 33:0.80920637 34:0.63530469 35:0.98454183 #
-0.00034062013332638950815003942018677 1:0.70239198 2:0.35262766 3:0.34374133 4:0.49210072 5:0.8740859 6:0.65087467 7:0.73998171 8:0.73346275 9:0.8503989 10:0.75719953 11:0.38771385 12:0.37677318 13:0.48987326 14:0.98182559 15:0.61616343 16:0.82319564 17:0.818286 18:0.88789195 19:0.67132407 20:0.37753543 21:0.38038701 22:0.50984317 23:0.95502102 24:0.71255022 25:0.79793411 26:0.79050547 27:0.81940925 28:0.70925176 29:0.41943204 30:0.45187679 31:0.56273377 32:0.68802494 33:0.89490414 34:0.91386658 35:0.8537128 #
0.00034062013332638950815003942018677 1:0.93605971 2:0.32775134 3:0.26801568 4:0.15266883 5:0.26332617 6:0.097599179 7:0.2496752 8:0.38505411 9:0.97784317 10:0.98734033 11:0.38415951 12:0.30380499 13:0.13040695 14:0.21181926 15:0.090679549 16:0.30329192 17:0.44277129 18:0.9848389 19:0.96387899 20:0.40476853 21:0.3327744 22:0.16781066 23:0.28595334 24:0.14279476 25:0.27676594 26:0.37511891 27:0.9054656 28:0.43920887 29:0.40095738 30:0.1789591 31:0.24566029 32:0.13827655 33:0.31125835 34:0.43846124 35:0.97641397 #
0.00034062013332638950815003942018677 1:0.94434053 2:0.58545464 3:0.52000958 4:0.23922837 5:0.41470245 6:0.17161733 7:0.22162476 8:0.28559831 9:0.87017071 10:0.6732564 11:0.56478429 12:0.2897048 13:0.45809594 14:0.19332013 15:0.27778894 16:0.32467395 17:0.87651008 18:0.88223797 19:0.53190309 20:0.51190525 21:0.26441339 22:0.43160442 23:0.18357475 24:0.19673561 25:0.21915027 26:0.77881652 27:0.93303055 28:0.56130064 29:0.53942496 30:0.31449315 31:0.43578628 32:0.19438814 33:0.23044448 34:0.24750589 35:0.80245554 #
0.00034062013332638950815003942018677 1:0.75841951 2:0.60446477 3:0.63379627 4:0.61583209 5:0.90251064 6:0.55141795 7:0.65769774 8:0.62296981 9:0.75782341 10:0.91484112 11:0.67702985 12:0.70746642 13:0.71742529 14:0.93043226 15:0.63397604 16:0.80426019 17:0.80158418 18:0.95695436 19:0.88451272 20:0.63612419 21:0.71442711 22:0.67565364 23:0.93075818 24:0.61742604 25:0.70686841 26:0.6661818 27:0.85943007 28:0.99702305 29:0.70634925 30:0.75757742 31:0.74844265 32:0.92448163 33:0.70135236 34:0.8382448 35:0.756607 #
-0.00034062013332638950815003942018677 1:0.4568412 2:0.45755213 3:0.2579461 4:0.32687601 5:0.17019239 6:0.15895644 7:0.19766486 8:0.96223176 9:0.99728739 10:0.4495635 11:0.41472235 12:0.20958471 13:0.39639232 14:0.15145987 15:0.15887865 16:0.2135506 17:0.9715687 18:0.87128174 19:0.52372789 20:0.48486766 21:0.28021491 22:0.35014713 23:0.20754339 24:0.20620081 25:0.27514085 26:0.89072907 27:0.90015566 28:0.54780591 29:0.46518919 30:0.25666261 31:0.44138411 32:0.1954603 33:0.20617707 34:0.27841949 35:0.87616187 #
-0.00034062013332638950815003942018677 1:0.99722958 2:0.34860259 3:0.21470103 4:0.15791942 5:0.19706862 6:0.1378722 7:0.28116786 8:0.35030124 9:0.96163517 10:0.39334416 11:0.23643203 12:0.14392249 13:0.22359794 14:0.13092113 15:0.28194341 16:0.37979692 17:0.97853106 18:0.97352248 19:0.42215762 20:0.25633627 21:0.19322957 22:0.25883952 23:0.18045859 24:0.27275056 25:0.36406457 26:0.95286429 27:0.99991447 28:0.4602229 29:0.28026021 30:0.19171363 31:0.29770225 32:0.18891303 33:0.28087947 34:0.39137971 35:0.97310114 #
-0.00034062013332638950815003942018677 1:0.92086112 2:0.55288392 3:0.42617688 4:0.18258804 5:0.30930045 6:0.16724986 7:0.25633582 8:0.26512012 9:0.86880094 10:0.98347676 11:0.60271245 12:0.45086932 13:0.18038063 14:0.29245743 15:0.13956894 16:0.23485667 17:0.2842063 18:0.9393968 19:0.97798049 20:0.53962195 21:0.41264793 22:0.20487359 23:0.32638022 24:0.20135276 25:0.28001416 26:0.3164798 27:0.93249881 28:0.62255162 29:0.47182056 30:0.19746542 31:0.34347618 32:0.16995296 33:0.24156183 34:0.31751037 35:0.96591812 #
0.00034062013332638950815003942018677 1:0.77949256 2:0.50030029 3:0.43739471 4:0.42178401 5:0.83144945 6:0.58000821 7:0.76224875 8:0.67755389 9:0.74466026 10:0.86692703 11:0.49643397 12:0.39284688 13:0.34699094 14:0.96495306 15:0.62188518 16:0.84909785 17:0.73320168 18:0.84461582 19:0.77666819 20:0.60983086 21:0.52114701 22:0.47363749 23:0.95848805 24:0.65775245 25:0.89065963 26:0.78152049 27:0.82985985 28:0.83834118 29:0.58779007 30:0.48050582 31:0.40869966 32:0.6778006 33:0.9136489 34:0.81285501 35:0.90353763 #
-0.00034062013332638950815003942018677 1:0.71117753 2:0.47203258 3:0.49948204 4:0.50935787 5:0.87136263 6:0.66743636 7:0.71892118 8:0.67003131 9:0.84974766 10:0.78716809 11:0.59414387 12:0.58498889 13:0.63372022 14:0.91402471 15:0.85994619 16:0.91971052 17:0.85989493 18:0.97167635 19:0.75298768 20:0.54223716 21:0.59875596 22:0.60072911 23:0.94199592 24:0.79516971 25:0.86757421 26:0.80493724 27:0.8470825 28:0.84552038 29:0.63836139 30:0.66817319 31:0.70647204 32:0.97517824 33:0.91435897 34:0.98867202 35:0.96820837 #
-0.00034062013332638950815003942018677 1:0.78177786 2:0.54610378 3:0.52752483 4:0.48257849 5:0.83162314 6:0.53425735 7:0.63586265 8:0.6086877 9:0.83528137 10:0.83100486 11:0.59117305 12:0.56107497 13:0.50754434 14:0.96253335 15:0.57338321 16:0.66194129 17:0.66313297 18:0.87083977 19:0.86514747 20:0.56457168 21:0.51433027 22:0.49731851 23:0.91360795 24:0.58544213 25:0.74432498 26:0.69390672 27:0.92779493 28:0.89954948 29:0.59637082 30:0.54549736 31:0.51901942 32:0.60553366 33:0.70514405 34:0.68508011 35:0.96983862 #
-0.00034062013332638950815003942018677 1:0.87848932 2:0.45276964 3:0.34967655 4:0.38369325 5:0.95630044 6:0.62490916 7:0.71058249 8:0.62318259 9:0.79349798 10:0.88634628 11:0.53245234 12:0.42442515 13:0.41235241 14:0.9119736 15:0.77766824 16:0.81819952 17:0.71541178 18:0.84153938 19:0.87383044 20:0.43678665 21:0.3759757 22:0.38952577 23:0.64723122 24:0.7750693 25:0.68692452 26:0.84773105 27:0.93844515 28:0.5700978 29:0.4884834 30:0.47612664 31:0.94825584 32:0.73843205 33:0.82017064 34:0.74657774 35:0.92734313 #
-0.00034062013332638950815003942018677 1:0.70632362 2:0.32724047 3:0.28267989 4:0.27178574 5:0.81307125 6:0.61621279 7:0.79763293 8:0.67802584 9:0.88386869 10:0.84657943 11:0.43372336 12:0.3498309 13:0.34547743 14:0.89272761 15:0.7630257 16:0.93186992 17:0.76484996 18:0.97358739 19:0.75147778 20:0.36971319 21:0.31728044 22:0.30671173 23:0.88148332 24:0.64260143 25:0.83191198 26:0.70710182 27:0.90865868 28:0.82879144 29:0.43831098 30:0.36432409 31:0.38748908 32:0.86546463 33:0.72220069 34:0.91816401 35:0.7703414 #
0.00034062013332638950815003942018677 1:0.45609632 2:0.42792058 3:0.30008411 4:0.58169484 5:0.19464894 6:0.21921828 7:0.23819639 8:0.88051212 9:0.97451043 10:0.43350455 11:0.39722857 12:0.25581074 13:0.62211388 14:0.17084847 15:0.19434346 16:0.22847944 17:0.8626619 18:0.88904798 19:0.60917312 20:0.60013878 21:0.37964427 22:0.61520493 23:0.25560337 24:0.34419212 25:0.41111746 26:0.78617251 27:0.93545169 28:0.63687986 29:0.66466457 30:0.35539827 31:0.75993824 32:0.22819681 33:0.32496458 34:0.3991197 35:0.84937555 #
0.00034062013332638950815003942018677 1:0.94825447 2:0.86947399 3:0.88151139 4:0.43263489 5:0.52006292 6:0.090722479 7:0.089433953 8:0.11476716 9:0.66702068 10:0.92730844 11:0.90004915 12:0.92645901 13:0.41812432 14:0.48394459 15:0.10293975 16:0.10512217 17:0.13269146 18:0.64237475 19:0.83117509 20:0.84681076 21:0.93470544 22:0.36278343 23:0.50699645 24:0.089388192 25:0.094579361 26:0.11887524 27:0.58083212 28:0.98456466 29:0.99332172 30:0.50665087 31:0.52251494 32:0.1141175 33:0.11125292 34:0.14912122 35:0.70471179 #
0.00034062013332638950815003942018677 1:0.6768446 2:0.49205589 3:0.50117427 4:0.45360079 5:0.31223515 6:0.31189242 7:0.3468172 8:0.67554516 9:0.69892222 10:0.48491353 11:0.45203263 12:0.43464845 13:0.91678381 14:0.33291605 15:0.39764884 16:0.42458948 17:0.67281389 18:0.80449772 19:0.43754238 20:0.42346451 21:0.43286449 22:0.91817433 23:0.31057915 24:0.30446318 25:0.298942 26:0.79713684 27:0.83094972 28:0.44519097 29:0.44578579 30:0.42651474 31:0.92129701 32:0.29567599 33:0.32643297 34:0.3341285 35:0.80952072 #
-0.00034062013332638950815003942018677 1:0.71607214 2:0.84489393 3:0.43901139 4:0.70593369 5:0.12520097 6:0.083564557 7:0.081735954 8:0.81645322 9:0.84104633 10:0.609483 11:0.81263089 12:0.34472999 13:0.61840713 14:0.10647795 15:0.08681608 16:0.089583091 17:0.65507418 18:0.81033069 19:0.59904188 20:0.83459449 21:0.36138576 22:0.64793903 23:0.11751586 24:0.0833757 25:0.084991962 26:0.62073624 27:0.98784757 28:0.79362643 29:0.93948722 30:0.56145185 31:0.80498278 32:0.167253 33:0.10041973 34:0.098673232 35:0.79875308 #
-0.00034062013332638950815003942018677 1:0.5795213 2:0.94163477 3:0.97596169 4:0.73580003 5:0.74972451 6:0.14568904 7:0.13811649 8:0.13507092 9:0.46366718 10:0.6001904 11:0.91402173 12:0.70925879 13:0.7242651 14:0.15245749 15:0.14451486 16:0.16016294 17:0.49815202 18:0.62175477 19:0.87543744 20:0.93195623 21:0.69750684 22:0.66052777 23:0.16350953 24:0.14814775 25:0.20595823 26:0.52605778 27:0.69745767 28:0.93519413 29:0.99272752 30:0.80111688 31:0.76863247 32:0.17275961 33:0.15646361 34:0.20864606 35:0.57412738 #
0.00034062013332638950815003942018677 1:0.69159728 2:0.34381345 3:0.2993595 4:0.36764163 5:0.89827967 6:0.61921149 7:0.87398523 8:0.71465039 9:0.73968089 10:0.75383973 11:0.38134083 12:0.3125658 13:0.3217155 14:0.93996525 15:0.7285074 16:0.92969757 17:0.78537893 18:0.7965886 19:0.79066211 20:0.31271324 21:0.30671069 22:0.40294316 23:0.74712402 24:0.91312915 25:0.69990438 26:0.89611322 27:0.84072435 28:0.32673278 29:0.29113925 30:0.34281099 31:0.96994984 32:0.711887 33:0.88124347 34:0.69622314 35:0.87116563 #
0.00034062013332638950815003942018677 1:0.65006274 2:0.38330778 3:0.38145465 4:0.38529947 5:0.94754857 6:0.60985863 7:0.67881697 8:0.71139944 9:0.80833095 10:0.7715984 11:0.46629438 12:0.47711688 13:0.49692279 14:0.93820822 15:0.67611057 16:0.79052573 17:0.87482983 18:0.94053447 19:0.68688053 20:0.35721162 21:0.37346596 22:0.42247531 23:0.64536524 24:0.70033914 25:0.72517496 26:0.84078324 27:0.81495237 28:0.46098632 29:0.497547 30:0.50684166 31:0.91012537 32:0.74976045 33:0.82525009 34:0.85845566 35:0.95822066 #
-0.00034062013332638950815003942018677 1:0.4770726 2:0.51567709 3:0.2797567 4:0.58232117 5:0.19190182 6:0.24209252 7:0.19812407 8:0.96152264 9:0.96697474 10:0.46022847 11:0.49099097 12:0.27439559 13:0.52498287 14:0.17148334 15:0.25385454 16:0.21174757 17:0.91572237 18:0.89065403 19:0.44764146 20:0.4871287 21:0.26588383 22:0.53344852 23:0.18506931 24:0.23970117 25:0.17861743 26:0.79890656 27:0.97943777 28:0.52970976 29:0.60007882 30:0.39345038 31:0.63248622 32:0.27245435 33:0.37661612 34:0.22726834 35:0.89526063 #
-0.00034062013332638950815003942018677 1:0.89049804 2:0.75384575 3:0.70015115 4:0.30782798 5:0.48228672 6:0.11288439 7:0.13939476 8:0.15604255 9:0.69821471 10:0.87280351 11:0.81505114 12:0.72029448 13:0.30762336 14:0.40903091 15:0.12311769 16:0.1552875 17:0.17158699 18:0.62817138 19:0.85208839 20:0.7956152 21:0.76009935 22:0.26722094 23:0.45020729 24:0.12416965 25:0.16149744 26:0.18239994 27:0.60772258 28:0.85982066 29:0.82631594 30:0.36933059 31:0.44906721 32:0.12874322 33:0.17525353 34:0.20560892 35:0.79478252 #
-0.00034062013332638950815003942018677 1:0.677311 2:0.5750379 3:0.66643965 4:0.60194892 5:0.94425261 6:0.43941635 7:0.41605893 8:0.39087507 9:0.59376204 10:0.68380624 11:0.51407212 12:0.54605943 13:0.49890545 14:0.42516759 15:0.40048593 16:0.41107219 17:0.6564185 18:0.71194452 19:0.60800648 20:0.68477488 21:0.55979598 22:0.84623086 23:0.43018281 24:0.41114226 25:0.40081602 26:0.6394214 27:0.72826809 28:0.55009615 29:0.59175175 30:0.53131181 31:0.99601305 32:0.44222361 33:0.42631257 34:0.42898008 35:0.69687903 #
0.00034062013332638950815003942018677 1:0.84286553 2:0.42060304 3:0.52569056 4:0.42838174 5:0.73533511 6:0.1104427 7:0.13362478 8:0.14102231 9:0.76529366 10:0.91719794 11:0.50112915 12:0.55810767 13:0.52704728 14:0.58176488 15:0.20127125 16:0.19389763 17:0.22199538 18:0.83746773 19:0.88523406 20:0.43026647 21:0.54188091 22:0.46284875 23:0.74539888 24:0.14280571 25:0.14662689 26:0.17447256 27:0.8068127 28:0.61890042 29:0.71393788 30:0.73640358 31:0.6622979 32:0.2240124 33:0.23148286 34:0.25031739 35:0.91526717 #
0.00034062013332638950815003942018677 1:0.76682037 2:0.7686578 3:0.93449932 4:0.6765126 5:0.68921971 6:0.39956978 7:0.23386849 8:0.20091859 9:0.61079389 10:0.80653238 11:0.85252589 12:0.75699008 13:0.81884044 14:0.28320304 15:0.26822227 16:0.24469656 17:0.66234827 18:0.80297905 19:0.69491076 20:0.99400693 21:0.73327726 22:0.71663862 23:0.44156247 24:0.24459912 25:0.20716162 26:0.66389 27:0.82164055 28:0.72794461 29:0.98252851 30:0.74561971 31:0.83743858 32:0.29215074 33:0.28623673 34:0.24416573 35:0.69910395 #
-0.00034062013332638950815003942018677 1:0.75095874 2:0.32891512 3:0.31730601 4:0.24082215 5:0.78378713 6:0.57967925 7:0.75844002 8:0.639525 9:0.87251151 10:0.83971214 11:0.3709853 12:0.3364414 13:0.29465118 14:0.83454615 15:0.6860854 16:0.84087312 17:0.75934017 18:0.84142655 19:0.44452307 20:0.42451921 21:0.30900046 22:0.95017439 23:0.67734236 24:0.88535297 25:0.85740256 26:0.98220849 27:0.84542376 28:0.46469331 29:0.41339648 30:0.35076106 31:0.92464393 32:0.75291914 33:0.9592942 34:0.8505199 35:0.96218878 #
-0.00034062013332638950815003942018677 1:0.927679 2:0.34551615 3:0.37495106 4:0.37753287 5:0.8061586 6:0.43799478 7:0.68288535 8:0.55117989 9:0.92821527 10:0.99758923 11:0.37976903 12:0.41828451 13:0.40114751 14:0.89082783 15:0.44100025 16:0.6909411 17:0.57687712 18:0.99648559 19:0.92669666 20:0.38245517 21:0.46019328 22:0.45870951 23:0.92131102 24:0.57282466 25:0.78199238 26:0.65477097 27:0.91041374 28:0.41558439 29:0.48335195 30:0.4748407 31:0.98066992 32:0.54936373 33:0.83356035 34:0.67870522 35:0.9766311 #
-0.00034062013332638950815003942018677 1:0.73818749 2:0.26997116 3:0.32389143 4:0.35198221 5:0.77689672 6:0.50582731 7:0.73142081 8:0.77908099 9:0.7869435 10:0.81687522 11:0.27530715 12:0.31516287 13:0.30458397 14:0.93443149 15:0.5346899 16:0.72510242 17:0.77297384 18:0.84783673 19:0.76975095 20:0.36185426 21:0.39944851 22:0.39950788 23:0.91234761 24:0.68878829 25:0.85760921 26:0.89836067 27:0.80871683 28:0.78349471 29:0.36753848 30:0.37173238 31:0.34526268 32:0.65324807 33:0.85753965 34:0.89506906 35:0.84468764 #
0.00034062013332638950815003942018677 1:0.85152286 2:0.53952479 3:0.37236467 4:0.35604918 5:0.44181067 6:0.24284197 7:0.24787232 8:0.34529069 9:0.81615502 10:0.91242075 11:0.62100923 12:0.43184346 13:0.34429124 14:0.40332329 15:0.2528379 16:0.31703252 17:0.41908753 18:0.87039196 19:0.91129857 20:0.522569 21:0.34343976 22:0.38338736 23:0.44434947 24:0.23497374 25:0.24744508 26:0.34250611 27:0.86463135 28:0.55881667 29:0.38938832 30:0.34792534 31:0.41313913 32:0.23834252 33:0.30580744 34:0.40269238 35:0.92253619 #
0.00034062013332638950815003942018677 1:0.91708177 2:0.62150788 3:0.36086541 4:0.2232002 5:0.30679357 6:0.23442461 7:0.28280857 8:0.39715296 9:0.83704573 10:0.95832831 11:0.67074865 12:0.3853755 13:0.24620366 14:0.34984696 15:0.2535435 16:0.2984679 17:0.42701745 18:0.83975321 19:0.93945009 20:0.67751616 21:0.40365463 22:0.24905075 23:0.33924994 24:0.2716755 25:0.33607507 26:0.46872666 27:0.82348263 28:0.71898544 29:0.47094294 30:0.29015261 31:0.38657281 32:0.29126912 33:0.36182889 34:0.50561863 35:0.91097587 #
-0.00034062013332638950815003942018677 1:0.89315617 2:0.57838535 3:0.63886905 4:0.27783653 5:0.48599306 6:0.08087042 7:0.12417123 8:0.16051424 9:0.7490505 10:0.94914496 11:0.61384881 12:0.694655 13:0.29225904 14:0.40721399 15:0.098097593 16:0.15620752 17:0.18113311 18:0.76164353 19:0.9211219 20:0.64584392 21:0.7047382 22:0.30103886 23:0.55412459 24:0.11645673 25:0.17411095 26:0.21696277 27:0.74490052 28:0.78440583 29:0.85759777 30:0.41785535 31:0.59170777 32:0.14417982 33:0.17196706 34:0.22759074 35:0.83974475 #
-0.00034062013332638950815003942018677 1:0.82088017 2:0.77281547 3:0.86580509 4:0.51439232 5:0.52780825 6:0.25568122 7:0.19806655 8:0.2885007 9:0.68530566 10:0.88157421 11:0.868128 12:0.9696914 13:0.5550577 14:0.53822142 15:0.27806515 16:0.23648262 17:0.34483242 18:0.75149399 19:0.82824141 20:0.87031859 21:0.97483331 22:0.58558357 23:0.53672427 24:0.28189355 25:0.21576762 26:0.2920053 27:0.71385032 28:0.85269481 29:0.95292413 30:0.66562092 31:0.54641539 32:0.28704974 33:0.22973998 34:0.30105382 35:0.74180818 #
0.00034062013332638950815003942018677 1:0.67869973 2:0.30903962 3:0.37944725 4:0.31227016 5:0.84243441 6:0.56292748 7:0.86722469 8:0.66031474 9:0.76953197 10:0.74485928 11:0.37114748 12:0.37452254 13:0.32819447 14:0.85671359 15:0.60716367 16:0.86187834 17:0.78260064 18:0.81840616 19:0.63588125 20:0.42820689 21:0.50129759 22:0.39567387 23:0.9656415 24:0.65620053 25:0.9671635 26:0.82224882 27:0.79321688 28:0.69348395 29:0.49807054 30:0.52593791 31:0.42031971 32:0.71077561 33:0.92653263 34:0.86147076 35:0.82254106 #
0.00034062013332638950815003942018677 1:0.88492835 2:0.61072016 3:0.56483233 4:0.3927643 5:0.65498233 6:0.37524426 7:0.65237415 8:0.5004493 9:0.87621838 10:0.97506493 11:0.69742739 12:0.65548259 13:0.46777087 14:0.65753454 15:0.46544889 16:0.69567865 17:0.55483758 18:0.97012573 19:0.93407381 20:0.64684445 21:0.6408506 22:0.40632182 23:0.64509481 24:0.45739475 25:0.67975366 26:0.55983764 27:0.94842064 28:0.6999827 29:0.65206492 30:0.49068871 31:0.66633415 32:0.45276627 33:0.73665434 34:0.58637315 35:0.99942178 #
0.00034062013332638950815003942018677 1:0.76062381 2:0.26694867 3:0.24562299 4:0.27472848 5:0.68080264 6:0.50119865 7:0.74893731 8:0.75037098 9:0.96245348 10:0.81282961 11:0.26565373 12:0.24727537 13:0.26532313 14:0.79740137 15:0.47933766 16:0.73385078 17:0.74447697 18:0.77396393 19:0.34327364 20:0.29073721 21:0.33236307 22:0.7490325 23:0.6271807 24:0.8462292 25:0.84756023 26:0.98883277 27:0.72357154 28:0.35640204 29:0.30541036 30:0.33497944 31:0.83447278 32:0.57378358 33:0.78561759 34:0.82477182 35:0.92406183 #
-0.00034062013332638950815003942018677 1:0.76015574 2:0.43594205 3:0.3691369 4:0.48269761 5:0.76490688 6:0.78496933 7:0.92226845 8:0.90035695 9:0.84253913 10:0.81611818 11:0.50540471 12:0.44702816 13:0.53640193 14:0.80889398 15:0.80301303 16:0.9122135 17:0.94191784 18:0.90221101 19:0.74064457 20:0.41949153 21:0.39804792 22:0.54526627 23:0.81456298 24:0.92947078 25:0.97594136 26:0.9786483 27:0.90618891 28:0.86415148 29:0.51508105 30:0.48547906 31:0.62432927 32:0.8724215 33:0.94576764 34:0.93746424 35:0.99179947 #
-0.00034062013332638950815003942018677 1:0.76627553 2:0.21854006 3:0.180572 4:0.17532419 5:0.85294104 6:0.36737591 7:0.71475756 8:0.66417736 9:0.89656156 10:0.88329476 11:0.25832719 12:0.18535604 13:0.22180966 14:0.9574995 15:0.44760415 16:0.78290015 17:0.74065149 18:0.97713512 19:0.8814168 20:0.32273072 21:0.25428408 22:0.21168278 23:0.87178952 24:0.48165315 25:0.84635317 26:0.8245393 27:0.82572597 28:0.34707278 29:0.21314342 30:0.24239841 31:0.91102159 32:0.46267107 33:0.818295 34:0.80985129 35:0.94823581 #
-0.00034062013332638950815003942018677 1:0.73875701 2:0.36597219 3:0.3956199 4:0.41470325 5:0.82578331 6:0.50762355 7:0.73711896 8:0.68302208 9:0.76131773 10:0.81982255 11:0.4074378 12:0.42066169 13:0.45264903 14:0.91634893 15:0.64145309 16:0.86014551 17:0.75001925 18:0.82988882 19:0.82611126 20:0.41050643 21:0.42801172 22:0.4589242 23:0.89086568 24:0.5379619 25:0.7166028 26:0.67719465 27:0.84981769 28:0.89198118 29:0.44475833 30:0.47426507 31:0.54002672 32:0.64884031 33:0.80401665 34:0.70569766 35:0.91474879 #
