SVM-light Version V6.02
0 # kernel type
3 # kernel parameter -d 
1 # kernel parameter -g 
1 # kernel parameter -s 
1 # kernel parameter -r 
empty# kernel parameter -u 
769 # highest feature index 
206 # number of training documents 
183 # number of support vectors plus 1 
-0.77235075 # threshold b, each following line is a SV (starting with alpha*y)
-0.01803075188531178332795867902405 1:0.041666701 2:0.041666701 3:0 4:0 5:0.083333299 6:0.041666701 7:0.083333299 8:0.083333299 9:0.125 10:0 11:0 12:0 13:0.041666701 14:0.125 15:0 16:0.083333299 17:0.083333299 18:0.041666701 19:0.125 20:0.125 21:0.083333299 22:0.041666701 23:0.166667 24:0.041666701 25:0.083333299 26:0.166667 27:0.041666701 28:0.083333299 29:0.25 30:0.083333299 31:0.29166701 32:0.208333 33:0.208333 34:0.25 35:0.29166701 36:0.208333 37:0.25 38:0.33333299 39:0.083333299 40:0.33333299 41:0.125 42:0.29166701 43:0.45833299 44:0.375 45:0.41666701 46:0.45833299 47:0.875 48:0.58333302 49:0.29166701 50:0.54166698 51:0.58333302 52:0.625 53:0.70833302 54:0.5 55:0.29166701 56:0.625 57:0.54166698 58:0.54166698 59:0.66666698 60:0.33333299 61:0.54166698 62:0.58333302 63:0.41666701 64:0.70833302 65:0.375 66:1 67:0.70833302 68:0.41666701 69:0.33333299 70:0.41666701 71:0.45833299 72:0.375 73:0.25 74:0.33333299 75:0.33333299 76:0.208333 77:0.5 78:0.5 79:0.33333299 80:0.33333299 81:0.166667 82:0.41666701 83:0.33333299 84:0.41666701 85:0.29166701 86:0.125 87:0.208333 88:0.125 89:0.083333299 90:0.41666701 91:0.25 92:0.25 93:0.41666701 94:0.208333 95:0.25 96:0.125 97:0.208333 98:0.29166701 99:0.208333 100:0.25 101:0.166667 102:0.166667 103:0.166667 104:0.208333 105:0.125 106:0.166667 107:0 108:0.125 109:0.208333 110:0.041666701 111:0.083333299 112:0.125 113:0.083333299 114:0.166667 115:0.125 116:0.041666701 117:0.166667 118:0.125 119:0.125 120:0.041666701 121:0.041666701 122:0.041666701 123:0.083333299 124:0 125:0.041666701 126:0.083333299 127:0 128:0.083333299 129:0 130:0.041666701 131:0.041666701 132:0.041666701 133:0 134:0.041666701 135:0.041666701 136:0 137:0.083333299 138:0 139:0.083333299 140:0 141:0.166667 142:0.041666701 143:0.041666701 144:0 145:0.041666701 146:0.041666701 147:0.041666701 148:0 149:0 150:0.041666701 151:0 152:0 153:0.083333299 154:0 155:0.041666701 156:0 157:0 158:0 159:0.041666701 160:0 161:0.041666701 162:0 163:0.041666701 164:0 165:0.041666701 166:0 167:0.041666701 168:0.041666701 169:0.041666701 170:0 171:0 172:0 173:0 174:0.041666701 175:0.041666701 176:0 177:0 178:0 179:0.041666701 180:0 181:0 182:0 183:0 184:0 185:0 186:0 187:0 188:0.041666701 189:0 190:0 191:0 192:0 193:0 194:0 195:0 196:0.041666701 197:0 198:0 199:0 200:0 201:0 202:0 203:0.041666701 204:0 205:0 206:0 207:0 208:0.041666701 209:0 210:0 211:0 212:0 213:0 214:0 215:0 216:0 217:0 218:0.041666701 219:0 220:0 221:0 222:0 223:0 224:0 225:0.041666701 226:0 227:0 228:0 229:0 230:0 231:0 232:0 233:0 234:0 235:0 236:0 237:0 238:0 239:0 240:0 241:0 242:0 243:0 244:0 245:0 246:0 247:0 248:0 249:0 250:0 251:0 252:0 253:0 254:0 255:0 256:0 257:0 258:0 259:0 260:0 261:0 262:0 263:0 264:0 265:0 266:0 267:0 268:0 269:0 270:0.0588235 271:0 272:0 273:0 274:0 275:0 276:0 277:0 278:0 279:0 280:0 281:0 282:0 283:0.0588235 284:0 285:0 286:0.0588235 287:0 288:0 289:0 290:0 291:0 292:0 293:0 294:0 295:0 296:0.0588235 297:0.117647 298:0 299:0 300:0 301:0 302:0.0588235 303:0.117647 304:0.117647 305:0 306:0 307:0 308:0.117647 309:0 310:0.0588235 311:0.117647 312:0.117647 313:0.29411799 314:0.117647 315:0.0588235 316:0 317:0.0588235 318:0 319:0.117647 320:0 321:0.117647 322:0 323:0.117647 324:0.17647099 325:0 326:0.117647 327:0.0588235 328:0.17647099 329:0.0588235 330:0.0588235 331:0.35294101 332:0.17647099 333:0.117647 334:0.117647 335:0.235294 336:0.235294 337:0.41176501 338:0.17647099 339:0.235294 340:0.117647 341:0.35294101 342:0.235294 343:0.35294101 344:0.41176501 345:0.29411799 346:0.29411799 347:0.64705902 348:0.470588 349:0.70588201 350:0.41176501 351:0.235294 352:0.470588 353:1 354:0.64705902 355:0.52941197 356:0.117647 357:0.76470602 358:0.52941197 359:0.82352901 360:0.64705902 361:0.52941197 362:0.76470602 363:0.82352901 364:0.35294101 365:1 366:0.58823502 367:0.58823502 368:0.29411799 369:0.52941197 370:0.41176501 371:0.470588 372:0.64705902 373:0.52941197 374:0.64705902 375:0.88235301 376:0.64705902 377:0.41176501 378:0.29411799 379:0.117647 380:0.41176501 381:0.41176501 382:0.58823502 383:0.470588 384:0.64705902 385:0.58823502 386:0.64705902 387:0.29411799 388:0.41176501 389:0.35294101 390:0.35294101 391:0.41176501 392:0.52941197 393:0.235294 394:0.52941197 395:0.35294101 396:0.470588 397:0.29411799 398:0.41176501 399:0.17647099 400:0.470588 401:0.235294 402:0.235294 403:0.29411799 404:0.17647099 405:0.41176501 406:0.470588 407:0.35294101 408:0.235294 409:0.235294 410:0.41176501 411:0.29411799 412:0.29411799 413:0.58823502 414:0.235294 415:0.17647099 416:0.17647099 417:0.29411799 418:0.235294 419:0.52941197 420:0.235294 421:0.29411799 422:0.235294 423:0.29411799 424:0.17647099 425:0.235294 426:0 427:0.235294 428:0.0588235 429:0.29411799 430:0.29411799 431:0.117647 432:0.17647099 433:0.29411799 434:0.235294 435:0.29411799 436:0.17647099 437:0 438:0.17647099 439:0.0588235 440:0.0588235 441:0.17647099 442:0 443:0.117647 444:0.117647 445:0 446:0 447:0 448:0.117647 449:0.0588235 450:0.0588235 451:0 452:0.0588235 453:0.117647 454:0.117647 455:0 456:0.0588235 457:0.0588235 458:0.0588235 459:0.117647 460:0 461:0.0588235 462:0.0588235 463:0 464:0.0588235 465:0.117647 466:0 467:0.117647 468:0.0588235 469:0 470:0 471:0 472:0.0588235 473:0.0588235 474:0.0588235 475:0 476:0 477:0 478:0 479:0.117647 480:0 481:0.0588235 482:0.117647 483:0 484:0.0588235 485:0 486:0 487:0 488:0 489:0 490:0 491:0 492:0.0588235 493:0.0588235 494:0.0588235 495:0 496:0 497:0.0588235 498:0 499:0 500:0 501:0 502:0 503:0 504:0.0588235 505:0 506:0 507:0 508:0.117647 509:0 510:0 511:0 512:0 513:0 514:0 515:0 516:0 517:0 518:0 519:0 520:0 521:0 522:0 523:0 524:0 525:0 526:0 527:0 528:0 529:0 530:0 531:0.0588235 532:0 533:0 534:0 535:0 536:0 537:0 538:0 539:0 540:0 541:0 542:0 543:0 544:0 545:0 546:0.0588235 547:0.0588235 548:0 549:0.117647 550:0.0588235 551:0 552:0 553:0.117647 554:0 555:0 556:0.0588235 557:0 558:0 559:0.0588235 560:0.117647 561:0.0588235 562:0 563:0.0588235 564:0.117647 565:0.29411799 566:0.117647 567:0 568:0 569:0.117647 570:0 571:0.17647099 572:0 573:0.117647 574:0.117647 575:0.117647 576:0.0588235 577:0.0588235 578:0.117647 579:0.117647 580:0.235294 581:0 582:0.35294101 583:0.35294101 584:0.17647099 585:0.117647 586:0.35294101 587:0.117647 588:0.117647 589:0.35294101 590:0.17647099 591:0.470588 592:0.35294101 593:0.35294101 594:0.235294 595:0.17647099 596:0.470588 597:0.41176501 598:0.41176501 599:0.470588 600:0.41176501 601:0.52941197 602:0.470588 603:0.70588201 604:0.64705902 605:0.64705902 606:0.470588 607:0.70588201 608:0.470588 609:0.58823502 610:0.88235301 611:0.76470602 612:0.76470602 613:0.41176501 614:0.64705902 615:0.52941197 616:0.58823502 617:0.64705902 618:0.70588201 619:0.41176501 620:0.76470602 621:0.64705902 622:0.41176501 623:0.41176501 624:1 625:0.58823502 626:1 627:0.941176 628:0.41176501 629:0.235294 630:0.35294101 631:0.29411799 632:0.470588 633:0.52941197 634:0.941176 635:0.35294101 636:0.235294 637:0.70588201 638:0.52941197 639:0.35294101 640:0.52941197 641:0.29411799 642:0.64705902 643:0.470588 644:0.41176501 645:0.76470602 646:0.235294 647:0.52941197 648:0.41176501 649:0.41176501 650:0.52941197 651:0.17647099 652:0.0588235 653:0.235294 654:0.470588 655:0.235294 656:0.470588 657:0.17647099 658:0.17647099 659:0.35294101 660:0.29411799 661:0.17647099 662:0.35294101 663:0.41176501 664:0.117647 665:0.41176501 666:0.29411799 667:0.17647099 668:0.117647 669:0.235294 670:0.41176501 671:0.17647099 672:0.470588 673:0.17647099 674:0.29411799 675:0.117647 676:0.235294 677:0.29411799 678:0.0588235 679:0.0588235 680:0.117647 681:0.0588235 682:0 683:0.17647099 684:0.117647 685:0.0588235 686:0.117647 687:0.0588235 688:0.17647099 689:0.235294 690:0 691:0.0588235 692:0.17647099 693:0.117647 694:0.117647 695:0 696:0 697:0.0588235 698:0.17647099 699:0.0588235 700:0 701:0.0588235 702:0.0588235 703:0.0588235 704:0 705:0 706:0 707:0 708:0 709:0 710:0.0588235 711:0 712:0.0588235 713:0.117647 714:0 715:0.0588235 716:0 717:0.17647099 718:0 719:0.0588235 720:0 721:0.0588235 722:0 723:0.0588235 724:0.0588235 725:0 726:0 727:0 728:0 729:0.0588235 730:0 731:0 732:0 733:0 734:0 735:0 736:0 737:0 738:0 739:0.0588235 740:0 741:0 742:0 743:0 744:0 745:0 746:0 747:0.0588235 748:0 749:0 750:0 751:0.0588235 752:0 753:0 754:0 755:0 756:0 757:0.0588235 758:0 759:0 760:0 761:0 762:0 763:0 764:0 765:0 766:1 767:0.98245603 768:0.28070199 769:1 #
-0.01803075188531178332795867902405 1:0 2:0 3:0 4:0 5:0 6:0 7:0 8:0 9:0 10:0 11:0 12:0 13:0 14:0 15:0 16:0 17:0 18:0 19:0 20:0 21:0 22:0 23:0 24:0 25:0 26:0 27:0 28:0 29:0 30:0 31:0 32:0 33:0 34:0 35:0 36:0 37:0 38:0 39:0 40:0 41:0 42:0 43:0 44:0 45:0 46:0 47:0 48:0 49:0 50:0 51:0 52:0 53:0 54:0 55:0 56:0 57:0 58:0 59:0 60:0 61:0 62:0 63:0 64:0 65:0 66:0 67:0 68:0 69:0 70:0 71:0 72:0 73:0 74:0 75:0 76:0 77:0 78:0 79:0 80:0 81:0 82:0 83:0 84:0 85:0 86:0 87:0 88:0 89:0 90:0 91:0 92:0 93:0 94:0 95:0 96:0 97:0 98:0 99:0 100:0 101:0 102:0 103:0 104:0 105:0 106:0 107:0 108:0 109:0 110:0 111:0 112:0 113:0 114:0 115:0 116:0 117:0 118:0 119:0 120:0 121:0 122:0 123:0 124:0 125:0 126:0 127:0 128:0 129:0 130:0 131:0 132:0 133:0.045454498 134:0 135:0 136:0 137:0 138:0 139:0 140:0 141:0 142:0 143:0 144:0 145:0 146:0 147:0 148:0 149:0 150:0 151:0 152:0 153:0 154:0 155:0 156:0 157:0 158:0 159:0 160:0 161:0.045454498 162:0 163:0 164:0 165:0 166:0 167:0 168:0 169:0 170:0 171:0 172:0 173:0 174:0 175:0 176:0 177:0 178:0 179:0 180:0.090909101 181:0.045454498 182:0 183:0 184:0 185:0.045454498 186:0.045454498 187:0.136364 188:0.136364 189:0 190:0.136364 191:0.045454498 192:0.090909101 193:0.18181799 194:0.136364 195:0.136364 196:0.18181799 197:0.136364 198:0.136364 199:0.136364 200:0.27272701 201:0.27272701 202:0.36363599 203:0.18181799 204:0.227273 205:0.63636398 206:0.227273 207:0.63636398 208:0.409091 209:0.5 210:0.72727299 211:0.45454499 212:0.45454499 213:0.68181801 214:0.86363602 215:0.81818199 216:0.68181801 217:0.77272701 218:0.77272701 219:0.81818199 220:0.68181801 221:1 222:0.590909 223:0.72727299 224:0.54545498 225:0.77272701 226:0.77272701 227:0.409091 228:0.227273 229:0.54545498 230:0.590909 231:0.54545498 232:0.590909 233:0.45454499 234:0.409091 235:0.45454499 236:0.136364 237:0.18181799 238:0.227273 239:0.31818199 240:0.090909101 241:0.136364 242:0.045454498 243:0.045454498 244:0 245:0 246:0.045454498 247:0.045454498 248:0.136364 249:0 250:0 251:0 252:0 253:0 254:0 255:0 256:0 257:0 258:0 259:0 260:0 261:0 262:0 263:0 264:0 265:0 266:0 267:0 268:0 269:0 270:0 271:0 272:0 273:0 274:0 275:0 276:0 277:0 278:0 279:0 280:0 281:0 282:0 283:0 284:0 285:0 286:0 287:0 288:0 289:0 290:0 291:0 292:0 293:0 294:0 295:0 296:0 297:0 298:0 299:0 300:0 301:0 302:0 303:0 304:0 305:0 306:0 307:0 308:0 309:0 310:0 311:0 312:0 313:0 314:0 315:0 316:0 317:0 318:0 319:0 320:0 321:0 322:0 323:0 324:0 325:0 326:0 327:0 328:0 329:0 330:0 331:0 332:0 333:0 334:0 335:0 336:0 337:0 338:0 339:0 340:0 341:0 342:0 343:0 344:0 345:0 346:0 347:0 348:0 349:0 350:0 351:0 352:0 353:0 354:0 355:0 356:0 357:0 358:0 359:0 360:0 361:0 362:0 363:0 364:0 365:0 366:0 367:0 368:0 369:0 370:0 371:0 372:0 373:0 374:0 375:0 376:0 377:0 378:0 379:0 380:0 381:0 382:0 383:0 384:0 385:0 386:0 387:0 388:0 389:0 390:0 391:0 392:0 393:0 394:0 395:0 396:0 397:0 398:0 399:0 400:0 401:0 402:0 403:0 404:0 405:0 406:0 407:0 408:0 409:0 410:0 411:0 412:0 413:0 414:0 415:0 416:0 417:0 418:0 419:0 420:0 421:0 422:0 423:0 424:0 425:0.034482799 426:0 427:0 428:0 429:0 430:0 431:0 432:0 433:0 434:0 435:0 436:0 437:0 438:0 439:0 440:0 441:0 442:0 443:0 444:0 445:0 446:0.034482799 447:0 448:0.034482799 449:0 450:0.034482799 451:0 452:0 453:0.20689701 454:0.172414 455:0.103448 456:0.137931 457:0.137931 458:0.20689701 459:0.20689701 460:0.27586201 461:0.172414 462:0.20689701 463:0.517241 464:0.31034499 465:0.65517199 466:0.413793 467:0.27586201 468:0.482759 469:0.65517199 470:0.72413802 471:0.62068999 472:0.517241 473:0.517241 474:0.93103498 475:1 476:0.89655203 477:0.86206901 478:0.55172402 479:0.93103498 480:0.68965501 481:0.482759 482:0.517241 483:0.24137899 484:0.24137899 485:0.55172402 486:0.20689701 487:0.172414 488:0.20689701 489:0.27586201 490:0.20689701 491:0.103448 492:0.20689701 493:0.172414 494:0.137931 495:0.20689701 496:0.068965502 497:0.034482799 498:0 499:0.034482799 500:0.068965502 501:0.034482799 502:0.034482799 503:0 504:0 505:0 506:0.034482799 507:0 508:0 509:0 510:0 511:0 512:0 513:0 514:0 515:0 516:0 517:0 518:0 519:0 520:0 521:0 522:0 523:0 524:0 525:0 526:0 527:0 528:0 529:0 530:0 531:0 532:0 533:0 534:0 535:0 536:0 537:0 538:0 539:0 540:0 541:0 542:0 543:0 544:0 545:0 546:0 547:0 548:0 549:0 550:0 551:0 552:0 553:0 554:0 555:0 556:0 557:0 558:0 559:0 560:0 561:0 562:0 563:0 564:0 565:0 566:0 567:0 568:0 569:0 570:0 571:0 572:0 573:0 574:0 575:0 576:0 577:0 578:0 579:0 580:0 581:0 582:0 583:0 584:0 585:0 586:0 587:0 588:0 589:0 590:0 591:0 592:0 593:0 594:0 595:0 596:0 597:0 598:0 599:0 600:0 601:0 602:0 603:0 604:0 605:0 606:0 607:0 608:0 609:0 610:0 611:0 612:0 613:0 614:0 615:0 616:0 617:0 618:0 619:0 620:0 621:0 622:0 623:0 624:0 625:0 626:0 627:0 628:0 629:0 630:0 631:0 632:0 633:0 634:0 635:0 636:0 637:0 638:0 639:0 640:0 641:0 642:0 643:0 644:0 645:0 646:0 647:0 648:0 649:0 650:0 651:0 652:0 653:0 654:0 655:0 656:0 657:0 658:0 659:0 660:0 661:0 662:0 663:0 664:0 665:0 666:0 667:0 668:0 669:0 670:0 671:0 672:0 673:0 674:0 675:0 676:0 677:0 678:0 679:0 680:0 681:0 682:0 683:0 684:0 685:0 686:0 687:0 688:0.034482799 689:0 690:0 691:0 692:0 693:0 694:0 695:0 696:0 697:0 698:0 699:0 700:0 701:0.034482799 702:0 703:0.034482799 704:0.172414 705:0.034482799 706:0 707:0.068965502 708:0.137931 709:0.137931 710:0.172414 711:0.103448 712:0.137931 713:0.413793 714:0.413793 715:0.44827601 716:0.65517199 717:0.37931001 718:0.34482801 719:0.62068999 720:0.79310298 721:0.58620697 722:0.62068999 723:0.827586 724:0.37931001 725:0.72413802 726:0.827586 727:1 728:0.65517199 729:0.72413802 730:0.68965501 731:0.44827601 732:0.65517199 733:0.517241 734:0.24137899 735:0.44827601 736:0.31034499 737:0.34482801 738:0.44827601 739:0.24137899 740:0.37931001 741:0.24137899 742:0.37931001 743:0.24137899 744:0.034482799 745:0.068965502 746:0.137931 747:0.103448 748:0.068965502 749:0 750:0.034482799 751:0.034482799 752:0.034482799 753:0 754:0 755:0.034482799 756:0.034482799 757:0 758:0 759:0 760:0.034482799 761:0.034482799 762:0 763:0 764:0 765:0 766:1 767:0.49090901 768:0.32727301 769:0.527273 #
-0.01803075188531178332795867902405 1:0 2:0 3:0 4:0 5:0 6:0 7:0 8:0 9:0 10:0 11:0 12:0 13:0 14:0 15:0 16:0 17:0 18:0 19:0 20:0 21:0 22:0 23:0 24:0 25:0 26:0.00115473 27:0 28:0 29:0 30:0 31:0 32:0.00115473 33:0 34:0 35:0 36:0 37:0.00115473 38:0.00230947 39:0.00115473 40:0.00230947 41:0.00115473 42:0.00115473 43:0.00115473 44:0 45:0.00115473 46:0.00230947 47:0 48:0.0034642001 49:0.0034642001 50:0.00230947 51:0.00230947 52:0.0046189399 53:0.00577367 54:0.0034642001 55:0.00115473 56:0.00230947 57:0.0046189399 58:0.0034642001 59:0.00577367 60:0.00230947 61:0.00230947 62:0 63:0 64:0.00577367 65:0.0046189399 66:0.0034642001 67:0.0069284099 68:0.0080831395 69:0.00577367 70:0.0069284099 71:0.0046189399 72:0.0115473 73:0.0092378799 74:0.0069284099 75:0.0046189399 76:0.0046189399 77:0.0080831395 78:0.0069284099 79:0.0092378799 80:0.0103926 81:0.0150115 82:0.0103926 83:0.0103926 84:0.018475801 85:0.02194 86:0.0254042 87:0.0127021 88:0.0265589 89:0.0265589 90:0.039260998 91:0.0288684 92:0.033487301 93:0.036951501 94:0.041570399 95:0.039260998 96:0.048498798 97:0.051963001 98:0.049653601 99:0.068129301 100:0.053117801 101:0.061200898 102:0.073903002 103:0.069284096 104:0.071593501 105:0.0877598 106:0.0877598 107:0.0750577 108:0.093533501 109:0.083140902 110:0.088914603 111:0.101617 112:0.094688199 113:0.115473 114:0.103926 115:0.12932999 116:0.099307202 117:0.142032 118:0.14549699 119:0.158199 120:0.167436 121:0.190531 122:0.177829 123:0.205543 124:0.241339 125:0.277136 126:0.286374 127:0.32332599 128:0.353349 129:0.40646699 130:0.428406 131:0.484988 132:0.48729801 133:0.55658197 134:0.61778301 135:0.62702101 136:0.60508102 137:0.67552 138:0.69053102 139:0.68475801 140:0.75866002 141:0.82678998 142:0.93879902 143:0.90184802 144:0.91455001 145:0.99884498 146:0.98267901 147:0.92032301 148:1 149:0.91339499 150:0.92494202 151:0.87182498 152:0.82101601 153:0.74480402 154:0.774827 155:0.70785201 156:0.62932998 157:0.60623598 158:0.58429599 159:0.58891499 160:0.58314103 161:0.56351 162:0.52424902 163:0.473441 164:0.448037 165:0.416859 166:0.360277 167:0.34295601 168:0.30946901 169:0.28060001 170:0.281755 171:0.25635099 172:0.213626 173:0.20900699 174:0.185912 175:0.15358 176:0.124711 177:0.115473 178:0.103926 179:0.084295601 180:0.081986099 181:0.073903002 182:0.064665101 183:0.071593501 184:0.057736699 185:0.034642 186:0.027713601 187:0.024249399 188:0.0254042 189:0.0161663 190:0.02194 191:0.018475801 192:0.0127021 193:0.0092378799 194:0.0069284099 195:0.0080831395 196:0.00577367 197:0.0069284099 198:0.0103926 199:0.00577367 200:0.0034642001 201:0.00115473 202:0.00115473 203:0.00115473 204:0.00115473 205:0.00115473 206:0.00115473 207:0.00230947 208:0.00115473 209:0 210:0.0034642001 211:0.00115473 212:0.00115473 213:0 214:0.00115473 215:0.00115473 216:0 217:0 218:0 219:0 220:0 221:0 222:0 223:0 224:0 225:0 226:0 227:0 228:0 229:0 230:0 231:0 232:0 233:0 234:0 235:0 236:0 237:0 238:0 239:0 240:0 241:0 242:0 243:0 244:0 245:0 246:0 247:0 248:0 249:0 250:0 251:0 252:0 253:0 254:0 255:0 256:0 257:0 258:0 259:0 260:0 261:0 262:0 263:0 264:0 265:0 266:0 267:0 268:0 269:0 270:0 271:0 272:0 273:0 274:0 275:0 276:0 277:0 278:0 279:0 280:0 281:0 282:0 283:0 284:0 285:0 286:0 287:0 288:0 289:0 290:0 291:0 292:0 293:0 294:0 295:0 296:0 297:0 298:0.0011236001 299:0 300:0.00337079 301:0 302:0 303:0 304:0.0022471901 305:0 306:0 307:0.0011236001 308:0.0022471901 309:0.0022471901 310:0.0011236001 311:0.0011236001 312:0.0044943802 313:0 314:0.0022471901 315:0.0022471901 316:0.0022471901 317:0.00337079 318:0.0022471901 319:0.0056179799 320:0 321:0.0011236001 322:0.0044943802 323:0.0022471901 324:0 325:0.0011236001 326:0.0022471901 327:0.0022471901 328:0.0011236001 329:0.0022471901 330:0.0022471901 331:0.0022471901 332:0.0022471901 333:0.00337079 334:0.0011236001 335:0.0011236001 336:0.0056179799 337:0.0044943802 338:0.0044943802 339:0.00337079 340:0 341:0.0067415698 342:0.0044943802 343:0.0044943802 344:0.00337079 345:0.0011236001 346:0.0067415698 347:0.0044943802 348:0.0056179799 349:0.0044943802 350:0.0067415698 351:0.0101124 352:0.0044943802 353:0.00786517 354:0.011236 355:0.0101124 356:0.0089887604 357:0.016853901 358:0.0101124 359:0.011236 360:0.0269663 361:0.0123596 362:0.011236 363:0.021348299 364:0.0134831 365:0.0247191 366:0.0179775 367:0.037078701 368:0.023595501 369:0.0280899 370:0.0393258 371:0.031460699 372:0.042696599 373:0.033707902 374:0.047191001 375:0.041572999 376:0.047191001 377:0.050561801 378:0.052809 379:0.052809 380:0.059550598 381:0.0640449 382:0.068539299 383:0.071910098 384:0.075280897 385:0.074157298 386:0.069662899 387:0.080898903 388:0.095505603 389:0.083146103 390:0.088763997 391:0.092134804 392:0.11236 393:0.106742 394:0.13258401 395:0.088763997 396:0.120225 397:0.13146099 398:0.147191 399:0.148315 400:0.161798 401:0.189888 402:0.21011201 403:0.25617999 404:0.292135 405:0.32471901 406:0.348315 407:0.37528101 408:0.38988799 409:0.419101 410:0.447191 411:0.52584302 412:0.54157299 413:0.55168498 414:0.54494399 415:0.59775299 416:0.633708 417:0.68089902 418:0.704494 419:0.732584 420:0.83146101 421:0.88314599 422:0.93820202 423:0.93483102 424:0.993258 425:0.953933 426:0.95955098 427:1 428:0.919101 429:0.940449 430:0.93033701 431:0.84044898 432:0.78314602 433:0.69999999 434:0.74606699 435:0.69887602 436:0.69438201 437:0.64494401 438:0.61910099 439:0.56404501 440:0.51797801 441:0.49550599 442:0.44943801 443:0.453933 444:0.33932599 445:0.341573 446:0.28764001 447:0.242697 448:0.23033699 449:0.214607 450:0.168539 451:0.15617999 452:0.13932601 453:0.114607 454:0.120225 455:0.103371 456:0.0662921 457:0.073033698 458:0.0662921 459:0.0662921 460:0.042696599 461:0.043820199 462:0.030337101 463:0.030337101 464:0.031460699 465:0.0280899 466:0.0258427 467:0.0179775 468:0.0179775 469:0.030337101 470:0.011236 471:0.0067415698 472:0.021348299 473:0.0056179799 474:0.0067415698 475:0.00337079 476:0.0044943802 477:0.0022471901 478:0.0067415698 479:0.0044943802 480:0.0022471901 481:0.0011236001 482:0.00337079 483:0.0044943802 484:0 485:0.00337079 486:0.0011236001 487:0.0011236001 488:0 489:0.0011236001 490:0.0011236001 491:0 492:0 493:0 494:0 495:0 496:0 497:0 498:0 499:0 500:0 501:0 502:0 503:0 504:0 505:0 506:0 507:0 508:0 509:0 510:0 511:0 512:0 513:0 514:0 515:0 516:0 517:0 518:0 519:0 520:0 521:0 522:0 523:0 524:0 525:0 526:0 527:0 528:0 529:0 530:0 531:0 532:0 533:0 534:0 535:0 536:0 537:0 538:0 539:0 540:0 541:0 542:0 543:0 544:0 545:0 546:0 547:0 548:0 549:0 550:0 551:0 552:0 553:0 554:0 555:0 556:0 557:0 558:0 559:0 560:0 561:0 562:0 563:0 564:0 565:0 566:0 567:0 568:0 569:0 570:0 571:0 572:0 573:0 574:0.0021953899 575:0 576:0.00109769 577:0 578:0 579:0.0021953899 580:0.0021953899 581:0.00109769 582:0.00109769 583:0.00109769 584:0 585:0.00109769 586:0.0043907799 587:0.0021953899 588:0.0021953899 589:0 590:0.00329308 591:0.0043907799 592:0.0021953899 593:0.00109769 594:0.00109769 595:0.0043907799 596:0.0021953899 597:0.00109769 598:0 599:0.00329308 600:0.0021953899 601:0 602:0.0021953899 603:0 604:0.00329308 605:0.00109769 606:0.0021953899 607:0.00329308 608:0.0043907799 609:0.0021953899 610:0.00329308 611:0 612:0.00109769 613:0.00329308 614:0.0054884702 615:0.0054884702 616:0.0021953899 617:0.0021953899 618:0.0021953899 619:0.0054884702 620:0.0054884702 621:0.0021953899 622:0.0076838601 623:0.0076838601 624:0.0065861698 625:0.0054884702 626:0.0120746 627:0.0087815598 628:0.0065861698 629:0.0098792501 630:0.0098792501 631:0.0120746 632:0.0087815598 633:0.018660801 634:0.0109769 635:0.01427 636:0.0098792501 637:0.0153677 638:0.0197585 639:0.021953899 640:0.024149301 641:0.0109769 642:0.029637801 643:0.0197585 644:0.027442399 645:0.029637801 646:0.028540101 647:0.0362239 648:0.028540101 649:0.0362239 650:0.035126202 651:0.0472009 652:0.042810101 653:0.039517 654:0.0472009 655:0.058177799 656:0.051591702 657:0.069154799 658:0.069154799 659:0.081229404 660:0.065861702 661:0.076838598 662:0.074643202 663:0.086717904 664:0.11416 665:0.102086 666:0.129528 667:0.102086 668:0.103183 669:0.094401799 670:0.116356 671:0.110867 672:0.14160299 673:0.147091 674:0.17892399 675:0.18111999 676:0.23819999 677:0.23161399 678:0.28649801 679:0.305159 680:0.34248099 681:0.35455501 682:0.3809 683:0.36882499 684:0.42041701 685:0.468716 686:0.51152599 687:0.58068103 688:0.60153699 689:0.65861702 690:0.64873803 691:0.62129498 692:0.72338098 693:0.81449002 694:0.844127 695:0.86278802 696:0.95170099 697:1 698:0.97914398 699:0.98792499 700:0.96706897 701:0.912184 702:0.96158099 703:0.91547799 704:0.92645401 705:0.85949498 706:0.85071301 707:0.78265601 708:0.74313903 709:0.71789199 710:0.66739798 711:0.60373199 712:0.596048 713:0.53677303 714:0.45664099 715:0.391877 716:0.37760699 717:0.340285 718:0.29308501 719:0.28101 720:0.23600399 721:0.24039499 722:0.204171 723:0.182217 724:0.169045 725:0.099890202 726:0.13831 727:0.117453 728:0.092206404 729:0.081229404 730:0.085620202 731:0.057080101 732:0.0614709 733:0.0614709 734:0.050494 735:0.0526894 736:0.037321601 737:0.027442399 738:0.038419299 739:0.021953899 740:0.0208562 741:0.0263447 742:0.0208562 743:0.017563101 744:0.0098792501 745:0.0131723 746:0.0076838601 747:0.0131723 748:0.01427 749:0.00329308 750:0.0054884702 751:0.0120746 752:0.00329308 753:0.00329308 754:0.0054884702 755:0.0043907799 756:0.00329308 757:0.00109769 758:0.0043907799 759:0.0043907799 760:0.00109769 761:0 762:0.00109769 763:0 764:0 765:0 766:0.501553 767:1 768:0.139752 769:0.93012398 #
-0.01803075188531178332795867902405 1:0 2:0 3:0 4:0 5:0 6:0 7:0 8:0 9:0 10:0 11:0 12:0 13:0 14:0 15:0 16:0 17:0 18:0 19:0 20:0 21:0 22:0 23:0 24:0 25:0 26:0 27:0 28:0 29:0 30:0 31:0 32:0 33:0 34:0 35:0 36:0 37:0 38:0 39:0 40:0 41:0 42:0 43:0 44:0 45:0 46:0 47:0 48:0 49:0 50:0 51:0 52:0 53:0 54:0 55:0 56:0 57:0 58:0 59:0 60:0 61:0 62:0 63:0 64:0 65:0 66:0 67:0 68:0 69:0 70:0 71:0 72:0 73:0 74:0 75:0 76:0 77:0 78:0 79:0 80:0 81:0 82:0.032258101 83:0 84:0 85:0 86:0 87:0.032258101 88:0.032258101 89:0 90:0 91:0 92:0.032258101 93:0 94:0.032258101 95:0 96:0.032258101 97:0.032258101 98:0 99:0 100:0 101:0.032258101 102:0 103:0.032258101 104:0.032258101 105:0 106:0 107:0.064516097 108:0.129032 109:0.16129 110:0.032258101 111:0.064516097 112:0.096774198 113:0 114:0.064516097 115:0.19354799 116:0.096774198 117:0.064516097 118:0.129032 119:0.096774198 120:0.032258101 121:0.225806 122:0 123:0.064516097 124:0.096774198 125:0.225806 126:0.19354799 127:0.19354799 128:0.19354799 129:0.16129 130:0.096774198 131:0.064516097 132:0.225806 133:0.16129 134:0.096774198 135:0.19354799 136:0.354839 137:0.225806 138:0.19354799 139:0.19354799 140:0.19354799 141:0.29032299 142:0.225806 143:0.32258099 144:0.387097 145:0.32258099 146:0.225806 147:0.19354799 148:0.54838699 149:0.354839 150:0.67741901 151:0.387097 152:0.45161301 153:0.41935501 154:0.58064502 155:0.51612902 156:0.612903 157:0.64516097 158:0.774194 159:0.58064502 160:0.74193501 161:0.64516097 162:0.90322602 163:0.87096798 164:0.64516097 165:1 166:0.774194 167:0.96774203 168:0.83871001 169:0.83871001 170:0.45161301 171:0.87096798 172:0.96774203 173:0.612903 174:0.74193501 175:0.54838699 176:0.54838699 177:0.354839 178:0.54838699 179:0.96774203 180:0.54838699 181:0.51612902 182:0.54838699 183:0.58064502 184:0.51612902 185:0.41935501 186:0.51612902 187:0.48387101 188:0.51612902 189:0.48387101 190:0.70967698 191:0.387097 192:0.41935501 193:0.29032299 194:0.32258099 195:0.354839 196:0.16129 197:0.29032299 198:0.29032299 199:0.32258099 200:0.32258099 201:0.16129 202:0.32258099 203:0.45161301 204:0.25806499 205:0.25806499 206:0.387097 207:0.129032 208:0.225806 209:0.25806499 210:0.225806 211:0.19354799 212:0 213:0.16129 214:0.16129 215:0.19354799 216:0.064516097 217:0.19354799 218:0.032258101 219:0.032258101 220:0.19354799 221:0.129032 222:0.096774198 223:0.064516097 224:0.032258101 225:0.064516097 226:0.064516097 227:0.032258101 228:0.032258101 229:0.064516097 230:0 231:0 232:0.032258101 233:0.032258101 234:0.032258101 235:0.032258101 236:0 237:0 238:0 239:0 240:0.032258101 241:0 242:0 243:0 244:0 245:0 246:0 247:0 248:0 249:0 250:0 251:0 252:0 253:0 254:0 255:0 256:0 257:0 258:0 259:0 260:0 261:0 262:0 263:0 264:0 265:0 266:0 267:0 268:0 269:0 270:0 271:0 272:0 273:0 274:0 275:0 276:0 277:0 278:0 279:0 280:0 281:0 282:0 283:0 284:0 285:0 286:0 287:0 288:0 289:0 290:0 291:0 292:0 293:0 294:0 295:0 296:0 297:0 298:0 299:0 300:0 301:0 302:0 303:0 304:0 305:0 306:0 307:0 308:0 309:0 310:0 311:0 312:0 313:0 314:0 315:0 316:0 317:0 318:0 319:0 320:0 321:0 322:0 323:0 324:0 325:0 326:0 327:0 328:0 329:0 330:0 331:0 332:0 333:0 334:0 335:0 336:0 337:0 338:0 339:0 340:0 341:0 342:0 343:0 344:0 345:0 346:0 347:0 348:0.0294118 349:0 350:0.0588235 351:0 352:0 353:0 354:0 355:0 356:0.0294118 357:0 358:0.0294118 359:0.0294118 360:0 361:0.0588235 362:0.0294118 363:0.0588235 364:0.0588235 365:0 366:0.0294118 367:0.0588235 368:0.0294118 369:0 370:0 371:0.0588235 372:0.0294118 373:0.0588235 374:0.0588235 375:0.14705899 376:0.117647 377:0 378:0.0588235 379:0.0294118 380:0.205882 381:0.17647099 382:0.0588235 383:0.14705899 384:0.0294118 385:0.14705899 386:0.117647 387:0.0588235 388:0.088235296 389:0.0588235 390:0.17647099 391:0.0588235 392:0 393:0.32352901 394:0.205882 395:0.088235296 396:0.17647099 397:0.14705899 398:0.26470599 399:0.17647099 400:0.29411799 401:0.41176501 402:0.29411799 403:0.26470599 404:0.470588 405:0.5 406:0.32352901 407:0.5 408:0.29411799 409:0.470588 410:0.52941197 411:0.558824 412:0.52941197 413:0.61764699 414:0.470588 415:0.85294098 416:0.58823502 417:0.61764699 418:0.67647099 419:0.58823502 420:0.941176 421:0.52941197 422:0.91176498 423:0.941176 424:0.61764699 425:0.91176498 426:0.58823502 427:1 428:0.79411799 429:0.73529398 430:0.88235301 431:0.64705902 432:0.79411799 433:0.61764699 434:0.52941197 435:0.73529398 436:0.70588201 437:0.441176 438:0.558824 439:0.38235301 440:0.558824 441:0.558824 442:0.58823502 443:0.52941197 444:0.35294101 445:0.558824 446:0.5 447:0.58823502 448:0.235294 449:0.235294 450:0.29411799 451:0.32352901 452:0.32352901 453:0.41176501 454:0.205882 455:0.32352901 456:0.35294101 457:0.29411799 458:0.29411799 459:0.205882 460:0.29411799 461:0.17647099 462:0.235294 463:0.235294 464:0.17647099 465:0.26470599 466:0.088235296 467:0.17647099 468:0.088235296 469:0.0294118 470:0.0588235 471:0.17647099 472:0.0588235 473:0.088235296 474:0.088235296 475:0.088235296 476:0 477:0.0294118 478:0.0294118 479:0.088235296 480:0.0294118 481:0 482:0 483:0 484:0.0294118 485:0.0294118 486:0 487:0 488:0 489:0.0294118 490:0 491:0 492:0 493:0 494:0 495:0 496:0 497:0 498:0 499:0 500:0 501:0 502:0 503:0 504:0 505:0 506:0 507:0 508:0 509:0 510:0 511:0 512:0 513:0 514:0 515:0 516:0 517:0 518:0 519:0 520:0 521:0 522:0 523:0 524:0 525:0 526:0 527:0 528:0 529:0 530:0 531:0 532:0 533:0 534:0 535:0 536:0 537:0 538:0 539:0 540:0 541:0 542:0 543:0 544:0 545:0 546:0 547:0 548:0 549:0 550:0 551:0 552:0 553:0 554:0 555:0 556:0 557:0 558:0 559:0 560:0 561:0 562:0 563:0 564:0 565:0 566:0 567:0 568:0 569:0 570:0 571:0 572:0 573:0 574:0 575:0 576:0 577:0 578:0 579:0 580:0 581:0 582:0 583:0 584:0 585:0 586:0 587:0 588:0 589:0 590:0 591:0 592:0.028571401 593:0 594:0 595:0 596:0 597:0 598:0 599:0.028571401 600:0 601:0.028571401 602:0 603:0 604:0.028571401 605:0 606:0 607:0.057142898 608:0.028571401 609:0.028571401 610:0 611:0 612:0.028571401 613:0.028571401 614:0.028571401 615:0.057142898 616:0 617:0.057142898 618:0 619:0 620:0.114286 621:0.028571401 622:0 623:0.028571401 624:0.057142898 625:0.114286 626:0.085714303 627:0.114286 628:0.085714303 629:0.2 630:0.142857 631:0.085714303 632:0.142857 633:0.17142899 634:0.057142898 635:0.057142898 636:0.114286 637:0.057142898 638:0.142857 639:0.085714303 640:0.114286 641:0.085714303 642:0.142857 643:0.085714303 644:0.085714303 645:0.25714299 646:0.2 647:0.114286 648:0.342857 649:0.31428599 650:0.371429 651:0.228571 652:0.285714 653:0.54285699 654:0.48571399 655:0.51428598 656:0.371429 657:0.48571399 658:0.51428598 659:0.40000001 660:0.771429 661:0.40000001 662:0.57142901 663:0.71428603 664:0.71428603 665:0.85714298 666:0.42857099 667:0.62857097 668:0.62857097 669:0.85714298 670:0.657143 671:0.62857097 672:0.80000001 673:0.82857102 674:0.88571399 675:1 676:0.82857102 677:0.71428603 678:0.68571401 679:0.71428603 680:0.71428603 681:0.68571401 682:0.71428603 683:0.60000002 684:0.60000002 685:0.657143 686:0.54285699 687:0.54285699 688:0.42857099 689:0.42857099 690:0.51428598 691:0.68571401 692:0.48571399 693:0.40000001 694:0.285714 695:0.342857 696:0.45714301 697:0.31428599 698:0.45714301 699:0.228571 700:0.31428599 701:0.228571 702:0.45714301 703:0.285714 704:0.31428599 705:0.2 706:0.25714299 707:0.25714299 708:0.25714299 709:0.114286 710:0.142857 711:0.17142899 712:0.142857 713:0.2 714:0.17142899 715:0.142857 716:0.114286 717:0.142857 718:0.057142898 719:0.057142898 720:0.057142898 721:0.028571401 722:0.028571401 723:0.057142898 724:0.057142898 725:0.028571401 726:0.028571401 727:0 728:0 729:0 730:0.028571401 731:0 732:0 733:0 734:0.028571401 735:0 736:0 737:0 738:0 739:0.057142898 740:0 741:0.028571401 742:0 743:0 744:0 745:0 746:0 747:0 748:0 749:0 750:0 751:0 752:0 753:0 754:0 755:0 756:0 757:0 758:0 759:0 760:0 761:0 762:0 763:0 764:0 765:0 766:1 767:0.43434301 768:0.10101 769:0.27272701 #
-0.01803075188531178332795867902405 1:0 2:0 3:0 4:0 5:0 6:0 7:0 8:0 9:0 10:0 11:0 12:0 13:0 14:0 15:0 16:0 17:0 18:0 19:0 20:0 21:0 22:0 23:0 24:0 25:0 26:0 27:0 28:0 29:0 30:0 31:0 32:0.050000001 33:0 34:0.050000001 35:0.050000001 36:0.050000001 37:0.050000001 38:0.050000001 39:0.1 40:0.1 41:0 42:0.050000001 43:0.050000001 44:0.050000001 45:0 46:0.25 47:0.15000001 48:0.2 49:0.1 50:0.050000001 51:0.2 52:0.1 53:0.30000001 54:0.34999999 55:0.44999999 56:0.34999999 57:0.30000001 58:0.25 59:0.25 60:0.40000001 61:0.34999999 62:0.44999999 63:0.34999999 64:0.5 65:0.15000001 66:0.64999998 67:0.44999999 68:0.85000002 69:0.30000001 70:0.80000001 71:0.5 72:0.55000001 73:0.85000002 74:0.94999999 75:0.55000001 76:0.60000002 77:0.85000002 78:0.89999998 79:0.75 80:0.75 81:0.85000002 82:1 83:0.64999998 84:0.40000001 85:0.85000002 86:0.64999998 87:0.44999999 88:0.60000002 89:0.60000002 90:0.64999998 91:0.25 92:0.64999998 93:0.34999999 94:0.75 95:0.40000001 96:0.44999999 97:0.30000001 98:0.5 99:0.44999999 100:0.25 101:0.40000001 102:0.25 103:0.30000001 104:0.34999999 105:0.2 106:0.40000001 107:0.1 108:0.15000001 109:0.34999999 110:0.15000001 111:0.2 112:0.2 113:0.25 114:0.2 115:0.2 116:0.25 117:0.25 118:0.2 119:0.15000001 120:0.1 121:0.15000001 122:0.2 123:0 124:0.15000001 125:0.1 126:0.2 127:0.30000001 128:0.1 129:0.34999999 130:0.050000001 131:0.15000001 132:0.1 133:0.25 134:0.2 135:0.15000001 136:0.2 137:0.050000001 138:0.1 139:0.050000001 140:0.1 141:0.1 142:0.1 143:0.2 144:0.1 145:0.15000001 146:0.050000001 147:0.050000001 148:0.15000001 149:0 150:0.15000001 151:0.050000001 152:0 153:0 154:0 155:0.050000001 156:0.050000001 157:0 158:0 159:0 160:0 161:0 162:0 163:0 164:0 165:0 166:0 167:0 168:0 169:0 170:0 171:0 172:0 173:0 174:0 175:0 176:0 177:0 178:0 179:0 180:0 181:0 182:0 183:0 184:0 185:0 186:0 187:0 188:0 189:0 190:0 191:0 192:0 193:0 194:0 195:0 196:0 197:0 198:0 199:0 200:0 201:0 202:0 203:0 204:0 205:0 206:0 207:0 208:0 209:0 210:0 211:0 212:0 213:0 214:0 215:0 216:0 217:0 218:0 219:0 220:0 221:0 222:0 223:0 224:0 225:0 226:0 227:0 228:0 229:0 230:0 231:0 232:0 233:0 234:0 235:0 236:0 237:0 238:0 239:0 240:0 241:0 242:0 243:0 244:0 245:0 246:0 247:0 248:0 249:0 250:0 251:0 252:0 253:0 254:0 255:0 256:0 257:0 258:0 259:0 260:0 261:0 262:0 263:0 264:0 265:0 266:0 267:0 268:0 269:0 270:0 271:0 272:0 273:0 274:0 275:0 276:0 277:0 278:0 279:0 280:0 281:0 282:0 283:0 284:0 285:0 286:0 287:0 288:0 289:0 290:0 291:0 292:0 293:0 294:0 295:0 296:0 297:0 298:0 299:0 300:0 301:0 302:0 303:0 304:0 305:0 306:0 307:0.052631602 308:0.052631602 309:0.052631602 310:0 311:0 312:0.105263 313:0.105263 314:0 315:0 316:0 317:0.105263 318:0.052631602 319:0.052631602 320:0.105263 321:0.052631602 322:0.26315799 323:0.157895 324:0.105263 325:0.26315799 326:0.157895 327:0.31578901 328:0.42105299 329:0.36842099 330:0.26315799 331:0.26315799 332:0.36842099 333:0.157895 334:0.47368401 335:0.210526 336:0.36842099 337:0.26315799 338:0.47368401 339:0.94736803 340:0.210526 341:0.57894701 342:0.42105299 343:0.78947401 344:0.36842099 345:0.63157898 346:0.68421102 347:1 348:0.78947401 349:0.73684198 350:0.73684198 351:0.68421102 352:0.78947401 353:0.89473701 354:0.73684198 355:0.68421102 356:0.63157898 357:1 358:0.89473701 359:0.57894701 360:0.84210497 361:0.63157898 362:0.63157898 363:0.68421102 364:0.73684198 365:0.63157898 366:0.47368401 367:0.57894701 368:0.42105299 369:0.42105299 370:0.31578901 371:0.57894701 372:0.47368401 373:0.31578901 374:0.36842099 375:0.68421102 376:0.36842099 377:0.210526 378:0.210526 379:0.36842099 380:0.42105299 381:0.157895 382:0.052631602 383:0.210526 384:0.157895 385:0.26315799 386:0.157895 387:0.26315799 388:0.157895 389:0.210526 390:0 391:0.31578901 392:0.210526 393:0.210526 394:0.31578901 395:0.26315799 396:0.105263 397:0 398:0.157895 399:0.157895 400:0.052631602 401:0.052631602 402:0.157895 403:0.157895 404:0.157895 405:0.210526 406:0.31578901 407:0.157895 408:0.105263 409:0.105263 410:0.210526 411:0.052631602 412:0.105263 413:0.26315799 414:0.26315799 415:0.052631602 416:0.052631602 417:0.105263 418:0.157895 419:0.105263 420:0.105263 421:0.105263 422:0.157895 423:0.105263 424:0.157895 425:0.157895 426:0.052631602 427:0.105263 428:0.052631602 429:0.105263 430:0 431:0 432:0 433:0.052631602 434:0.052631602 435:0 436:0 437:0 438:0 439:0 440:0 441:0 442:0 443:0 444:0 445:0 446:0 447:0 448:0 449:0 450:0 451:0 452:0 453:0 454:0 455:0 456:0 457:0 458:0 459:0 460:0 461:0 462:0 463:0 464:0 465:0 466:0 467:0 468:0 469:0 470:0 471:0 472:0 473:0 474:0 475:0 476:0 477:0 478:0 479:0 480:0 481:0 482:0 483:0 484:0 485:0 486:0 487:0 488:0 489:0 490:0 491:0 492:0 493:0 494:0 495:0 496:0 497:0 498:0 499:0 500:0 501:0 502:0 503:0 504:0 505:0 506:0 507:0 508:0 509:0 510:0 511:0 512:0 513:0 514:0 515:0 516:0 517:0 518:0 519:0 520:0 521:0 522:0 523:0 524:0 525:0 526:0 527:0 528:0 529:0 530:0 531:0 532:0 533:0 534:0 535:0 536:0 537:0 538:0 539:0 540:0 541:0 542:0 543:0 544:0 545:0 546:0 547:0 548:0 549:0 550:0 551:0 552:0 553:0 554:0 555:0 556:0 557:0 558:0 559:0 560:0 561:0 562:0 563:0 564:0 565:0 566:0 567:0 568:0 569:0 570:0 571:0 572:0 573:0 574:0 575:0 576:0 577:0 578:0 579:0 580:0.105263 581:0.052631602 582:0 583:0 584:0.052631602 585:0.052631602 586:0.052631602 587:0 588:0.052631602 589:0.052631602 590:0 591:0 592:0.052631602 593:0 594:0.052631602 595:0.157895 596:0.210526 597:0.210526 598:0.31578901 599:0.105263 600:0.210526 601:0.47368401 602:0.36842099 603:0.31578901 604:0.157895 605:0.210526 606:0.26315799 607:0.36842099 608:0.47368401 609:0.26315799 610:0.31578901 611:0.52631599 612:0.47368401 613:0.42105299 614:0.47368401 615:0.42105299 616:0.63157898 617:0.73684198 618:0.63157898 619:0.84210497 620:0.84210497 621:0.68421102 622:0.63157898 623:0.73684198 624:0.89473701 625:0.78947401 626:1 627:0.84210497 628:0.78947401 629:0.89473701 630:0.94736803 631:0.63157898 632:1 633:0.63157898 634:0.47368401 635:0.89473701 636:0.63157898 637:0.31578901 638:0.84210497 639:0.63157898 640:0.31578901 641:0.31578901 642:0.57894701 643:0.36842099 644:0.47368401 645:0.42105299 646:0.157895 647:0.52631599 648:0.47368401 649:0.26315799 650:0.26315799 651:0.52631599 652:0.36842099 653:0.105263 654:0.105263 655:0.052631602 656:0.052631602 657:0.052631602 658:0.157895 659:0.26315799 660:0.157895 661:0.105263 662:0.105263 663:0.052631602 664:0.157895 665:0.105263 666:0.052631602 667:0.210526 668:0 669:0.105263 670:0.052631602 671:0.105263 672:0.210526 673:0.157895 674:0.157895 675:0.210526 676:0.157895 677:0.105263 678:0.31578901 679:0.157895 680:0.105263 681:0.105263 682:0.052631602 683:0.157895 684:0.105263 685:0 686:0.210526 687:0.105263 688:0.157895 689:0.36842099 690:0.157895 691:0.105263 692:0.210526 693:0.157895 694:0.052631602 695:0.210526 696:0.210526 697:0.157895 698:0.105263 699:0.105263 700:0.210526 701:0.105263 702:0.052631602 703:0.052631602 704:0.31578901 705:0.157895 706:0.052631602 707:0.157895 708:0.052631602 709:0 710:0.157895 711:0.105263 712:0.105263 713:0.052631602 714:0 715:0 716:0 717:0.052631602 718:0 719:0 720:0 721:0 722:0 723:0 724:0 725:0 726:0 727:0 728:0 729:0 730:0 731:0 732:0 733:0 734:0 735:0 736:0 737:0 738:0 739:0 740:0 741:0 742:0 743:0 744:0 745:0 746:0 747:0 748:0 749:0 750:0 751:0 752:0 753:0 754:0 755:0 756:0 757:0 758:0 759:0 760:0 761:0 762:0 763:0 764:0 765:0 766:0.80281699 767:1 768:0.0704225 769:0.64788699 #
0.01803075188531178332795867902405 1:0 2:0 3:0 4:0 5:0 6:0 7:0 8:0 9:0 10:0 11:0 12:0 13:0 14:0.071428597 15:0 16:0 17:0 18:0 19:0 20:0 21:0 22:0 23:0 24:0 25:0 26:0 27:0 28:0 29:0 30:0 31:0 32:0 33:0 34:0 35:0 36:0 37:0 38:0 39:0 40:0 41:0 42:0 43:0 44:0 45:0 46:0 47:0 48:0 49:0 50:0 51:0 52:0 53:0 54:0 55:0 56:0 57:0 58:0 59:0 60:0 61:0 62:0 63:0 64:0 65:0 66:0 67:0.071428597 68:0.071428597 69:0 70:0.071428597 71:0 72:0 73:0 74:0 75:0 76:0.071428597 77:0 78:0 79:0 80:0 81:0 82:0 83:0 84:0 85:0 86:0 87:0 88:0 89:0.071428597 90:0 91:0 92:0.071428597 93:0.071428597 94:0.071428597 95:0 96:0 97:0 98:0.071428597 99:0.071428597 100:0 101:0.071428597 102:0 103:0 104:0 105:0 106:0.142857 107:0 108:0 109:0.071428597 110:0.071428597 111:0.142857 112:0 113:0 114:0 115:0 116:0 117:0.071428597 118:0 119:0 120:0 121:0.071428597 122:0.071428597 123:0 124:0.142857 125:0 126:0 127:0 128:0.071428597 129:0 130:0 131:0 132:0.142857 133:0 134:0.071428597 135:0.142857 136:0 137:0 138:0 139:0.071428597 140:0 141:0 142:0 143:0.214286 144:0.142857 145:0 146:0.142857 147:0.142857 148:0.142857 149:0.142857 150:0 151:0.214286 152:0.285714 153:0.285714 154:0.214286 155:0.35714301 156:0.071428597 157:0.071428597 158:0.071428597 159:0.142857 160:0.071428597 161:0.214286 162:0.214286 163:0.071428597 164:0.35714301 165:0.214286 166:0.142857 167:0.071428597 168:0.214286 169:0.5 170:0 171:0 172:0.214286 173:0.5 174:0.35714301 175:0.42857099 176:0.142857 177:0.35714301 178:0.285714 179:0.42857099 180:0.142857 181:0.5 182:0.42857099 183:0.57142901 184:0.142857 185:0.64285702 186:0.35714301 187:0.42857099 188:0.285714 189:0.142857 190:0.42857099 191:0.64285702 192:0.42857099 193:0.64285702 194:0.5 195:0.285714 196:0.285714 197:0.57142901 198:0.57142901 199:0.64285702 200:0.64285702 201:0.42857099 202:0.071428597 203:0.57142901 204:0.42857099 205:0.35714301 206:0.142857 207:0.64285702 208:0.5 209:0.285714 210:0.285714 211:0.42857099 212:0 213:0.35714301 214:0.285714 215:0.5 216:0.35714301 217:0.35714301 218:0.78571397 219:0.57142901 220:0.35714301 221:0.5 222:0.142857 223:0.64285702 224:0.78571397 225:0.42857099 226:0.42857099 227:0.214286 228:0.42857099 229:0.285714 230:0.64285702 231:0.57142901 232:0.5 233:0.64285702 234:0.78571397 235:0.71428603 236:0.64285702 237:0.214286 238:0.57142901 239:0.35714301 240:0.214286 241:0.71428603 242:0.35714301 243:1 244:0.64285702 245:0.35714301 246:0.5 247:0.142857 248:0.285714 249:0.071428597 250:0.071428597 251:0.5 252:0 253:0.285714 254:0.071428597 255:0 256:0 257:0 258:0 259:0 260:0 261:0 262:0 263:0 264:0 265:0 266:0 267:0 268:0 269:0 270:0 271:0 272:0 273:0 274:0 275:0 276:0 277:0 278:0 279:0 280:0 281:0 282:0 283:0 284:0 285:0 286:0 287:0 288:0 289:0 290:0 291:0 292:0 293:0 294:0 295:0 296:0 297:0 298:0 299:0 300:0 301:0 302:0 303:0 304:0 305:0 306:0.050000001 307:0 308:0 309:0 310:0.050000001 311:0 312:0 313:0 314:0 315:0 316:0 317:0 318:0 319:0 320:0 321:0 322:0 323:0 324:0 325:0 326:0 327:0 328:0 329:0 330:0 331:0 332:0 333:0 334:0 335:0.050000001 336:0 337:0 338:0.050000001 339:0 340:0 341:0 342:0 343:0 344:0 345:0.050000001 346:0 347:0 348:0 349:0 350:0 351:0 352:0 353:0 354:0 355:0 356:0 357:0 358:0 359:0.050000001 360:0.050000001 361:0 362:0 363:0 364:0 365:0 366:0 367:0 368:0 369:0 370:0 371:0 372:0 373:0 374:0 375:0 376:0 377:0 378:0 379:0.050000001 380:0 381:0.050000001 382:0.15000001 383:0.1 384:0 385:0.050000001 386:0 387:0 388:0.050000001 389:0 390:0 391:0 392:0.050000001 393:0 394:0.050000001 395:0 396:0 397:0.050000001 398:0 399:0.050000001 400:0.050000001 401:0 402:0 403:0.050000001 404:0.1 405:0 406:0.050000001 407:0.050000001 408:0 409:0 410:0.050000001 411:0.050000001 412:0 413:0 414:0.1 415:0.1 416:0.050000001 417:0.1 418:0.050000001 419:0 420:0 421:0.050000001 422:0 423:0.050000001 424:0.050000001 425:0.1 426:0.1 427:0 428:0.050000001 429:0.15000001 430:0.050000001 431:0.1 432:0.050000001 433:0 434:0.1 435:0.1 436:0.050000001 437:0.050000001 438:0.25 439:0.15000001 440:0.050000001 441:0.15000001 442:0.050000001 443:0.15000001 444:0.15000001 445:0.2 446:0.2 447:0.30000001 448:0.25 449:0.34999999 450:0.30000001 451:0.2 452:0.1 453:0.60000002 454:0.30000001 455:0.40000001 456:0.15000001 457:0.15000001 458:0.44999999 459:0.34999999 460:0.40000001 461:0.44999999 462:0.25 463:0.30000001 464:0 465:0.44999999 466:0.2 467:0.25 468:0.25 469:0.2 470:0.15000001 471:0.34999999 472:0.34999999 473:0.34999999 474:0.2 475:0.30000001 476:0.15000001 477:0.1 478:0.2 479:0.15000001 480:0.34999999 481:0.30000001 482:0.30000001 483:0.25 484:0.050000001 485:0.2 486:0.2 487:0.15000001 488:0.050000001 489:0.60000002 490:0.40000001 491:0.34999999 492:0.25 493:0.25 494:0.40000001 495:0.34999999 496:0.40000001 497:0.44999999 498:0.44999999 499:0.55000001 500:0.44999999 501:0.60000002 502:0.2 503:0.5 504:1 505:0.85000002 506:0.80000001 507:0.55000001 508:0.80000001 509:1 510:0 511:0 512:0 513:0 514:0 515:0 516:0 517:0 518:0 519:0 520:0 521:0 522:0 523:0 524:0 525:0 526:0 527:0 528:0 529:0 530:0 531:0 532:0 533:0 534:0 535:0 536:0 537:0 538:0 539:0 540:0 541:0 542:0 543:0 544:0 545:0 546:0 547:0 548:0 549:0.041666701 550:0 551:0 552:0 553:0 554:0 555:0 556:0 557:0 558:0 559:0 560:0 561:0 562:0 563:0 564:0 565:0 566:0 567:0 568:0 569:0 570:0 571:0 572:0 573:0 574:0 575:0 576:0 577:0 578:0 579:0 580:0.041666701 581:0 582:0 583:0 584:0 585:0 586:0 587:0 588:0 589:0 590:0 591:0 592:0 593:0 594:0 595:0 596:0 597:0 598:0 599:0 600:0 601:0.041666701 602:0 603:0 604:0 605:0 606:0 607:0 608:0.041666701 609:0 610:0 611:0 612:0 613:0 614:0 615:0 616:0 617:0 618:0 619:0 620:0 621:0 622:0.041666701 623:0 624:0 625:0 626:0 627:0 628:0 629:0.041666701 630:0 631:0 632:0 633:0.041666701 634:0 635:0 636:0 637:0 638:0 639:0 640:0 641:0 642:0 643:0 644:0 645:0 646:0 647:0 648:0 649:0.041666701 650:0 651:0 652:0.041666701 653:0 654:0 655:0.041666701 656:0.041666701 657:0 658:0.083333299 659:0 660:0 661:0 662:0 663:0.041666701 664:0.041666701 665:0.083333299 666:0.041666701 667:0 668:0.041666701 669:0 670:0.041666701 671:0.041666701 672:0 673:0.041666701 674:0.041666701 675:0 676:0.041666701 677:0 678:0.083333299 679:0.041666701 680:0 681:0 682:0 683:0.041666701 684:0.041666701 685:0 686:0.041666701 687:0 688:0.041666701 689:0.083333299 690:0 691:0.041666701 692:0 693:0.041666701 694:0.041666701 695:0 696:0 697:0.041666701 698:0.041666701 699:0 700:0.041666701 701:0.041666701 702:0 703:0.208333 704:0.083333299 705:0 706:0.208333 707:0.125 708:0.083333299 709:0.125 710:0.083333299 711:0.041666701 712:0.125 713:0.125 714:0.166667 715:0.125 716:0.208333 717:0.083333299 718:0.166667 719:0.208333 720:0.166667 721:0.25 722:0.125 723:0.25 724:0.5 725:0.25 726:0.29166701 727:0.25 728:0.125 729:0.208333 730:0.33333299 731:0.166667 732:0.33333299 733:0.33333299 734:0.25 735:0.25 736:0.208333 737:0.29166701 738:0.25 739:0.083333299 740:0.33333299 741:0.33333299 742:0.25 743:0.375 744:0.54166698 745:0.125 746:0.125 747:0.25 748:0.41666701 749:0.25 750:0.083333299 751:0.375 752:0.208333 753:0.54166698 754:0.45833299 755:0.41666701 756:0.79166698 757:0.375 758:0.5 759:0.41666701 760:0.70833302 761:0.625 762:1 763:0.79166698 764:0.83333302 765:0 766:0.94285703 767:1 768:0.028571401 769:0.74285698 #
0.01803075188531178332795867902405 1:0 2:0 3:0 4:0 5:0 6:0 7:0 8:0 9:0.025641 10:0 11:0 12:0.025641 13:0.025641 14:0 15:0 16:0 17:0 18:0.025641 19:0 20:0.025641 21:0 22:0.025641 23:0.0512821 24:0.128205 25:0.025641 26:0.102564 27:0.025641 28:0.0512821 29:0.0512821 30:0.0512821 31:0.025641 32:0.179487 33:0.0512821 34:0.128205 35:0.384615 36:0.410256 37:0.384615 38:0.410256 39:0.33333299 40:0.384615 41:0.384615 42:0.48717901 43:0.33333299 44:0.53846198 45:0.66666698 46:0.79487199 47:0.69230801 48:0.69230801 49:0.871795 50:0.82051301 51:0.97435898 52:1 53:0.69230801 54:0.92307699 55:0.64102602 56:0.56410301 57:0.43589699 58:0.58974397 59:0.66666698 60:0.35897401 61:0.56410301 62:0.384615 63:0.35897401 64:0.35897401 65:0.30769199 66:0.25641 67:0.35897401 68:0.46153799 69:0.30769199 70:0.53846198 71:0.179487 72:0.410256 73:0.30769199 74:0.43589699 75:0.35897401 76:0.43589699 77:0.33333299 78:0.179487 79:0.30769199 80:0.153846 81:0.076923102 82:0.102564 83:0.102564 84:0.128205 85:0.076923102 86:0.128205 87:0.0512821 88:0 89:0.025641 90:0 91:0 92:0.0512821 93:0.025641 94:0 95:0.025641 96:0 97:0 98:0 99:0 100:0 101:0 102:0 103:0 104:0 105:0 106:0 107:0 108:0 109:0 110:0 111:0 112:0 113:0 114:0 115:0 116:0 117:0 118:0 119:0 120:0 121:0 122:0 123:0 124:0 125:0 126:0 127:0 128:0 129:0 130:0 131:0 132:0 133:0 134:0 135:0 136:0 137:0 138:0 139:0 140:0 141:0 142:0 143:0 144:0 145:0 146:0 147:0 148:0 149:0 150:0 151:0 152:0 153:0 154:0 155:0 156:0 157:0 158:0 159:0 160:0 161:0 162:0 163:0 164:0 165:0 166:0 167:0 168:0 169:0 170:0 171:0 172:0 173:0 174:0 175:0 176:0 177:0 178:0 179:0 180:0 181:0 182:0 183:0 184:0 185:0 186:0 187:0 188:0 189:0 190:0 191:0 192:0 193:0 194:0 195:0 196:0 197:0 198:0 199:0 200:0 201:0 202:0 203:0 204:0 205:0 206:0 207:0 208:0 209:0 210:0 211:0 212:0 213:0 214:0 215:0 216:0 217:0 218:0 219:0 220:0 221:0 222:0 223:0 224:0 225:0 226:0 227:0 228:0 229:0 230:0 231:0 232:0 233:0 234:0 235:0 236:0 237:0 238:0 239:0 240:0 241:0 242:0 243:0 244:0 245:0 246:0 247:0 248:0 249:0 250:0 251:0 252:0 253:0 254:0 255:0 256:0 257:0 258:0 259:0 260:0 261:0 262:0 263:0 264:0 265:0 266:0 267:0 268:0 269:0 270:0 271:0 272:0 273:0 274:0 275:0.0294118 276:0 277:0 278:0 279:0 280:0 281:0 282:0.0294118 283:0 284:0 285:0 286:0.0294118 287:0 288:0 289:0.0588235 290:0.117647 291:0.0588235 292:0.088235296 293:0.088235296 294:0.0588235 295:0.17647099 296:0.235294 297:0.29411799 298:0.38235301 299:0.35294101 300:0.41176501 301:0.41176501 302:0.35294101 303:0.38235301 304:0.52941197 305:0.5 306:0.64705902 307:0.470588 308:0.67647099 309:0.558824 310:0.67647099 311:0.67647099 312:0.82352901 313:0.941176 314:1 315:0.79411799 316:0.88235301 317:0.52941197 318:0.470588 319:0.52941197 320:0.52941197 321:0.76470602 322:0.67647099 323:0.79411799 324:0.5 325:0.441176 326:0.41176501 327:0.441176 328:0.441176 329:0.441176 330:0.35294101 331:0.41176501 332:0.441176 333:0.29411799 334:0.470588 335:0.235294 336:0.441176 337:0.35294101 338:0.41176501 339:0.088235296 340:0.61764699 341:0.205882 342:0.5 343:0.38235301 344:0.38235301 345:0.38235301 346:0.441176 347:0.117647 348:0.32352901 349:0.205882 350:0.14705899 351:0.235294 352:0.205882 353:0.088235296 354:0.0294118 355:0.088235296 356:0.0588235 357:0 358:0.0294118 359:0.0294118 360:0 361:0.0294118 362:0.0294118 363:0 364:0 365:0 366:0.0294118 367:0 368:0 369:0.0294118 370:0.0294118 371:0 372:0 373:0 374:0 375:0 376:0 377:0 378:0 379:0 380:0 381:0 382:0 383:0 384:0 385:0 386:0 387:0 388:0 389:0 390:0 391:0 392:0 393:0 394:0 395:0 396:0 397:0 398:0 399:0 400:0 401:0 402:0 403:0 404:0 405:0 406:0 407:0 408:0 409:0 410:0 411:0 412:0 413:0 414:0 415:0 416:0 417:0 418:0 419:0 420:0 421:0 422:0 423:0 424:0 425:0 426:0 427:0 428:0 429:0 430:0 431:0 432:0 433:0 434:0 435:0 436:0 437:0 438:0 439:0 440:0 441:0 442:0 443:0 444:0 445:0 446:0 447:0 448:0 449:0 450:0 451:0 452:0 453:0 454:0 455:0 456:0 457:0 458:0 459:0 460:0 461:0 462:0 463:0 464:0 465:0 466:0 467:0 468:0 469:0 470:0 471:0 472:0 473:0 474:0 475:0 476:0 477:0 478:0 479:0 480:0 481:0 482:0 483:0 484:0 485:0 486:0 487:0 488:0 489:0 490:0 491:0 492:0 493:0 494:0 495:0 496:0 497:0 498:0 499:0 500:0 501:0 502:0 503:0 504:0 505:0 506:0 507:0 508:0 509:0 510:0 511:0 512:0 513:0 514:0 515:0 516:0 517:0 518:0 519:0 520:0 521:0 522:0 523:0 524:0 525:0 526:0 527:0 528:0 529:0 530:0 531:0 532:0 533:0 534:0 535:0 536:0 537:0 538:0 539:0 540:0 541:0 542:0 543:0 544:0 545:0.034482799 546:0 547:0 548:0 549:0 550:0 551:0.034482799 552:0 553:0 554:0 555:0 556:0.034482799 557:0 558:0.068965502 559:0.24137899 560:0.103448 561:0.103448 562:0.034482799 563:0.103448 564:0.172414 565:0.137931 566:0.27586201 567:0.37931001 568:0.37931001 569:0.482759 570:0.44827601 571:0.34482801 572:0.58620697 573:0.482759 574:0.58620697 575:0.58620697 576:0.68965501 577:0.96551698 578:0.89655203 579:0.65517199 580:1 581:0.89655203 582:0.79310298 583:0.93103498 584:0.89655203 585:0.79310298 586:0.79310298 587:0.58620697 588:0.62068999 589:0.68965501 590:0.517241 591:0.62068999 592:0.72413802 593:0.72413802 594:0.58620697 595:0.413793 596:0.65517199 597:0.68965501 598:0.62068999 599:0.37931001 600:0.55172402 601:0.413793 602:0.72413802 603:0.413793 604:0.413793 605:0.37931001 606:0.482759 607:0.482759 608:0.34482801 609:0.44827601 610:0.20689701 611:0.68965501 612:0.31034499 613:0.34482801 614:0.44827601 615:0.31034499 616:0.34482801 617:0.31034499 618:0.34482801 619:0.24137899 620:0.34482801 621:0.31034499 622:0.068965502 623:0.31034499 624:0.172414 625:0 626:0.068965502 627:0 628:0.034482799 629:0 630:0.034482799 631:0 632:0.034482799 633:0.103448 634:0 635:0 636:0.034482799 637:0.034482799 638:0.034482799 639:0 640:0 641:0 642:0.034482799 643:0.034482799 644:0 645:0 646:0 647:0 648:0 649:0 650:0 651:0 652:0 653:0 654:0 655:0 656:0 657:0 658:0 659:0 660:0 661:0 662:0 663:0 664:0 665:0 666:0 667:0 668:0 669:0 670:0 671:0 672:0 673:0 674:0 675:0 676:0 677:0 678:0 679:0 680:0 681:0 682:0 683:0 684:0 685:0 686:0 687:0 688:0 689:0 690:0 691:0 692:0 693:0 694:0 695:0 696:0 697:0 698:0 699:0 700:0 701:0 702:0 703:0 704:0 705:0 706:0 707:0 708:0 709:0 710:0 711:0 712:0 713:0 714:0 715:0 716:0 717:0 718:0 719:0 720:0 721:0 722:0 723:0 724:0 725:0 726:0 727:0 728:0 729:0 730:0 731:0 732:0 733:0 734:0 735:0 736:0 737:0 738:0 739:0 740:0 741:0 742:0 743:0 744:0 745:0 746:0 747:0 748:0 749:0 750:0 751:0 752:0 753:0 754:0 755:0 756:0 757:0 758:0 759:0 760:0 761:0 762:0 763:0 764:0 765:0 766:0.594203 767:1 768:0.289855 769:0.95652199 #
0.01803075188531178332795867902405 1:0 2:0 3:0 4:0 5:0 6:0 7:0 8:0 9:0 10:0 11:0 12:0.0104167 13:0.0104167 14:0 15:0 16:0 17:0 18:0.0104167 19:0 20:0.0104167 21:0.0208333 22:0 23:0.03125 24:0.0104167 25:0.03125 26:0.03125 27:0.041666701 28:0.072916701 29:0.03125 30:0.052083299 31:0.0208333 32:0.041666701 33:0.03125 34:0.104167 35:0.0625 36:0.0625 37:0.052083299 38:0.083333299 39:0.166667 40:0.208333 41:0.135417 42:0.15625 43:0.1875 44:0.177083 45:0.26041701 46:0.27083299 47:0.29166701 48:0.32291701 49:0.34375 50:0.34375 51:0.3125 52:0.375 53:0.30208299 54:0.58333302 55:0.375 56:0.51041698 57:0.52083302 58:0.4375 59:0.55208302 60:0.48958299 61:0.5 62:0.52083302 63:0.38541701 64:0.53125 65:0.69791698 66:0.69791698 67:0.61458302 68:0.69791698 69:0.83333302 70:0.89583302 71:0.97916698 72:1 73:0.69791698 74:0.69791698 75:0.75 76:0.60416698 77:0.67708302 78:0.52083302 79:0.4375 80:0.38541701 81:0.33333299 82:0.39583299 83:0.208333 84:0.33333299 85:0.197917 86:0.197917 87:0.104167 88:0.072916701 89:0.03125 90:0.03125 91:0.0104167 92:0.03125 93:0.0208333 94:0.0208333 95:0 96:0 97:0 98:0 99:0 100:0 101:0 102:0 103:0 104:0 105:0 106:0 107:0 108:0 109:0 110:0 111:0 112:0 113:0 114:0 115:0 116:0 117:0 118:0 119:0 120:0 121:0 122:0 123:0 124:0 125:0 126:0 127:0 128:0 129:0 130:0 131:0 132:0 133:0 134:0 135:0 136:0 137:0 138:0 139:0 140:0 141:0 142:0 143:0 144:0 145:0 146:0 147:0 148:0 149:0 150:0 151:0 152:0 153:0 154:0 155:0 156:0 157:0 158:0 159:0 160:0 161:0 162:0 163:0 164:0 165:0 166:0 167:0 168:0 169:0 170:0 171:0 172:0 173:0 174:0 175:0 176:0 177:0 178:0 179:0 180:0 181:0 182:0 183:0 184:0 185:0 186:0 187:0 188:0 189:0 190:0 191:0 192:0 193:0 194:0 195:0 196:0 197:0 198:0 199:0 200:0 201:0 202:0 203:0 204:0 205:0 206:0 207:0 208:0 209:0 210:0 211:0 212:0 213:0 214:0 215:0 216:0 217:0 218:0 219:0 220:0 221:0 222:0 223:0 224:0 225:0 226:0 227:0 228:0 229:0 230:0 231:0 232:0 233:0 234:0 235:0 236:0 237:0 238:0 239:0 240:0 241:0 242:0 243:0 244:0 245:0 246:0 247:0 248:0 249:0 250:0 251:0 252:0 253:0 254:0 255:0 256:0 257:0 258:0 259:0 260:0 261:0 262:0 263:0 264:0 265:0 266:0 267:0 268:0 269:0 270:0 271:0 272:0 273:0 274:0 275:0 276:0 277:0 278:0 279:0.024691399 280:0 281:0 282:0 283:0 284:0 285:0.024691399 286:0.024691399 287:0.0123457 288:0.0123457 289:0.037037 290:0.049382702 291:0.049382702 292:0.049382702 293:0.111111 294:0.037037 295:0.024691399 296:0.049382702 297:0.061728399 298:0.074074097 299:0.049382702 300:0.049382702 301:0.086419798 302:0.049382702 303:0.234568 304:0.185185 305:0.17284 306:0.135802 307:0.28395101 308:0.222222 309:0.185185 310:0.34567899 311:0.320988 312:0.28395101 313:0.395062 314:0.469136 315:0.382716 316:0.48148099 317:0.382716 318:0.58024698 319:0.51851898 320:0.469136 321:0.469136 322:0.72839499 323:0.72839499 324:0.49382699 325:0.58024698 326:0.48148099 327:0.54321003 328:0.59259301 329:0.64197499 330:0.58024698 331:0.60493797 332:0.69135797 333:0.80246902 334:0.77777803 335:1 336:0.87654299 337:0.82716 338:0.77777803 339:0.77777803 340:0.69135797 341:0.851852 342:0.66666698 343:0.555556 344:0.62963003 345:0.56790102 346:0.444444 347:0.62963003 348:0.51851898 349:0.35802501 350:0.33333299 351:0.296296 352:0.17284 353:0.135802 354:0.123457 355:0.098765403 356:0.098765403 357:0.074074097 358:0.074074097 359:0.074074097 360:0.086419798 361:0.049382702 362:0.049382702 363:0.049382702 364:0.024691399 365:0 366:0 367:0 368:0 369:0 370:0 371:0 372:0.0123457 373:0 374:0 375:0 376:0 377:0 378:0 379:0 380:0 381:0 382:0 383:0 384:0 385:0 386:0 387:0 388:0 389:0 390:0 391:0 392:0 393:0 394:0 395:0 396:0 397:0 398:0 399:0 400:0 401:0 402:0 403:0 404:0 405:0 406:0 407:0 408:0 409:0 410:0 411:0 412:0 413:0 414:0 415:0 416:0 417:0 418:0 419:0 420:0 421:0 422:0 423:0 424:0 425:0 426:0 427:0 428:0 429:0 430:0 431:0 432:0 433:0 434:0 435:0 436:0 437:0 438:0 439:0 440:0 441:0 442:0 443:0 444:0 445:0 446:0 447:0 448:0 449:0 450:0 451:0 452:0 453:0 454:0 455:0 456:0 457:0 458:0 459:0 460:0 461:0 462:0 463:0 464:0 465:0 466:0 467:0 468:0 469:0 470:0 471:0 472:0 473:0 474:0 475:0 476:0 477:0 478:0 479:0 480:0 481:0 482:0 483:0 484:0 485:0 486:0 487:0 488:0 489:0 490:0 491:0 492:0 493:0 494:0 495:0 496:0 497:0 498:0 499:0 500:0 501:0 502:0 503:0 504:0 505:0 506:0 507:0 508:0 509:0 510:0 511:0 512:0 513:0 514:0 515:0 516:0 517:0 518:0 519:0 520:0 521:0 522:0 523:0 524:0 525:0 526:0 527:0 528:0 529:0 530:0 531:0 532:0 533:0 534:0 535:0 536:0 537:0 538:0 539:0 540:0.0105263 541:0 542:0.0105263 543:0 544:0.021052601 545:0.021052601 546:0 547:0 548:0.031578898 549:0.0105263 550:0 551:0.0105263 552:0.0105263 553:0.0105263 554:0.0105263 555:0.052631602 556:0 557:0.031578898 558:0.031578898 559:0.063157901 560:0.063157901 561:0.073684201 562:0.021052601 563:0.042105298 564:0.052631602 565:0.052631602 566:0.031578898 567:0.0947368 568:0.021052601 569:0.0947368 570:0.063157901 571:0.105263 572:0.126316 573:0.136842 574:0.136842 575:0.105263 576:0.168421 577:0.157895 578:0.147368 579:0.25263199 580:0.210526 581:0.178947 582:0.26315799 583:0.31578901 584:0.189474 585:0.25263199 586:0.37894699 587:0.442105 588:0.442105 589:0.389474 590:0.41052601 591:0.52631599 592:0.56842101 593:0.673684 594:0.75789499 595:0.73684198 596:0.57894701 597:0.91578901 598:0.884211 599:0.93684202 600:1 601:0.76842099 602:0.70526302 603:0.652632 604:0.68421102 605:0.62105298 606:0.46315801 607:0.494737 608:0.58947402 609:0.68421102 610:0.51578897 611:0.494737 612:0.35789499 613:0.336842 614:0.273684 615:0.28421101 616:0.28421101 617:0.2 618:0.24210501 619:0.24210501 620:0.221053 621:0.105263 622:0.073684201 623:0.115789 624:0.0842105 625:0.0947368 626:0.073684201 627:0.063157901 628:0.031578898 629:0.063157901 630:0.042105298 631:0.031578898 632:0.021052601 633:0.052631602 634:0.052631602 635:0.042105298 636:0 637:0 638:0.042105298 639:0.021052601 640:0 641:0.0105263 642:0.021052601 643:0.0105263 644:0 645:0 646:0 647:0 648:0 649:0 650:0 651:0.0105263 652:0 653:0 654:0 655:0 656:0 657:0 658:0 659:0 660:0 661:0 662:0 663:0 664:0 665:0 666:0 667:0 668:0 669:0 670:0 671:0 672:0 673:0 674:0 675:0 676:0 677:0 678:0 679:0 680:0 681:0 682:0 683:0 684:0 685:0 686:0 687:0 688:0 689:0 690:0 691:0 692:0 693:0 694:0 695:0 696:0 697:0 698:0 699:0 700:0 701:0 702:0 703:0 704:0 705:0 706:0 707:0 708:0 709:0 710:0 711:0 712:0 713:0 714:0 715:0 716:0 717:0 718:0 719:0 720:0 721:0 722:0 723:0 724:0 725:0 726:0 727:0 728:0 729:0 730:0 731:0 732:0 733:0 734:0 735:0 736:0 737:0 738:0 739:0 740:0 741:0 742:0 743:0 744:0 745:0 746:0 747:0 748:0 749:0 750:0 751:0 752:0 753:0 754:0 755:0 756:0 757:0 758:0 759:0 760:0 761:0 762:0 763:0 764:0 765:0 766:0.60674202 767:1 768:0.101124 769:0.820225 #
0.01803075188531178332795867902405 1:0.00769231 2:0.061538499 3:0.00769231 4:0.00769231 5:0.023076899 6:0.00769231 7:0.030769199 8:0.00769231 9:0.00769231 10:0 11:0 12:0.0153846 13:0 14:0.00769231 15:0.00769231 16:0 17:0.00769231 18:0.0153846 19:0 20:0.0153846 21:0 22:0 23:0 24:0.00769231 25:0 26:0.00769231 27:0 28:0.00769231 29:0.00769231 30:0 31:0 32:0 33:0 34:0 35:0 36:0 37:0 38:0 39:0 40:0.0153846 41:0.00769231 42:0 43:0 44:0 45:0 46:0.00769231 47:0.00769231 48:0 49:0 50:0 51:0 52:0.0153846 53:0 54:0 55:0.00769231 56:0 57:0 58:0 59:0.00769231 60:0 61:0 62:0 63:0 64:0 65:0 66:0 67:0 68:0 69:0 70:0.00769231 71:0.0153846 72:0.00769231 73:0.00769231 74:0 75:0.023076899 76:0 77:0.00769231 78:0.023076899 79:0 80:0 81:0.00769231 82:0.00769231 83:0 84:0 85:0.00769231 86:0 87:0 88:0.00769231 89:0 90:0.0153846 91:0.00769231 92:0 93:0 94:0.0153846 95:0.00769231 96:0.0153846 97:0.00769231 98:0 99:0.00769231 100:0.00769231 101:0.00769231 102:0 103:0 104:0.00769231 105:0.0153846 106:0.00769231 107:0 108:0 109:0.00769231 110:0 111:0.00769231 112:0.00769231 113:0.00769231 114:0.023076899 115:0.023076899 116:0.00769231 117:0.00769231 118:0.0153846 119:0.00769231 120:0.00769231 121:0 122:0.00769231 123:0.0153846 124:0.00769231 125:0.00769231 126:0.023076899 127:0 128:0.0153846 129:0.023076899 130:0.023076899 131:0 132:0.030769199 133:0 134:0.00769231 135:0.0153846 136:0.0153846 137:0.023076899 138:0.0153846 139:0.00769231 140:0.00769231 141:0.00769231 142:0.0153846 143:0.0153846 144:0.00769231 145:0.0153846 146:0.023076899 147:0.0153846 148:0.0153846 149:0 150:0.023076899 151:0 152:0.038461499 153:0.00769231 154:0 155:0.00769231 156:0 157:0.00769231 158:0.023076899 159:0 160:0.00769231 161:0.00769231 162:0.00769231 163:0 164:0.0153846 165:0.038461499 166:0.00769231 167:0.0153846 168:0.023076899 169:0.0153846 170:0.023076899 171:0.023076899 172:0.030769199 173:0.0153846 174:0.00769231 175:0.023076899 176:0.00769231 177:0.023076899 178:0.00769231 179:0.030769199 180:0.030769199 181:0.0153846 182:0.0153846 183:0.030769199 184:0.023076899 185:0.038461499 186:0.030769199 187:0.0153846 188:0.023076899 189:0.0153846 190:0.0153846 191:0.00769231 192:0.00769231 193:0.030769199 194:0.0153846 195:0.0153846 196:0.023076899 197:0 198:0.023076899 199:0.0153846 200:0.0153846 201:0.030769199 202:0.0153846 203:0.023076899 204:0.00769231 205:0.038461499 206:0.023076899 207:0.0153846 208:0.0153846 209:0.023076899 210:0.023076899 211:0.0153846 212:0.00769231 213:0.00769231 214:0.023076899 215:0.023076899 216:0.061538499 217:0.038461499 218:0.053846199 219:0.053846199 220:0.00769231 221:0.038461499 222:0.038461499 223:0.00769231 224:0.00769231 225:0.030769199 226:0.030769199 227:0.046153799 228:0.053846199 229:0.061538499 230:0.038461499 231:0.046153799 232:0.1 233:0.076923102 234:0.023076899 235:0.061538499 236:0.076923102 237:0.069230802 238:0.069230802 239:0.146154 240:0.2 241:0.2 242:0.23076899 243:0.25384599 244:0.40769199 245:0.430769 246:0.42307699 247:0.43846199 248:0.63846201 249:0.53846198 250:0.776923 251:0.97692299 252:0.51538497 253:1 254:0.430769 255:0 256:0.0177515 257:0.0118343 258:0.0177515 259:0.0118343 260:0.0059171598 261:0 262:0.0118343 263:0 264:0 265:0.0177515 266:0 267:0.0177515 268:0.0059171598 269:0 270:0.0118343 271:0.0059171598 272:0 273:0.0059171598 274:0.0059171598 275:0.0118343 276:0 277:0.0059171598 278:0 279:0.0059171598 280:0.0059171598 281:0 282:0 283:0.0118343 284:0.0059171598 285:0 286:0 287:0 288:0.0059171598 289:0 290:0.0059171598 291:0.0059171598 292:0 293:0 294:0.0059171598 295:0 296:0.0059171598 297:0 298:0 299:0 300:0.0118343 301:0 302:0 303:0 304:0 305:0 306:0 307:0 308:0 309:0.0118343 310:0 311:0 312:0 313:0.0059171598 314:0.0059171598 315:0 316:0 317:0 318:0.0059171598 319:0 320:0.0059171598 321:0 322:0 323:0 324:0 325:0.0059171598 326:0.0059171598 327:0.0059171598 328:0 329:0.0059171598 330:0.0059171598 331:0 332:0 333:0.0059171598 334:0.0059171598 335:0 336:0.0059171598 337:0 338:0 339:0.0118343 340:0.0059171598 341:0.0059171598 342:0 343:0 344:0.0118343 345:0 346:0 347:0.0059171598 348:0 349:0.0118343 350:0 351:0 352:0.0059171598 353:0.0118343 354:0 355:0 356:0 357:0.0236686 358:0.0059171598 359:0.0059171598 360:0.0059171598 361:0 362:0.0059171598 363:0.0059171598 364:0.0059171598 365:0.0059171598 366:0.0059171598 367:0 368:0.0059171598 369:0 370:0.0059171598 371:0.0059171598 372:0.0059171598 373:0.0059171598 374:0.0059171598 375:0.0059171598 376:0 377:0.0118343 378:0.0059171598 379:0.0059171598 380:0.0059171598 381:0.0177515 382:0.0059171598 383:0.0118343 384:0.0118343 385:0.0118343 386:0.0059171598 387:0.0118343 388:0 389:0.0118343 390:0.0059171598 391:0.0118343 392:0 393:0.0177515 394:0 395:0.0059171598 396:0 397:0.0059171598 398:0 399:0.029585799 400:0.0118343 401:0.0177515 402:0.0177515 403:0.0059171598 404:0.0177515 405:0.0059171598 406:0.0059171598 407:0 408:0.0118343 409:0.0059171598 410:0.0118343 411:0.0059171598 412:0.0118343 413:0.0059171598 414:0.0118343 415:0.0059171598 416:0.0059171598 417:0.0177515 418:0.0118343 419:0 420:0 421:0.0118343 422:0.0059171598 423:0 424:0.0059171598 425:0.0177515 426:0.0059171598 427:0.0177515 428:0.0118343 429:0.0118343 430:0 431:0.047337301 432:0.0059171598 433:0.0059171598 434:0.0177515 435:0.0177515 436:0.035503 437:0.0177515 438:0.0177515 439:0.0059171598 440:0.0236686 441:0.0118343 442:0.0059171598 443:0.0177515 444:0.0177515 445:0.0177515 446:0.0177515 447:0.0236686 448:0.0118343 449:0.0177515 450:0 451:0.0059171598 452:0.0236686 453:0.0236686 454:0 455:0.0059171598 456:0.029585799 457:0.0118343 458:0 459:0.035503 460:0.0177515 461:0 462:0.029585799 463:0.035503 464:0.0177515 465:0.0118343 466:0.0177515 467:0.0177515 468:0.0177515 469:0.0118343 470:0.0059171598 471:0.0118343 472:0.0236686 473:0.0177515 474:0.0177515 475:0.0177515 476:0.0177515 477:0.0236686 478:0.0236686 479:0.0059171598 480:0.0236686 481:0.029585799 482:0.0236686 483:0.029585799 484:0.041420098 485:0.0118343 486:0.041420098 487:0.0236686 488:0.0236686 489:0.035503 490:0.041420098 491:0.035503 492:0.029585799 493:0.0177515 494:0.0177515 495:0.029585799 496:0.047337301 497:0.059171598 498:0.112426 499:0.16568001 500:0.20118301 501:0.213018 502:0.313609 503:0.28994101 504:0.390533 505:0.526627 506:0.597633 507:0.71005899 508:0.83432001 509:1 510:0 511:0.0125786 512:0.0062893098 513:0.031446502 514:0.0125786 515:0.0125786 516:0.0062893098 517:0.0125786 518:0.0125786 519:0 520:0.018867901 521:0.018867901 522:0 523:0 524:0.0062893098 525:0 526:0 527:0.0062893098 528:0 529:0.0125786 530:0 531:0.0062893098 532:0.0062893098 533:0 534:0 535:0.0062893098 536:0.0125786 537:0.0062893098 538:0 539:0 540:0 541:0 542:0 543:0.0062893098 544:0 545:0 546:0.0062893098 547:0.0062893098 548:0 549:0 550:0 551:0 552:0.0062893098 553:0 554:0.0062893098 555:0.0062893098 556:0.0062893098 557:0.0062893098 558:0.0125786 559:0.0062893098 560:0 561:0.0062893098 562:0.0125786 563:0 564:0 565:0 566:0 567:0 568:0.0062893098 569:0 570:0 571:0 572:0 573:0 574:0.0062893098 575:0.0062893098 576:0 577:0.0062893098 578:0 579:0 580:0 581:0.0062893098 582:0 583:0.0062893098 584:0 585:0 586:0 587:0 588:0 589:0.0062893098 590:0 591:0.0062893098 592:0 593:0 594:0.0125786 595:0 596:0.0062893098 597:0 598:0 599:0.0062893098 600:0.0062893098 601:0.0062893098 602:0.018867901 603:0.0062893098 604:0 605:0 606:0.0062893098 607:0.0062893098 608:0.0125786 609:0 610:0.0125786 611:0 612:0.0062893098 613:0.0062893098 614:0.0062893098 615:0 616:0 617:0 618:0 619:0.0062893098 620:0 621:0.0062893098 622:0 623:0 624:0.0125786 625:0.0125786 626:0.0125786 627:0.0125786 628:0 629:0.0062893098 630:0.0062893098 631:0 632:0.0125786 633:0 634:0 635:0.0062893098 636:0 637:0 638:0.0062893098 639:0.0125786 640:0.018867901 641:0.0062893098 642:0 643:0.018867901 644:0 645:0.0062893098 646:0.0125786 647:0.0062893098 648:0.0062893098 649:0 650:0.0062893098 651:0.0125786 652:0.0062893098 653:0.0062893098 654:0.0062893098 655:0.0125786 656:0.0125786 657:0 658:0.0251572 659:0.0062893098 660:0 661:0.0125786 662:0 663:0.0125786 664:0.0125786 665:0.0125786 666:0.0062893098 667:0.0125786 668:0 669:0.0125786 670:0.0125786 671:0.0125786 672:0.031446502 673:0.0251572 674:0.0125786 675:0.0062893098 676:0.0062893098 677:0.018867901 678:0.0062893098 679:0.0125786 680:0.0062893098 681:0.0125786 682:0.0062893098 683:0 684:0.0062893098 685:0.018867901 686:0.0062893098 687:0.0251572 688:0.0062893098 689:0 690:0.0251572 691:0.0251572 692:0.0062893098 693:0.018867901 694:0.0251572 695:0 696:0.0125786 697:0 698:0.0251572 699:0.0062893098 700:0.018867901 701:0.018867901 702:0.0251572 703:0.018867901 704:0.0062893098 705:0.0125786 706:0.018867901 707:0.0125786 708:0.018867901 709:0.0251572 710:0.0251572 711:0.0062893098 712:0.0251572 713:0.0125786 714:0.0251572 715:0.018867901 716:0.0251572 717:0.0062893098 718:0.031446502 719:0.031446502 720:0.0251572 721:0.0251572 722:0.018867901 723:0.018867901 724:0.0062893098 725:0.0251572 726:0.0125786 727:0.018867901 728:0.018867901 729:0.0125786 730:0.0251572 731:0 732:0.0125786 733:0.0251572 734:0.044025201 735:0.018867901 736:0.018867901 737:0.031446502 738:0 739:0.0251572 740:0.0125786 741:0.0125786 742:0.031446502 743:0.044025201 744:0.037735801 745:0.0251572 746:0.044025201 747:0.0251572 748:0.0251572 749:0.037735801 750:0.0628931 751:0.088050298 752:0.150943 753:0.132075 754:0.176101 755:0.257862 756:0.28301901 757:0.29559699 758:0.41509399 759:0.47169799 760:0.48427701 761:0.70440298 762:0.83018899 763:0.65408802 764:1 765:0 766:1 767:0.42364499 768:0.088669904 769:0.226601 #
0.01803075188531178332795867902405 1:0 2:0 3:0 4:0 5:0 6:0 7:0 8:0 9:0 10:0 11:0 12:0 13:0 14:0 15:0 16:0 17:0 18:0 19:0 20:0 21:0 22:0 23:0 24:0 25:0 26:0 27:0 28:0 29:0 30:0 31:0 32:0 33:0 34:0 35:0 36:0 37:0 38:0 39:0 40:0 41:0 42:0 43:0 44:0 45:0 46:0 47:0 48:0.02 49:0.02 50:0 51:0 52:0 53:0 54:0 55:0 56:0 57:0.02 58:0 59:0 60:0 61:0 62:0 63:0.02 64:0.02 65:0 66:0 67:0 68:0 69:0.02 70:0 71:0.039999999 72:0 73:0.02 74:0 75:0.02 76:0 77:0 78:0 79:0 80:0.02 81:0 82:0.039999999 83:0 84:0.039999999 85:0.02 86:0 87:0 88:0 89:0 90:0 91:0.02 92:0.02 93:0.02 94:0 95:0 96:0 97:0 98:0 99:0.02 100:0 101:0.02 102:0 103:0.059999999 104:0 105:0 106:0 107:0 108:0 109:0 110:0 111:0 112:0.02 113:0.059999999 114:0 115:0.039999999 116:0 117:0.02 118:0.02 119:0.039999999 120:0.1 121:0.18000001 122:0.18000001 123:0.14 124:0.23999999 125:0.2 126:0.40000001 127:0.38 128:0.51999998 129:0.44 130:0.72000003 131:0.66000003 132:0.46000001 133:0.75999999 134:1 135:0.74000001 136:0.74000001 137:0.72000003 138:0.68000001 139:0.62 140:0.51999998 141:0.30000001 142:0.23999999 143:0.2 144:0.22 145:0.079999998 146:0.059999999 147:0.079999998 148:0.059999999 149:0.079999998 150:0.02 151:0.039999999 152:0.039999999 153:0.039999999 154:0 155:0 156:0.02 157:0 158:0 159:0 160:0 161:0 162:0 163:0.039999999 164:0 165:0 166:0 167:0 168:0 169:0 170:0 171:0 172:0 173:0 174:0 175:0 176:0 177:0 178:0 179:0 180:0 181:0 182:0 183:0 184:0 185:0 186:0 187:0 188:0 189:0 190:0 191:0 192:0 193:0 194:0 195:0 196:0 197:0 198:0 199:0 200:0 201:0 202:0 203:0 204:0 205:0 206:0 207:0 208:0 209:0 210:0 211:0 212:0 213:0 214:0 215:0 216:0 217:0 218:0 219:0 220:0 221:0 222:0 223:0 224:0 225:0 226:0 227:0 228:0 229:0 230:0 231:0 232:0 233:0 234:0 235:0 236:0 237:0 238:0 239:0 240:0 241:0 242:0 243:0 244:0 245:0 246:0 247:0 248:0 249:0 250:0 251:0 252:0 253:0 254:0 255:0 256:0 257:0 258:0 259:0 260:0 261:0 262:0 263:0 264:0 265:0 266:0 267:0 268:0 269:0 270:0 271:0 272:0 273:0 274:0 275:0 276:0 277:0 278:0 279:0 280:0 281:0 282:0 283:0 284:0 285:0 286:0 287:0 288:0 289:0 290:0 291:0 292:0 293:0 294:0 295:0 296:0 297:0 298:0 299:0 300:0 301:0 302:0 303:0 304:0 305:0 306:0 307:0 308:0 309:0 310:0 311:0 312:0 313:0 314:0 315:0 316:0 317:0 318:0 319:0 320:0 321:0 322:0 323:0 324:0 325:0.021739099 326:0 327:0.021739099 328:0 329:0 330:0 331:0 332:0 333:0 334:0 335:0 336:0 337:0 338:0 339:0 340:0.043478299 341:0 342:0 343:0 344:0 345:0.043478299 346:0.021739099 347:0 348:0 349:0 350:0 351:0 352:0 353:0.021739099 354:0 355:0 356:0 357:0 358:0 359:0.021739099 360:0.021739099 361:0.043478299 362:0 363:0 364:0.021739099 365:0 366:0.021739099 367:0 368:0 369:0.021739099 370:0.021739099 371:0 372:0.021739099 373:0 374:0 375:0.021739099 376:0 377:0.043478299 378:0.021739099 379:0 380:0 381:0 382:0 383:0 384:0 385:0 386:0 387:0 388:0.043478299 389:0 390:0.021739099 391:0 392:0 393:0.021739099 394:0.021739099 395:0.021739099 396:0.043478299 397:0.021739099 398:0 399:0.086956501 400:0.043478299 401:0 402:0 403:0 404:0 405:0.021739099 406:0 407:0.021739099 408:0.021739099 409:0 410:0.065217398 411:0 412:0.108696 413:0.065217398 414:0.043478299 415:0.065217398 416:0.108696 417:0.043478299 418:0.130435 419:0.217391 420:0.130435 421:0.173913 422:0.173913 423:0.347826 424:0.36956501 425:0.39130399 426:0.326087 427:0.80434799 428:0.60869598 429:0.56521702 430:0.78260899 431:0.69565201 432:0.93478298 433:0.63043499 434:0.60869598 435:1 436:0.69565201 437:0.76086998 438:0.71739101 439:0.41304299 440:0.130435 441:0.23913001 442:0.130435 443:0.173913 444:0.021739099 445:0.021739099 446:0.108696 447:0.021739099 448:0 449:0 450:0.021739099 451:0 452:0 453:0 454:0 455:0 456:0 457:0 458:0 459:0 460:0 461:0 462:0 463:0 464:0 465:0 466:0 467:0 468:0 469:0 470:0 471:0 472:0 473:0 474:0 475:0 476:0 477:0 478:0 479:0 480:0 481:0 482:0 483:0 484:0 485:0 486:0 487:0 488:0 489:0 490:0 491:0 492:0 493:0 494:0 495:0 496:0 497:0 498:0 499:0 500:0 501:0 502:0 503:0 504:0 505:0 506:0 507:0 508:0 509:0 510:0 511:0 512:0 513:0 514:0 515:0 516:0 517:0 518:0 519:0 520:0 521:0 522:0 523:0 524:0 525:0 526:0 527:0 528:0 529:0 530:0 531:0 532:0 533:0 534:0 535:0 536:0 537:0 538:0 539:0 540:0 541:0 542:0 543:0 544:0 545:0 546:0 547:0 548:0 549:0 550:0 551:0 552:0 553:0 554:0 555:0 556:0 557:0 558:0 559:0 560:0 561:0 562:0 563:0 564:0 565:0 566:0 567:0 568:0 569:0 570:0 571:0 572:0 573:0 574:0 575:0 576:0 577:0 578:0 579:0 580:0 581:0 582:0 583:0 584:0 585:0 586:0 587:0 588:0 589:0 590:0 591:0 592:0 593:0 594:0 595:0 596:0 597:0 598:0 599:0 600:0 601:0 602:0.021276601 603:0 604:0 605:0 606:0 607:0 608:0 609:0 610:0.021276601 611:0 612:0 613:0 614:0 615:0 616:0 617:0 618:0 619:0.021276601 620:0.021276601 621:0 622:0.021276601 623:0.021276601 624:0 625:0 626:0 627:0.021276601 628:0 629:0 630:0 631:0 632:0 633:0 634:0.021276601 635:0 636:0 637:0 638:0.021276601 639:0 640:0 641:0.063829802 642:0 643:0.021276601 644:0 645:0.021276601 646:0.021276601 647:0 648:0 649:0 650:0 651:0 652:0 653:0 654:0.021276601 655:0 656:0 657:0.042553201 658:0 659:0.021276601 660:0.042553201 661:0 662:0 663:0 664:0 665:0 666:0 667:0 668:0.085106403 669:0 670:0.021276601 671:0.021276601 672:0.042553201 673:0 674:0 675:0.063829802 676:0 677:0.042553201 678:0 679:0.021276601 680:0 681:0.021276601 682:0 683:0.021276601 684:0 685:0 686:0 687:0 688:0 689:0.042553201 690:0 691:0.021276601 692:0 693:0 694:0 695:0.063829802 696:0.042553201 697:0.042553201 698:0.170213 699:0.063829802 700:0.148936 701:0.063829802 702:0.170213 703:0.148936 704:0.12766001 705:0.170213 706:0.255319 707:0.148936 708:0.255319 709:0.31914899 710:0.404255 711:0.57446802 712:0.489362 713:1 714:0.80851102 715:0.70212799 716:0.765957 717:0.95744699 718:0.57446802 719:0.97872299 720:0.61702102 721:0.361702 722:0.42553201 723:0.59574503 724:0.191489 725:0.404255 726:0.12766001 727:0.12766001 728:0.106383 729:0.063829802 730:0.042553201 731:0.021276601 732:0.021276601 733:0 734:0 735:0 736:0 737:0 738:0 739:0 740:0 741:0 742:0 743:0 744:0 745:0 746:0 747:0 748:0 749:0 750:0 751:0 752:0 753:0 754:0 755:0 756:0 757:0 758:0 759:0 760:0 761:0 762:0 763:0 764:0 765:0 766:0.24528299 767:0.962264 768:0.075471699 769:1 #
-0.01803075188531178332795867902405 1:0 2:0 3:0 4:0 5:0 6:0 7:0 8:0 9:0 10:0 11:0 12:0 13:0 14:0 15:0 16:0 17:0 18:0 19:0 20:0 21:0 22:0 23:0 24:0 25:0 26:0 27:0 28:0 29:0 30:0 31:0 32:0 33:0 34:0 35:0 36:0 37:0 38:0 39:0 40:0 41:0 42:0 43:0 44:0 45:0 46:0 47:0 48:0 49:0 50:0 51:0 52:0 53:0 54:0 55:0 56:0 57:0 58:0 59:0 60:0 61:0 62:0 63:0 64:0 65:0 66:0 67:0 68:0 69:0 70:0 71:0 72:0 73:0 74:0 75:0 76:0 77:0 78:0 79:0 80:0 81:0 82:0 83:0 84:0 85:0 86:0 87:0 88:0 89:0 90:0 91:0 92:0 93:0 94:0 95:0 96:0.041666701 97:0 98:0 99:0 100:0 101:0 102:0 103:0 104:0 105:0 106:0 107:0 108:0 109:0 110:0 111:0 112:0.041666701 113:0 114:0 115:0 116:0 117:0 118:0 119:0 120:0 121:0 122:0.041666701 123:0 124:0 125:0 126:0 127:0.041666701 128:0 129:0 130:0 131:0 132:0 133:0 134:0 135:0 136:0 137:0 138:0 139:0 140:0 141:0.083333299 142:0 143:0 144:0.041666701 145:0 146:0 147:0 148:0 149:0 150:0 151:0 152:0 153:0 154:0 155:0 156:0 157:0 158:0 159:0 160:0 161:0 162:0 163:0 164:0 165:0 166:0 167:0.041666701 168:0 169:0 170:0 171:0.041666701 172:0 173:0 174:0 175:0 176:0.041666701 177:0 178:0 179:0 180:0 181:0 182:0 183:0.041666701 184:0 185:0 186:0 187:0 188:0.041666701 189:0.041666701 190:0.041666701 191:0.083333299 192:0.083333299 193:0.041666701 194:0.083333299 195:0.083333299 196:0.041666701 197:0.041666701 198:0.083333299 199:0.25 200:0.125 201:0.083333299 202:0.208333 203:0.375 204:0.25 205:0.25 206:0.375 207:0.5 208:0.25 209:0.25 210:0.5 211:0.29166701 212:0.33333299 213:0.375 214:0.58333302 215:0.54166698 216:0.45833299 217:0.58333302 218:0.75 219:0.75 220:0.45833299 221:0.91666698 222:0.58333302 223:0.75 224:0.625 225:1 226:0.625 227:0.875 228:0.75 229:0.58333302 230:0.83333302 231:0.625 232:0.875 233:0.70833302 234:0.66666698 235:0.58333302 236:0.33333299 237:0.375 238:0.375 239:0.625 240:0.375 241:0.45833299 242:0.375 243:0.208333 244:0.125 245:0.25 246:0.041666701 247:0 248:0.166667 249:0 250:0 251:0.041666701 252:0.041666701 253:0.041666701 254:0 255:0 256:0 257:0 258:0 259:0 260:0 261:0 262:0 263:0 264:0 265:0 266:0 267:0 268:0 269:0 270:0 271:0 272:0 273:0 274:0 275:0 276:0 277:0 278:0 279:0 280:0 281:0 282:0 283:0 284:0 285:0 286:0 287:0 288:0 289:0 290:0 291:0 292:0 293:0 294:0 295:0 296:0 297:0 298:0 299:0 300:0 301:0 302:0 303:0 304:0 305:0 306:0 307:0 308:0 309:0 310:0 311:0 312:0 313:0 314:0 315:0 316:0 317:0 318:0 319:0 320:0 321:0 322:0 323:0 324:0 325:0 326:0 327:0 328:0 329:0 330:0 331:0 332:0 333:0 334:0 335:0 336:0 337:0 338:0 339:0 340:0 341:0 342:0 343:0 344:0 345:0 346:0 347:0 348:0 349:0 350:0 351:0 352:0 353:0 354:0 355:0 356:0 357:0 358:0 359:0 360:0 361:0 362:0 363:0 364:0 365:0 366:0 367:0 368:0 369:0 370:0 371:0 372:0.0294118 373:0 374:0 375:0 376:0 377:0 378:0 379:0 380:0 381:0 382:0 383:0 384:0 385:0 386:0.0294118 387:0 388:0 389:0 390:0 391:0 392:0 393:0 394:0.0294118 395:0 396:0 397:0.0294118 398:0.0294118 399:0 400:0 401:0 402:0 403:0 404:0 405:0 406:0 407:0 408:0 409:0 410:0 411:0.0294118 412:0.0294118 413:0 414:0 415:0 416:0 417:0 418:0 419:0 420:0 421:0 422:0 423:0 424:0 425:0 426:0 427:0 428:0 429:0 430:0 431:0.0294118 432:0 433:0 434:0 435:0 436:0.0294118 437:0 438:0.0294118 439:0 440:0 441:0 442:0 443:0 444:0 445:0 446:0 447:0 448:0.0294118 449:0 450:0 451:0 452:0 453:0 454:0 455:0 456:0 457:0 458:0 459:0.0294118 460:0 461:0.0294118 462:0 463:0 464:0 465:0 466:0 467:0 468:0.0294118 469:0 470:0.0294118 471:0 472:0 473:0.0294118 474:0.14705899 475:0.0294118 476:0.117647 477:0.088235296 478:0.117647 479:0.0588235 480:0.17647099 481:0.17647099 482:0.235294 483:0.17647099 484:0.26470599 485:0.205882 486:0.26470599 487:0.35294101 488:0.558824 489:0.441176 490:0.558824 491:0.470588 492:0.64705902 493:0.76470602 494:0.52941197 495:0.91176498 496:0.91176498 497:0.88235301 498:0.73529398 499:0.88235301 500:0.91176498 501:0.70588201 502:1 503:0.67647099 504:0.91176498 505:0.558824 506:0.52941197 507:0.205882 508:0.29411799 509:0.17647099 510:0 511:0 512:0 513:0 514:0 515:0 516:0 517:0 518:0 519:0 520:0 521:0 522:0 523:0 524:0 525:0 526:0 527:0 528:0 529:0 530:0 531:0 532:0 533:0 534:0 535:0 536:0 537:0 538:0 539:0 540:0 541:0 542:0 543:0 544:0 545:0 546:0 547:0 548:0 549:0 550:0 551:0 552:0 553:0 554:0 555:0 556:0 557:0 558:0 559:0 560:0 561:0 562:0 563:0 564:0 565:0 566:0 567:0 568:0 569:0 570:0 571:0 572:0 573:0 574:0 575:0 576:0 577:0 578:0 579:0 580:0 581:0 582:0 583:0 584:0 585:0 586:0 587:0 588:0 589:0 590:0 591:0 592:0 593:0 594:0 595:0 596:0 597:0 598:0 599:0 600:0 601:0 602:0 603:0 604:0 605:0 606:0 607:0 608:0 609:0 610:0 611:0 612:0 613:0 614:0 615:0 616:0 617:0 618:0 619:0 620:0 621:0 622:0 623:0 624:0 625:0 626:0 627:0 628:0 629:0 630:0 631:0 632:0 633:0 634:0 635:0 636:0 637:0 638:0 639:0 640:0 641:0 642:0 643:0 644:0 645:0 646:0 647:0 648:0 649:0.025641 650:0 651:0 652:0 653:0 654:0 655:0 656:0.025641 657:0 658:0 659:0 660:0 661:0 662:0 663:0 664:0 665:0 666:0 667:0 668:0.025641 669:0 670:0 671:0 672:0 673:0 674:0 675:0.0512821 676:0 677:0 678:0 679:0 680:0 681:0.025641 682:0 683:0 684:0.025641 685:0 686:0 687:0 688:0 689:0 690:0 691:0 692:0 693:0 694:0 695:0 696:0 697:0 698:0 699:0 700:0 701:0 702:0 703:0 704:0 705:0.025641 706:0 707:0 708:0 709:0 710:0 711:0 712:0 713:0.0512821 714:0 715:0 716:0.025641 717:0 718:0 719:0 720:0 721:0 722:0 723:0 724:0 725:0 726:0 727:0 728:0 729:0 730:0 731:0 732:0.025641 733:0 734:0 735:0 736:0 737:0 738:0 739:0 740:0.102564 741:0.025641 742:0.0512821 743:0.025641 744:0.102564 745:0.102564 746:0.128205 747:0.153846 748:0.102564 749:0.128205 750:0.30769199 751:0.33333299 752:0.384615 753:0.43589699 754:0.46153799 755:0.51282102 756:0.53846198 757:0.82051301 758:0.89743602 759:0.97435898 760:0.97435898 761:1 762:0.71794897 763:0.84615397 764:1 765:0 766:0.246914 767:0.92592603 768:0.074074097 769:1 #
-0.01803075188531178332795867902405 1:0.145833 2:0.166667 3:0.125 4:0.145833 5:0.208333 6:0.166667 7:0.27083299 8:0.145833 9:0.208333 10:0.3125 11:0.25 12:0.33333299 13:0.35416701 14:0.375 15:0.3125 16:0.375 17:0.35416701 18:0.47916701 19:0.35416701 20:0.3125 21:0.39583299 22:0.45833299 23:0.47916701 24:0.5 25:0.35416701 26:0.79166698 27:0.6875 28:0.70833302 29:0.6875 30:0.64583302 31:0.91666698 32:0.625 33:0.6875 34:0.8125 35:0.75 36:0.77083302 37:1 38:0.4375 39:0.72916698 40:0.8125 41:0.875 42:0.60416698 43:0.89583302 44:0.58333302 45:0.72916698 46:0.6875 47:0.83333302 48:0.66666698 49:0.45833299 50:0.58333302 51:0.47916701 52:0.5625 53:0.5625 54:0.35416701 55:0.29166701 56:0.5 57:0.4375 58:0.229167 59:0.208333 60:0.3125 61:0.375 62:0.208333 63:0.166667 64:0.3125 65:0.104167 66:0.083333299 67:0.145833 68:0.104167 69:0.125 70:0.041666701 71:0.083333299 72:0.125 73:0.041666701 74:0.145833 75:0.041666701 76:0.0208333 77:0.0208333 78:0.0625 79:0.0625 80:0 81:0.104167 82:0.0625 83:0.0208333 84:0.0208333 85:0 86:0.041666701 87:0 88:0 89:0 90:0 91:0.0208333 92:0.041666701 93:0 94:0.0208333 95:0.0208333 96:0.0208333 97:0.0208333 98:0.104167 99:0.0208333 100:0 101:0.041666701 102:0.0208333 103:0 104:0 105:0 106:0 107:0 108:0.0208333 109:0 110:0 111:0 112:0.0208333 113:0 114:0 115:0 116:0 117:0 118:0 119:0.0208333 120:0 121:0.0208333 122:0 123:0 124:0 125:0 126:0 127:0 128:0.0208333 129:0 130:0 131:0 132:0 133:0 134:0 135:0 136:0 137:0 138:0 139:0 140:0 141:0 142:0 143:0 144:0 145:0 146:0 147:0 148:0 149:0 150:0 151:0 152:0 153:0 154:0 155:0 156:0 157:0 158:0 159:0 160:0 161:0 162:0 163:0 164:0 165:0 166:0 167:0 168:0 169:0 170:0 171:0 172:0 173:0 174:0 175:0 176:0 177:0 178:0 179:0 180:0 181:0 182:0 183:0 184:0 185:0 186:0 187:0 188:0 189:0 190:0 191:0 192:0 193:0 194:0 195:0 196:0 197:0 198:0 199:0 200:0 201:0 202:0 203:0 204:0 205:0 206:0 207:0 208:0 209:0 210:0 211:0 212:0 213:0 214:0 215:0 216:0 217:0 218:0 219:0 220:0 221:0 222:0 223:0 224:0 225:0 226:0 227:0 228:0 229:0 230:0 231:0 232:0 233:0 234:0 235:0 236:0 237:0 238:0 239:0 240:0 241:0 242:0 243:0 244:0 245:0 246:0 247:0 248:0 249:0 250:0 251:0 252:0 253:0 254:0 255:0 256:0.048780501 257:0.146341 258:0.073170699 259:0.146341 260:0.048780501 261:0.219512 262:0.195122 263:0.097561002 264:0.26829299 265:0.219512 266:0.146341 267:0.146341 268:0.26829299 269:0.31707299 270:0.365854 271:0.341463 272:0.29268301 273:0.439024 274:0.463415 275:0.365854 276:0.463415 277:0.51219499 278:0.29268301 279:0.65853697 280:0.58536601 281:0.70731699 282:0.82926798 283:0.56097603 284:0.78048801 285:0.95121902 286:0.78048801 287:0.97561002 288:0.92682898 289:0.78048801 290:0.68292701 291:1 292:0.82926798 293:0.902439 294:0.95121902 295:0.70731699 296:0.70731699 297:0.75609797 298:0.70731699 299:0.58536601 300:0.87804902 301:0.78048801 302:0.39024401 303:0.58536601 304:0.902439 305:0.56097603 306:0.75609797 307:0.58536601 308:0.70731699 309:0.63414598 310:0.75609797 311:0.48780501 312:0.41463399 313:0.56097603 314:0.41463399 315:0.51219499 316:0.48780501 317:0.365854 318:0.41463399 319:0.341463 320:0.195122 321:0.39024401 322:0.26829299 323:0.29268301 324:0.17073201 325:0.097561002 326:0.146341 327:0.219512 328:0.26829299 329:0.17073201 330:0.219512 331:0.121951 332:0.17073201 333:0.195122 334:0.146341 335:0.121951 336:0.121951 337:0.0243902 338:0.097561002 339:0.048780501 340:0.121951 341:0.048780501 342:0.0243902 343:0.0243902 344:0.097561002 345:0.0243902 346:0.0243902 347:0.073170699 348:0.048780501 349:0.0243902 350:0 351:0.048780501 352:0.073170699 353:0.0243902 354:0.0243902 355:0 356:0 357:0 358:0.048780501 359:0.0243902 360:0.0243902 361:0 362:0.048780501 363:0.0243902 364:0.0243902 365:0 366:0.048780501 367:0 368:0 369:0 370:0 371:0 372:0 373:0.048780501 374:0.0243902 375:0 376:0 377:0.0243902 378:0 379:0.097561002 380:0 381:0.0243902 382:0 383:0 384:0.0243902 385:0 386:0 387:0 388:0 389:0 390:0 391:0 392:0.0243902 393:0.0243902 394:0 395:0 396:0 397:0.0243902 398:0 399:0 400:0 401:0 402:0 403:0 404:0.0243902 405:0 406:0 407:0 408:0.0243902 409:0 410:0 411:0 412:0 413:0 414:0 415:0 416:0 417:0 418:0 419:0 420:0 421:0 422:0 423:0 424:0 425:0 426:0 427:0 428:0 429:0 430:0 431:0 432:0 433:0 434:0 435:0 436:0 437:0 438:0 439:0 440:0 441:0 442:0 443:0 444:0 445:0 446:0 447:0 448:0 449:0 450:0 451:0 452:0 453:0 454:0 455:0 456:0 457:0 458:0 459:0 460:0 461:0 462:0 463:0 464:0 465:0 466:0 467:0 468:0 469:0 470:0 471:0 472:0 473:0 474:0 475:0 476:0 477:0 478:0 479:0 480:0 481:0 482:0 483:0 484:0 485:0 486:0 487:0 488:0 489:0 490:0 491:0 492:0 493:0 494:0 495:0 496:0 497:0 498:0 499:0 500:0 501:0 502:0 503:0 504:0 505:0 506:0 507:0 508:0 509:0 510:0 511:0 512:0 513:0.052631602 514:0.052631602 515:0 516:0.078947403 517:0.210526 518:0.28947401 519:0.157895 520:0.184211 521:0.052631602 522:0.078947403 523:0.131579 524:0.184211 525:0.131579 526:0.210526 527:0.28947401 528:0.210526 529:0.342105 530:0.36842099 531:0.39473701 532:0.447368 533:0.31578901 534:0.55263197 535:0.42105299 536:0.76315802 537:0.65789503 538:0.36842099 539:0.86842102 540:0.89473701 541:0.73684198 542:0.71052599 543:0.73684198 544:1 545:0.65789503 546:0.86842102 547:0.71052599 548:0.86842102 549:0.84210497 550:0.89473701 551:0.55263197 552:0.55263197 553:0.57894701 554:0.81578898 555:0.57894701 556:0.71052599 557:0.63157898 558:0.63157898 559:0.65789503 560:0.73684198 561:0.73684198 562:0.76315802 563:0.57894701 564:0.57894701 565:0.68421102 566:0.60526299 567:0.447368 568:0.55263197 569:0.63157898 570:0.60526299 571:0.55263197 572:0.55263197 573:0.23684201 574:0.31578901 575:0.342105 576:0.5 577:0.57894701 578:0.71052599 579:0.31578901 580:0.31578901 581:0.447368 582:0.31578901 583:0.36842099 584:0.36842099 585:0.42105299 586:0.42105299 587:0.31578901 588:0.36842099 589:0.26315799 590:0.131579 591:0.184211 592:0.39473701 593:0.131579 594:0.184211 595:0.31578901 596:0.39473701 597:0.157895 598:0.105263 599:0.210526 600:0.131579 601:0.131579 602:0.131579 603:0.052631602 604:0.026315801 605:0.157895 606:0.105263 607:0.105263 608:0.157895 609:0.105263 610:0.052631602 611:0.052631602 612:0.105263 613:0.052631602 614:0.105263 615:0.026315801 616:0.078947403 617:0.052631602 618:0 619:0.131579 620:0 621:0 622:0 623:0.105263 624:0.026315801 625:0 626:0 627:0.052631602 628:0 629:0.026315801 630:0 631:0.052631602 632:0.026315801 633:0 634:0.052631602 635:0 636:0 637:0 638:0 639:0 640:0 641:0 642:0.078947403 643:0 644:0.026315801 645:0.026315801 646:0.026315801 647:0 648:0 649:0.026315801 650:0.078947403 651:0.026315801 652:0 653:0.026315801 654:0.026315801 655:0 656:0 657:0 658:0 659:0.026315801 660:0 661:0 662:0 663:0 664:0.026315801 665:0 666:0 667:0.026315801 668:0 669:0 670:0 671:0 672:0 673:0 674:0.052631602 675:0 676:0 677:0 678:0 679:0 680:0 681:0 682:0 683:0 684:0 685:0 686:0 687:0 688:0 689:0 690:0 691:0 692:0 693:0 694:0 695:0 696:0 697:0 698:0 699:0 700:0 701:0 702:0 703:0 704:0 705:0 706:0 707:0 708:0 709:0 710:0 711:0 712:0 713:0 714:0 715:0 716:0 717:0 718:0 719:0 720:0 721:0 722:0 723:0 724:0 725:0 726:0 727:0 728:0 729:0 730:0 731:0 732:0 733:0 734:0 735:0 736:0 737:0 738:0 739:0 740:0 741:0 742:0 743:0 744:0 745:0 746:0 747:0 748:0 749:0 750:0 751:0 752:0 753:0 754:0 755:0 756:0 757:0 758:0 759:0 760:0 761:0 762:0 763:0 764:0 765:0 766:1 767:0.85714298 768:0.25 769:0.64881003 #
-0.01803075188531178332795867902405 1:0 2:0 3:0 4:0 5:0 6:0 7:0 8:0 9:0 10:0 11:0 12:0 13:0 14:0 15:0 16:0 17:0 18:0 19:0 20:0 21:0 22:0 23:0 24:0 25:0 26:0 27:0 28:0 29:0 30:0 31:0 32:0 33:0 34:0 35:0 36:0 37:0 38:0 39:0 40:0 41:0 42:0 43:0 44:0 45:0 46:0 47:0 48:0 49:0 50:0 51:0 52:0 53:0 54:0 55:0 56:0 57:0 58:0 59:0 60:0 61:0 62:0 63:0 64:0 65:0 66:0 67:0 68:0 69:0 70:0 71:0 72:0 73:0 74:0 75:0 76:0 77:0 78:0 79:0 80:0 81:0 82:0 83:0 84:0 85:0 86:0 87:0 88:0 89:0 90:0 91:0 92:0 93:0 94:0 95:0 96:0 97:0 98:0 99:0 100:0 101:0 102:0 103:0 104:0 105:0 106:0 107:0 108:0 109:0 110:0 111:0 112:0 113:0 114:0 115:0 116:0 117:0 118:0 119:0 120:0 121:0 122:0 123:0 124:0 125:0 126:0 127:0 128:0 129:0 130:0 131:0 132:0 133:0 134:0 135:0 136:0 137:0 138:0 139:0 140:0 141:0 142:0 143:0 144:0 145:0 146:0 147:0 148:0 149:0 150:0 151:0 152:0 153:0 154:0.034482799 155:0 156:0 157:0 158:0 159:0 160:0 161:0 162:0 163:0 164:0 165:0.034482799 166:0 167:0 168:0 169:0 170:0 171:0 172:0 173:0.068965502 174:0 175:0 176:0 177:0 178:0 179:0.034482799 180:0 181:0 182:0 183:0.034482799 184:0.034482799 185:0.034482799 186:0 187:0.034482799 188:0 189:0.068965502 190:0.034482799 191:0 192:0.068965502 193:0 194:0 195:0.034482799 196:0 197:0.068965502 198:0.034482799 199:0 200:0.034482799 201:0.034482799 202:0.034482799 203:0.034482799 204:0.034482799 205:0.068965502 206:0.103448 207:0.034482799 208:0.068965502 209:0.068965502 210:0.172414 211:0 212:0.20689701 213:0.24137899 214:0.137931 215:0.44827601 216:0.37931001 217:0.172414 218:0.31034499 219:0.58620697 220:0.37931001 221:0.482759 222:1 223:0.72413802 224:0.89655203 225:0.517241 226:0.75862098 227:0.68965501 228:0.482759 229:0.58620697 230:0.62068999 231:0.79310298 232:0.65517199 233:0.62068999 234:0.86206901 235:0.89655203 236:0.827586 237:0.24137899 238:0.413793 239:0.20689701 240:0.62068999 241:0.31034499 242:0.103448 243:0.103448 244:0.103448 245:0.103448 246:0.034482799 247:0 248:0 249:0 250:0 251:0 252:0 253:0 254:0 255:0 256:0 257:0 258:0 259:0 260:0 261:0 262:0 263:0 264:0 265:0 266:0 267:0 268:0 269:0 270:0 271:0 272:0 273:0 274:0 275:0 276:0 277:0 278:0 279:0 280:0 281:0 282:0 283:0 284:0 285:0 286:0 287:0 288:0 289:0 290:0 291:0 292:0 293:0 294:0 295:0 296:0 297:0 298:0 299:0 300:0 301:0 302:0 303:0 304:0 305:0 306:0 307:0 308:0 309:0 310:0 311:0 312:0 313:0 314:0 315:0 316:0 317:0 318:0 319:0 320:0 321:0 322:0 323:0 324:0 325:0 326:0 327:0 328:0 329:0 330:0 331:0 332:0 333:0 334:0 335:0 336:0 337:0 338:0 339:0 340:0 341:0 342:0 343:0 344:0 345:0 346:0 347:0 348:0 349:0 350:0 351:0 352:0 353:0 354:0 355:0 356:0 357:0 358:0 359:0 360:0 361:0 362:0 363:0 364:0 365:0 366:0 367:0 368:0 369:0 370:0 371:0 372:0 373:0 374:0 375:0 376:0 377:0 378:0 379:0 380:0 381:0 382:0 383:0 384:0 385:0 386:0 387:0 388:0 389:0 390:0 391:0 392:0 393:0 394:0 395:0 396:0 397:0 398:0 399:0 400:0 401:0 402:0 403:0 404:0 405:0 406:0 407:0 408:0 409:0 410:0 411:0 412:0 413:0 414:0 415:0 416:0 417:0 418:0 419:0 420:0 421:0 422:0 423:0 424:0.0222222 425:0 426:0 427:0 428:0 429:0 430:0 431:0 432:0.0222222 433:0 434:0 435:0.0222222 436:0 437:0 438:0 439:0 440:0 441:0 442:0 443:0 444:0.0222222 445:0 446:0.0222222 447:0 448:0 449:0 450:0 451:0.0222222 452:0 453:0.0222222 454:0.0222222 455:0.0222222 456:0 457:0.0222222 458:0.044444401 459:0.0222222 460:0.0222222 461:0 462:0 463:0 464:0.0222222 465:0.0222222 466:0.0222222 467:0.0222222 468:0 469:0.0222222 470:0 471:0 472:0.0222222 473:0 474:0.0222222 475:0 476:0.044444401 477:0 478:0.044444401 479:0.044444401 480:0.044444401 481:0 482:0.0666667 483:0.044444401 484:0.15555599 485:0.088888898 486:0.15555599 487:0.133333 488:0.15555599 489:0.444444 490:0.26666701 491:0.555556 492:0.66666698 493:0.68888903 494:0.66666698 495:0.60000002 496:0.466667 497:0.84444398 498:0.73333299 499:1 500:0.68888903 501:0.533333 502:0.444444 503:0.37777799 504:0.26666701 505:0.244444 506:0.28888899 507:0.044444401 508:0.0666667 509:0.0666667 510:0 511:0 512:0 513:0 514:0 515:0 516:0 517:0 518:0 519:0 520:0 521:0 522:0 523:0 524:0 525:0 526:0 527:0 528:0 529:0 530:0 531:0 532:0 533:0 534:0 535:0 536:0 537:0 538:0 539:0 540:0 541:0 542:0 543:0 544:0 545:0 546:0 547:0 548:0 549:0 550:0 551:0 552:0 553:0 554:0 555:0 556:0 557:0 558:0 559:0 560:0 561:0 562:0 563:0 564:0 565:0 566:0 567:0 568:0 569:0 570:0 571:0 572:0 573:0 574:0 575:0 576:0 577:0 578:0 579:0 580:0 581:0 582:0 583:0 584:0 585:0 586:0 587:0 588:0 589:0 590:0 591:0 592:0 593:0 594:0 595:0 596:0 597:0 598:0 599:0 600:0 601:0 602:0 603:0 604:0 605:0 606:0 607:0 608:0 609:0 610:0 611:0 612:0 613:0 614:0 615:0 616:0 617:0 618:0 619:0 620:0 621:0 622:0 623:0 624:0 625:0 626:0 627:0 628:0 629:0 630:0 631:0 632:0 633:0 634:0 635:0 636:0 637:0 638:0 639:0 640:0 641:0 642:0 643:0 644:0 645:0 646:0 647:0 648:0 649:0 650:0 651:0 652:0 653:0 654:0 655:0 656:0 657:0 658:0 659:0 660:0 661:0 662:0 663:0 664:0 665:0 666:0 667:0 668:0 669:0 670:0 671:0 672:0 673:0 674:0 675:0 676:0 677:0 678:0 679:0 680:0 681:0 682:0 683:0 684:0 685:0 686:0 687:0 688:0 689:0 690:0 691:0 692:0 693:0 694:0 695:0.0243902 696:0 697:0 698:0 699:0 700:0 701:0 702:0 703:0 704:0 705:0.0243902 706:0 707:0 708:0 709:0.0243902 710:0 711:0 712:0.0243902 713:0 714:0 715:0 716:0 717:0 718:0 719:0 720:0 721:0.0243902 722:0 723:0 724:0 725:0.048780501 726:0.0243902 727:0.048780501 728:0.0243902 729:0 730:0 731:0.0243902 732:0.0243902 733:0.0243902 734:0 735:0 736:0.0243902 737:0 738:0.0243902 739:0.0243902 740:0.0243902 741:0 742:0 743:0 744:0.048780501 745:0.097561002 746:0.073170699 747:0.097561002 748:0.0243902 749:0.121951 750:0.097561002 751:0.31707299 752:0.26829299 753:0.097561002 754:0.31707299 755:0.463415 756:0.31707299 757:0.73170698 758:0.60975599 759:0.65853697 760:0.58536601 761:0.70731699 762:0.97561002 763:1 764:1 765:0 766:1 767:0.216867 768:0.120482 769:0.240964 #
