SVM-light Version V5.00
0 # kernel type
3 # kernel parameter -d 
1 # kernel parameter -g 
1 # kernel parameter -s 
1 # kernel parameter -r 
empty# kernel parameter -u 
689 # highest feature index 
814 # number of training documents 
189 # number of support vectors plus 1 
0.21064643 # threshold b, each following line is a SV (starting with alpha*y)
-0.050113807937563509264933259146346 1:0 2:0 3:0 4:0 5:0 6:0 7:0 8:0 9:0 10:0 11:0 12:0 13:0 14:0 15:0 16:0 17:0 18:0 19:0 20:0 21:0 22:0 23:0 24:0 25:0 26:0 27:0 28:0 29:0 30:0 31:0 32:0 33:0 34:0 35:0 36:0 37:0 38:0 39:0 40:0 41:0 42:0 43:0 44:0 45:0 46:0 47:0 48:0 49:0 50:0 51:0 52:0 53:0 54:0 55:0 56:0 57:0 58:0 59:0 60:0 61:0 62:0 63:0 64:0 65:0 66:0 67:0 68:0 69:0 70:0 71:0 72:0 73:0 74:0 75:0 76:0 77:0 78:0 79:0 80:0 81:0 82:0 83:0 84:0 85:0 86:0 87:0 88:0 89:0 90:0 91:0 92:0 93:0 94:0 95:0 96:0 97:0 98:0 99:0 100:0 101:0 102:0 103:0 104:0 105:0 106:0 107:0 108:0 109:0 110:0 111:0 112:0 113:0 114:0 115:0 116:0 117:0.0066889599 118:0.16789301 119:0.47157201 120:1 121:0 122:0 123:0 124:0 125:0 126:0 127:0 128:0 129:0 130:0 131:0 132:0 133:0 134:0 135:0 136:0 137:0 138:0 139:0 140:0 141:0 142:0 143:0 144:0 145:0 146:0 147:0 148:0 149:0 150:0 151:0 152:0 153:0 154:0 155:0 156:0 157:0 158:0 159:0 160:0 161:0 162:0 163:0 164:0 165:0 166:0 167:0 168:0 169:0 170:0 171:0 172:0 173:0 174:0 175:0 176:0 177:0 178:0 179:0 180:0 181:0 182:0 183:0 184:0 185:0 186:0 187:0 188:0 189:0 190:0 191:0 192:0 193:0 194:0 195:0 196:0 197:0 198:0 199:0 200:0 201:0 202:0 203:0 204:0 205:0 206:0 207:0 208:0 209:0 210:0 211:0 212:0 213:0 214:0 215:0 216:0 217:0 218:0 219:0 220:0 221:0 222:0 223:0 224:0 225:0 226:0 227:0 228:0 229:0 230:0 231:0 232:0 233:0 234:0 235:0 236:0 237:0 238:0 239:0 240:0 241:0 242:0 243:0 244:0 245:0 246:0 247:0 248:0 249:0 250:0 251:0 252:0 253:0 254:0 255:0 256:0 257:0 258:0 259:0 260:0.00204082 261:0.061224502 262:0.157143 263:0.25714299 264:0.33673501 265:0.126531 266:0.20816299 267:0.38775501 268:0.23061199 269:0.31632701 270:0.240816 271:0.310204 272:0.271429 273:1 274:0.595918 275:0.38367301 276:0.065306097 277:0.0183673 278:0.051020399 279:0.00204082 280:0 281:0 282:0 283:0 284:0 285:0 286:0 287:0 288:0 289:0 290:0 291:0 292:0 293:0 294:0 295:0 296:0 297:0 298:0 299:0 300:0 301:0 302:0 303:0 304:0 305:0 306:0 307:0 308:0 309:0 310:0 311:0 312:0 313:0 314:0 315:0 316:0 317:0 318:0 319:0 320:0 321:0 322:0 323:0 324:0 325:0 326:0 327:0 328:0 329:0 330:0 331:0 332:0 333:0 334:0 335:0 336:0 337:0 338:0 339:0 340:0 341:0 342:0 343:0 344:0 345:0 346:0 347:0 348:0 349:0 350:0 351:0 352:0 353:0 354:0 355:0 356:0 357:0 358:0 359:0 360:0 361:0 362:0 363:0 364:0 365:0 366:0 367:0 368:0 369:0 370:0 371:0 372:0 373:0 374:0 375:0 376:0 377:0 378:0 379:0 380:0 381:0 382:0 383:0 384:0 385:0 386:0 387:0 388:0 389:0 390:0 391:0 392:0 393:0 394:0 395:0 396:0 397:0 398:0 399:0 400:0 401:0 402:0 403:0 404:0 405:0 406:0 407:0 408:0 409:0 410:0 411:0 412:0 413:0 414:0 415:0 416:0 417:0 418:0 419:0 420:0 421:0 422:0 423:0 424:0 425:0 426:0 427:0 428:0 429:0 430:0 431:0 432:0 433:0 434:0 435:0 436:0 437:0 438:0 439:0 440:0 441:0 442:0 443:0 444:0 445:0 446:0 447:0 448:0 449:0 450:0 451:0 452:0 453:0 454:0 455:0 456:0 457:0 458:0 459:0 460:0 461:0 462:0 463:0 464:0 465:0 466:0 467:0 468:0 469:0 470:0 471:0 472:0 473:0 474:0 475:0 476:0 477:0 478:0 479:0 480:0 481:0 482:0 483:0 484:0 485:0 486:0 487:0 488:0 489:0 490:0 491:0 492:0 493:0 494:0 495:0 496:0 497:0 498:0 499:0 500:0 501:0 502:0 503:0 504:0 505:0 506:0 507:0 508:0 509:0 510:0 511:0 512:0 513:0 514:0 515:0 516:0 517:0 518:0 519:0 520:0 521:0 522:0 523:0 524:0 525:0 526:0 527:0 528:0 529:0 530:0 531:0 532:0 533:0 534:0 535:0 536:0 537:0 538:0 539:0 540:0 541:0 542:0 543:0 544:0 545:0 546:0 547:0 548:0 549:0 550:0 551:0 552:0 553:0 554:0 555:0 556:0 557:0 558:0 559:0 560:0 561:0 562:0 563:0 564:0 565:0 566:0 567:0 568:0 569:0 570:0 571:0 572:0 573:0 574:0 575:0 576:0 577:0 578:0 579:0 580:0 581:0 582:0 583:0 584:0 585:0 586:0 587:0 588:0 589:0 590:0 591:0 592:0 593:0 594:0 595:0 596:0 597:0 598:0 599:0 600:0 601:0 602:0 603:0 604:0 605:0 606:0 607:0 608:0 609:0 610:0 611:0 612:0 613:0 614:0 615:0 616:0 617:0 618:0 619:0 620:0 621:0 622:0 623:0 624:0 625:0 626:0 627:0.0024154601 628:0.0072463802 629:0.043478299 630:0.060386501 631:0.13768101 632:0.113527 633:0.14251199 634:0.183575 635:0.157005 636:0.12801901 637:0.13285001 638:0.280193 639:0.29227099 640:0.442029 641:0.69323701 642:1 643:0.53623199 644:0.77777803 645:0.49275401 646:0.24637701 647:0.074879199 648:0 649:0 650:0 651:0 652:0 653:0 654:0 655:0 656:0 657:0 658:0 659:0 660:0 661:0 662:0 663:0 664:0 665:0 666:0 667:0 668:0 669:0 670:0 671:0 672:0 673:0 674:0 675:0 676:0 677:0 678:0 679:0 680:0 681:0 682:0 683:0 684:0 685:0 686:0 687:0 688:0 689:0 
0.05189125428144044510636589961905 1:0 2:0.33333299 3:0 4:0 5:1 6:0 7:0 8:0 9:0 10:0 11:0 12:0 13:0 14:0 15:0 16:0 17:0 18:0 19:0 20:0 21:0 22:0 23:0 24:0 25:0 26:0 27:0 28:0 29:0 30:0 31:0 32:0 33:0 34:0 35:0 36:0 37:0 38:0 39:0 40:0 41:0 42:0 43:0 44:0 45:0 46:0 47:0 48:0 49:0 50:0 51:0 52:0 53:0 54:0 55:0 56:0 57:0 58:0 59:0 60:0 61:0 62:0 63:0 64:0 65:0 66:0 67:0 68:0 69:0 70:0 71:0 72:0 73:0 74:0 75:0 76:0 77:0 78:0 79:0 80:0 81:0 82:0 83:0 84:0 85:0 86:0 87:0 88:0 89:0 90:0 91:0 92:0 93:0 94:0 95:0 96:0 97:0 98:0 99:0 100:0 101:0 102:0 103:0 104:0 105:0 106:0 107:0 108:0 109:0 110:0 111:0 112:0 113:0 114:0 115:0 116:0 117:0 118:0 119:0 120:0 121:0 122:0 123:0 124:0 125:0 126:0 127:0 128:0 129:0 130:0 131:0 132:0 133:0 134:0 135:0 136:0 137:0 138:0 139:0 140:0 141:0 142:0 143:0 144:0 145:0 146:0 147:0 148:0 149:0 150:0 151:0 152:0 153:0 154:0 155:0 156:0 157:0 158:0 159:0 160:0 161:0 162:0 163:0 164:0 165:0 166:0 167:0 168:0 169:0 170:0 171:0 172:0 173:0 174:0 175:0 176:0 177:0 178:0 179:0 180:0 181:0 182:0 183:0 184:0 185:0 186:0 187:0 188:0 189:0 190:0 191:0 192:0 193:0 194:0 195:0 196:1 197:1 198:1 199:1 200:0 201:0 202:1 203:0 204:0 205:0 206:0 207:0 208:0 209:0 210:0 211:0 212:0 213:0 214:0 215:0 216:0 217:0 218:0 219:0 220:0 221:0 222:0 223:0 224:0 225:0 226:0 227:0 228:0 229:0 230:0 231:0 232:0 233:0 234:0 235:0 236:0 237:0 238:0 239:0 240:0 241:0 242:0 243:0 244:0 245:0 246:0 247:0 248:0 249:0 250:0 251:0 252:0 253:0 254:0 255:0 256:0 257:0 258:0 259:0 260:0 261:0 262:0 263:0 264:0 265:0 266:0 267:0 268:0 269:0 270:0 271:0 272:0 273:0 274:0 275:0 276:0 277:0 278:0 279:0 280:0 281:0 282:0 283:0 284:0 285:0 286:0 287:0 288:0 289:0 290:0 291:0 292:0 293:0 294:0 295:0 296:0 297:0 298:0 299:0 300:0 301:0 302:0 303:0 304:0 305:0 306:0 307:0 308:0 309:0 310:0 311:0 312:0 313:0 314:0 315:0 316:0 317:0 318:0 319:0 320:0 321:0 322:0 323:0 324:0 325:0 326:0 327:0 328:0 329:0 330:0 331:0 332:0 333:0 334:0 335:0 336:0 337:0 338:0 339:0 340:0 341:0 342:0 343:0 344:0 345:0 346:0 347:0 348:0 349:0 350:0 351:0 352:0 353:0 354:0 355:0 356:0 357:0 358:0 359:0 360:0 361:0 362:0 363:0 364:0 365:0 366:0 367:0 368:0 369:0 370:0 371:0 372:0 373:0 374:0 375:0 376:0 377:0 378:0 379:0 380:0 381:0 382:0 383:0 384:0 385:0 386:0 387:0 388:0 389:0 390:0 391:0 392:0 393:0 394:0 395:0 396:0 397:0 398:0 399:0 400:0 401:0 402:0 403:0 404:0 405:0 406:0 407:0 408:0 409:0 410:0 411:0 412:0 413:0 414:0 415:0 416:0 417:0 418:0 419:0 420:0 421:0 422:0 423:0 424:0 425:0 426:0 427:0 428:0 429:0 430:0 431:0 432:0 433:0 434:0 435:0 436:0 437:0 438:0 439:0 440:0 441:0 442:0 443:0 444:0 445:0 446:0 447:0 448:0 449:0 450:0 451:0 452:0 453:0 454:0 455:0 456:0 457:0 458:0 459:0 460:0 461:0 462:0 463:0 464:0 465:0 466:0 467:0 468:0 469:0 470:0 471:0 472:0 473:0 474:0 475:0 476:0 477:0 478:0 479:0 480:0 481:0 482:0 483:0 484:0 485:0 486:0 487:0 488:0 489:0 490:0 491:0 492:0 493:0 494:0 495:0 496:0 497:0 498:0 499:0 500:0 501:0 502:0 503:0 504:0 505:0 506:0 507:0 508:0 509:0 510:0 511:0 512:0 513:0 514:0 515:0 516:0 517:0 518:0 519:0 520:0 521:0 522:0 523:0 524:0 525:0 526:0 527:0 528:0 529:0 530:0 531:0 532:0 533:0 534:0 535:0 536:0 537:0 538:0 539:0 540:0 541:0 542:0 543:0 544:0 545:0 546:0 547:0 548:0 549:0 550:0 551:0 552:0 553:0 554:0 555:0 556:0 557:0 558:0 559:0 560:0 561:0 562:0 563:0 564:0 565:0 566:0 567:0 568:0 569:0 570:0 571:0 572:0 573:0 574:0 575:0 576:0 577:0 578:0 579:0 580:0 581:0 582:0 583:0 584:0 585:0 586:0 587:0 588:0 589:0 590:0 591:0 592:0 593:0 594:0 595:0 596:0 597:0 598:0 599:1 600:0 601:0 602:0 603:0 604:1 605:1 606:0 607:0 608:0 609:0 610:0 611:0 612:0 613:0 614:1 615:0 616:0 617:0 618:1 619:0 620:0 621:0 622:0 623:0 624:0 625:0 626:0 627:0 628:0 629:0 630:0 631:0 632:0 633:0 634:0 635:0 636:0 637:0 638:0 639:0 640:0 641:0 642:0 643:0 644:0 645:0 646:0 647:0 648:0 649:0 650:0 651:0 652:0 653:0 654:0 655:0 656:0 657:0 658:0 659:0 660:0 661:0 662:0 663:0 664:0 665:0 666:0 667:0 668:0 669:0 670:0 671:0 672:0 673:0 674:0 675:0 676:0 677:0 678:0 679:0 680:0 681:0 682:0 683:0 684:0 685:0 686:0 687:0 688:0 689:0 
-0.05189125428144044510636589961905 1:0 2:0 3:0 4:0 5:0 6:0 7:0 8:0 9:0 10:0 11:0 12:0 13:0 14:0 15:0 16:0 17:0 18:0 19:0 20:0 21:0 22:0 23:0 24:0 25:0 26:0 27:0 28:0 29:0 30:0 31:0 32:0 33:0 34:0 35:0.26087001 36:0.47826099 37:1 38:0.95652199 39:0.173913 40:0 41:0 42:0 43:0 44:0 45:0 46:0 47:0 48:0 49:0 50:0 51:0 52:0 53:0 54:0 55:0 56:0 57:0 58:0 59:0 60:0 61:0 62:0 63:0 64:0 65:0 66:0 67:0 68:0 69:0 70:0 71:0 72:0 73:0 74:0 75:0 76:0 77:0 78:0 79:0 80:0 81:0 82:0 83:0 84:0 85:0 86:0 87:0 88:0 89:0 90:0 91:0 92:0 93:0 94:0 95:0 96:0 97:0 98:0 99:0 100:0 101:0 102:0 103:0 104:0 105:0 106:0 107:0 108:0 109:0 110:0 111:0 112:0 113:0 114:0 115:0 116:0 117:0 118:0 119:0 120:0 121:0 122:0 123:0 124:0 125:0 126:0 127:0 128:0 129:0 130:0 131:0 132:0 133:0 134:0 135:0 136:0 137:0 138:0 139:0 140:0 141:0 142:0 143:0 144:0 145:0 146:0 147:0 148:0 149:0 150:0 151:0 152:0 153:0 154:0 155:0 156:0 157:0 158:0 159:0 160:0 161:0 162:0 163:0 164:0 165:0 166:0 167:0 168:0 169:0 170:0 171:0 172:0 173:0 174:0 175:0 176:0 177:0 178:0 179:0 180:0 181:0 182:0 183:0 184:0 185:0 186:0 187:0 188:0 189:0 190:0 191:0 192:0 193:0 194:0 195:0 196:0 197:0 198:0 199:0 200:0 201:0 202:0 203:0 204:0 205:0 206:0 207:0 208:0 209:0 210:0 211:0 212:0 213:0 214:0 215:0 216:0 217:0 218:0 219:0 220:0 221:0 222:0 223:0 224:0 225:0 226:0 227:0 228:0 229:0 230:0 231:0 232:0 233:0 234:0 235:0 236:0 237:0 238:0 239:0 240:0 241:0 242:0 243:0 244:0 245:0 246:0 247:0 248:0 249:0 250:0 251:0 252:0 253:0 254:0 255:0 256:0 257:0 258:0 259:0 260:0 261:0 262:0 263:0 264:0 265:0 266:0 267:0 268:0 269:0 270:0 271:0 272:0 273:0 274:0 275:0 276:0 277:0 278:0 279:0 280:0 281:0 282:0 283:0 284:0 285:0 286:0 287:0 288:0 289:0 290:0 291:0 292:0 293:0 294:0 295:0 296:0 297:0 298:0 299:0 300:0 301:0 302:0 303:0 304:0 305:0.111111 306:0.33333299 307:0.111111 308:0.222222 309:1 310:0.66666698 311:0.66666698 312:0.111111 313:0.33333299 314:0.444444 315:0.222222 316:0.222222 317:0.222222 318:0.444444 319:0.555556 320:0.444444 321:0.222222 322:0.33333299 323:0.111111 324:0.111111 325:0.111111 326:0.222222 327:0.111111 328:0 329:0 330:0 331:0 332:0 333:0 334:0 335:0 336:0 337:0 338:0 339:0 340:0 341:0 342:0 343:0 344:0 345:0 346:0 347:0 348:0 349:0 350:0 351:0 352:0 353:0 354:0 355:0 356:0 357:0 358:0 359:0 360:0 361:0 362:0 363:0 364:0 365:0 366:0 367:0 368:0 369:0 370:0 371:0 372:0 373:0 374:0 375:0 376:0 377:0 378:0 379:0 380:0 381:0 382:0 383:0 384:0 385:0 386:0 387:0 388:0 389:0 390:0 391:0 392:0 393:0 394:0 395:0 396:0 397:0 398:0 399:0 400:0 401:0 402:0 403:0 404:0 405:0 406:0 407:0 408:0 409:0 410:0 411:0 412:0 413:0 414:0 415:0 416:0 417:0 418:0 419:0 420:0 421:0 422:0 423:0 424:0 425:0 426:0 427:0 428:0 429:0 430:0 431:0 432:0 433:0 434:0 435:0 436:0 437:0 438:0 439:0 440:0 441:0 442:0 443:0 444:0 445:0 446:0 447:0 448:0 449:0 450:0 451:0 452:0 453:0 454:0 455:0 456:0 457:0 458:0 459:0 460:0 461:0 462:0 463:0 464:0 465:0 466:0 467:0 468:0 469:0 470:0 471:0 472:0 473:0 474:0 475:0 476:0 477:0 478:0 479:0 480:0 481:0 482:0 483:0 484:0 485:0 486:0 487:0 488:0 489:0 490:0 491:0 492:0 493:0 494:0 495:0 496:0 497:0 498:0 499:0 500:0 501:0 502:0 503:0 504:0 505:0 506:0 507:0 508:0 509:0 510:0 511:0 512:0 513:0 514:0 515:0 516:0 517:0 518:0 519:0 520:0 521:0 522:0 523:0 524:0 525:0 526:0 527:0 528:0 529:0 530:0 531:0 532:0 533:0 534:0 535:0 536:0 537:0 538:0 539:0 540:0 541:0 542:0 543:0 544:0 545:0 546:0 547:0 548:0 549:0 550:0 551:0 552:0 553:0 554:0 555:0 556:0 557:0 558:0 559:0 560:0 561:0 562:0 563:0 564:0 565:0 566:0 567:0 568:0 569:0 570:0 571:0 572:0 573:0 574:0 575:0 576:0 577:0 578:0 579:0 580:0 581:0 582:0 583:0 584:0 585:0.125 586:0 587:0.0625 588:0.0625 589:0.25 590:0.125 591:0.1875 592:0.75 593:1 594:1 595:0.5 596:0.0625 597:0 598:0 599:0 600:0 601:0 602:0 603:0 604:0 605:0 606:0 607:0 608:0 609:0 610:0 611:0 612:0 613:0 614:0 615:0 616:0 617:0 618:0 619:0 620:0 621:0 622:0 623:0 624:0 625:0 626:0 627:0 628:0 629:0 630:0 631:0 632:0 633:0 634:0 635:0 636:0 637:0 638:0 639:0 640:0 641:0 642:0 643:0 644:0 645:0 646:0 647:0 648:0 649:0 650:0 651:0 652:0 653:0 654:0 655:0 656:0 657:0 658:0 659:0 660:0 661:0 662:0 663:0 664:0 665:0 666:0 667:0 668:0 669:0 670:0 671:0 672:0 673:0 674:0 675:0 676:0 677:0 678:0 679:0 680:0 681:0 682:0 683:0 684:0 685:0 686:0 687:0 688:0 689:0 
-0.05189125428144044510636589961905 1:0 2:0 3:0 4:0 5:0 6:0 7:0 8:0 9:0 10:0 11:0 12:0 13:0 14:0 15:0 16:0 17:0 18:0 19:0 20:0 21:0 22:0 23:0 24:0 25:0 26:0 27:0 28:0 29:0 30:0 31:0 32:0 33:0 34:0 35:0 36:0 37:0 38:0 39:0 40:0 41:0 42:0 43:0 44:0 45:0 46:0 47:0 48:0 49:0 50:1 51:0 52:0 53:0 54:0 55:0 56:0 57:0 58:0 59:0 60:0 61:0 62:0 63:0 64:0 65:0 66:0 67:0 68:0 69:0 70:0 71:0 72:0 73:0 74:0 75:0 76:0 77:0 78:0 79:0 80:0 81:0 82:0 83:0 84:0 85:0 86:0 87:0 88:0 89:0 90:0 91:0 92:0 93:0 94:0 95:0 96:0 97:0 98:0 99:0 100:0 101:0 102:0 103:0 104:0 105:0 106:0 107:0 108:0 109:0 110:0 111:0 112:0 113:0 114:0 115:0 116:0 117:0 118:0 119:0 120:0 121:0 122:0 123:0 124:0 125:0 126:0 127:0 128:0 129:0 130:0 131:0 132:0 133:0 134:0 135:0 136:0 137:0 138:0 139:0 140:0 141:0 142:0 143:0 144:0 145:0 146:0 147:0 148:0 149:0 150:0 151:0 152:0 153:0 154:0 155:0 156:0 157:0 158:0 159:0 160:0 161:0 162:0 163:0 164:0 165:0 166:0 167:0 168:0 169:0 170:0 171:0 172:0 173:0 174:0 175:0 176:0 177:0 178:0 179:0 180:0 181:0 182:0 183:0 184:0 185:0 186:0 187:0 188:0 189:0 190:0 191:0 192:0 193:0 194:0 195:0 196:0 197:0 198:0 199:0 200:0 201:0 202:0 203:0 204:0 205:0 206:0 207:0 208:0 209:0 210:0 211:0 212:0 213:0 214:0 215:0 216:0 217:0 218:0 219:0 220:0 221:0 222:0 223:0 224:0 225:0 226:0 227:0 228:0 229:0 230:0 231:0 232:0 233:0 234:0 235:0 236:0 237:0 238:0 239:0 240:0 241:0 242:0 243:0 244:0 245:0 246:0 247:0 248:0 249:0 250:0 251:0 252:0 253:0 254:0 255:0 256:0 257:0 258:0 259:0 260:0 261:0 262:0 263:0 264:0 265:0 266:0 267:0 268:0 269:0 270:0 271:0 272:0 273:0 274:0 275:0 276:0 277:0 278:0 279:0 280:0 281:0 282:0 283:0 284:0 285:0 286:0 287:0 288:0 289:0 290:0 291:0 292:0 293:0 294:0 295:0 296:0 297:0 298:0 299:0 300:0 301:0 302:0 303:0 304:0 305:0 306:0 307:0 308:0 309:0 310:0 311:0 312:0 313:0 314:0 315:0 316:0 317:0 318:0 319:0 320:1 321:0 322:0 323:0 324:0 325:0 326:0 327:0 328:0 329:0 330:0 331:0 332:0 333:0 334:0 335:0 336:0 337:0 338:0 339:0 340:0 341:0 342:0 343:0 344:0 345:0 346:0 347:0 348:0 349:0 350:0 351:0 352:0 353:0 354:0 355:0 356:0 357:0 358:0 359:0 360:0 361:0 362:0 363:0 364:0 365:0 366:0 367:0 368:0 369:0 370:0 371:0 372:0 373:0 374:0 375:0 376:0 377:0 378:0 379:0 380:0 381:0 382:0 383:0 384:0 385:0 386:0 387:0 388:0 389:0 390:0 391:0 392:0 393:0 394:0 395:0 396:0 397:0 398:0 399:0 400:0 401:0 402:0 403:0 404:0 405:0 406:0 407:0 408:0 409:0 410:0 411:0 412:0 413:0 414:0 415:0 416:0 417:0 418:0 419:0 420:0 421:0 422:0 423:0 424:0 425:0 426:0 427:0 428:0 429:0 430:0 431:0 432:0 433:0 434:0 435:0 436:0 437:0 438:0 439:0 440:0 441:0 442:0 443:0 444:0 445:0 446:0 447:0 448:0 449:0 450:0 451:0 452:0 453:0 454:0 455:0 456:0 457:0 458:0 459:0 460:0 461:0 462:0 463:0 464:0 465:0 466:0 467:0 468:0 469:0 470:0 471:0 472:0 473:0 474:0 475:0 476:0 477:0 478:0 479:0 480:0 481:0 482:0 483:0 484:0 485:0 486:0 487:0 488:0 489:0 490:0 491:0 492:0 493:0 494:0 495:0 496:0 497:0 498:0 499:0 500:0 501:0 502:0 503:0 504:0 505:0 506:0 507:0 508:0 509:0 510:0 511:0 512:0 513:0 514:0 515:0 516:0 517:0 518:0 519:0 520:0 521:0 522:0 523:0 524:0 525:0 526:0 527:0 528:0 529:0 530:0 531:0 532:0 533:0 534:0 535:0 536:0 537:0 538:0 539:0 540:0 541:0 542:0 543:0 544:0 545:0 546:0 547:0 548:0 549:0 550:0 551:0 552:0 553:0 554:0 555:0 556:0 557:0 558:0 559:0 560:0 561:0 562:0 563:0 564:0 565:0 566:0 567:0 568:0 569:0 570:0 571:0 572:0 573:0 574:0 575:0 576:0 577:0 578:0 579:0 580:0 581:0 582:0 583:0 584:0 585:0 586:0 587:0 588:0 589:0 590:0 591:0 592:0 593:0 594:0 595:0 596:0 597:0 598:0 599:0 600:0 601:0 602:0 603:0 604:0 605:0 606:0 607:0 608:0 609:0 610:0 611:0 612:0 613:0 614:0 615:0 616:0 617:0 618:0 619:0 620:0 621:0 622:0 623:0 624:0 625:0 626:0 627:0 628:0 629:0 630:0 631:0 632:0 633:0 634:0 635:0 636:0 637:0 638:0 639:0 640:0 641:0 642:0 643:0 644:0 645:1 646:0 647:0 648:0 649:0 650:0 651:0 652:0 653:0 654:0 655:0 656:0 657:0 658:0 659:0 660:0 661:0 662:0 663:0 664:0 665:0 666:0 667:0 668:0 669:0 670:0 671:0 672:0 673:0 674:0 675:0 676:0 677:0 678:0 679:0 680:0 681:0 682:0 683:0 684:0 685:0 686:0 687:0 688:0 689:0 
-0.0050992978417772486313119806311533 1:0 2:0 3:0 4:0 5:0 6:0 7:0 8:0 9:0 10:0 11:0 12:0 13:0 14:0 15:0 16:0 17:0 18:0 19:0 20:0 21:0 22:0 23:0 24:0 25:0 26:0 27:0 28:0 29:0 30:0 31:0 32:0 33:0 34:0 35:0 36:0 37:0 38:0 39:0 40:0 41:0 42:0 43:0 44:0.66666698 45:1 46:0.33333299 47:0 48:0 49:0 50:0 51:0 52:0 53:0 54:0 55:0 56:0 57:0 58:0 59:0 60:0 61:0 62:0 63:0 64:0 65:0 66:0 67:0 68:0 69:0 70:0 71:0 72:0 73:0 74:0 75:0 76:0 77:0 78:0 79:0 80:0 81:0 82:0 83:0 84:0 85:0 86:0 87:0 88:0 89:0 90:0 91:0 92:0 93:0 94:0 95:0 96:0 97:0 98:0 99:0 100:0 101:0 102:0 103:0 104:0 105:0 106:0 107:0 108:0 109:0 110:0 111:0 112:0 113:0 114:0 115:0 116:0 117:0 118:0 119:0 120:0 121:0 122:0 123:0 124:0 125:0 126:0 127:0 128:0 129:0 130:0 131:0 132:0 133:0 134:0 135:0 136:0 137:0 138:0 139:0 140:0 141:0 142:0 143:0 144:0 145:0 146:0 147:0 148:0 149:0 150:0 151:0 152:0 153:0 154:0 155:0 156:0 157:0 158:0 159:0 160:0 161:0 162:0 163:0 164:0 165:0 166:0 167:0 168:0 169:0 170:0 171:0 172:0 173:0 174:0 175:0 176:0 177:0 178:0 179:0 180:0 181:0 182:0 183:0 184:0 185:0 186:0 187:0 188:0 189:0 190:0 191:0 192:0 193:0 194:0 195:0 196:0 197:0 198:0 199:0 200:0 201:0 202:0 203:0 204:0 205:0 206:0 207:0 208:0 209:0 210:0 211:0 212:0 213:0 214:0 215:0 216:0 217:0 218:0 219:0 220:0 221:0 222:0 223:0 224:0 225:0 226:0 227:0 228:0 229:0 230:0 231:0 232:0 233:0 234:0 235:0 236:0 237:0 238:0 239:0 240:0 241:0 242:0 243:0 244:0 245:0 246:0 247:0 248:0 249:0 250:0 251:0 252:0 253:0 254:0 255:0 256:0 257:0 258:0 259:0 260:0 261:0 262:0 263:0 264:0 265:0 266:0 267:0 268:0 269:0 270:0 271:0 272:0 273:0 274:0 275:0 276:0 277:0 278:0 279:0 280:0 281:0 282:0 283:0 284:0 285:0 286:0 287:0 288:1 289:0 290:0 291:0 292:0 293:0 294:0 295:0 296:0 297:0 298:0 299:0 300:0 301:1 302:1 303:0 304:0 305:0 306:0 307:0 308:0 309:0 310:1 311:1 312:0 313:0 314:0 315:0 316:0 317:0 318:0 319:0 320:0 321:0 322:0 323:0 324:0 325:0 326:0 327:0 328:0 329:0 330:0 331:0 332:0 333:0 334:0 335:0 336:0 337:0 338:0 339:0 340:0 341:1 342:0 343:0 344:0 345:0 346:0 347:0 348:0 349:0 350:0 351:0 352:0 353:0 354:0 355:0 356:0 357:0 358:0 359:0 360:0 361:0 362:0 363:0 364:0 365:0 366:0 367:0 368:0 369:0 370:0 371:0 372:0 373:0 374:0 375:0 376:0 377:0 378:0 379:0 380:0 381:0 382:0 383:0 384:0 385:0 386:0 387:0 388:0 389:0 390:0 391:0 392:0 393:0 394:0 395:0 396:0 397:0 398:0 399:0 400:0 401:0 402:0 403:0 404:0 405:0 406:0 407:0 408:0 409:0 410:0 411:0 412:0 413:0 414:0 415:0 416:0 417:0 418:0 419:0 420:0 421:0 422:0 423:0 424:0 425:0 426:0 427:0 428:0 429:0 430:0 431:0 432:0 433:0 434:0 435:0 436:0 437:0 438:0 439:0 440:0 441:0 442:0 443:0 444:0 445:0 446:0 447:0 448:0 449:0 450:0 451:0 452:0 453:0 454:0 455:0 456:0 457:0 458:0 459:0 460:0 461:0 462:0 463:0 464:0 465:0 466:0 467:0 468:0 469:0 470:0 471:0 472:0 473:0 474:0 475:0 476:0 477:0 478:0 479:0 480:0 481:0 482:0 483:0 484:0 485:0 486:0 487:0 488:0 489:0 490:0 491:0 492:0 493:0 494:0 495:0 496:0 497:0 498:0 499:0 500:0 501:0 502:0 503:0 504:0 505:0 506:0 507:0 508:0 509:0 510:0 511:0 512:0 513:0 514:0 515:0 516:0 517:0 518:0 519:0 520:0 521:0 522:0 523:0 524:0 525:0 526:0 527:0 528:0 529:0 530:0 531:0 532:0 533:0 534:0 535:0 536:0 537:0 538:0 539:0 540:0 541:0 542:0 543:0 544:0 545:0 546:0 547:0 548:0 549:0 550:0 551:0 552:0 553:0 554:0 555:0 556:0 557:0 558:0 559:0 560:0 561:0 562:0 563:0 564:0 565:0 566:0 567:0 568:0 569:0 570:0 571:0 572:0 573:0 574:0 575:0 576:0 577:0 578:0 579:0 580:0 581:0 582:0 583:0 584:0 585:0 586:0 587:0 588:0 589:0 590:0 591:0 592:0 593:0 594:0 595:0.5 596:0 597:0 598:0 599:0 600:0 601:0 602:0 603:0 604:0 605:0 606:0 607:0 608:0 609:0 610:0 611:0 612:0 613:0 614:0 615:0 616:0 617:0 618:0.5 619:0 620:0 621:0 622:0 623:0 624:0 625:0 626:0 627:0.5 628:0 629:0 630:0 631:0 632:0 633:1 634:0 635:0 636:0 637:0 638:0 639:0 640:0 641:0 642:0 643:0 644:0 645:0 646:0 647:0 648:0 649:0 650:0 651:0.5 652:0 653:0 654:0 655:0 656:0 657:0 658:0 659:0 660:0 661:0 662:0 663:0 664:0 665:0 666:0 667:0 668:0 669:0 670:0 671:0 672:0 673:0 674:0 675:0 676:0 677:0 678:0 679:0 680:0 681:0 682:0 683:0 684:0 685:0 686:0 687:0 688:0 689:0 
0.05189125428144044510636589961905 1:0 2:0 3:0 4:0 5:0 6:0 7:0 8:0 9:0 10:0 11:0 12:0 13:0 14:0 15:0 16:0 17:0 18:0 19:0 20:0 21:0 22:0 23:0 24:0 25:1 26:0 27:0 28:0 29:0 30:0 31:0 32:0 33:0 34:0 35:0 36:1 37:0 38:0 39:0 40:0 41:0 42:0 43:0 44:0 45:0 46:0 47:0 48:0 49:0 50:0 51:0 52:0 53:0 54:0 55:0 56:0 57:0 58:0 59:0 60:0 61:0 62:0 63:0 64:0 65:0 66:0 67:0 68:0 69:0 70:0 71:0 72:0 73:0 74:0 75:0 76:0 77:0 78:0 79:0 80:0 81:0 82:0 83:0 84:0 85:0 86:0 87:0 88:0 89:0 90:0 91:0 92:0 93:0 94:0 95:0 96:0 97:0 98:0 99:0 100:0 101:0 102:0 103:0 104:0 105:0 106:0 107:0 108:0 109:0 110:0 111:0 112:0 113:0 114:0 115:0 116:0 117:0 118:0 119:0 120:0 121:0 122:0 123:0 124:0 125:0 126:0 127:0 128:0 129:0 130:0 131:0 132:0 133:0 134:0 135:0 136:0 137:0 138:0 139:0 140:0 141:0 142:0 143:0 144:0 145:0 146:0 147:0 148:0 149:0 150:0 151:0 152:0 153:0 154:0 155:0 156:0 157:0 158:0 159:0 160:0 161:0 162:0 163:0 164:0 165:0 166:0 167:0 168:0 169:0 170:0 171:0 172:0 173:0 174:0 175:0 176:0 177:0 178:0 179:0 180:0 181:0 182:0 183:0 184:0 185:1 186:0 187:0 188:0 189:0 190:0 191:0 192:0 193:0 194:0 195:0 196:0 197:0 198:0 199:0 200:0 201:0 202:0 203:0 204:0 205:0 206:0 207:0 208:0 209:0 210:0 211:0 212:0 213:0 214:1 215:0 216:0 217:0 218:0 219:0 220:0 221:0 222:0 223:0 224:0 225:0 226:0 227:0 228:0 229:0 230:0 231:0 232:0 233:0 234:0 235:0 236:0 237:0 238:0 239:0 240:0 241:0 242:0 243:0 244:0 245:0 246:0 247:0 248:0 249:0 250:0 251:0 252:0 253:0 254:0 255:0 256:0 257:0 258:0 259:0 260:0 261:0 262:0 263:0 264:0 265:0 266:0 267:0 268:0 269:0 270:0 271:0 272:0 273:0 274:0 275:0 276:0 277:0 278:0 279:0 280:0 281:0 282:0 283:0 284:0 285:0 286:0 287:0 288:0 289:0 290:0 291:0 292:0 293:0 294:0 295:0 296:0 297:0 298:0 299:0 300:0 301:0 302:0 303:0 304:0 305:0 306:0 307:0 308:0 309:0 310:0 311:0 312:0 313:0 314:0 315:0 316:0 317:0 318:0 319:0 320:0 321:0 322:0 323:0 324:0 325:0 326:0 327:0 328:0 329:0 330:0 331:0 332:0 333:0 334:0 335:0 336:0 337:0 338:0 339:0 340:0 341:0 342:0 343:0 344:0 345:0 346:0 347:0 348:0 349:0 350:0 351:0 352:0 353:0 354:0 355:0 356:0 357:0 358:0 359:0 360:0 361:0 362:0 363:0 364:0 365:0 366:0 367:0 368:0 369:0 370:0 371:0 372:0 373:0 374:0 375:0 376:0 377:0 378:0 379:0 380:0 381:0 382:0 383:0 384:0 385:0 386:0 387:0 388:0 389:0 390:0 391:0 392:0 393:0 394:0 395:0 396:0 397:0 398:0 399:0 400:0 401:0 402:0 403:0 404:0 405:0 406:0 407:0 408:0 409:0 410:0 411:0 412:0 413:0 414:0 415:0 416:0 417:0 418:0 419:0 420:0 421:0 422:0 423:0 424:0 425:0 426:0 427:0 428:0 429:0 430:0 431:0 432:0 433:0 434:0 435:0 436:0 437:0 438:0 439:0 440:0 441:0 442:0 443:0 444:0 445:0 446:0 447:0 448:0 449:0 450:0 451:0 452:0 453:0 454:0 455:0 456:0 457:0 458:0 459:0 460:0 461:0 462:0 463:0 464:0 465:0 466:0 467:0 468:0 469:0 470:0 471:0 472:0 473:0 474:0 475:0 476:0 477:0 478:0 479:0 480:0 481:0 482:0 483:0 484:0 485:0 486:0 487:0 488:0 489:0 490:0 491:0 492:0 493:0 494:0 495:0 496:0 497:0 498:0 499:0 500:0 501:0 502:0 503:0 504:0 505:0 506:0 507:0 508:0 509:0 510:0 511:0 512:0 513:0 514:0 515:0 516:0 517:0 518:0 519:0 520:0 521:0 522:0 523:0 524:0 525:0 526:0 527:0 528:0 529:0 530:0 531:0 532:0 533:0 534:0 535:0 536:0 537:0 538:0 539:0 540:0 541:0 542:0 543:0 544:0 545:0 546:0 547:0 548:0 549:0 550:0 551:0 552:0 553:0 554:0 555:0 556:0 557:0 558:0 559:0 560:0 561:0 562:0 563:0 564:1 565:0 566:0 567:0 568:0 569:0 570:0 571:0 572:0 573:0 574:0 575:0 576:0 577:0 578:0 579:0 580:0 581:0 582:0 583:0 584:0 585:0 586:0 587:0 588:0 589:0 590:0 591:0 592:0 593:0 594:0 595:0 596:0 597:0 598:0 599:0 600:0 601:0 602:0 603:0 604:0 605:0 606:0 607:0 608:0 609:0 610:0 611:0 612:0 613:0 614:0 615:0 616:0 617:0 618:0 619:0 620:0 621:0 622:0 623:0 624:0 625:0 626:0 627:0 628:0 629:0 630:0 631:0 632:0 633:0 634:0 635:0 636:0 637:0 638:0 639:0 640:0 641:0 642:0 643:0 644:0 645:0 646:0 647:0 648:0 649:0 650:0 651:0 652:0 653:0 654:1 655:0 656:0 657:0 658:0 659:0 660:0 661:0 662:0 663:0 664:0 665:0 666:0 667:0 668:0 669:0 670:0 671:0 672:0 673:0 674:0 675:0 676:0 677:0 678:0 679:0 680:0 681:0 682:0 683:0 684:0 685:0 686:0 687:0 688:0 689:0 
0.05189125428144044510636589961905 1:0 2:0 3:0 4:0 5:0 6:0.0154799 7:0 8:0 9:0.00309598 10:0 11:0.00309598 12:0 13:0.037151702 14:0.0061919498 15:0.00309598 16:0.040247701 17:0.046439599 18:0.077399403 19:0.25696599 20:0.377709 21:0.17956699 22:0.145511 23:0.068111502 24:0.099071197 25:0.0309598 26:0.0092879301 27:0 28:0 29:0 30:0.120743 31:0 32:0 33:0 34:0.0061919498 35:0.018575899 36:0.0588235 37:0 38:0.00309598 39:0 40:0 41:0 42:0.018575899 43:0.00309598 44:0 45:0.0154799 46:0 47:0 48:0 49:0 50:0.052631602 51:0.00309598 52:0 53:0 54:0 55:0.00309598 56:0 57:0 58:0 59:0 60:0.0123839 61:0 62:0 63:0 64:0 65:0 66:0.018575899 67:0 68:0 69:0 70:0.0061919498 71:0 72:0 73:0 74:0 75:1 76:0 77:0 78:0 79:0 80:0.018575899 81:0 82:0 83:0.040247701 84:0 85:0 86:0 87:0.0216718 88:0 89:0 90:0.47678 91:0 92:0 93:0 94:0 95:0.00309598 96:0.083591297 97:0 98:0 99:0 100:0 101:0.0309598 102:0.00309598 103:0.12693501 104:0 105:0.00309598 106:0 107:0.0123839 108:0 109:0.71826601 110:0.077399403 111:0.0061919498 112:0 113:0.00309598 114:0.068111502 115:0.0154799 116:0.00309598 117:0 118:0 119:0 120:0.160991 121:0 122:0.027863801 123:0 124:0.0309598 125:0.052631602 126:0.018575899 127:0 128:0.0061919498 129:0.00309598 130:0.0061919498 131:0 132:0.0154799 133:0.0123839 134:0 135:0 136:0 137:0 138:0 139:0 140:0.0216718 141:0 142:0 143:0 144:0 145:0 146:0 147:0 148:0 149:0 150:0.0061919498 151:0 152:0 153:0 154:0 155:0 156:0.00309598 157:0 158:0 159:0 160:0 161:0 162:0 163:0 164:0 165:0.052631602 166:0 167:0 168:0 169:0 170:0 171:0 172:0 173:0.0061919498 174:0 175:0 176:0 177:0 178:0 179:0 180:0.34759399 181:1 182:0.203209 183:0.120321 184:0.163102 185:0.18181799 186:0.125668 187:0.40107 188:0.387701 189:0.064171098 190:0.082887702 191:0.040107001 192:0.0374332 193:0.034759399 194:0.048128299 195:0.0106952 196:0.0106952 197:0.0187166 198:0.0106952 199:0.0106952 200:0.013369 201:0.00534759 202:0.0026738001 203:0.0106952 204:0.00534759 205:0.0026738001 206:0.00534759 207:0.0026738001 208:0 209:0.0026738001 210:0.00534759 211:0.0026738001 212:0 213:0.00534759 214:0.0026738001 215:0.00534759 216:0.0080213901 217:0.00534759 218:0.00534759 219:0.0080213901 220:0.00534759 221:0.0080213901 222:0.0026738001 223:0.013369 224:0.00534759 225:0.0106952 226:0.0106952 227:0.00534759 228:0.0080213901 229:0.0187166 230:0.00534759 231:0.0106952 232:0.0106952 233:0.0080213901 234:0.0080213901 235:0.013369 236:0.0106952 237:0.0187166 238:0.0106952 239:0.0106952 240:0.0187166 241:0.0080213901 242:0.0240642 243:0.0080213901 244:0.0080213901 245:0.016042801 246:0.0080213901 247:0.0080213901 248:0.013369 249:0.0106952 250:0.0106952 251:0.0080213901 252:0.016042801 253:0.00534759 254:0.00534759 255:0.0106952 256:0.013369 257:0.0240642 258:0.0187166 259:0.0080213901 260:0.0026738001 261:0.016042801 262:0.00534759 263:0.0080213901 264:0.0106952 265:0.026737999 266:0.00534759 267:0.00534759 268:0 269:0.016042801 270:0.021390401 271:0.0080213901 272:0.0080213901 273:0.0106952 274:0.00534759 275:0.013369 276:0.013369 277:0.013369 278:0.0026738001 279:0.0106952 280:0.0106952 281:0.0080213901 282:0.0026738001 283:0.016042801 284:0.0026738001 285:0.0106952 286:0.0106952 287:0.00534759 288:0.00534759 289:0.00534759 290:0.00534759 291:0.0080213901 292:0.00534759 293:0.0026738001 294:0 295:0 296:0 297:0 298:0 299:0 300:0.00534759 301:0 302:0.00534759 303:0 304:0.0026738001 305:0.0026738001 306:0.00534759 307:0 308:0 309:0 310:0.00534759 311:0.0026738001 312:0.0026738001 313:0.0026738001 314:0.0026738001 315:0 316:0.0026738001 317:0 318:0.0026738001 319:0 320:0 321:0 322:0 323:0 324:0.0026738001 325:0 326:0 327:0 328:0 329:0.0026738001 330:0 331:0.0026738001 332:0 333:0 334:0.0026738001 335:0 336:0 337:0 338:0 339:0 340:0 341:0 342:0 343:0.0026738001 344:0 345:0 346:0 347:0 348:0 349:0 350:0.0026738001 351:0 352:0 353:0.0026738001 354:0 355:0 356:0 357:0 358:0 359:0 360:0 361:0.0026738001 362:0 363:0.0026738001 364:0 365:0 366:0 367:0 368:0 369:0 370:0 371:0 372:0 373:0 374:0 375:0 376:0 377:0.0026738001 378:0 379:0 380:0 381:0 382:0 383:0 384:0 385:0 386:0 387:0 388:0 389:0 390:0 391:0 392:0 393:0 394:0 395:0 396:0 397:0 398:0.0026738001 399:0 400:0 401:0 402:0 403:0 404:0 405:0 406:0 407:0 408:0 409:0 410:0 411:0 412:0 413:0 414:0 415:0 416:0 417:0 418:0 419:0 420:0 421:0 422:0 423:0 424:0 425:0 426:0 427:0 428:0 429:0 430:0 431:0 432:0 433:0 434:0 435:0 436:0 437:0 438:0 439:0 440:0 441:0 442:0 443:0 444:0.021739099 445:0.021739099 446:0 447:0 448:0 449:0 450:0 451:0 452:0 453:0 454:0 455:0 456:0 457:0 458:0 459:0 460:0 461:0.021739099 462:0.043478299 463:0 464:0 465:0 466:0 467:0 468:0 469:0 470:0.021739099 471:0 472:0 473:0 474:0 475:0 476:0 477:0 478:0 479:0 480:0 481:0 482:0 483:0.021739099 484:0 485:0 486:0 487:0 488:0 489:0 490:0 491:0 492:0 493:0 494:0 495:0.021739099 496:0 497:0.021739099 498:0 499:0 500:0 501:0 502:0 503:0 504:0.021739099 505:0 506:0 507:0 508:0 509:0 510:0.021739099 511:0 512:0 513:0.021739099 514:0 515:0 516:0 517:0 518:0 519:0 520:0 521:0 522:0 523:0 524:0 525:0.065217398 526:0 527:0.021739099 528:0.043478299 529:0.021739099 530:0.021739099 531:0.043478299 532:0.065217398 533:0.021739099 534:0.043478299 535:0.043478299 536:0.043478299 537:0.021739099 538:0.043478299 539:0 540:0 541:0.086956501 542:0 543:0.021739099 544:0.130435 545:0.021739099 546:0.021739099 547:0.086956501 548:0.086956501 549:0.065217398 550:0.021739099 551:0.043478299 552:0.152174 553:0.19565199 554:0.108696 555:0.021739099 556:0.065217398 557:0 558:0.043478299 559:0.086956501 560:0.152174 561:0.130435 562:0.065217398 563:0.108696 564:0.086956501 565:0.065217398 566:0.065217398 567:0.152174 568:0.086956501 569:0.108696 570:0.23913001 571:0.130435 572:0.173913 573:0.130435 574:0.173913 575:0.043478299 576:0.086956501 577:0.130435 578:0.152174 579:0.217391 580:0.108696 581:0.065217398 582:0.152174 583:0.086956501 584:0.130435 585:0.108696 586:0.086956501 587:0.23913001 588:0.065217398 589:0.130435 590:0.108696 591:0.173913 592:0.152174 593:0.108696 594:0.19565199 595:0.086956501 596:0.086956501 597:0.108696 598:0.065217398 599:0.065217398 600:0.065217398 601:0.043478299 602:0.086956501 603:0.086956501 604:0.021739099 605:0.043478299 606:0.130435 607:0.086956501 608:0.065217398 609:0.173913 610:0.086956501 611:0.130435 612:0.065217398 613:0.086956501 614:0.043478299 615:0.065217398 616:0.086956501 617:0.065217398 618:0.217391 619:0.108696 620:0.065217398 621:0.152174 622:0.108696 623:0.130435 624:0.086956501 625:0.086956501 626:0.130435 627:0.065217398 628:0.19565199 629:0.130435 630:0.065217398 631:0.065217398 632:0.108696 633:0.130435 634:0.152174 635:0.043478299 636:0.065217398 637:0.086956501 638:0.152174 639:0.173913 640:0.108696 641:0.043478299 642:0.19565199 643:0.086956501 644:0.173913 645:0.152174 646:0.108696 647:0.19565199 648:0.130435 649:0.130435 650:0.217391 651:0.130435 652:0.28260899 653:0.152174 654:0.152174 655:0.28260899 656:0.26087001 657:0.23913001 658:0.152174 659:0.36956501 660:0.39130399 661:0.28260899 662:0.30434799 663:0.36956501 664:0.43478301 665:0.47826099 666:0.36956501 667:0.41304299 668:0.36956501 669:0.30434799 670:0.52173901 671:0.347826 672:0.58695698 673:0.47826099 674:0.36956501 675:0.60869598 676:0.5 677:0.78260899 678:0.673913 679:0.58695698 680:0.673913 681:0.60869598 682:0.71739101 683:0.673913 684:0.73913002 685:0.69565201 686:1 687:0.673913 688:0.86956501 689:0 
-0.045630685575673943232821727633564 1:0 2:0 3:0 4:0 5:0 6:0 7:0 8:0 9:0 10:0 11:0 12:0 13:0 14:0 15:0 16:0 17:0 18:0 19:0 20:0 21:0 22:0 23:0 24:0 25:0 26:0 27:0 28:0 29:0 30:0 31:0 32:0 33:0 34:0 35:0 36:0 37:0 38:0 39:0 40:0 41:0 42:0 43:0 44:0 45:0 46:0 47:0.25 48:1 49:0 50:0 51:0 52:0 53:0 54:0 55:0 56:0 57:0 58:0 59:0 60:0 61:0 62:0 63:0 64:0 65:0 66:0 67:0 68:0 69:0 70:0 71:0 72:0 73:0 74:0 75:0 76:0 77:0 78:0 79:0 80:0 81:0 82:0 83:0 84:0 85:0 86:0 87:0 88:0 89:0 90:0 91:0 92:0 93:0 94:0 95:0 96:0 97:0 98:0 99:0 100:0 101:0 102:0 103:0 104:0 105:0 106:0 107:0 108:0 109:0 110:0 111:0 112:0 113:0 114:0 115:0 116:0 117:0 118:0 119:0 120:0 121:0 122:0 123:0 124:0 125:0 126:0 127:0 128:0 129:0 130:0 131:0 132:0 133:0 134:0 135:0 136:0 137:0 138:0 139:0 140:0 141:0 142:0 143:0 144:0 145:0 146:0 147:0 148:0 149:0 150:0 151:0 152:0 153:0 154:0 155:0 156:0 157:0 158:0 159:0 160:0 161:0 162:0 163:0 164:0 165:0 166:0 167:0 168:0 169:0 170:0 171:0 172:0 173:0 174:0 175:0 176:0 177:0 178:0 179:0 180:0 181:0 182:0 183:0 184:0 185:0 186:0 187:0 188:0 189:0 190:0 191:0 192:0 193:0 194:0 195:0 196:0 197:0 198:0 199:0 200:0 201:0 202:0 203:0 204:0 205:0 206:0 207:0 208:0 209:0 210:0 211:0 212:0 213:0 214:0 215:0 216:0 217:0 218:0 219:0 220:0 221:0 222:0 223:0 224:0 225:0 226:0 227:0 228:0 229:0 230:0 231:0 232:0 233:0 234:0 235:0 236:0 237:0 238:0 239:0 240:0 241:0 242:0 243:0 244:0 245:0 246:0 247:0 248:0 249:0 250:0 251:0 252:0 253:0 254:0 255:0 256:0 257:0 258:0 259:0 260:0 261:0 262:0 263:0 264:0 265:0 266:0 267:0 268:0 269:0 270:0 271:0 272:0 273:0 274:0 275:0 276:0 277:0 278:0 279:0 280:0 281:0 282:0 283:0 284:0 285:0 286:0 287:0 288:0 289:0 290:0 291:0 292:0 293:0 294:0 295:0 296:0 297:0 298:0 299:0 300:0 301:0 302:0 303:0 304:0 305:0 306:0 307:0 308:0 309:0 310:0 311:0 312:0 313:0 314:0 315:0 316:0 317:0 318:1 319:0 320:0 321:0 322:0 323:1 324:1 325:1 326:0 327:0 328:0 329:0 330:0 331:0 332:0 333:0 334:0 335:0 336:0 337:1 338:0 339:0 340:0 341:0 342:0 343:0 344:0 345:0 346:0 347:0 348:0 349:0 350:0 351:0 352:0 353:0 354:0 355:0 356:0 357:0 358:0 359:0 360:0 361:0 362:0 363:0 364:0 365:0 366:0 367:0 368:0 369:0 370:0 371:0 372:0 373:0 374:0 375:0 376:0 377:0 378:0 379:0 380:0 381:0 382:0 383:0 384:0 385:0 386:0 387:0 388:0 389:0 390:0 391:0 392:0 393:0 394:0 395:0 396:0 397:0 398:0 399:0 400:0 401:0 402:0 403:0 404:0 405:0 406:0 407:0 408:0 409:0 410:0 411:0 412:0 413:0 414:0 415:0 416:0 417:0 418:0 419:0 420:0 421:0 422:0 423:0 424:0 425:0 426:0 427:0 428:0 429:0 430:0 431:0 432:0 433:0 434:0 435:0 436:0 437:0 438:0 439:0 440:0 441:0 442:0 443:0 444:0 445:0 446:0 447:0 448:0 449:0 450:0 451:0 452:0 453:0 454:0 455:0 456:0 457:0 458:0 459:0 460:0 461:0 462:0 463:0 464:0 465:0 466:0 467:0 468:0 469:0 470:0 471:0 472:0 473:0 474:0 475:0 476:0 477:0 478:0 479:0 480:0 481:0 482:0 483:0 484:0 485:0 486:0 487:0 488:0 489:0 490:0 491:0 492:0 493:0 494:0 495:0 496:0 497:0 498:0 499:0 500:0 501:0 502:0 503:0 504:0 505:0 506:0 507:0 508:0 509:0 510:0 511:0 512:0 513:0 514:0 515:0 516:0 517:0 518:0 519:0 520:0 521:0 522:0 523:0 524:0 525:0 526:0 527:0 528:0 529:0 530:0 531:0 532:0 533:0 534:0 535:0 536:0 537:0 538:0 539:0 540:0 541:0 542:0 543:0 544:0 545:0 546:0 547:0 548:0 549:0 550:0 551:0 552:0 553:0 554:0 555:0 556:0 557:0 558:0 559:0 560:0 561:0 562:0 563:0 564:0 565:0 566:0 567:0 568:0 569:0 570:0 571:0 572:0 573:0 574:0 575:0 576:0 577:0 578:0 579:0 580:0 581:0 582:0 583:0 584:0 585:0 586:0 587:0 588:0 589:0 590:0 591:0 592:0 593:0 594:0 595:0 596:0 597:0 598:0 599:0 600:0 601:0 602:0 603:0 604:0 605:0 606:0 607:0 608:0 609:0 610:0 611:0 612:0 613:0 614:0 615:0 616:0 617:0 618:0 619:0 620:0 621:0 622:0 623:0 624:0 625:0 626:0 627:0 628:0 629:0 630:0.5 631:0.5 632:0 633:0 634:0 635:0 636:0 637:0 638:1 639:0 640:0 641:0 642:0.5 643:0 644:0 645:0 646:0 647:0 648:0 649:0 650:0 651:0 652:0 653:0 654:0 655:0 656:0 657:0 658:0 659:0 660:0 661:0 662:0 663:0 664:0 665:0 666:0 667:0 668:0 669:0 670:0 671:0 672:0 673:0 674:0 675:0 676:0 677:0 678:0 679:0 680:0 681:0 682:0 683:0 684:0 685:0 686:0 687:0 688:0 689:0 
0.05189125428144044510636589961905 1:0 2:0 3:0 4:0 5:0 6:0 7:0 8:0 9:0 10:0 11:0 12:0 13:0 14:0 15:0 16:0 17:0 18:0 19:0 20:0 21:0.0153846 22:0 23:0 24:0 25:1 26:0 27:0 28:0 29:0 30:0 31:0 32:0 33:0 34:0 35:0 36:0 37:0 38:0 39:0 40:0 41:0 42:0 43:0 44:0 45:0 46:0 47:0 48:0 49:0 50:0 51:0 52:0 53:0 54:0 55:0 56:0 57:0 58:0 59:0 60:0 61:0 62:0 63:0 64:0 65:0 66:0 67:0 68:0 69:0 70:0 71:0 72:0 73:0 74:0 75:0 76:0 77:0 78:0 79:0 80:0 81:0 82:0 83:0 84:0 85:0 86:0 87:0 88:0 89:0 90:0 91:0 92:0 93:0 94:0 95:0 96:0 97:0 98:0 99:0 100:0 101:0 102:0 103:0 104:0 105:0 106:0 107:0 108:0 109:0 110:0 111:0 112:0 113:0 114:0 115:0 116:0 117:0 118:0 119:0 120:0 121:0 122:0 123:0 124:0 125:0 126:0 127:0 128:0 129:0 130:0 131:0 132:0 133:0 134:0 135:0 136:0 137:0 138:0 139:0 140:0 141:0 142:0 143:0 144:0 145:0 146:0 147:0 148:0 149:0 150:0 151:0 152:0 153:0 154:0 155:0 156:0 157:0 158:0 159:0 160:0 161:0 162:0 163:0 164:0 165:0 166:0 167:0 168:0 169:0 170:0 171:0 172:0 173:0 174:0 175:0 176:0 177:0 178:0 179:0 180:0 181:0 182:0 183:0 184:0 185:0 186:0 187:0 188:0 189:0 190:0 191:0 192:0 193:0 194:0 195:0 196:0 197:0 198:0 199:0.083333299 200:0.25 201:0.083333299 202:0.33333299 203:0.75 204:0.5 205:0.58333302 206:1 207:0.58333302 208:0.83333302 209:0.25 210:0.083333299 211:0.083333299 212:0 213:0.083333299 214:0 215:0 216:0 217:0 218:0 219:0 220:0 221:0 222:0 223:0 224:0 225:0 226:0 227:0 228:0 229:0 230:0 231:0 232:0 233:0 234:0 235:0 236:0 237:0 238:0 239:0 240:0 241:0 242:0 243:0 244:0 245:0 246:0 247:0 248:0 249:0 250:0 251:0 252:0 253:0 254:0 255:0 256:0 257:0 258:0 259:0 260:0 261:0 262:0 263:0 264:0 265:0 266:0 267:0 268:0 269:0 270:0 271:0 272:0 273:0 274:0 275:0 276:0 277:0 278:0 279:0 280:0 281:0 282:0 283:0 284:0 285:0 286:0 287:0 288:0 289:0 290:0 291:0 292:0 293:0 294:0 295:0 296:0 297:0 298:0 299:0 300:0 301:0 302:0 303:0 304:0 305:0 306:0 307:0 308:0 309:0 310:0 311:0 312:0 313:0 314:0 315:0 316:0 317:0 318:0 319:0 320:0 321:0 322:0 323:0 324:0 325:0 326:0 327:0 328:0 329:0 330:0 331:0 332:0 333:0 334:0 335:0 336:0 337:0 338:0 339:0 340:0 341:0 342:0 343:0 344:0 345:0 346:0 347:0 348:0 349:0 350:0 351:0 352:0 353:0 354:0 355:0 356:0 357:0 358:0 359:0 360:0 361:0 362:0 363:0 364:0 365:0 366:0 367:0 368:0 369:0 370:0 371:0 372:0 373:0 374:0 375:0 376:0 377:0 378:0 379:0 380:0 381:0 382:0 383:0 384:0 385:0 386:0 387:0 388:0 389:0 390:0 391:0 392:0 393:0 394:0 395:0 396:0 397:0 398:0 399:0 400:0 401:0 402:0 403:0 404:0 405:0 406:0 407:0 408:0 409:0 410:0 411:0 412:0 413:0 414:0 415:0 416:0 417:0 418:0 419:0 420:0 421:0 422:0 423:0 424:0 425:0 426:0 427:0 428:0 429:0 430:0 431:0 432:0 433:0 434:0 435:0 436:0 437:0 438:0 439:0 440:0 441:0 442:0 443:0 444:0 445:0 446:0 447:0 448:0 449:0 450:0 451:0 452:0 453:0 454:0 455:0 456:0 457:0 458:0 459:0 460:0 461:0 462:0 463:0 464:0 465:0 466:0 467:0 468:0 469:0 470:0 471:0 472:0 473:0 474:0 475:0 476:0 477:0 478:0 479:0 480:0 481:0 482:0 483:0 484:0 485:0 486:0 487:0 488:0 489:0 490:0 491:0 492:0 493:0 494:0 495:0 496:0 497:0 498:0 499:0 500:0 501:0 502:0 503:0 504:0 505:0 506:0 507:0 508:0 509:0 510:0 511:0 512:0 513:0 514:0 515:0 516:0 517:0 518:0 519:0 520:0 521:0 522:0 523:0 524:0 525:0 526:0 527:0 528:0 529:0 530:0 531:0 532:0 533:0 534:0 535:0 536:0 537:0 538:0 539:0 540:0 541:0 542:0 543:0 544:0 545:0 546:0 547:0 548:0 549:0 550:0 551:0 552:0 553:0 554:0 555:0 556:0 557:0 558:0 559:0 560:0 561:0 562:0 563:0 564:0 565:0 566:0 567:0 568:0 569:0 570:0 571:0.25 572:0 573:0 574:0 575:0 576:0 577:0.25 578:0 579:0 580:0 581:0 582:0.25 583:0 584:0 585:0.25 586:0 587:0 588:0.5 589:0 590:0.5 591:0 592:0.25 593:0 594:0.5 595:1 596:0.5 597:0.5 598:0 599:0.5 600:0.25 601:1 602:0.5 603:0.25 604:0.5 605:0.25 606:0.25 607:0.25 608:0.75 609:0.5 610:0 611:0 612:0.25 613:0 614:0.5 615:0.25 616:0.25 617:0.25 618:0 619:0.25 620:0.5 621:0 622:0.25 623:0.25 624:0.75 625:0.25 626:0.25 627:0.25 628:0.25 629:0 630:0.25 631:0 632:0 633:0 634:0.25 635:0 636:0 637:0 638:0.5 639:0 640:0 641:0 642:0 643:0.25 644:0 645:0 646:0 647:0 648:0.5 649:0 650:0.25 651:0 652:0 653:0 654:0 655:0 656:0 657:0 658:0 659:0 660:0.25 661:0 662:0 663:0 664:0 665:0 666:0 667:0 668:0 669:0 670:0 671:0 672:0 673:0 674:0 675:0 676:0 677:0 678:0 679:0 680:0 681:0 682:0 683:0 684:0 685:0 686:0 687:0 688:0 689:0 
0.05189125428144044510636589961905 1:0 2:0 3:0 4:0 5:0 6:0 7:0 8:0 9:0 10:0 11:0 12:0 13:0 14:0 15:0 16:0 17:0 18:0 19:0 20:0 21:1 22:0 23:0 24:0 25:0 26:0 27:0 28:0 29:0 30:0 31:0 32:0 33:0 34:0 35:0 36:0 37:0 38:0 39:0 40:0 41:0 42:0 43:0 44:0 45:0 46:0 47:0 48:0 49:0 50:0 51:0 52:0 53:0 54:0 55:0 56:0 57:0 58:0 59:0 60:0 61:0 62:0 63:0 64:0 65:0 66:0 67:0 68:0 69:0 70:0 71:0 72:0 73:0 74:0 75:0 76:0 77:0 78:0 79:0 80:0 81:0 82:0 83:0 84:0 85:0 86:0 87:0 88:0 89:0 90:0 91:0 92:0 93:0 94:0 95:0 96:0 97:0 98:0 99:0 100:0 101:0 102:0 103:0 104:0 105:0 106:0 107:0 108:0 109:0 110:0 111:0 112:0 113:0 114:0 115:0 116:0 117:0 118:0 119:0 120:0 121:0 122:0 123:0 124:0 125:0 126:0 127:0 128:0 129:0 130:0 131:0 132:0 133:0 134:0 135:0 136:0 137:0 138:0 139:0 140:0 141:0 142:0 143:0 144:0 145:0 146:0 147:0 148:0 149:0 150:0 151:0 152:0 153:0 154:0 155:0 156:0 157:0 158:0 159:0 160:0 161:0 162:0 163:0 164:0 165:0 166:0 167:0 168:0 169:0 170:0 171:0 172:0 173:0 174:0 175:0 176:0 177:0 178:0 179:0 180:0 181:0 182:0 183:0 184:0 185:0 186:0 187:0 188:0 189:0 190:0 191:0 192:0 193:0 194:0 195:0 196:0 197:0 198:0 199:0 200:0 201:0 202:0.33333299 203:0 204:0.33333299 205:0 206:1 207:0.33333299 208:0.33333299 209:0.33333299 210:0 211:0 212:0 213:0 214:0 215:0 216:0 217:0 218:0 219:0 220:0 221:0 222:0 223:0 224:0 225:0 226:0 227:0 228:0 229:0 230:0 231:0 232:0 233:0 234:0 235:0 236:0 237:0 238:0 239:0 240:0 241:0 242:0 243:0 244:0 245:0 246:0 247:0 248:0 249:0 250:0 251:0 252:0 253:0 254:0 255:0 256:0 257:0 258:0 259:0 260:0 261:0 262:0 263:0 264:0 265:0 266:0 267:0 268:0 269:0 270:0 271:0 272:0 273:0 274:0 275:0 276:0 277:0 278:0 279:0 280:0 281:0 282:0 283:0 284:0 285:0 286:0 287:0 288:0 289:0 290:0 291:0 292:0 293:0 294:0 295:0 296:0 297:0 298:0 299:0 300:0 301:0 302:0 303:0 304:0 305:0 306:0 307:0 308:0 309:0 310:0 311:0 312:0 313:0 314:0 315:0 316:0 317:0 318:0 319:0 320:0 321:0 322:0 323:0 324:0 325:0 326:0 327:0 328:0 329:0 330:0 331:0 332:0 333:0 334:0 335:0 336:0 337:0 338:0 339:0 340:0 341:0 342:0 343:0 344:0 345:0 346:0 347:0 348:0 349:0 350:0 351:0 352:0 353:0 354:0 355:0 356:0 357:0 358:0 359:0 360:0 361:0 362:0 363:0 364:0 365:0 366:0 367:0 368:0 369:0 370:0 371:0 372:0 373:0 374:0 375:0 376:0 377:0 378:0 379:0 380:0 381:0 382:0 383:0 384:0 385:0 386:0 387:0 388:0 389:0 390:0 391:0 392:0 393:0 394:0 395:0 396:0 397:0 398:0 399:0 400:0 401:0 402:0 403:0 404:0 405:0 406:0 407:0 408:0 409:0 410:0 411:0 412:0 413:0 414:0 415:0 416:0 417:0 418:0 419:0 420:0 421:0 422:0 423:0 424:0 425:0 426:0 427:0 428:0 429:0 430:0 431:0 432:0 433:0 434:0 435:0 436:0 437:0 438:0 439:0 440:0 441:0 442:0 443:0 444:0 445:0 446:0 447:0 448:0 449:0 450:0 451:0 452:0 453:0 454:0 455:0 456:0 457:0 458:0 459:0 460:0 461:0 462:0 463:0 464:0 465:0 466:0 467:0 468:0 469:0 470:0 471:0 472:0 473:0 474:0 475:0 476:0 477:0 478:0 479:0 480:0 481:0 482:0 483:0 484:0 485:0 486:0 487:0 488:0 489:0 490:0 491:0 492:0 493:0 494:0 495:0 496:0 497:0 498:0 499:0 500:0 501:0 502:0 503:0 504:0 505:0 506:0 507:0 508:0 509:0 510:0 511:0 512:0 513:0 514:0 515:0 516:0 517:0 518:0 519:0 520:0 521:0 522:0 523:0 524:0 525:0 526:0 527:0 528:0 529:0 530:0 531:0 532:0 533:0 534:0 535:0 536:0 537:0 538:0 539:0 540:0 541:0 542:0 543:0 544:0 545:0 546:0 547:0 548:0 549:0 550:0 551:0 552:0 553:0 554:0 555:0 556:0 557:0 558:0 559:0 560:0 561:0 562:0 563:0 564:0 565:0 566:0 567:0 568:0 569:0 570:0 571:0 572:0 573:0 574:0 575:0 576:0 577:0 578:0 579:0 580:0 581:0 582:0 583:0 584:0 585:0 586:0 587:0 588:0 589:0 590:0 591:0 592:0 593:0 594:0 595:0 596:0 597:0 598:0 599:0 600:0 601:0 602:0 603:0 604:0 605:0.33333299 606:0 607:0 608:0.33333299 609:0 610:0 611:0 612:0 613:0.33333299 614:0 615:0 616:0 617:0 618:0 619:0 620:0 621:0 622:0 623:0 624:0 625:0 626:1 627:0 628:0 629:0 630:0 631:0 632:0 633:0 634:0.33333299 635:0 636:0 637:0 638:0 639:0 640:0 641:0 642:0 643:0 644:0 645:0 646:0 647:0 648:0 649:0 650:0 651:0 652:0.33333299 653:0 654:0 655:0 656:0 657:0 658:0 659:0 660:0 661:0 662:0 663:0 664:0 665:0 666:0 667:0 668:0 669:0 670:0 671:0 672:0 673:0 674:0 675:0 676:0 677:0 678:0 679:0 680:0 681:0 682:0 683:0 684:0 685:0 686:0 687:0 688:0 689:0 
-0.014525766744970277158377491844021 1:0.55803198 2:0.752958 3:0.70757002 4:0.91651797 5:0.94674999 6:1 7:0.80053502 8:0.62603301 9:0.30734301 10:0.053412199 11:0.0361485 12:0.019695301 13:0.0268277 14:0.016534301 15:0.0183984 16:0.0149943 17:0.0162101 18:0.014427 19:0.0180742 20:0.0222889 21:0.0169395 22:0.0213973 23:0.0213973 24:0.0245583 25:0.029502399 26:0.035337999 27:0.048143901 28:0.056329999 29:0.0131302 30:0.0121576 31:0.0126439 32:0.0146701 33:0.0154806 34:0.0053493301 35:0.0036472699 36:0.00170206 37:0 38:0.000162101 39:0.000162101 40:0.000162101 41:0 42:0.00081050402 43:0.00064840302 44:0.0014589099 45:0.017993201 46:0.0115092 47:0.0135354 48:0.0104555 49:0.0100503 50:0.0222889 51:0.0083481902 52:0.00583563 53:0.0077808402 54:0.00040525201 55:0.0079429401 56:0.0080239903 57:0.00567353 58:0.0028367599 59:0.0072134901 60:0.0021073101 61:0.0079429401 62:0.00081050402 63:0.0030799201 64:0.0095639499 65:0.0047009201 66:0.0021073101 67:0.0083481902 68:0 69:0.0057545798 70:0.0035662199 71:0.000162101 72:0.0068892902 73:0.00235046 74:0.0105366 75:0.00332307 76:0 77:0.0114281 78:0 79:0.00348517 80:0.0117523 81:0.0029988701 82:0.00081050402 83:0.0130491 84:0.0038904201 85:0.00121576 86:0.00056735298 87:0.034527499 88:0.00024315099 89:0.0084292404 90:0.0154806 91:0.00656508 92:0.00081050402 93:0.018722599 94:8.1050396 95:0.045550302 96:0.0188847 97:0.0037283199 98:0.0253688 99:0.020911001 100:0.0256119 101:0.061517298 102:0.028448701 103:0.0893986 104:0.0258551 105:0.065569803 106:0.082509302 107:0.076673701 108:0.13340899 109:0.12554701 110:0.29534799 111:0.30604601 112:0.426406 113:0.234074 114:0.246555 115:0.16818 116:0.30475 117:0.207003 118:0.19127899 119:0.25020301 120:0.641433 121:0.28375801 122:0.45979899 123:0.46101499 124:0.33028001 125:0.31479999 126:0.0444967 127:0.00923975 128:0.0894797 129:0.0327444 130:0.175879 131:0.0061598299 132:0.0532501 133:0.21048801 134:0.0029178101 135:0.036229499 136:0.0095639499 137:0.0021073101 138:0.123683 139:0.0027557099 140:0.019614199 141:0.243394 142:0.076106302 143:0.0061598299 144:0.0097260503 145:0.074161097 146:0.24679901 147:0.043199901 148:0.0047009201 149:0.00129681 150:0.13835301 151:0.00113471 152:0.0134544 153:0.223618 154:0.00129681 155:0.112984 156:0.166234 157:0.055114299 158:0.20408501 159:0.20270699 160:0.046766099 161:0.090614401 162:0.0486302 163:0.056492101 164:0.24072 165:0.0199384 166:0.26001 167:0.13421901 168:0.0102934 169:0.151807 170:0.36318699 171:0.124007 172:0.190874 173:0.21454 174:0.36253801 175:0.32890299 176:0.30823499 177:0.454936 178:0.330605 179:0.46158201 180:0.0020618599 181:0.0332474 182:0.050257701 183:0.044201002 184:0.164175 185:0.338144 186:0.75154603 187:1 188:0.60167497 189:0.77048999 190:0.93969101 191:0.847036 192:0.70438099 193:0.68646902 194:0.50128901 195:0.58685601 196:0.487629 197:0.47925299 198:0.28904599 199:0.401546 200:0.32590199 201:0.38234499 202:0.31456199 203:0.29420099 204:0.206572 205:0.33943301 206:0.290979 207:0.28904599 208:0.210954 209:0.299613 210:0.30889201 211:0.248969 212:0.31894299 213:0.290593 214:0.222938 215:0.25721601 216:0.267526 217:0.25811899 218:0.237113 219:0.201031 220:0.251546 221:0.224742 222:0.23943301 223:0.235567 224:0.231314 225:0.210954 226:0.244201 227:0.24806701 228:0.245747 229:0.280541 230:0.314046 231:0.352191 232:0.272165 233:0.361211 234:0.25193301 235:0.246392 236:0.298711 237:0.282345 238:0.23402099 239:0.30605701 240:0.27783501 241:0.25605699 242:0.259794 243:0.18634 244:0.222552 245:0.202062 246:0.209536 247:0.206314 248:0.191108 249:0.19819599 250:0.214304 251:0.195619 252:0.215335 253:0.191753 254:0.236598 255:0.19342799 256:0.186856 257:0.205541 258:0.183247 259:0.19896901 260:0.187371 261:0.182861 262:0.175129 263:0.15000001 264:0.200644 265:0.22100499 266:0.200773 267:0.18466499 268:0.192526 269:0.209149 270:0.193299 271:0.170361 272:0.152835 273:0.175 274:0.181701 275:0.188789 276:0.174485 277:0.16366 278:0.17577299 279:0.17152099 280:0.139562 281:0.137113 282:0.13170099 283:0.137758 284:0.114304 285:0.125 286:0.13247401 287:0.12268 288:0.115206 289:0.100387 290:0.107603 291:0.112629 292:0.099613398 293:0.091108203 294:0.105541 295:0.096649498 296:0.106572 297:0.10451 298:0.071778297 299:0.072680399 300:0.062113401 301:0.069845401 302:0.0614691 303:0.068814397 304:0.063788697 305:0.068814397 306:0.0409794 307:0.0537371 308:0.056572199 309:0.046262901 310:0.0487113 311:0.045876302 312:0.049871098 313:0.047164898 314:0.0470361 315:0.047551502 316:0.044201002 317:0.045876302 318:0.042783499 319:0.043299001 320:0.040077299 321:0.0453608 322:0.0420103 323:0.0369845 324:0.0403351 325:0.0449742 326:0.038530901 327:0.041366 328:0.036340199 329:0.039819598 330:0.032860801 331:0.0283505 332:0.0275773 333:0.020618601 334:0.021907199 335:0.0222938 336:0.023453601 337:0.021778399 338:0.0204897 339:0.0220361 340:0.0199742 341:0.0181701 342:0.016365999 343:0.0176546 344:0.019072199 345:0.017396901 346:0.0177835 347:0.0161082 348:0.0171392 349:0.018041199 350:0.015721601 351:0.0122423 352:0.016494799 353:0.017912401 354:0.0188144 355:0.0145619 356:0.0114691 357:0.0130155 358:0.0121134 359:0.0094072204 360:0.0094072204 361:0.0085051497 362:0.0051546399 363:0.0065721702 364:0.0056701 365:0.0046391799 366:0.0051546399 367:0.0055412399 368:0.0055412399 369:0.0060566999 370:0.0052835098 371:0.0048969099 372:0.00451031 373:0.00309278 374:0.00476804 375:0.00257732 376:0.0041237101 377:0.00257732 378:0.0024484501 379:0.0029639199 380:0.00231959 381:0.00231959 382:0.00309278 383:0.0029639199 384:0.0021907201 385:0.00257732 386:0.0027061901 387:0.00283505 388:0.0038659801 389:0.0027061901 390:0.00257732 391:0.0027061901 392:0.0036082501 393:0.00231959 394:0.0024484501 395:0.00154639 396:0.0021907201 397:0.0029639199 398:0.00335052 399:0.00335052 400:0.0024484501 401:0.0021907201 402:0.0038659801 403:0.0029639199 404:0.00231959 405:0.0024484501 406:0.00231959 407:0.0029639199 408:0.00167526 409:0.0024484501 410:0.0027061901 411:0.00257732 412:0.0036082501 413:0.00180412 414:0.00335052 415:0.00309278 416:0.00476804 417:0.0032216499 418:0.00231959 419:0.00335052 420:0.0020618599 421:0.00257732 422:0.0041237101 423:0.0034793799 424:0.0029639199 425:0.00193299 426:0.00399485 427:0.00451031 428:0.0059278398 429:0.00425258 430:0.00231959 431:0.0024484501 432:0.00231959 433:0.0027061901 434:0 435:0 436:0 437:0 438:0 439:0 440:0 441:0 442:0 443:0 444:0 445:0 446:0 447:0 448:0 449:0 450:0 451:0 452:0 453:0 454:0 455:0 456:0 457:0 458:0 459:0 460:0 461:0 462:0 463:0 464:0 465:0 466:0 467:0 468:0 469:0 470:0 471:0 472:0 473:0 474:0 475:0 476:0 477:0 478:0 479:0 480:0 481:0 482:0 483:0 484:0 485:0.000125565 486:0.000125565 487:0 488:0 489:0 490:0 491:0 492:0 493:0 494:0 495:0 496:0 497:0 498:0 499:0 500:0 501:0.000125565 502:0.000125565 503:0 504:0 505:0 506:0 507:0 508:0 509:0 510:0 511:0 512:0 513:0 514:0.00037669501 515:0.00025113 516:0 517:0 518:0 519:0 520:0.00025113 521:0 522:0 523:0.000125565 524:0 525:0 526:0 527:0 528:0 529:0.000125565 530:0 531:0.00037669501 532:0.000125565 533:0 534:0 535:0.000125565 536:0.000125565 537:0.00037669501 538:0.00025113 539:0.000125565 540:0.000125565 541:0 542:0 543:0.00037669501 544:0.000125565 545:0.00037669501 546:0.00025113 547:0 548:0.000125565 549:0.000125565 550:0.00025113 551:0.00025113 552:0.00025113 553:0.00037669501 554:0 555:0.00037669501 556:0.00025113 557:0.000125565 558:0.000125565 559:0.000125565 560:0 561:0.000125565 562:0.00037669501 563:0.00025113 564:0.000878955 565:0.00025113 566:0.00025113 567:0.000125565 568:0.00050225999 569:0.00037669501 570:0.00037669501 571:0.00050225999 572:0.00075339002 573:0.00062782498 574:0.00100452 575:0.00075339002 576:0.000878955 577:0.000878955 578:0.00150678 579:0.00200904 580:0.0077850302 581:0.0252386 582:0.028252101 583:0.0350326 584:0.028503301 585:0.030889001 586:0.032395799 587:0.034530401 588:0.034028102 589:0.0396786 590:0.046710201 591:0.052988399 592:0.057006501 593:0.0472125 594:0.047840301 595:0.0513561 596:0.050477099 597:0.048468102 598:0.040306401 599:0.043445501 600:0.054244101 601:0.058638901 602:0.086514302 603:0.091160201 604:0.10673 605:0.0886489 606:0.10786 607:0.103466 608:0.1223 609:0.140884 610:0.17114501 611:0.16285799 612:0.16449 613:0.18709201 614:0.15369201 615:0.157207 616:0.14452501 617:0.119036 618:0.139754 619:0.111627 620:0.124309 621:0.125063 622:0.118408 623:0.12343 624:0.103842 625:0.11552 626:0.103089 627:0.116148 628:0.114139 629:0.108739 630:0.125816 631:0.156956 632:0.170141 633:0.166374 634:0.155826 635:0.14075799 636:0.150804 637:0.156956 638:0.142516 639:0.158714 640:0.17152201 641:0.162983 642:0.173154 643:0.176544 644:0.179056 645:0.177423 646:0.198769 647:0.207936 648:0.237192 649:0.25113001 650:0.27536401 651:0.31617299 652:0.35195899 653:0.38448 654:0.37066799 655:0.37142101 656:0.40632799 657:0.44399801 658:0.45981899 659:0.48417899 660:0.52762401 661:0.55776 662:0.52222502 663:0.49133599 664:0.497991 665:0.50062799 666:0.52523899 667:0.53942698 668:0.56315899 669:0.60773498 670:0.66536897 671:0.72714698 672:0.80436999 673:0.82759899 674:0.81780499 675:0.84116 676:0.899046 677:0.97526401 678:1 679:0.99460101 680:0.89527899 681:0.73945302 682:0.67654401 683:0.66474098 684:0.65067798 685:0.63146698 686:0.54520297 687:0.443872 688:0.386866 689:0 
-0.05189125428144044510636589961905 1:0 2:0 3:0 4:0 5:0 6:0 7:0 8:0 9:0 10:0 11:0 12:0 13:0 14:0 15:0 16:0 17:0 18:0 19:0 20:0 21:0 22:0 23:0 24:0 25:0 26:0 27:0 28:0 29:0 30:0 31:0 32:0 33:0 34:0 35:0.093645498 36:0.214047 37:0.63210702 38:0.190635 39:0.130435 40:0.103679 41:0.070234098 42:0.063545197 43:0.053511702 44:0.0401338 45:0.030100301 46:0.0568562 47:0.030100301 48:0.046822701 49:0.026755899 50:0.023411401 51:0.0401338 52:0.036789302 53:0.0133779 54:0.030100301 55:0.0066889599 56:0.023411401 57:0.023411401 58:0.0133779 59:0 60:0.036789302 61:0 62:0.0133779 63:0.0133779 64:0 65:0.046822701 66:0.026755899 67:0.0167224 68:0.0167224 69:0.0066889599 70:0.0100334 71:0.0033444799 72:0.0066889599 73:0.026755899 74:0.046822701 75:0.0033444799 76:0 77:0 78:0 79:0.0568562 80:0.023411401 81:0 82:0 83:0 84:0.0133779 85:0.0100334 86:0 87:0.066889599 88:0.0033444799 89:0 90:0.0133779 91:0 92:0 93:0.063545197 94:0 95:0.080267601 96:0.033444799 97:0 98:0.0401338 99:0 100:0.0033444799 101:0.066889599 102:0.0033444799 103:0.050167199 104:0.036789302 105:0.066889599 106:0.046822701 107:0.046822701 108:0.0033444799 109:0.050167199 110:0.046822701 111:0.110368 112:0.120401 113:0.050167199 114:0.19397999 115:0.093645498 116:0.29765901 117:0.34113699 118:0.66555202 119:0.71571898 120:1 121:0.72575301 122:0.43812701 123:0.38795999 124:0.123746 125:0.120401 126:0.030100301 127:0.0100334 128:0.0033444799 129:0.0100334 130:0 131:0 132:0 133:0 134:0 135:0 136:0 137:0 138:0 139:0 140:0 141:0 142:0 143:0 144:0 145:0 146:0 147:0 148:0 149:0 150:0 151:0 152:0 153:0 154:0 155:0 156:0 157:0 158:0 159:0 160:0 161:0 162:0 163:0 164:0 165:0 166:0 167:0 168:0 169:0 170:0 171:0 172:0 173:0 174:0 175:0 176:0 177:0 178:0 179:0 180:0 181:0 182:0 183:0.0114943 184:0 185:0.0229885 186:0 187:0 188:0.0229885 189:0.0229885 190:0.034482799 191:0.12643699 192:0.25287399 193:0.34482801 194:0.35632199 195:0.218391 196:0.183908 197:0.321839 198:0.321839 199:0.195402 200:0.137931 201:0.31034499 202:0.321839 203:0.195402 204:0.27586201 205:0.20689701 206:0.229885 207:0.321839 208:0.321839 209:0.413793 210:0.413793 211:0.35632199 212:0.27586201 213:0.54022998 214:0.413793 215:0.37931001 216:0.367816 217:0.33333299 218:0.49425301 219:0.55172402 220:0.367816 221:0.55172402 222:0.62068999 223:0.64367801 224:0.86206901 225:0.94252902 226:1 227:0.68965501 228:0.91953999 229:0.85057497 230:0.62068999 231:0.827586 232:0.64367801 233:0.482759 234:0.28735599 235:0.12643699 236:0.229885 237:0.218391 238:0.25287399 239:0.16091999 240:0.35632199 241:0.54022998 242:0.57471299 243:0.62068999 244:0.471264 245:0.40229899 246:0.20689701 247:0.218391 248:0.172414 249:0.12643699 250:0.080459803 251:0.068965502 252:0.034482799 253:0.080459803 254:0.0229885 255:0.0114943 256:0.0229885 257:0.045977 258:0.0114943 259:0.045977 260:0.045977 261:0.0229885 262:0.0229885 263:0 264:0.0229885 265:0 266:0.057471301 267:0 268:0.034482799 269:0.0229885 270:0.080459803 271:0.0229885 272:0.0229885 273:0.0229885 274:0.0114943 275:0.0229885 276:0.0114943 277:0.034482799 278:0.0229885 279:0.068965502 280:0.0114943 281:0.0114943 282:0 283:0.0229885 284:0.0114943 285:0.0229885 286:0.045977 287:0.0114943 288:0.034482799 289:0.045977 290:0.034482799 291:0.0114943 292:0.057471301 293:0.0114943 294:0.034482799 295:0.034482799 296:0.0114943 297:0.0114943 298:0.034482799 299:0.034482799 300:0.080459803 301:0.034482799 302:0.080459803 303:0.0229885 304:0.0229885 305:0.045977 306:0.034482799 307:0.057471301 308:0.045977 309:0.080459803 310:0.057471301 311:0.080459803 312:0.045977 313:0.057471301 314:0.034482799 315:0.034482799 316:0.068965502 317:0.091954 318:0.068965502 319:0.0229885 320:0.045977 321:0.0229885 322:0.137931 323:0.045977 324:0.045977 325:0.034482799 326:0.034482799 327:0.057471301 328:0.080459803 329:0.045977 330:0.0229885 331:0.0229885 332:0.057471301 333:0.0229885 334:0.0229885 335:0.034482799 336:0.034482799 337:0.068965502 338:0.034482799 339:0.0229885 340:0.068965502 341:0.034482799 342:0.068965502 343:0.045977 344:0.057471301 345:0.034482799 346:0.0114943 347:0.045977 348:0.0229885 349:0.068965502 350:0.034482799 351:0 352:0.114943 353:0.0114943 354:0.0114943 355:0.034482799 356:0.0229885 357:0.0229885 358:0.045977 359:0.0229885 360:0 361:0.0229885 362:0.045977 363:0.057471301 364:0.034482799 365:0.0114943 366:0.0229885 367:0.034482799 368:0.0229885 369:0.045977 370:0 371:0.045977 372:0.0229885 373:0.0114943 374:0.045977 375:0.034482799 376:0.0229885 377:0 378:0.0229885 379:0.0114943 380:0.045977 381:0.045977 382:0.0229885 383:0 384:0 385:0.0114943 386:0.034482799 387:0.034482799 388:0.045977 389:0 390:0.034482799 391:0 392:0 393:0.0114943 394:0.0114943 395:0 396:0 397:0 398:0 399:0 400:0 401:0 402:0 403:0 404:0 405:0 406:0 407:0 408:0 409:0 410:0 411:0 412:0 413:0 414:0 415:0 416:0 417:0 418:0 419:0 420:0 421:0 422:0 423:0 424:0 425:0 426:0 427:0 428:0 429:0 430:0 431:0 432:0 433:0 434:0 435:0 436:0 437:0 438:0 439:0 440:0 441:0 442:0 443:0 444:0 445:0 446:0 447:0 448:0 449:0 450:0 451:0 452:0 453:0 454:0 455:0 456:0 457:0 458:0 459:0 460:0 461:0 462:0 463:0 464:0 465:0 466:0 467:0 468:0 469:0 470:0 471:0 472:0 473:0 474:0 475:0 476:0 477:0 478:0 479:0 480:0 481:0 482:0 483:0 484:0 485:0 486:0 487:0 488:0 489:0 490:0 491:0 492:0 493:0 494:0 495:0 496:0 497:0 498:0 499:0 500:0 501:0 502:0 503:0 504:0 505:0 506:0 507:0 508:0 509:0 510:0 511:0 512:0 513:0 514:0 515:0 516:0 517:0 518:0 519:0 520:0 521:0 522:0 523:0 524:0 525:0 526:0 527:0 528:0 529:0 530:0 531:0 532:0 533:0 534:0 535:0 536:0 537:0 538:0 539:0 540:0 541:0 542:0 543:0 544:0 545:0 546:0 547:0 548:0 549:0 550:0 551:0 552:0 553:0 554:0 555:0 556:0 557:0 558:0 559:0 560:0 561:0 562:0 563:0 564:0.0151515 565:0.0151515 566:0 567:0.0151515 568:0 569:0.0151515 570:0.0151515 571:0.030303 572:0.0151515 573:0.030303 574:0.121212 575:0.121212 576:0.030303 577:0.121212 578:0.121212 579:0.106061 580:0.090909101 581:0.0606061 582:0.15151501 583:0.090909101 584:0.0606061 585:0.15151501 586:0.19697 587:0.15151501 588:0.0757576 589:0.227273 590:0.27272701 591:0.30303001 592:0.31818199 593:0.36363599 594:0.227273 595:0.21212099 596:0.28787899 597:0.30303001 598:0.39393899 599:0.34848499 600:0.45454499 601:0.69696999 602:0.77272701 603:0.83333302 604:0.83333302 605:0.77272701 606:0.78787899 607:0.560606 608:0.77272701 609:0.81818199 610:1 611:0.80303001 612:0.57575798 613:0.71212101 614:0.71212101 615:0.48484799 616:0.590909 617:0.45454499 618:0.54545498 619:0.62121201 620:0.530303 621:0.63636398 622:0.62121201 623:0.530303 624:0.66666698 625:0.54545498 626:0.48484799 627:0.57575798 628:0.54545498 629:0.80303001 630:0.60606098 631:0.54545498 632:0.590909 633:0.80303001 634:0.65151501 635:0.63636398 636:0.74242401 637:0.66666698 638:0.65151501 639:0.66666698 640:0.63636398 641:0.5 642:0.51515198 643:0.54545498 644:0.36363599 645:0.42424199 646:0.42424199 647:0.28787899 648:0.439394 649:0.25757599 650:0.34848499 651:0.242424 652:0.63636398 653:0.42424199 654:0.30303001 655:0.242424 656:0.21212099 657:0.090909101 658:0.0757576 659:0.0606061 660:0.0757576 661:0 662:0.030303 663:0.0151515 664:0.030303 665:0.045454498 666:0.045454498 667:0 668:0 669:0 670:0.0151515 671:0 672:0 673:0 674:0 675:0 676:0 677:0 678:0 679:0 680:0 681:0 682:0 683:0 684:0 685:0 686:0 687:0 688:0 689:0 
0.048816909442604798641252017432635 1:0 2:0 3:0 4:0 5:0 6:0 7:0 8:0 9:0 10:0 11:0 12:0 13:0 14:0 15:0 16:0 17:0 18:0.125 19:0 20:0.75 21:0.125 22:0 23:1 24:0 25:0.25 26:0.5 27:0 28:0 29:0 30:0 31:0 32:0 33:0 34:0 35:0 36:0 37:0 38:0 39:0 40:0 41:0 42:0 43:0 44:0 45:0 46:0 47:0 48:0 49:0 50:0 51:0 52:0 53:0 54:0 55:0 56:0 57:0 58:0 59:0 60:0 61:0 62:0 63:0 64:0 65:0 66:0 67:0 68:0 69:0 70:0 71:0 72:0 73:0 74:0 75:0 76:0 77:0 78:0 79:0 80:0 81:0 82:0 83:0 84:0 85:0 86:0 87:0 88:0 89:0 90:0 91:0 92:0 93:0 94:0 95:0 96:0 97:0 98:0 99:0 100:0 101:0 102:0 103:0 104:0 105:0 106:0 107:0 108:0 109:0 110:0 111:0 112:0 113:0 114:0 115:0 116:0 117:0 118:0 119:0 120:0 121:0 122:0 123:0 124:0 125:0 126:0 127:0 128:0 129:0 130:0 131:0 132:0 133:0 134:0 135:0 136:0 137:0 138:0 139:0 140:0 141:0 142:0 143:0 144:0 145:0 146:0 147:0 148:0 149:0 150:0 151:0 152:0 153:0 154:0 155:0 156:0 157:0 158:0 159:0 160:0 161:0 162:0 163:0 164:0 165:0 166:0 167:0 168:0 169:0 170:0 171:0 172:0 173:0 174:0 175:0 176:0 177:0 178:0 179:0 180:0 181:0 182:0 183:0 184:0 185:0 186:0 187:0 188:0 189:0 190:0 191:0 192:0 193:0 194:0 195:0 196:0.25 197:0.75 198:0.5 199:0.25 200:0.75 201:1 202:0.5 203:0.75 204:0.25 205:0.25 206:0.25 207:0 208:0 209:0 210:0 211:0 212:0 213:0 214:0 215:0 216:0 217:0 218:0 219:0 220:0 221:0 222:0 223:0 224:0 225:0 226:0 227:0 228:0 229:0 230:0 231:0 232:0 233:0 234:0 235:0 236:0 237:0 238:0 239:0 240:0 241:0 242:0 243:0 244:0 245:0 246:0 247:0 248:0 249:0 250:0 251:0 252:0 253:0 254:0 255:0 256:0 257:0 258:0 259:0 260:0 261:0 262:0 263:0 264:0 265:0 266:0 267:0 268:0 269:0 270:0 271:0 272:0 273:0 274:0 275:0 276:0 277:0 278:0 279:0 280:0 281:0 282:0 283:0 284:0 285:0 286:0 287:0 288:0 289:0 290:0 291:0 292:0 293:0 294:0 295:0 296:0 297:0 298:0 299:0 300:0 301:0 302:0 303:0 304:0 305:0 306:0 307:0 308:0 309:0 310:0 311:0 312:0 313:0 314:0 315:0 316:0 317:0 318:0 319:0 320:0 321:0 322:0 323:0 324:0 325:0 326:0 327:0 328:0 329:0 330:0 331:0 332:0 333:0 334:0 335:0 336:0 337:0 338:0 339:0 340:0 341:0 342:0 343:0 344:0 345:0 346:0 347:0 348:0 349:0 350:0 351:0 352:0 353:0 354:0 355:0 356:0 357:0 358:0 359:0 360:0 361:0 362:0 363:0 364:0 365:0 366:0 367:0 368:0 369:0 370:0 371:0 372:0 373:0 374:0 375:0 376:0 377:0 378:0 379:0 380:0 381:0 382:0 383:0 384:0 385:0 386:0 387:0 388:0 389:0 390:0 391:0 392:0 393:0 394:0 395:0 396:0 397:0 398:0 399:0 400:0 401:0 402:0 403:0 404:0 405:0 406:0 407:0 408:0 409:0 410:0 411:0 412:0 413:0 414:0 415:0 416:0 417:0 418:0 419:0 420:0 421:0 422:0 423:0 424:0 425:0 426:0 427:0 428:0 429:0 430:0 431:0 432:0 433:0 434:0 435:0 436:0 437:0 438:0 439:0 440:0 441:0 442:0 443:0 444:0 445:0 446:0 447:0 448:0 449:0 450:0 451:0 452:0 453:0 454:0 455:0 456:0 457:0 458:0 459:0 460:0 461:0 462:0 463:0 464:0 465:0 466:0 467:0 468:0 469:0 470:0 471:0 472:0 473:0 474:0 475:0 476:0 477:0 478:0 479:0 480:0 481:0 482:0 483:0 484:0 485:0 486:0 487:0 488:0 489:0 490:0 491:0 492:0 493:0 494:0 495:0 496:0 497:0 498:0 499:0 500:0 501:0 502:0 503:0 504:0 505:0 506:0 507:0 508:0 509:0 510:0 511:0 512:0 513:0 514:0 515:0 516:0 517:0 518:0 519:0 520:0 521:0 522:0 523:0 524:0 525:0 526:0 527:0 528:0 529:0 530:0 531:0 532:0 533:0 534:0 535:0 536:0 537:0 538:0 539:0 540:0 541:0 542:0 543:0 544:0 545:0 546:0 547:0 548:0 549:0 550:0 551:0 552:0 553:0 554:0 555:0 556:0 557:0 558:0 559:0 560:0 561:0 562:0 563:0 564:0 565:0 566:0 567:0 568:0 569:0 570:0 571:0 572:0 573:0 574:0 575:0 576:0 577:0 578:0 579:0 580:0 581:0 582:0 583:0 584:0 585:0 586:0 587:0 588:0 589:0 590:0 591:0 592:0 593:0 594:0 595:0 596:0 597:0 598:0 599:0 600:0 601:0 602:0 603:0.5 604:0 605:0 606:0 607:1 608:0.5 609:0 610:0 611:0.5 612:0 613:0 614:0 615:0.5 616:0 617:0 618:0 619:0 620:0.5 621:0 622:0 623:0.5 624:0 625:0 626:0.5 627:0 628:0 629:0 630:0 631:0.5 632:0 633:0 634:0 635:0 636:0 637:0 638:1 639:0 640:0 641:0 642:0.5 643:0.5 644:0 645:0.5 646:0 647:0.5 648:0 649:0.5 650:0 651:0 652:0 653:0.5 654:0 655:0 656:0.5 657:0.5 658:0 659:0.5 660:0 661:0 662:0 663:0.5 664:0 665:0 666:0 667:0 668:0 669:0 670:0 671:0 672:0 673:0 674:0 675:0 676:0 677:0 678:0 679:0 680:0 681:0 682:0 683:0 684:0 685:0 686:0 687:0 688:0 689:0 
0.0062910512440769164252407641413356 1:0 2:0 3:0 4:0 5:0 6:0 7:0 8:0 9:0 10:0 11:0 12:0 13:0.0222222 14:0 15:0 16:0 17:0 18:0 19:0 20:0.088888898 21:0.0666667 22:0 23:1 24:0 25:0 26:0.088888898 27:0 28:0 29:0 30:0 31:0 32:0 33:0 34:0 35:0 36:0 37:0 38:0 39:0 40:0 41:0 42:0 43:0 44:0 45:0 46:0 47:0 48:0 49:0 50:0 51:0 52:0 53:0 54:0 55:0 56:0 57:0 58:0 59:0 60:0 61:0 62:0 63:0 64:0 65:0 66:0 67:0 68:0 69:0 70:0 71:0 72:0 73:0 74:0 75:0 76:0 77:0 78:0 79:0 80:0 81:0 82:0 83:0 84:0 85:0 86:0 87:0 88:0 89:0 90:0 91:0 92:0 93:0 94:0 95:0 96:0 97:0 98:0 99:0 100:0 101:0 102:0 103:0 104:0 105:0 106:0 107:0 108:0 109:0 110:0 111:0 112:0 113:0 114:0 115:0 116:0 117:0 118:0 119:0 120:0 121:0 122:0 123:0 124:0 125:0 126:0 127:0 128:0 129:0 130:0 131:0 132:0 133:0 134:0 135:0 136:0 137:0 138:0 139:0 140:0 141:0 142:0 143:0 144:0 145:0 146:0 147:0 148:0 149:0 150:0 151:0 152:0 153:0 154:0 155:0 156:0 157:0 158:0 159:0 160:0 161:0 162:0 163:0 164:0 165:0 166:0 167:0 168:0 169:0 170:0 171:0 172:0 173:0 174:0 175:0 176:0 177:0 178:0 179:0 180:0 181:0 182:0 183:0 184:0 185:0 186:0 187:0 188:0 189:0 190:0 191:0 192:0 193:0.1 194:0 195:0.2 196:0.1 197:0 198:0.2 199:0.2 200:0.2 201:0.60000002 202:0.69999999 203:0.69999999 204:0.40000001 205:1 206:0 207:0.69999999 208:0 209:0.2 210:0.2 211:0 212:0 213:0.1 214:0.1 215:0 216:0 217:0 218:0 219:0 220:0 221:0 222:0 223:0 224:0 225:0 226:0 227:0 228:0 229:0 230:0 231:0 232:0 233:0 234:0 235:0 236:0 237:0 238:0 239:0 240:0 241:0 242:0 243:0 244:0 245:0 246:0 247:0 248:0 249:0 250:0 251:0 252:0 253:0 254:0 255:0 256:0 257:0 258:0 259:0 260:0 261:0 262:0 263:0 264:0 265:0 266:0 267:0 268:0 269:0 270:0 271:0 272:0 273:0 274:0 275:0 276:0 277:0 278:0 279:0 280:0 281:0 282:0 283:0 284:0 285:0 286:0 287:0 288:0 289:0 290:0 291:0 292:0 293:0 294:0 295:0 296:0 297:0 298:0 299:0 300:0 301:0 302:0 303:0 304:0 305:0 306:0 307:0 308:0 309:0 310:0 311:0 312:0 313:0 314:0 315:0 316:0 317:0 318:0 319:0 320:0 321:0 322:0 323:0 324:0 325:0 326:0 327:0 328:0 329:0 330:0 331:0 332:0 333:0 334:0 335:0 336:0 337:0 338:0 339:0 340:0 341:0 342:0 343:0 344:0 345:0 346:0 347:0 348:0 349:0 350:0 351:0 352:0 353:0 354:0 355:0 356:0 357:0 358:0 359:0 360:0 361:0 362:0 363:0 364:0 365:0 366:0 367:0 368:0 369:0 370:0 371:0 372:0 373:0 374:0 375:0 376:0 377:0 378:0 379:0 380:0 381:0 382:0 383:0 384:0 385:0 386:0 387:0 388:0 389:0 390:0 391:0 392:0 393:0 394:0 395:0 396:0 397:0 398:0 399:0 400:0 401:0 402:0 403:0 404:0 405:0 406:0 407:0 408:0 409:0 410:0 411:0 412:0 413:0 414:0 415:0 416:0 417:0 418:0 419:0 420:0 421:0 422:0 423:0 424:0 425:0 426:0 427:0 428:0 429:0 430:0 431:0 432:0 433:0 434:0 435:0 436:0 437:0 438:0 439:0 440:0 441:0 442:0 443:0 444:0 445:0 446:0 447:0 448:0 449:0 450:0 451:0 452:0 453:0 454:0 455:0 456:0 457:0 458:0 459:0 460:0 461:0 462:0 463:0 464:0 465:0 466:0 467:0 468:0 469:0 470:0 471:0 472:0 473:0 474:0 475:0 476:0 477:0 478:0 479:0 480:0 481:0 482:0 483:0 484:0 485:0 486:0 487:0 488:0 489:0 490:0 491:0 492:0 493:0 494:0 495:0 496:0 497:0 498:0 499:0 500:0 501:0 502:0 503:0 504:0 505:0 506:0 507:0 508:0 509:0 510:0 511:0 512:0 513:0 514:0 515:0 516:0 517:0 518:0 519:0 520:0 521:0 522:0 523:0 524:0 525:0 526:0 527:0 528:0 529:0 530:0 531:0 532:0 533:0 534:0 535:0 536:0 537:0 538:0 539:0 540:0 541:0 542:0 543:0 544:0 545:0 546:0 547:0 548:0 549:0 550:0.2 551:0.2 552:0 553:0 554:0 555:0 556:0 557:0 558:0 559:0 560:0 561:0 562:0.2 563:0 564:0.2 565:0 566:0 567:0 568:0 569:0 570:0.2 571:0.2 572:0 573:0 574:0 575:0 576:0 577:0 578:0.60000002 579:0 580:0.2 581:0.40000001 582:0 583:0 584:0 585:0 586:0 587:0.2 588:0.2 589:0.40000001 590:0.40000001 591:0.2 592:0.40000001 593:0.60000002 594:0 595:0.2 596:0 597:0.2 598:0.2 599:0.40000001 600:0 601:1 602:0.2 603:0 604:0 605:0.40000001 606:0 607:0 608:0 609:0 610:0.2 611:0.40000001 612:0.2 613:0.2 614:0 615:0.2 616:0.2 617:0.40000001 618:0 619:0 620:0 621:0 622:0 623:0.40000001 624:0 625:0 626:0 627:0 628:0 629:0.2 630:0 631:0 632:0 633:0 634:0 635:0.40000001 636:0.2 637:0 638:0 639:0.2 640:0 641:0 642:0.2 643:0 644:0 645:0 646:0 647:0 648:0.2 649:0 650:0 651:0 652:0 653:0.2 654:0 655:0 656:0 657:0 658:0 659:0 660:0 661:0 662:0 663:0 664:0 665:0 666:0 667:0 668:0 669:0 670:0 671:0 672:0 673:0 674:0.2 675:0 676:0 677:0 678:0 679:0 680:0 681:0 682:0 683:0 684:0 685:0 686:0 687:0 688:0 689:0 
0.040448141805078725863342725688199 1:0 2:0 3:0 4:0 5:0 6:0 7:0 8:0 9:0 10:0 11:0 12:0 13:0 14:0 15:0 16:0.375 17:0 18:0 19:0 20:0.125 21:0 22:1 23:0 24:0 25:0 26:0 27:0 28:0 29:0 30:0 31:0 32:0 33:0 34:0 35:0 36:0 37:0 38:0 39:0 40:0 41:0 42:0 43:0 44:0 45:0 46:0 47:0 48:0 49:0 50:0 51:0 52:0 53:0 54:0 55:0 56:0 57:0 58:0 59:0 60:0 61:0 62:0 63:0 64:0 65:0 66:0 67:0 68:0 69:0 70:0 71:0 72:0 73:0 74:0 75:0 76:0 77:0 78:0 79:0 80:0 81:0 82:0 83:0 84:0 85:0 86:0 87:0 88:0 89:0 90:0 91:0 92:0 93:0 94:0 95:0 96:0 97:0 98:0 99:0 100:0 101:0 102:0 103:0 104:0 105:0 106:0 107:0 108:0 109:0 110:0 111:0 112:0 113:0 114:0 115:0 116:0 117:0 118:0 119:0 120:0 121:0 122:0 123:0 124:0 125:0 126:0 127:0 128:0 129:0 130:0 131:0 132:0 133:0 134:0 135:0 136:0 137:0 138:0 139:0 140:0 141:0 142:0 143:0 144:0 145:0 146:0 147:0 148:0 149:0 150:0 151:0 152:0 153:0 154:0 155:0 156:0 157:0 158:0 159:0 160:0 161:0 162:0 163:0 164:0 165:0 166:0 167:0 168:0 169:0 170:0 171:0 172:0 173:0 174:0 175:0 176:0 177:0 178:0 179:0 180:0 181:0 182:0 183:0 184:0 185:0 186:0 187:0 188:0 189:0 190:0 191:0 192:0 193:0 194:0 195:0 196:0 197:0 198:0 199:0 200:0 201:0 202:0 203:0 204:0 205:0 206:0 207:0 208:0 209:0 210:1 211:0.33333299 212:1 213:0.66666698 214:0.33333299 215:0.33333299 216:0 217:0 218:0.33333299 219:0 220:0 221:0 222:0 223:0 224:0 225:0 226:0 227:0 228:0 229:0 230:0 231:0 232:0 233:0 234:0 235:0 236:0 237:0 238:0 239:0 240:0 241:0 242:0 243:0 244:0 245:0 246:0 247:0 248:0 249:0 250:0 251:0 252:0 253:0 254:0 255:0 256:0 257:0 258:0 259:0 260:0 261:0 262:0 263:0 264:0 265:0 266:0 267:0 268:0 269:0 270:0 271:0 272:0 273:0 274:0 275:0 276:0 277:0 278:0 279:0 280:0 281:0 282:0 283:0 284:0 285:0 286:0 287:0 288:0 289:0 290:0 291:0 292:0 293:0 294:0 295:0 296:0 297:0 298:0 299:0 300:0 301:0 302:0 303:0 304:0 305:0 306:0 307:0 308:0 309:0 310:0 311:0 312:0 313:0 314:0 315:0 316:0 317:0 318:0 319:0 320:0 321:0 322:0 323:0 324:0 325:0 326:0 327:0 328:0 329:0 330:0 331:0 332:0 333:0 334:0 335:0 336:0 337:0 338:0 339:0 340:0 341:0 342:0 343:0 344:0 345:0 346:0 347:0 348:0 349:0 350:0 351:0 352:0 353:0 354:0 355:0 356:0 357:0 358:0 359:0 360:0 361:0 362:0 363:0 364:0 365:0 366:0 367:0 368:0 369:0 370:0 371:0 372:0 373:0 374:0 375:0 376:0 377:0 378:0 379:0 380:0 381:0 382:0 383:0 384:0 385:0 386:0 387:0 388:0 389:0 390:0 391:0 392:0 393:0 394:0 395:0 396:0 397:0 398:0 399:0 400:0 401:0 402:0 403:0 404:0 405:0 406:0 407:0 408:0 409:0 410:0 411:0 412:0 413:0 414:0 415:0 416:0 417:0 418:0 419:0 420:0 421:0 422:0 423:0 424:0 425:0 426:0 427:0 428:0 429:0 430:0 431:0 432:0 433:0 434:0 435:0 436:0 437:0 438:0 439:0 440:0 441:0 442:0 443:0 444:0 445:0 446:0 447:0 448:0 449:0 450:0 451:0 452:0 453:0 454:0 455:0 456:0 457:0 458:0 459:0 460:0 461:0 462:0 463:0 464:0 465:0 466:0 467:0 468:0 469:0 470:0 471:0 472:0 473:0 474:0 475:0 476:0 477:0 478:0 479:0 480:0 481:0 482:0 483:0 484:0 485:0 486:0 487:0 488:0 489:0 490:0 491:0 492:0 493:0 494:0 495:0 496:0 497:0 498:0 499:0 500:0 501:0 502:0 503:0 504:0 505:0 506:0 507:0 508:0 509:0 510:0 511:0 512:0 513:0 514:0 515:0 516:0 517:0 518:0 519:0 520:0 521:0 522:0 523:0 524:0 525:0 526:0 527:0 528:0 529:0 530:0 531:0 532:0 533:0 534:0 535:0 536:0 537:0 538:0 539:0 540:0 541:0 542:0 543:0 544:0 545:0 546:0 547:0 548:0 549:0 550:0 551:0 552:0 553:0 554:0 555:0 556:0 557:0 558:0 559:0 560:0 561:0 562:0 563:0 564:0 565:0 566:0 567:0 568:0 569:0 570:0 571:0 572:0 573:0 574:0 575:0 576:0 577:0 578:0 579:0 580:0 581:0 582:0 583:0 584:0 585:0 586:0 587:0 588:0 589:0 590:0 591:0 592:0 593:0 594:0 595:0 596:0 597:0 598:0 599:0 600:0 601:0 602:0 603:0 604:0 605:0 606:1 607:0 608:0 609:1 610:0 611:0 612:0 613:1 614:1 615:0 616:0 617:1 618:1 619:0 620:0 621:1 622:0 623:0 624:1 625:1 626:1 627:0 628:1 629:0 630:1 631:0 632:0 633:0 634:0 635:0 636:0 637:0 638:0 639:0 640:0 641:0 642:0 643:0 644:0 645:0 646:0 647:0 648:0 649:0 650:0 651:0 652:0 653:0 654:0 655:0 656:0 657:0 658:0 659:0 660:0 661:0 662:0 663:0 664:0 665:0 666:0 667:0 668:0 669:0 670:0 671:0 672:0 673:0 674:0 675:0 676:0 677:0 678:0 679:0 680:0 681:0 682:0 683:0 684:0 685:0 686:0 687:0 688:0 689:0 
0.05189125428144044510636589961905 1:0 2:0 3:0 4:0 5:0 6:0.0070922002 7:0 8:0 9:0.0070922002 10:0.0070922002 11:0.063829802 12:0.099290803 13:0.26950401 14:0.35461 15:0.80141801 16:1 17:0.64538997 18:0.503546 19:0.177305 20:0.085106403 21:0.021276601 22:0 23:0 24:0 25:0 26:0 27:0 28:0 29:0 30:0 31:0 32:0 33:0 34:0 35:0 36:0 37:0 38:0 39:0 40:0 41:0 42:0 43:0 44:0 45:0 46:0 47:0 48:0 49:0 50:0 51:0 52:0 53:0 54:0 55:0 56:0 57:0 58:0 59:0 60:0 61:0 62:0 63:0 64:0 65:0 66:0 67:0 68:0 69:0 70:0 71:0 72:0 73:0 74:0 75:0 76:0 77:0 78:0 79:0 80:0 81:0 82:0 83:0 84:0 85:0 86:0 87:0 88:0 89:0 90:0 91:0 92:0 93:0 94:0 95:0 96:0 97:0 98:0 99:0 100:0 101:0 102:0 103:0 104:0 105:0 106:0 107:0 108:0 109:0 110:0 111:0 112:0 113:0 114:0 115:0 116:0 117:0 118:0 119:0 120:0 121:0 122:0 123:0 124:0 125:0 126:0 127:0 128:0 129:0 130:0 131:0 132:0 133:0 134:0 135:0 136:0 137:0 138:0 139:0 140:0 141:0 142:0 143:0 144:0 145:0 146:0 147:0 148:0 149:0 150:0 151:0 152:0 153:0 154:0 155:0 156:0 157:0 158:0 159:0 160:0 161:0 162:0 163:0 164:0 165:0 166:0 167:0 168:0 169:0 170:0 171:0 172:0 173:0 174:0 175:0 176:0 177:0 178:0 179:0 180:0 181:0 182:0 183:0 184:0 185:0 186:0 187:0 188:0 189:0 190:0 191:0 192:0 193:0 194:0 195:0 196:0 197:0 198:0 199:0 200:0 201:0 202:0 203:0 204:0 205:0 206:0 207:0 208:0 209:0 210:0 211:0 212:0 213:0 214:0 215:0.047619 216:0 217:0 218:0 219:0.047619 220:0 221:0 222:0 223:0.047619 224:0.047619 225:0.095238097 226:0 227:0 228:0 229:0.190476 230:0.095238097 231:0.047619 232:0.095238097 233:0.142857 234:0.047619 235:0.047619 236:0.095238097 237:0.190476 238:0.047619 239:0.047619 240:0.095238097 241:0.095238097 242:0.142857 243:0.095238097 244:0.238095 245:0.142857 246:0.190476 247:0.285714 248:0.047619 249:0 250:0.047619 251:0.190476 252:0.33333299 253:0.095238097 254:0.190476 255:0.33333299 256:0.047619 257:0.285714 258:0.190476 259:0.33333299 260:0.380952 261:0.285714 262:0.285714 263:0.095238097 264:0.142857 265:0.42857099 266:0.380952 267:0.57142901 268:0.42857099 269:0.33333299 270:0.57142901 271:0.47619 272:0.47619 273:0.66666698 274:0.33333299 275:0.619048 276:0.57142901 277:0.57142901 278:0.66666698 279:0.42857099 280:0.76190501 281:0.66666698 282:0.52381003 283:0.619048 284:0.238095 285:0.52381003 286:0.809524 287:0.619048 288:0.380952 289:0.85714298 290:0.52381003 291:0.47619 292:0.42857099 293:0.57142901 294:0.57142901 295:1 296:0.42857099 297:0.76190501 298:0.238095 299:0.238095 300:0.33333299 301:0.285714 302:0.142857 303:0.047619 304:0.095238097 305:0.190476 306:0.190476 307:0.190476 308:0.095238097 309:0.047619 310:0.095238097 311:0.095238097 312:0 313:0.047619 314:0 315:0.047619 316:0 317:0 318:0.142857 319:0 320:0 321:0.047619 322:0.047619 323:0 324:0 325:0 326:0 327:0 328:0 329:0 330:0 331:0 332:0 333:0.047619 334:0 335:0 336:0.095238097 337:0 338:0 339:0.047619 340:0 341:0 342:0 343:0 344:0 345:0 346:0 347:0 348:0 349:0 350:0 351:0.047619 352:0 353:0 354:0 355:0.047619 356:0 357:0 358:0 359:0 360:0 361:0 362:0 363:0 364:0 365:0 366:0 367:0 368:0 369:0 370:0 371:0 372:0 373:0 374:0 375:0 376:0 377:0 378:0 379:0 380:0 381:0 382:0 383:0 384:0 385:0 386:0 387:0 388:0 389:0 390:0 391:0 392:0 393:0 394:0 395:0 396:0 397:0 398:0 399:0 400:0 401:0 402:0 403:0 404:0 405:0 406:0 407:0 408:0 409:0 410:0 411:0 412:0 413:0 414:0 415:0 416:0 417:0 418:0 419:0 420:0 421:0 422:0 423:0 424:0 425:0 426:0 427:0 428:0 429:0 430:0 431:0 432:0 433:0 434:0 435:0 436:0 437:0 438:0 439:0 440:0 441:0 442:0 443:0 444:0 445:0 446:0 447:0.050000001 448:0 449:0.050000001 450:0 451:0 452:0 453:0 454:0.050000001 455:0 456:0 457:0 458:0 459:0 460:0 461:0 462:0 463:0 464:0 465:0 466:0 467:0 468:0 469:0 470:0 471:0 472:0 473:0 474:0 475:0 476:0 477:0 478:0 479:0 480:0 481:0 482:0 483:0 484:0 485:0.050000001 486:0 487:0 488:0 489:0.050000001 490:0 491:0 492:0 493:0 494:0 495:0 496:0 497:0 498:0 499:0 500:0 501:0 502:0 503:0 504:0 505:0 506:0.050000001 507:0.050000001 508:0 509:0 510:0.050000001 511:0.1 512:0.050000001 513:0 514:0 515:0 516:0 517:0 518:0 519:0 520:0.15000001 521:0 522:0.050000001 523:0 524:0.050000001 525:0 526:0.1 527:0.050000001 528:0.050000001 529:0.1 530:0.050000001 531:0 532:0 533:0 534:0.050000001 535:0.1 536:0 537:0.050000001 538:0.050000001 539:0.050000001 540:0 541:0.050000001 542:0.050000001 543:0.1 544:0.1 545:0.15000001 546:0 547:0.34999999 548:0.30000001 549:0.25 550:0.15000001 551:0.050000001 552:0.2 553:0.25 554:0.2 555:0.2 556:0.1 557:0.44999999 558:0.40000001 559:0.5 560:0.25 561:0.34999999 562:0.55000001 563:0.34999999 564:0.75 565:0.64999998 566:0.64999998 567:0.85000002 568:0.60000002 569:0.34999999 570:0.25 571:0.75 572:0.60000002 573:0.55000001 574:0.30000001 575:0.89999998 576:0.64999998 577:0.64999998 578:0.44999999 579:0.64999998 580:0.44999999 581:1 582:0.40000001 583:0.75 584:0.94999999 585:0.75 586:0.69999999 587:0.64999998 588:0.80000001 589:0.30000001 590:0.30000001 591:0.64999998 592:0.30000001 593:0.40000001 594:0.5 595:0.15000001 596:0.30000001 597:0.25 598:0.25 599:0.15000001 600:0.1 601:0.1 602:0.40000001 603:0.2 604:0.15000001 605:0.050000001 606:0.34999999 607:0.15000001 608:0 609:0.050000001 610:0.15000001 611:0 612:0.050000001 613:0.050000001 614:0 615:0 616:0 617:0.15000001 618:0.050000001 619:0 620:0.050000001 621:0.050000001 622:0 623:0 624:0 625:0 626:0 627:0.050000001 628:0 629:0 630:0 631:0 632:0 633:0 634:0 635:0 636:0 637:0 638:0.050000001 639:0 640:0 641:0 642:0 643:0 644:0 645:0 646:0 647:0 648:0 649:0 650:0 651:0 652:0 653:0 654:0 655:0 656:0 657:0 658:0 659:0 660:0 661:0 662:0 663:0 664:0 665:0 666:0 667:0 668:0 669:0 670:0 671:0 672:0 673:0 674:0 675:0 676:0 677:0 678:0 679:0 680:0 681:0 682:0 683:0 684:0 685:0 686:0 687:0 688:0 689:0 
0.05189125428144044510636589961905 1:0 2:0 3:0 4:0 5:0 6:0.0120482 7:0.0120482 8:0 9:0 10:0 11:0 12:0 13:0.0120482 14:0.036144599 15:0.060240999 16:0.084337302 17:0.20481899 18:0.13253 19:0.60241002 20:0.62650597 21:0.43373501 22:1 23:0.337349 24:0.036144599 25:0.0120482 26:0 27:0 28:0 29:0 30:0 31:0 32:0 33:0 34:0 35:0 36:0 37:0 38:0 39:0 40:0 41:0 42:0 43:0 44:0 45:0 46:0 47:0 48:0 49:0 50:0 51:0 52:0 53:0 54:0 55:0 56:0 57:0 58:0 59:0 60:0 61:0 62:0 63:0 64:0 65:0 66:0 67:0 68:0 69:0 70:0 71:0 72:0 73:0 74:0 75:0 76:0 77:0 78:0 79:0 80:0 81:0 82:0 83:0 84:0 85:0 86:0 87:0 88:0 89:0 90:0 91:0 92:0 93:0 94:0 95:0 96:0 97:0 98:0 99:0 100:0 101:0 102:0 103:0 104:0 105:0 106:0 107:0 108:0 109:0 110:0 111:0 112:0 113:0 114:0 115:0 116:0 117:0 118:0 119:0 120:0 121:0 122:0 123:0 124:0 125:0 126:0 127:0 128:0 129:0 130:0 131:0 132:0 133:0 134:0 135:0 136:0 137:0 138:0 139:0 140:0 141:0 142:0 143:0 144:0 145:0 146:0 147:0 148:0 149:0 150:0 151:0 152:0 153:0 154:0 155:0 156:0 157:0 158:0 159:0 160:0 161:0 162:0 163:0 164:0 165:0 166:0 167:0 168:0 169:0 170:0 171:0 172:0 173:0 174:0 175:0 176:0 177:0 178:0 179:0 180:0 181:0 182:0 183:0 184:0 185:0 186:0 187:0 188:0 189:0 190:0 191:0 192:0 193:0 194:0 195:0 196:0 197:0 198:0 199:0 200:0 201:0 202:0 203:0 204:0 205:0 206:0 207:0 208:0 209:0 210:0 211:0 212:0 213:0 214:0 215:0 216:0 217:0 218:0 219:0 220:0 221:0 222:0 223:0 224:0 225:0.125 226:0 227:0.125 228:0.125 229:0 230:0 231:0 232:0 233:0.125 234:0.125 235:0 236:0 237:0 238:0.125 239:0.125 240:0.125 241:0.125 242:0 243:0 244:0.125 245:0.25 246:0 247:0.125 248:0 249:0.25 250:0.25 251:0.25 252:0.125 253:0.625 254:0.125 255:0.625 256:0.375 257:0.625 258:0.125 259:0.125 260:0.625 261:0.625 262:0.5 263:0.25 264:0.625 265:0.125 266:0.375 267:0.375 268:0.75 269:0.125 270:0.625 271:0.25 272:0.625 273:0.375 274:0.125 275:0.375 276:0.5 277:0.5 278:0.25 279:0.875 280:0.625 281:0.5 282:0.25 283:0.75 284:0.25 285:0.75 286:0.25 287:0.375 288:0.25 289:0.25 290:1 291:0.25 292:0.375 293:0.25 294:0.125 295:0.125 296:0.125 297:0.125 298:0.375 299:0.375 300:0.25 301:0.375 302:0.5 303:0.25 304:0.375 305:0.5 306:0.25 307:0.125 308:0.625 309:0.125 310:0.5 311:0.25 312:0 313:0.5 314:0 315:0.375 316:0.25 317:0.375 318:0.125 319:0.125 320:0.25 321:0.25 322:0 323:0.25 324:0 325:0 326:0.25 327:0.5 328:0.25 329:0.375 330:0 331:0.25 332:0.25 333:0.25 334:0 335:0.25 336:0.25 337:0.125 338:0.125 339:0 340:0 341:0 342:0 343:0.25 344:0.125 345:0.25 346:0 347:0.125 348:0.375 349:0 350:0 351:0 352:0 353:0.5 354:0.125 355:0.125 356:0.125 357:0 358:0.25 359:0 360:0 361:0.125 362:0.125 363:0 364:0.375 365:0 366:0.125 367:0.125 368:0 369:0.125 370:0 371:0.125 372:0 373:0 374:0 375:0.125 376:0 377:0 378:0 379:0 380:0 381:0.125 382:0 383:0 384:0 385:0.125 386:0.125 387:0 388:0.125 389:0 390:0 391:0 392:0.125 393:0 394:0 395:0 396:0 397:0 398:0 399:0 400:0 401:0 402:0 403:0 404:0 405:0 406:0 407:0 408:0 409:0 410:0 411:0 412:0 413:0 414:0 415:0 416:0 417:0 418:0 419:0.125 420:0 421:0 422:0 423:0 424:0 425:0 426:0 427:0 428:0.125 429:0 430:0 431:0 432:0 433:0 434:0 435:0 436:0 437:0 438:0 439:0 440:0 441:0 442:0 443:0 444:0 445:0 446:0 447:0 448:0 449:0.125 450:0.125 451:0 452:0.125 453:0 454:0 455:0.25 456:0.125 457:0 458:0 459:0 460:0 461:0.125 462:0 463:0.125 464:0.25 465:0.125 466:0.125 467:0.375 468:0 469:0 470:0 471:0.125 472:0.25 473:0.125 474:0.125 475:0 476:0.125 477:0 478:0 479:0 480:0.125 481:0 482:0.125 483:0 484:0 485:0 486:0.25 487:0.125 488:0.125 489:0.125 490:0 491:0.25 492:0.375 493:0.125 494:0.125 495:0.25 496:0.25 497:0.375 498:0 499:0.25 500:0 501:0.125 502:0.25 503:0.375 504:0.125 505:0.125 506:0.125 507:0.25 508:0 509:0 510:0.375 511:0.375 512:0.125 513:0.375 514:0.5 515:0.875 516:0.25 517:0.375 518:0.375 519:0.125 520:0.125 521:0.25 522:0.25 523:0.625 524:0.625 525:0.25 526:0.375 527:0.25 528:0.125 529:0.125 530:0.5 531:0.125 532:0 533:0.25 534:0.375 535:0.625 536:0.25 537:0.75 538:0.375 539:0.375 540:0.125 541:0.25 542:0.25 543:0.375 544:0.25 545:0.125 546:0.125 547:0.25 548:0.5 549:0.5 550:0.375 551:0.25 552:0.25 553:0.375 554:0.75 555:0.375 556:0.625 557:0.375 558:0.125 559:0.375 560:0.5 561:0.375 562:1 563:0.25 564:0.25 565:0.5 566:0.375 567:0.875 568:0.625 569:0.5 570:0.125 571:0.25 572:0.5 573:0.125 574:0.375 575:0.125 576:0.375 577:0.125 578:0.375 579:0.125 580:0.25 581:0.25 582:0.125 583:0.375 584:0.25 585:0.75 586:0.125 587:0.375 588:0.125 589:0.5 590:0.25 591:0.125 592:0.25 593:0.375 594:0.25 595:0 596:0.125 597:0.125 598:0.125 599:0 600:0.25 601:0 602:0.375 603:0.125 604:0 605:0 606:0 607:0 608:0 609:0 610:0 611:0 612:0 613:0.125 614:0 615:0 616:0 617:0 618:0 619:0 620:0 621:0 622:0.125 623:0 624:0 625:0 626:0 627:0.125 628:0 629:0 630:0 631:0 632:0 633:0 634:0 635:0 636:0 637:0 638:0 639:0 640:0 641:0 642:0 643:0 644:0 645:0 646:0 647:0 648:0 649:0 650:0 651:0 652:0 653:0 654:0 655:0 656:0 657:0 658:0 659:0 660:0 661:0 662:0 663:0 664:0 665:0 666:0 667:0 668:0 669:0 670:0 671:0 672:0 673:0 674:0 675:0 676:0 677:0 678:0 679:0 680:0 681:0 682:0 683:0 684:0 685:0 686:0 687:0 688:0 689:0 
0.05189125428144044510636589961905 1:0 2:0 3:0 4:0 5:0 6:0 7:0 8:0 9:0 10:0 11:0 12:0 13:0 14:0 15:0 16:0 17:0 18:0 19:0 20:0 21:0 22:0 23:0 24:1 25:0 26:0 27:0 28:0 29:0 30:0 31:0 32:0 33:0 34:0 35:0 36:0 37:0 38:0 39:0 40:0 41:0 42:0 43:0 44:0 45:0 46:0 47:0 48:0 49:0 50:0 51:0 52:0 53:0 54:0 55:0 56:0 57:0 58:0 59:0 60:0 61:0 62:0 63:0 64:0 65:0 66:0 67:0 68:0 69:0 70:0 71:0 72:0 73:0 74:0 75:0 76:0 77:0 78:0 79:0 80:0 81:0 82:0 83:0 84:0 85:0 86:0 87:0 88:0 89:0 90:0 91:0 92:0 93:0 94:0 95:0 96:0 97:0 98:0 99:0 100:0 101:0 102:0 103:0 104:0 105:0 106:0 107:0 108:0 109:0 110:0 111:0 112:0 113:0 114:0 115:0 116:0 117:0 118:0 119:0 120:0 121:0 122:0 123:0 124:0 125:0 126:0 127:0 128:0 129:0 130:0 131:0 132:0 133:0 134:0 135:0 136:0 137:0 138:0 139:0 140:0 141:0 142:0 143:0 144:0 145:0 146:0 147:0 148:0 149:0 150:0 151:0 152:0 153:0 154:0 155:0 156:0 157:0 158:0 159:0 160:0 161:0 162:0 163:0 164:0 165:0 166:0 167:0 168:0 169:0 170:0 171:0 172:0 173:0 174:0 175:0 176:0 177:0 178:0 179:0 180:0 181:0 182:0 183:0 184:0 185:0 186:0.216216 187:1 188:0.97297299 189:0.32432401 190:0.108108 191:0.0540541 192:0.027027 193:0 194:0 195:0 196:0 197:0 198:0 199:0 200:0 201:0 202:0 203:0 204:0 205:0 206:0 207:0 208:0 209:0 210:0 211:0 212:0 213:0 214:0 215:0 216:0 217:0 218:0 219:0 220:0 221:0 222:0 223:0 224:0 225:0 226:0 227:0 228:0 229:0 230:0 231:0 232:0 233:0 234:0 235:0 236:0 237:0 238:0 239:0 240:0 241:0 242:0 243:0 244:0 245:0 246:0 247:0 248:0 249:0 250:0 251:0 252:0 253:0 254:0 255:0 256:0 257:0 258:0 259:0 260:0 261:0 262:0 263:0 264:0 265:0 266:0 267:0 268:0 269:0 270:0 271:0 272:0 273:0 274:0 275:0 276:0 277:0 278:0 279:0 280:0 281:0 282:0 283:0 284:0 285:0 286:0 287:0 288:0 289:0 290:0 291:0 292:0 293:0 294:0 295:0 296:0 297:0 298:0 299:0 300:0 301:0 302:0 303:0 304:0 305:0 306:0 307:0 308:0 309:0 310:0 311:0 312:0 313:0 314:0 315:0 316:0 317:0 318:0 319:0 320:0 321:0 322:0 323:0 324:0 325:0 326:0 327:0 328:0 329:0 330:0 331:0 332:0 333:0 334:0 335:0 336:0 337:0 338:0 339:0 340:0 341:0 342:0 343:0 344:0 345:0 346:0 347:0 348:0 349:0 350:0 351:0 352:0 353:0 354:0 355:0 356:0 357:0 358:0 359:0 360:0 361:0 362:0 363:0 364:0 365:0 366:0 367:0 368:0 369:0 370:0 371:0 372:0 373:0 374:0 375:0 376:0 377:0 378:0 379:0 380:0 381:0 382:0 383:0 384:0 385:0 386:0 387:0 388:0 389:0 390:0 391:0 392:0 393:0 394:0 395:0 396:0 397:0 398:0 399:0 400:0 401:0 402:0 403:0 404:0 405:0 406:0 407:0 408:0 409:0 410:0 411:0 412:0 413:0 414:0 415:0 416:0 417:0 418:0 419:0 420:0 421:0 422:0 423:0 424:0 425:0 426:0 427:0 428:0 429:0 430:0 431:0 432:0 433:0 434:0 435:0 436:0 437:0 438:0 439:0 440:0 441:0 442:0 443:0 444:0 445:0 446:0 447:0 448:0 449:0 450:0 451:0 452:0 453:0 454:0 455:0 456:0 457:0 458:0 459:0 460:0 461:0 462:0 463:0 464:0 465:0 466:0 467:0 468:0 469:0 470:0 471:0 472:0 473:0 474:0 475:0 476:0 477:0 478:0 479:0 480:0 481:0 482:0 483:0 484:0 485:0 486:0 487:0 488:0 489:0 490:0 491:0 492:0 493:0 494:0 495:0 496:0 497:0 498:0 499:0 500:0 501:0 502:0 503:0 504:0 505:0 506:0 507:0 508:0 509:0 510:0 511:0 512:0 513:0 514:0 515:0 516:0 517:0 518:0 519:0 520:0 521:0 522:0 523:0 524:0 525:0 526:0 527:0 528:0 529:0 530:0 531:0 532:0 533:0 534:0 535:0.166667 536:0 537:0 538:0 539:0 540:0 541:0 542:0 543:0 544:0.33333299 545:0 546:0 547:0 548:0 549:0 550:0 551:0 552:0.166667 553:0.166667 554:0.33333299 555:0 556:0 557:0.166667 558:0.166667 559:0 560:0 561:0.166667 562:0.166667 563:0.166667 564:0.166667 565:0.33333299 566:0.166667 567:0.33333299 568:0.166667 569:0.166667 570:1 571:0.33333299 572:0.166667 573:0.33333299 574:0.166667 575:0.66666698 576:0.33333299 577:0.66666698 578:0.33333299 579:0.66666698 580:0.5 581:0.33333299 582:0.166667 583:0.166667 584:0.33333299 585:0.66666698 586:0.33333299 587:0.33333299 588:0.166667 589:0.166667 590:0.166667 591:0.33333299 592:0.33333299 593:0.66666698 594:0.33333299 595:0.166667 596:0.33333299 597:0.166667 598:0.166667 599:0.33333299 600:0.33333299 601:0 602:0.33333299 603:0.166667 604:0.33333299 605:0.166667 606:0 607:0.166667 608:0 609:0 610:0 611:0.33333299 612:0 613:0.166667 614:0 615:0 616:0.166667 617:0 618:0 619:0 620:0 621:0.166667 622:0 623:0 624:0 625:0 626:0 627:0.166667 628:0 629:0 630:0 631:0 632:0 633:0 634:0 635:0 636:0 637:0 638:0 639:0 640:0 641:0 642:0 643:0 644:0 645:0 646:0 647:0 648:0 649:0 650:0 651:0 652:0 653:0 654:0 655:0 656:0 657:0 658:0 659:0 660:0 661:0 662:0 663:0 664:0 665:0 666:0 667:0 668:0 669:0 670:0 671:0 672:0 673:0 674:0 675:0 676:0 677:0 678:0 679:0 680:0 681:0 682:0 683:0 684:0 685:0 686:0 687:0 688:0 689:0 
0.05189125428144044510636589961905 1:0 2:0 3:0 4:0 5:0 6:0 7:0 8:0 9:0 10:0 11:0 12:0 13:0 14:0 15:0 16:0 17:0 18:0 19:0 20:0 21:0 22:0.2 23:0 24:0.30000001 25:0.1 26:1 27:0.2 28:0.2 29:0.1 30:0 31:0 32:0 33:0 34:0 35:0 36:0 37:0 38:0 39:0 40:0 41:0 42:0 43:0 44:0 45:0 46:0 47:0 48:0 49:0 50:0 51:0 52:0 53:0 54:0 55:0 56:0 57:0 58:0 59:0 60:0 61:0 62:0 63:0 64:0 65:0 66:0 67:0 68:0 69:0 70:0 71:0 72:0 73:0 74:0 75:0 76:0 77:0 78:0 79:0 80:0 81:0 82:0 83:0 84:0 85:0 86:0 87:0 88:0 89:0 90:0 91:0 92:0 93:0 94:0 95:0 96:0 97:0 98:0 99:0 100:0 101:0 102:0 103:0 104:0 105:0 106:0 107:0 108:0 109:0 110:0 111:0 112:0 113:0 114:0 115:0 116:0 117:0 118:0 119:0 120:0 121:0 122:0 123:0 124:0 125:0 126:0 127:0 128:0 129:0 130:0 131:0 132:0 133:0 134:0 135:0 136:0 137:0 138:0 139:0 140:0 141:0 142:0 143:0 144:0 145:0 146:0 147:0 148:0 149:0 150:0 151:0 152:0 153:0 154:0 155:0 156:0 157:0 158:0 159:0 160:0 161:0 162:0 163:0 164:0 165:0 166:0 167:0 168:0 169:0 170:0 171:0 172:0 173:0 174:0 175:0 176:0 177:0 178:0 179:0 180:0 181:0 182:0 183:0 184:0 185:0 186:0 187:0 188:0 189:0 190:0 191:0 192:0 193:0 194:0 195:0 196:0 197:0 198:0 199:0 200:0 201:0 202:0 203:0 204:0 205:0 206:0 207:0 208:0 209:0 210:0 211:0 212:0 213:0 214:0 215:0 216:0.33333299 217:0 218:0 219:0.33333299 220:0.33333299 221:0 222:0.33333299 223:0 224:0.66666698 225:0.66666698 226:0 227:0.66666698 228:0.66666698 229:0.66666698 230:0 231:0.66666698 232:1 233:0 234:0 235:0 236:0 237:0.33333299 238:0 239:0 240:0.33333299 241:0 242:0 243:0 244:0 245:0 246:0 247:0 248:0 249:0 250:0 251:0 252:0 253:0 254:0 255:0 256:0 257:0 258:0 259:0 260:0 261:0 262:0 263:0 264:0 265:0 266:0 267:0 268:0 269:0 270:0 271:0 272:0 273:0 274:0 275:0 276:0 277:0 278:0 279:0 280:0 281:0 282:0 283:0 284:0 285:0 286:0 287:0 288:0 289:0 290:0 291:0 292:0 293:0 294:0 295:0 296:0 297:0 298:0 299:0 300:0 301:0 302:0 303:0 304:0 305:0 306:0 307:0 308:0 309:0 310:0 311:0 312:0 313:0 314:0 315:0 316:0 317:0 318:0 319:0 320:0 321:0 322:0 323:0 324:0 325:0 326:0 327:0 328:0 329:0 330:0 331:0 332:0 333:0 334:0 335:0 336:0 337:0 338:0 339:0 340:0 341:0 342:0 343:0 344:0 345:0 346:0 347:0 348:0 349:0 350:0 351:0 352:0 353:0 354:0 355:0 356:0 357:0 358:0 359:0 360:0 361:0 362:0 363:0 364:0 365:0 366:0 367:0 368:0 369:0 370:0 371:0 372:0 373:0 374:0 375:0 376:0 377:0 378:0 379:0 380:0 381:0 382:0 383:0 384:0 385:0 386:0 387:0 388:0 389:0 390:0 391:0 392:0 393:0 394:0 395:0 396:0 397:0 398:0 399:0 400:0 401:0 402:0 403:0 404:0 405:0 406:0 407:0 408:0 409:0 410:0 411:0 412:0 413:0 414:0 415:0 416:0 417:0 418:0 419:0 420:0 421:0 422:0 423:0 424:0 425:0 426:0 427:0 428:0 429:0 430:0 431:0 432:0 433:0 434:0 435:0 436:0 437:0 438:0 439:0 440:0 441:0 442:0 443:0 444:0 445:0 446:0 447:0 448:0 449:0 450:0 451:0 452:0 453:0 454:0 455:0 456:0 457:0 458:0 459:0 460:0 461:0 462:0 463:0 464:0 465:0 466:0 467:0 468:0 469:0 470:0 471:0 472:0 473:0 474:0 475:0 476:0 477:0 478:0 479:0 480:0 481:0 482:0 483:0 484:0 485:0 486:0 487:0 488:0 489:0 490:0 491:0 492:0 493:0 494:0 495:0 496:0 497:0 498:0 499:0 500:0 501:0 502:0 503:0 504:0 505:0 506:0 507:0 508:0 509:0 510:0 511:0 512:0 513:0 514:0 515:0 516:0 517:0 518:0 519:0 520:0.5 521:0 522:0 523:0 524:0 525:0 526:0 527:0 528:0 529:0 530:0 531:0 532:0 533:0 534:0 535:0 536:0 537:0 538:0 539:0 540:0 541:0 542:0 543:0 544:0 545:0 546:0 547:0 548:0.5 549:0.5 550:0 551:0 552:0.5 553:0 554:0 555:0 556:0 557:0 558:0 559:0 560:0 561:0.5 562:0 563:0 564:0 565:0 566:0 567:0.5 568:0 569:0 570:0 571:0.5 572:0 573:0 574:0.5 575:0.5 576:0 577:0 578:0 579:0 580:1 581:0 582:0.5 583:0.5 584:0.5 585:0 586:0 587:0 588:0.5 589:0 590:0 591:0 592:0 593:0 594:0 595:0.5 596:0 597:0.5 598:0 599:0.5 600:0 601:0 602:0 603:0.5 604:0 605:0.5 606:0 607:0 608:0 609:0 610:0.5 611:0 612:0 613:0 614:0 615:0 616:0 617:0 618:0 619:0 620:0 621:0 622:0 623:0 624:0 625:0 626:0 627:0 628:0 629:0 630:0 631:0 632:0 633:0 634:0 635:0 636:0 637:0 638:0 639:0 640:0 641:0 642:0 643:0 644:0 645:0 646:0 647:0 648:0 649:0 650:0 651:0 652:0 653:0 654:0 655:0 656:0 657:0 658:0 659:0 660:0 661:0 662:0 663:0 664:0 665:0 666:0 667:0 668:0 669:0 670:0 671:0 672:0 673:0 674:0 675:0 676:0 677:0 678:0 679:0 680:0 681:0 682:0 683:0 684:0 685:0 686:0 687:0 688:0 689:0 
-0.05189125428144044510636589961905 1:0 2:0 3:0 4:0 5:0 6:0 7:0 8:0 9:0 10:0 11:0 12:0 13:0 14:0 15:0 16:0.2 17:0.26666701 18:0.80000001 19:0.40000001 20:1 21:0.86666697 22:0.533333 23:0.40000001 24:0.40000001 25:0.33333299 26:0.73333299 27:0.466667 28:0 29:0 30:0 31:0 32:0 33:0 34:0 35:0 36:0 37:0 38:0 39:0 40:0 41:0 42:0 43:0 44:0 45:0 46:0 47:0 48:0 49:0 50:0 51:0 52:0 53:0 54:0 55:0 56:0 57:0 58:0 59:0 60:0 61:0 62:0 63:0 64:0 65:0 66:0 67:0 68:0 69:0 70:0 71:0 72:0 73:0 74:0 75:0 76:0 77:0 78:0 79:0 80:0 81:0 82:0 83:0 84:0 85:0 86:0 87:0 88:0 89:0 90:0 91:0 92:0 93:0 94:0 95:0 96:0 97:0 98:0 99:0 100:0 101:0 102:0 103:0 104:0 105:0 106:0 107:0 108:0 109:0 110:0 111:0 112:0 113:0 114:0 115:0 116:0 117:0 118:0 119:0 120:0 121:0 122:0 123:0 124:0 125:0 126:0 127:0 128:0 129:0 130:0 131:0 132:0 133:0 134:0 135:0 136:0 137:0 138:0 139:0 140:0 141:0 142:0 143:0 144:0 145:0 146:0 147:0 148:0 149:0 150:0 151:0 152:0 153:0 154:0 155:0 156:0 157:0 158:0 159:0 160:0 161:0 162:0 163:0 164:0 165:0 166:0 167:0 168:0 169:0 170:0 171:0 172:0 173:0 174:0 175:0 176:0 177:0 178:0 179:0 180:0 181:0 182:0 183:0 184:0 185:0 186:0 187:0 188:0 189:0 190:0 191:0 192:0 193:0 194:0 195:0 196:0 197:0 198:0 199:0 200:0 201:0 202:0 203:0 204:0 205:0 206:0 207:0 208:0 209:0 210:0 211:0 212:0 213:0 214:0 215:0 216:0 217:0 218:0 219:0 220:0 221:0 222:0 223:0 224:0 225:0 226:0 227:0 228:0 229:0 230:0 231:0 232:0 233:0 234:0 235:0 236:0 237:0 238:0 239:0 240:0 241:0 242:0 243:0 244:0 245:0 246:0 247:0 248:0 249:0 250:0 251:0 252:0 253:0 254:0 255:0 256:0 257:0 258:0 259:0 260:0 261:0 262:0 263:0 264:0 265:0 266:0 267:0 268:0 269:0 270:0 271:0 272:0 273:0 274:0 275:0 276:0 277:0 278:0 279:0 280:0 281:0 282:0 283:0 284:0 285:0 286:0 287:0 288:0 289:0 290:0 291:0 292:0 293:0 294:0 295:0 296:0 297:0 298:0 299:0 300:0 301:0 302:0 303:0 304:0 305:0 306:0 307:0 308:0 309:0 310:0 311:0 312:0 313:0 314:0 315:0 316:0 317:0 318:0 319:0 320:0 321:0 322:0 323:0 324:0 325:0 326:0 327:0 328:0 329:0 330:0 331:0 332:0 333:0 334:0 335:0 336:0 337:0 338:0 339:0 340:0 341:0 342:0 343:0 344:0 345:0 346:0 347:0 348:0 349:0 350:0 351:0 352:0 353:0 354:0 355:0 356:0 357:0 358:0 359:0 360:0 361:0 362:0 363:0 364:0 365:0 366:0 367:0 368:0 369:0 370:0 371:0 372:0.166667 373:0 374:0 375:0.166667 376:0 377:0.166667 378:0.33333299 379:0 380:0.166667 381:0 382:0.166667 383:0 384:0 385:0 386:0 387:0 388:0 389:0 390:0.166667 391:0 392:0 393:0 394:0 395:0 396:0.166667 397:0 398:0.166667 399:0 400:0.33333299 401:0.166667 402:0.166667 403:0.33333299 404:0 405:0.166667 406:0.5 407:0.166667 408:0.66666698 409:0.166667 410:0.166667 411:0.66666698 412:1 413:0.166667 414:0.83333302 415:0.33333299 416:1 417:0.33333299 418:0.66666698 419:0.5 420:0.5 421:0.166667 422:0.166667 423:0.166667 424:0.33333299 425:0.166667 426:0 427:0.166667 428:0.5 429:0.83333302 430:0.66666698 431:0.33333299 432:0.166667 433:0 434:0 435:0 436:0 437:0 438:0 439:0 440:0 441:0 442:0 443:0 444:0 445:0 446:0 447:0 448:0 449:0 450:0 451:0 452:0 453:0 454:0 455:0 456:0 457:0 458:0 459:0 460:0 461:0 462:0 463:0 464:0 465:0 466:0 467:0 468:0 469:0 470:0 471:0 472:0 473:0 474:0 475:0 476:0 477:0 478:0 479:0 480:0 481:0 482:0 483:0 484:0 485:0 486:0 487:0 488:0 489:0 490:0 491:0 492:0 493:0 494:0 495:0 496:0 497:0 498:0 499:0 500:0 501:0 502:0 503:0 504:0 505:0 506:0 507:0 508:0 509:0 510:0 511:0 512:0 513:0 514:0 515:0 516:0 517:0 518:0 519:0 520:0 521:0 522:0 523:0 524:0 525:0 526:0 527:0 528:0 529:0 530:0 531:0 532:0 533:0 534:0 535:0 536:0 537:0 538:0 539:0 540:0 541:0 542:0 543:0 544:0 545:0 546:0 547:0 548:0.142857 549:0.142857 550:0 551:0 552:0 553:0 554:0.42857099 555:0.142857 556:0.142857 557:0.142857 558:0.142857 559:0.142857 560:0.142857 561:0.285714 562:0.142857 563:0.285714 564:0 565:0.285714 566:0.285714 567:0.142857 568:0.142857 569:0.57142901 570:0.285714 571:0.57142901 572:0.285714 573:0.71428603 574:1 575:0.57142901 576:0.57142901 577:0.42857099 578:0.142857 579:0.142857 580:0.285714 581:0.142857 582:0.42857099 583:0.142857 584:0.42857099 585:0 586:0.42857099 587:0 588:0.142857 589:0.285714 590:0.42857099 591:0.142857 592:0.42857099 593:0.285714 594:0 595:0.142857 596:0.285714 597:0.285714 598:0.142857 599:0.142857 600:0.142857 601:0.142857 602:0.142857 603:0.142857 604:0 605:0.142857 606:0 607:0 608:0 609:0 610:0 611:0 612:0 613:0 614:0 615:0 616:0 617:0 618:0 619:0 620:0 621:0 622:0 623:0 624:0 625:0 626:0 627:0 628:0 629:0 630:0 631:0 632:0 633:0 634:0 635:0 636:0 637:0 638:0 639:0 640:0 641:0 642:0 643:0 644:0 645:0 646:0 647:0 648:0 649:0 650:0 651:0 652:0 653:0 654:0 655:0 656:0 657:0 658:0 659:0 660:0 661:0 662:0 663:0 664:0 665:0 666:0 667:0 668:0 669:0 670:0 671:0 672:0 673:0 674:0 675:0 676:0 677:0 678:0 679:0 680:0 681:0 682:0 683:0 684:0 685:0 686:0 687:0 688:0 689:0 
