SVM-light Version V6.02
2 # kernel type
3 # kernel parameter -d 
1 # kernel parameter -g 
1 # kernel parameter -s 
1 # kernel parameter -r 
empty# kernel parameter -u 
35 # highest feature index 
128 # number of training documents 
113 # number of support vectors plus 1 
-0.56886387 # threshold b, each following line is a SV (starting with alpha*y)
-0.50023274168615483592503778709215 1:0.91707563 2:0.55889273 3:0.58476132 4:0.40053496 5:0.8510989 6:0.40385449 7:0.58894825 8:0.54821771 9:0.94384819 10:0.91321796 11:0.51712441 12:0.54957646 13:0.40804565 14:0.92661607 15:0.41977593 16:0.59513366 17:0.58377719 18:0.94271463 19:0.92242783 20:0.56949681 21:0.57196188 22:0.45907441 23:0.92658889 24:0.4680365 25:0.69916117 26:0.67396253 27:0.90735304 28:0.55039763 29:0.58782852 30:0.46276554 31:0.98497969 32:0.45862359 33:0.67839146 34:0.65234518 35:0.97243512 #
-0.50023274168615483592503778709215 1:0.95732212 2:0.6036588 3:0.49844125 4:0.40175968 5:0.53284246 6:0.46311274 7:0.5440616 8:0.58234578 9:0.87524545 10:0.9715749 11:0.6550985 12:0.54679203 13:0.45156738 14:0.56113476 15:0.51116121 16:0.62038559 17:0.64156443 18:0.90542096 19:0.9596293 20:0.73804867 21:0.52200437 22:0.4493134 23:0.56045264 24:0.49514198 25:0.58022183 26:0.64055306 27:0.95954955 28:0.76204783 29:0.57811123 30:0.4899298 31:0.59907061 32:0.53961384 33:0.62540996 34:0.67523491 35:0.98750001 #
-0.50023274168615483592503778709215 1:0.79458725 2:0.22431663 3:0.31571546 4:0.24518786 5:0.44859269 6:0.17657942 7:0.48692197 8:0.55297071 9:0.9218784 10:0.88613582 11:0.21584375 12:0.3201941 13:0.24037692 14:0.47122616 15:0.20776321 16:0.58734763 17:0.62229699 18:0.96042383 19:0.89174896 20:0.22923535 21:0.33191332 22:0.24061497 23:0.47245955 24:0.18559381 25:0.55052465 26:0.62571722 27:0.98756838 28:0.87960052 29:0.26950461 30:0.367311 31:0.26386076 32:0.47606829 33:0.19599427 34:0.55975151 35:0.63935715 #
-0.50023274168615483592503778709215 1:0.74670655 2:0.43108547 3:0.46353939 4:0.38353908 5:0.76195151 6:0.55787939 7:0.69439417 8:0.55425298 9:0.78258306 10:0.79858464 11:0.44863287 12:0.48610234 13:0.41777194 14:0.92785972 15:0.59343851 16:0.70577657 17:0.61920136 18:0.85221565 19:0.82458776 20:0.4786301 21:0.55011988 22:0.4532468 23:0.90079057 24:0.69837904 25:0.86174476 26:0.73075747 27:0.88291728 28:0.76335973 29:0.48224285 30:0.53702384 31:0.45431688 32:0.63637114 33:0.77101147 34:0.69844991 35:0.81967568 #
0.15804276624571766962645824605715 1:0.96619749 2:0.39730516 3:0.31393519 4:0.28423384 5:0.46293065 6:0.22642837 7:0.23578581 8:0.22873235 9:0.92247307 10:0.410557 11:0.33127823 12:0.30104667 13:0.52322441 14:0.23343186 15:0.2375962 16:0.25290489 17:0.96252012 18:0.9504959 19:0.41790318 20:0.33143836 21:0.29714516 22:0.49426174 23:0.273094 24:0.27969292 25:0.26912361 26:0.92770052 27:0.99283105 28:0.48345286 29:0.36201349 30:0.33172172 31:0.56098825 32:0.2754108 33:0.269721 34:0.29228565 35:0.9737342 #
0.50023274168615483592503778709215 1:0.94690067 2:0.4231604 3:0.40812021 4:0.34656239 5:0.53486669 6:0.35408047 7:0.30721566 8:0.28809974 9:0.9233917 10:0.46183428 11:0.40506008 12:0.33116773 13:0.5709241 14:0.34797084 15:0.32963035 16:0.30189359 17:0.96066016 18:0.94856 19:0.48656264 20:0.44402117 21:0.36170787 22:0.47054744 23:0.38718143 24:0.34934166 25:0.31727046 26:0.90190935 27:0.97455853 28:0.53254366 29:0.47819 30:0.36174685 31:0.59232569 32:0.39312649 33:0.36820972 34:0.34885827 35:0.94375634 #
0.50023274168615483592503778709215 1:0.73494136 2:0.50266659 3:0.53160101 4:0.42602479 5:0.72141713 6:0.23799874 7:0.64272487 8:0.70851582 9:0.82375377 10:0.88644683 11:0.54174733 12:0.57759452 13:0.46118465 14:0.78129101 15:0.28666618 16:0.77271956 17:0.80433613 18:0.83728462 19:0.52145422 20:0.56474841 21:0.46038356 22:0.76995581 23:0.30636153 24:0.70641482 25:0.75711262 26:0.96086872 27:0.86629385 28:0.57312036 29:0.63463545 30:0.55982733 31:0.88766527 32:0.34331563 33:0.74629247 34:0.83096063 35:0.98869276 #
0.21715544404082354201790394654381 1:0.91174793 2:0.18745477 3:0.16345961 4:0.1991815 5:0.59612244 6:0.19895892 7:0.25067836 8:0.34736201 9:0.93381172 10:0.95159453 11:0.21809146 12:0.1939657 13:0.2291178 14:0.57350308 15:0.22688788 16:0.29867306 17:0.40857121 18:0.96543527 19:0.96400207 20:0.23764417 21:0.1984093 22:0.22818206 23:0.63103396 24:0.23631968 25:0.30568153 26:0.42391086 27:0.96556222 28:0.26192865 29:0.2310372 30:0.26886937 31:0.60172707 32:0.26038307 33:0.32156801 34:0.44041508 35:0.9988963 #
0.3738666930454109804671247729857 1:0.58078104 2:0.23683193 3:0.19174531 4:0.25374159 5:0.95559776 6:0.38127184 7:0.46570122 8:0.3325077 9:0.60581386 10:0.66345865 11:0.2589066 12:0.21152788 13:0.26841652 14:0.98225409 15:0.44444969 16:0.51606196 17:0.40632275 18:0.69431126 19:0.66923338 20:0.28146857 21:0.21802838 22:0.30065247 23:0.44233063 24:0.5238713 25:0.41855285 26:0.70647031 27:0.69088775 28:0.32543564 29:0.25039372 30:0.27566355 31:0.97313029 32:0.43084076 33:0.49956721 34:0.39346969 35:0.72827911 #
0.17256239137825912788315463330946 1:0.96402866 2:0.47760025 3:0.41191155 4:0.3127389 5:0.50784892 6:0.2760168 7:0.32452285 8:0.37137413 9:0.95230454 10:0.9833805 11:0.50951082 12:0.43125612 13:0.33704582 14:0.53187162 15:0.31542772 16:0.35798413 17:0.41893178 18:0.96968675 19:0.98111349 20:0.50729233 21:0.42172298 22:0.35001945 23:0.54905534 24:0.33798444 25:0.38649577 26:0.42167935 27:0.95273107 28:0.56539226 29:0.48491526 30:0.39648488 31:0.5854125 32:0.37830302 33:0.42963409 34:0.46833199 35:0.98071712 #
-0.50023274168615483592503778709215 1:0.88194197 2:0.4074769 3:0.37564233 4:0.2906878 5:0.52978367 6:0.29712844 7:0.29828855 8:0.32083601 9:0.86480975 10:0.434118 11:0.42230204 12:0.31711945 13:0.58021164 14:0.33948696 15:0.38622203 16:0.40402627 17:0.97184509 18:0.86010349 19:0.46957925 20:0.424676 21:0.34883633 22:0.56236345 23:0.344504 24:0.33480859 25:0.38042575 26:0.83987153 27:0.91362399 28:0.51712644 29:0.45524424 30:0.39294332 31:0.64793545 32:0.38799891 33:0.39723963 34:0.42997703 35:0.87906575 #
-0.50023274168615483592503778709215 1:0.87165415 2:0.40685278 3:0.38613963 4:0.25466263 5:0.61773825 6:0.18820816 7:0.26809558 8:0.32267299 9:0.84009939 10:0.95676142 11:0.49028698 12:0.46225616 13:0.27137804 14:0.4712593 15:0.20801285 16:0.30907932 17:0.35686117 18:0.90509838 19:0.86954725 20:0.49999586 21:0.49357629 22:0.28717795 23:0.6506812 24:0.22025126 25:0.28440556 26:0.30627567 27:0.80969173 28:0.67512679 29:0.60861814 30:0.38549969 31:0.54232591 32:0.26293513 33:0.31058124 34:0.34790382 35:0.95244622 #
-0.50023274168615483592503778709215 1:0.46631995 2:0.3294718 3:0.37171182 4:0.32196084 5:0.94088262 6:0.46757269 7:0.44205651 8:0.26921329 9:0.48053727 10:0.52536994 11:0.39122024 12:0.43572941 13:0.38761991 14:0.90785342 15:0.63152212 16:0.58419389 17:0.33197397 18:0.52843291 19:0.50730884 20:0.33239371 21:0.41936335 22:0.34496686 23:0.52353668 24:0.49095812 25:0.30881879 26:0.52222687 27:0.56123036 28:0.3957459 29:0.48125511 30:0.42003128 31:0.87063468 32:0.66722667 33:0.58000863 34:0.348878 35:0.58555734 #
0.50023274168615483592503778709215 1:0.85730112 2:0.55265135 3:0.61638159 4:0.47774106 5:0.91394025 6:0.49751139 7:0.58067566 8:0.58666998 9:0.83813828 10:0.89724201 11:0.59244877 12:0.64371651 13:0.53476936 14:0.98604035 15:0.51358163 16:0.61338639 17:0.62678862 18:0.87675643 19:0.92425388 20:0.57945597 21:0.60388792 22:0.51901859 23:0.92496568 24:0.55516046 25:0.65920496 26:0.65742004 27:0.91387916 28:0.96427363 29:0.62518615 30:0.65542728 31:0.57388246 32:0.57057518 33:0.68617582 34:0.68758595 35:0.970716 #
0.50023274168615483592503778709215 1:0.90368795 2:0.57851762 3:0.50254035 4:0.5338977 5:0.7172271 6:0.53133184 7:0.52507567 8:0.58866256 9:0.88324708 10:0.93244159 11:0.63639444 12:0.5714553 13:0.62243629 14:0.77573514 15:0.62831426 16:0.6011771 17:0.63946956 18:0.91937578 19:0.95061564 20:0.67528808 21:0.56630671 22:0.57660711 23:0.76520926 24:0.60380036 25:0.59866858 26:0.6771906 27:0.94385767 28:0.77648586 29:0.65262514 30:0.69091743 31:0.83875775 32:0.71988618 33:0.68945575 34:0.71984649 35:0.98883379 #
0.50023274168615483592503778709215 1:0.91627347 2:0.57115233 3:0.54121262 4:0.47896928 5:0.79114997 6:0.45300677 7:0.50366056 8:0.51551777 9:0.89647746 10:0.95442647 11:0.61934787 12:0.58083278 13:0.51161355 14:0.82833838 15:0.51028931 16:0.55576831 17:0.57716274 18:0.93872112 19:0.96359146 20:0.62352103 21:0.58314162 22:0.52077585 23:0.83638513 24:0.51402181 25:0.5772869 26:0.59389484 27:0.94325107 28:0.69699961 29:0.6481837 30:0.56744301 31:0.87603885 32:0.55048853 33:0.60351336 34:0.63001108 35:0.98375976 #
-0.25297974457313032736749391915509 1:0.83566773 2:0.52358276 3:0.60467553 4:0.50410044 5:0.76085383 6:0.39382255 7:0.52400482 8:0.47581592 9:0.9075858 10:0.96795875 11:0.62486953 12:0.69613153 13:0.5752455 14:0.79050624 15:0.45646802 16:0.56270134 17:0.56232888 18:0.89110744 19:0.56542933 20:0.62655365 21:0.5491761 22:0.83239245 23:0.45168152 24:0.61806333 25:0.55845177 26:0.92031014 27:0.94338697 28:0.64916307 29:0.70740831 30:0.62672651 31:0.76927495 32:0.52135295 33:0.65270376 34:0.65183473 35:0.9911716 #
0.32635626340021545166436567342316 1:0.89841717 2:0.33773953 3:0.33311313 4:0.30481547 5:0.95014173 6:0.27558976 7:0.4011772 8:0.39922979 9:0.95755482 10:0.92850089 11:0.32678276 12:0.33310291 13:0.28689152 14:0.97582126 15:0.28602505 16:0.44157559 17:0.44598797 18:0.8779614 19:0.33851257 20:0.34670147 21:0.31165347 22:0.98138499 23:0.34007296 24:0.45066702 25:0.45351696 26:0.91900462 27:0.93580145 28:0.36404732 29:0.36425835 30:0.31738573 31:0.99647653 32:0.32727617 33:0.43607658 34:0.46741065 35:0.96638316 #
0.19804845278938632002763142736512 1:0.87942904 2:0.18148138 3:0.15066203 4:0.16961135 5:0.56963396 6:0.18925223 7:0.19537425 8:0.33770433 9:0.88515949 10:0.90883011 11:0.20606719 12:0.15123865 13:0.18725242 14:0.53139991 15:0.20535187 16:0.25261712 17:0.43627992 18:0.93167204 19:0.91054249 20:0.20702142 21:0.16351727 22:0.19320925 23:0.5676474 24:0.20147146 25:0.19362295 26:0.32826465 27:0.93834513 28:0.96812183 29:0.23447628 30:0.16469395 31:0.20836493 32:0.57507557 33:0.22489405 34:0.22922866 35:0.38671649 #
0.50023274168615483592503778709215 1:0.78091025 2:0.48436731 3:0.39353958 4:0.16412091 5:0.45660764 6:0.37283391 7:0.68515545 8:0.68435603 9:0.92849576 10:0.83460099 11:0.45913625 12:0.36773065 13:0.16674806 14:0.51655895 15:0.43096116 16:0.74147564 17:0.74497771 18:0.99276733 19:0.80806935 20:0.43986204 21:0.36970204 22:0.17364204 23:0.46446484 24:0.4222143 25:0.72597992 26:0.72514218 27:0.95362598 28:0.83651626 29:0.47064662 30:0.37933993 31:0.19559351 32:0.49962997 33:0.44833779 34:0.77433509 35:0.78623545 #
0.38140230849292838799513560843479 1:0.41053513 2:0.37227526 3:0.44625893 4:0.40889505 5:0.89160883 6:0.56177872 7:0.51819414 8:0.33277583 9:0.42812553 10:0.44209823 11:0.40094995 12:0.49310097 13:0.47464582 14:0.9380917 15:0.60512114 16:0.5492326 17:0.38326314 18:0.45632988 19:0.4183141 20:0.39406958 21:0.4705523 22:0.43856388 23:0.92383325 24:0.61132395 25:0.55032331 26:0.37855077 27:0.44288656 28:0.4742277 29:0.45965382 30:0.52227646 31:0.51437336 32:0.67707765 33:0.60650772 34:0.42740908 35:0.49064425 #
0.50023274168615483592503778709215 1:0.47901604 2:0.34041154 3:0.31887525 4:0.41271275 5:0.97386891 6:0.56989539 7:0.54499686 8:0.43813342 9:0.5239681 10:0.58182287 11:0.4149076 12:0.39971328 13:0.55340523 14:0.84663528 15:0.69563812 16:0.65153873 17:0.52112466 18:0.63412052 19:0.49032328 20:0.37460387 21:0.37679687 22:0.47779873 23:0.60735893 24:0.58763516 25:0.47995591 26:0.53173798 27:0.57920218 28:0.45748401 29:0.46387312 30:0.61259127 31:0.88868946 32:0.75697052 33:0.68058795 34:0.54142302 35:0.62503171 #
-0.50023274168615483592503778709215 1:0.56649685 2:0.36853704 3:0.36680272 4:0.35069457 5:0.94045013 6:0.3535077 7:0.47268406 8:0.41849294 9:0.59063941 10:0.62663323 11:0.42592028 12:0.43644869 13:0.42251101 14:0.8031531 15:0.45136073 16:0.54688901 17:0.50886083 18:0.65365976 19:0.56713796 20:0.42830428 21:0.41721484 22:0.39292544 23:0.39931765 24:0.49972656 25:0.47795984 26:0.59395629 27:0.5986014 28:0.47622368 29:0.4997327 30:0.47567824 31:0.82313627 32:0.45779127 33:0.57256854 34:0.55801994 35:0.64437032 #
-0.50023274168615483592503778709215 1:0.58039182 2:0.31275931 3:0.33624148 4:0.34251311 5:0.94850987 6:0.56155527 7:0.68568832 8:0.45676628 9:0.6170786 10:0.61916208 11:0.3321107 12:0.35955918 13:0.41717094 14:0.94781667 15:0.65488487 16:0.72215742 17:0.54032153 18:0.68946826 19:0.61429268 20:0.34868363 21:0.38584229 22:0.40904763 23:0.58933604 24:0.68978029 25:0.49885798 26:0.64086461 27:0.64617926 28:0.38581029 29:0.41490191 30:0.4533433 31:0.94634902 32:0.65326494 33:0.74232399 34:0.55161268 35:0.70847547 #
-0.50023274168615483592503778709215 1:0.90433025 2:0.34886765 3:0.26941413 4:0.19310364 5:0.42923507 6:0.24595462 7:0.49385881 8:0.54352725 9:0.95269805 10:0.9606896 11:0.39516136 12:0.3121179 13:0.23500068 14:0.43218306 15:0.31446788 16:0.60723841 17:0.65024626 18:0.88346356 19:0.44259232 20:0.35276884 21:0.23293191 22:0.49430642 23:0.3272028 24:0.65922982 25:0.69901192 26:0.93531501 27:0.92664528 28:0.46236968 29:0.38226548 30:0.29904759 31:0.49568176 32:0.35721841 33:0.71841311 34:0.7621156 35:0.96713889 #
0.50023274168615483592503778709215 1:0.8829003 2:0.76461625 3:0.75206518 4:0.43537843 5:0.83358848 6:0.45795318 7:0.56932938 8:0.49535787 9:0.76665789 10:0.93289596 11:0.81398958 12:0.80597079 13:0.4835307 14:0.88099867 15:0.56199253 16:0.66039813 17:0.56692761 18:0.786201 19:0.93844855 20:0.82399136 21:0.78501505 22:0.48329571 23:0.90039766 24:0.55027258 25:0.68796051 26:0.59667802 27:0.79627752 28:0.86926782 29:0.87118727 30:0.55433929 31:0.89204878 32:0.58214325 33:0.67646521 34:0.59298289 35:0.8557384 #
0.50023274168615483592503778709215 1:0.89283055 2:0.65979099 3:0.65380251 4:0.36881149 5:0.71403486 6:0.35229596 7:0.64327532 8:0.58222109 9:0.8383128 10:0.93665302 11:0.71472067 12:0.70553064 13:0.38108754 14:0.72778112 15:0.43599415 16:0.72381049 17:0.68121237 18:0.89304131 19:0.89581531 20:0.71035045 21:0.70222151 22:0.36888298 23:0.77277929 24:0.448044 25:0.74625033 26:0.70435905 27:0.89404154 28:0.79916674 29:0.77612978 30:0.41663164 31:0.78161782 32:0.4482908 33:0.76399213 34:0.71642774 35:0.97734612 #
0.50023274168615483592503778709215 1:0.86232674 2:0.68820453 3:0.62472111 4:0.39427397 5:0.63121134 6:0.40962067 7:0.69165659 8:0.77623993 9:0.87076414 10:0.96071994 11:0.77467215 12:0.72054029 13:0.47309691 14:0.65976644 15:0.49584481 16:0.75771493 17:0.81070459 18:0.99604571 19:0.88132995 20:0.77369827 21:0.70359862 22:0.44355267 23:0.71149361 24:0.47480863 25:0.79978395 26:0.87249702 27:0.93315309 28:0.88871729 29:0.83422202 30:0.54734051 31:0.73190922 32:0.52093965 33:0.81814265 34:0.87956744 35:0.99976599 #
-0.50023274168615483592503778709215 1:0.87842411 2:0.73111266 3:0.72176546 4:0.48626664 5:0.78536254 6:0.41191223 7:0.50755578 8:0.49707952 9:0.80717117 10:0.95331872 11:0.79111814 12:0.80171663 13:0.53961033 14:0.79149675 15:0.47106302 16:0.5680241 17:0.57476598 18:0.90079254 19:0.90866101 20:0.78134543 21:0.77538413 22:0.53513765 23:0.82909006 24:0.46080506 25:0.58496457 26:0.57139492 27:0.81861079 28:0.84250218 29:0.84841508 30:0.6091401 31:0.81932217 32:0.5287618 33:0.63551909 34:0.673581 35:0.9207384 #
-0.20275260911272213748546278111462 1:0.93431258 2:0.66477239 3:0.67220235 4:0.50201941 5:0.7313152 6:0.44653574 7:0.54684222 8:0.50071353 9:0.8632105 10:0.98187417 11:0.70371753 12:0.72196162 13:0.56477213 14:0.73490632 15:0.4970423 16:0.59218156 17:0.57385361 18:0.90117884 19:0.93744743 20:0.74224031 21:0.73742867 22:0.55795109 23:0.78946054 24:0.51823264 25:0.63628107 26:0.604568 27:0.83721572 28:0.78341168 29:0.80425704 30:0.63634366 31:0.87526077 32:0.56800419 33:0.67733508 34:0.63502055 35:0.91132301 #
-0.50023274168615483592503778709215 1:0.86769879 2:0.64828211 3:0.59438407 4:0.51621777 5:0.64470279 6:0.3684715 7:0.44506994 8:0.52142978 9:0.82831371 10:0.96785212 11:0.73525506 12:0.6526652 13:0.55243504 14:0.69633973 15:0.44389507 16:0.53725094 17:0.60852462 18:0.92938352 19:0.89330351 20:0.7099244 21:0.65701056 22:0.54811698 23:0.70661807 24:0.43719828 25:0.49530479 26:0.56695497 27:0.86591446 28:0.8008821 29:0.72161716 30:0.59965104 31:0.74629581 32:0.52042609 33:0.61352158 34:0.65472817 35:0.97290665 #
0.50023274168615483592503778709215 1:0.71790022 2:0.28968459 3:0.29757044 4:0.41212124 5:0.9097001 6:0.52809662 7:0.4996801 8:0.44151497 9:0.7714563 10:0.76495773 11:0.33651215 12:0.36470369 13:0.51661044 14:0.87149942 15:0.64467603 16:0.65685326 17:0.53966808 18:0.82614666 19:0.68120706 20:0.36554962 21:0.38224238 22:0.50246048 23:0.59440899 24:0.56767201 25:0.55158931 26:0.74736559 27:0.75808686 28:0.42706308 29:0.48025721 30:0.61465937 31:0.96800286 32:0.72966897 33:0.72256684 34:0.6328851 35:0.82743907 #
0.50023274168615483592503778709215 1:0.58603942 2:0.42107049 3:0.39791757 4:0.36155832 5:0.98540992 6:0.37724724 7:0.36873537 8:0.34828049 9:0.51369262 10:0.62742406 11:0.44297102 12:0.45660183 13:0.46145859 14:0.98715788 15:0.49430582 16:0.45183209 17:0.40617797 18:0.57071877 19:0.61320937 20:0.46721682 21:0.44421336 22:0.41827568 23:0.4328503 24:0.43965042 25:0.42367795 26:0.54634243 27:0.65371788 28:0.5129512 29:0.49719933 30:0.50614953 31:0.94877654 32:0.53268337 33:0.48330209 34:0.46921489 35:0.59829473 #
0.50023274168615483592503778709215 1:0.63046342 2:0.45998049 3:0.45065153 4:0.40676945 5:0.87254417 6:0.64122391 7:0.72693956 8:0.6081627 9:0.66362989 10:0.67793429 11:0.51985174 12:0.49776858 13:0.45339558 14:0.98061281 15:0.71172172 16:0.80320483 17:0.69018632 18:0.71491605 19:0.68899876 20:0.49774021 21:0.49570671 22:0.45890248 23:0.94479007 24:0.70799351 25:0.82594788 26:0.71113431 27:0.72480989 28:0.72793877 29:0.56181961 30:0.54807574 31:0.49573651 32:0.7568875 33:0.86173952 34:0.73319024 35:0.76109439 #
-0.50023274168615483592503778709215 1:0.56986862 2:0.46965483 3:0.50839293 4:0.45945904 5:0.90756595 6:0.46243894 7:0.46152464 8:0.40903223 9:0.52050155 10:0.58588964 11:0.46684587 12:0.49855971 13:0.4957419 14:0.92271346 15:0.49988034 16:0.50761497 17:0.45531964 18:0.5362851 19:0.62546682 20:0.51035798 21:0.52700382 22:0.50536698 23:0.91932362 24:0.50259364 25:0.49902734 26:0.44304532 27:0.58411837 28:0.65922832 29:0.51927584 30:0.52864856 31:0.52072358 32:0.55832416 33:0.53689331 34:0.48111674 35:0.61965603 #
-0.50023274168615483592503778709215 1:0.48308551 2:0.24962346 3:0.23500514 4:0.26038551 5:0.84179533 6:0.55205226 7:0.68981749 8:0.60450071 9:0.59381795 10:0.61403233 11:0.29865041 12:0.28313008 13:0.31851372 14:0.65601373 15:0.76583618 16:0.68586594 17:0.7162447 18:0.54395449 19:0.28082874 20:0.27290514 21:0.29938713 22:0.96727484 23:0.71619219 24:0.81166309 25:0.79496127 26:0.70017165 27:0.56510776 28:0.31226212 29:0.30379516 30:0.31918341 31:0.94938332 32:0.67173457 33:0.83051872 34:0.75496483 35:0.68776 #
-0.50023274168615483592503778709215 1:0.55098069 2:0.27665949 3:0.31574905 4:0.36440662 5:0.95885873 6:0.42628816 7:0.54106426 8:0.46784392 9:0.63077712 10:0.69150651 11:0.42676878 12:0.48745087 13:0.60414368 14:0.72743386 15:0.66517639 16:0.70404476 17:0.61059713 18:0.77242732 19:0.59277821 20:0.32191867 21:0.37417755 22:0.40632728 23:0.48519731 24:0.59781569 25:0.52926999 26:0.62666297 27:0.83361489 28:0.48333257 29:0.55237591 30:0.64947712 31:0.73313367 32:0.75257069 33:0.78709835 34:0.65028471 35:0.8439362 #
0.50023274168615483592503778709215 1:0.85041124 2:0.69931841 3:0.78323138 4:0.68301207 5:0.90304482 6:0.45032972 7:0.36006764 8:0.41403711 9:0.79267412 10:0.89629787 11:0.74079919 12:0.83698827 13:0.72635531 14:0.87757874 15:0.49950409 16:0.39819321 17:0.45023599 18:0.84477514 19:0.89455688 20:0.7408604 21:0.87266386 22:0.74356818 23:0.95864469 24:0.48187199 25:0.41221845 26:0.46194941 27:0.82500881 28:0.97249794 29:0.81652713 30:0.92571115 31:0.82386053 32:0.56126547 33:0.47369483 34:0.53992105 35:0.90961576 #
0.50023274168615483592503778709215 1:0.9387694 2:0.64688677 3:0.55504334 4:0.3623192 5:0.51044232 6:0.30776006 7:0.39883775 8:0.53732646 9:0.91946197 10:0.99003756 11:0.72046179 12:0.66562659 13:0.42866957 14:0.47268227 15:0.36242899 16:0.4476203 17:0.58717418 18:0.97185153 19:0.8977527 20:0.74942517 21:0.67253321 22:0.43288466 23:0.57356972 24:0.36658418 25:0.49036783 26:0.65017158 27:0.88439411 28:0.90928477 29:0.84763283 30:0.51547331 31:0.53455359 32:0.43794286 33:0.53914964 34:0.69596434 35:0.95285738 #
0.50023274168615483592503778709215 1:0.88950908 2:0.58605766 3:0.60218757 4:0.4192858 5:0.59601784 6:0.35629267 7:0.46678963 8:0.50989622 9:0.88953888 10:0.94617838 11:0.61077702 12:0.63042527 13:0.44741505 14:0.6183756 15:0.42549413 16:0.53718388 17:0.58239645 18:0.94883829 19:0.93516785 20:0.59469497 21:0.61117661 22:0.43495733 23:0.62044001 24:0.41374853 25:0.52265525 26:0.57002085 27:0.93103951 28:0.99356496 29:0.65613896 30:0.67319506 31:0.49041572 32:0.6421867 33:0.42220259 34:0.54466283 35:0.59106219 #
-0.50023274168615483592503778709215 1:0.86961389 2:0.77296615 3:0.84784871 4:0.35096464 5:0.62146777 6:0.23881762 7:0.25972876 8:0.33492157 9:0.75972593 10:0.86156392 11:0.7636525 12:0.81070244 13:0.35377702 14:0.53701746 15:0.28236935 16:0.3300176 17:0.35916153 18:0.76075798 19:0.84045321 20:0.77254707 21:0.84359962 22:0.34011072 23:0.60066384 24:0.25941285 25:0.27635595 26:0.35459703 27:0.718032 28:0.85790622 29:0.87400466 30:0.45730168 31:0.66848248 32:0.34101593 33:0.34562665 34:0.42450351 35:0.89674532 #
-0.50023274168615483592503778709215 1:0.26684293 2:0.14593048 3:0.15201315 4:0.11693778 5:0.95269912 6:0.14311272 7:0.19812521 8:0.19907485 9:0.29897621 10:0.28308737 11:0.15413864 12:0.14932396 13:0.12905741 14:0.96509522 15:0.16516288 16:0.22224253 17:0.21518256 18:0.312756 19:0.29110929 20:0.15433337 21:0.15167294 22:0.13173009 23:0.17432339 24:0.2472975 25:0.26195562 26:0.31646341 27:0.28604382 28:0.17311557 29:0.16063114 30:0.15050137 31:0.98687798 32:0.17920169 33:0.22496748 34:0.2211125 35:0.31414029 #
-0.50023274168615483592503778709215 1:0.19713369 2:0.18781503 3:0.23261979 4:0.34471127 5:0.97236884 6:0.37317407 7:0.25830957 8:0.18692687 9:0.19451271 10:0.23231857 11:0.23305754 12:0.31151432 13:0.44143659 14:0.95881027 15:0.43077958 16:0.28624734 17:0.20997426 18:0.22300428 19:0.22549379 20:0.20310985 21:0.26248941 22:0.38861087 23:0.42195103 24:0.30630592 25:0.21396755 26:0.21757349 27:0.26313049 28:0.25081301 29:0.34558889 30:0.48900846 31:0.98688745 32:0.48302948 33:0.33327061 34:0.23618737 35:0.2508828 #
0.50023274168615483592503778709215 1:0.57761639 2:0.43778363 3:0.46833202 4:0.46012077 5:0.9399668 6:0.5852347 7:0.51202005 8:0.46204108 9:0.59407306 10:0.64666414 11:0.4864023 12:0.5236845 13:0.52900738 14:0.96640015 15:0.66304189 16:0.59980637 17:0.5149824 18:0.66021019 19:0.63082868 20:0.50173849 21:0.5129866 22:0.51124501 23:0.98306412 24:0.64223158 25:0.59023005 26:0.53713346 27:0.6495496 28:0.66403008 29:0.5417257 30:0.56092018 31:0.57561392 32:0.69416648 33:0.63472223 34:0.56398684 35:0.67700458 #
0.50023274168615483592503778709215 1:0.57579243 2:0.39837146 3:0.57106209 4:0.41828918 5:0.93746972 6:0.32148927 7:0.61740553 8:0.6433903 9:0.67654485 10:0.63286144 11:0.44192204 12:0.63051301 13:0.45361403 14:0.93559349 15:0.36620241 16:0.69779295 17:0.67921609 18:0.76396638 19:0.63988948 20:0.43642652 21:0.6020937 22:0.43776008 23:0.95427829 24:0.36428699 25:0.74903351 26:0.73379326 27:0.772695 28:0.66893959 29:0.517829 30:0.68257242 31:0.49724028 32:0.4001942 33:0.75405431 34:0.74874103 35:0.77185237 #
0.50023274168615483592503778709215 1:0.74880224 2:0.45727044 3:0.50440067 4:0.47247717 5:0.85012233 6:0.47616133 7:0.44929621 8:0.41959077 9:0.7559247 10:0.7272433 11:0.4582642 12:0.50092018 13:0.45302412 14:0.95549005 15:0.44975188 16:0.42886558 17:0.41813755 18:0.71549267 19:0.75696832 20:0.4632813 21:0.54169494 22:0.49935603 23:0.85745478 24:0.48506632 25:0.45126659 26:0.43080226 27:0.75746602 28:0.79196602 29:0.50482726 30:0.53711706 31:0.50115103 32:0.49978852 33:0.47723657 34:0.45997092 35:0.78056699 #
-0.50023274168615483592503778709215 1:0.63106275 2:0.44777361 3:0.46120924 4:0.40157866 5:0.86848593 6:0.47921902 7:0.55277675 8:0.46668682 9:0.68586355 10:0.6720053 11:0.47047099 12:0.47077802 13:0.37664706 14:0.94997627 15:0.51745141 16:0.54950017 17:0.49880993 18:0.71677345 19:0.67206758 20:0.50094116 21:0.51691735 22:0.49324659 23:0.94264328 24:0.5220384 25:0.58462846 26:0.51040262 27:0.73266774 28:0.71667314 29:0.51321775 30:0.50095034 31:0.44876739 32:0.53650802 33:0.55880356 34:0.51030296 35:0.77415591 #
-0.50023274168615483592503778709215 1:0.62302274 2:0.49888504 3:0.52374697 4:0.42227325 5:0.85933977 6:0.56894404 7:0.60934716 8:0.51388556 9:0.60861295 10:0.66649008 11:0.54516178 12:0.59956867 13:0.46836033 14:0.97800022 15:0.56717128 16:0.67742914 17:0.54188627 18:0.64048356 19:0.73949617 20:0.47283247 21:0.49458057 22:0.45537379 23:0.86800414 24:0.5647586 25:0.58005685 26:0.50273031 27:0.7048552 28:0.77987015 29:0.51170719 30:0.58046162 31:0.52125812 32:0.61272395 33:0.66538644 34:0.5140273 35:0.74097991 #
-0.50023274168615483592503778709215 1:0.71640843 2:0.51101685 3:0.51184881 4:0.4443174 5:0.82566971 6:0.38871518 7:0.47529852 8:0.41909716 9:0.69246227 10:0.80670416 11:0.55076045 12:0.54650718 13:0.47057748 14:0.8703844 15:0.44711986 16:0.54434627 17:0.50725764 18:0.73417801 19:0.74052209 20:0.54233706 21:0.51265758 22:0.48465666 23:0.8586005 24:0.41147766 25:0.49769756 26:0.44204661 27:0.6782102 28:0.83167666 29:0.61066645 30:0.59176713 31:0.54519707 32:0.47222048 33:0.54395115 34:0.49314669 35:0.78882289 #
0.50023274168615483592503778709215 1:0.43058279 2:0.30192563 3:0.30493274 4:0.34309557 5:0.96711057 6:0.31876171 7:0.26094389 8:0.24324407 9:0.41781348 10:0.45175901 11:0.31437868 12:0.31225112 13:0.36292282 14:0.89758897 15:0.34459192 16:0.28005248 17:0.24978936 18:0.42965102 19:0.43587482 20:0.28576735 21:0.29645136 22:0.39757183 23:0.36116919 24:0.29574293 25:0.27741614 26:0.42598334 27:0.46369088 28:0.29913983 29:0.31230053 30:0.39440608 31:0.94676864 32:0.36947933 33:0.30468231 34:0.27495053 35:0.4578205 #
0.50023274168615483592503778709215 1:0.94836897 2:0.70234632 3:0.77778381 4:0.25536287 5:0.44609526 6:0.10458139 7:0.14464873 8:0.13916257 9:0.70181328 10:0.84351474 11:0.67551333 12:0.7384755 13:0.2560713 14:0.4459894 15:0.12641324 16:0.17775328 17:0.15784311 18:0.65411174 19:0.87938023 20:0.69989306 21:0.75637859 22:0.24619731 23:0.44334543 24:0.11963312 25:0.16121851 26:0.15322937 27:0.67864829 28:0.78296167 29:0.8051936 30:0.35329139 31:0.57886934 32:0.16544223 33:0.214781 34:0.19779341 35:0.77826923 #
0.50023274168615483592503778709215 1:0.89509708 2:0.8110733 3:0.92118716 4:0.36587918 5:0.62692475 6:0.2113097 7:0.2861973 8:0.3155801 9:0.72984606 10:0.85143805 11:0.75483382 12:0.84729522 13:0.36712468 14:0.68360305 15:0.21396139 16:0.30495787 17:0.35593379 18:0.73248231 19:0.92659068 20:0.73112738 21:0.88979274 22:0.40407246 23:0.68830788 24:0.26435211 25:0.33979878 26:0.33812624 27:0.7755 28:0.80785477 29:0.84724939 30:0.45006001 31:0.77554917 32:0.24621496 33:0.34583491 34:0.36592779 35:0.83511603 #
-0.50023274168615483592503778709215 1:0.94534749 2:0.63138366 3:0.67353183 4:0.22863089 5:0.43299109 6:0.084640048 7:0.070581302 8:0.13153903 9:0.81406969 10:0.90099782 11:0.63815868 12:0.67358696 13:0.23885083 14:0.3490451 15:0.11189147 16:0.076755673 17:0.15395777 18:0.73587757 19:0.85470158 20:0.64869374 21:0.66832292 22:0.21209262 23:0.38472959 24:0.07502605 25:0.078312933 26:0.13137713 27:0.69197506 28:0.73793679 29:0.75742149 30:0.33152094 31:0.39181891 32:0.10453523 33:0.089293182 34:0.1624102 35:0.90545118 #
-0.50023274168615483592503778709215 1:0.5565961 2:0.39490253 3:0.59174609 4:0.65797079 5:0.9694289 6:0.37036142 7:0.26718831 8:0.25151336 9:0.47854215 10:0.53734308 11:0.3719621 12:0.54011333 13:0.6012634 14:0.34076053 15:0.28389221 16:0.26301473 17:0.48203829 18:0.55636185 19:0.37180626 20:0.57922995 21:0.60300457 22:0.83561975 23:0.36516175 24:0.26280525 25:0.23659734 26:0.50252724 27:0.58497161 28:0.39432558 29:0.55247647 30:0.56955433 31:0.95840412 32:0.36149514 33:0.28783029 34:0.25118667 35:0.52288628 #
-0.50023274168615483592503778709215 1:0.8216309 2:0.10830483 3:0.095744021 4:0.084046759 5:0.12416147 6:0.14011323 7:0.31445944 8:0.4426038 9:0.93976873 10:0.84788579 11:0.11903966 12:0.089156188 13:0.071901582 14:0.18807212 15:0.12691516 16:0.34670609 17:0.48295185 18:0.94742548 19:0.89780992 20:0.12355364 21:0.12158102 22:0.10644295 23:0.16126756 24:0.18970715 25:0.41870651 26:0.54971856 27:0.88277328 28:0.12956245 29:0.10263748 30:0.088300347 31:0.21031128 32:0.15064195 33:0.38193494 34:0.54172617 35:0.97973114 #
0.50023274168615483592503778709215 1:0.88146472 2:0.48704457 3:0.46459863 4:0.27209473 5:0.82266277 6:0.37180299 7:0.57306224 8:0.45184901 9:0.88003206 10:0.91499943 11:0.5486868 12:0.54391295 13:0.33862469 14:0.83655781 15:0.45283142 16:0.65222204 17:0.52624834 18:0.91853291 19:0.94797426 20:0.4996143 21:0.51323479 22:0.31377965 23:0.91980696 24:0.42165649 25:0.64312434 26:0.50216299 27:0.9446516 28:0.56596792 29:0.5993408 30:0.3712633 31:0.89988691 32:0.45217621 33:0.69604844 34:0.54140776 35:0.99852926 #
0.50023274168615483592503778709215 1:0.59441531 2:0.57848191 3:0.72085273 4:0.5959326 5:0.94260681 6:0.60786211 7:0.57303667 8:0.38552326 9:0.52923816 10:0.59227741 11:0.56829107 12:0.83068353 13:0.63723063 14:0.92379886 15:0.63004297 16:0.64051616 17:0.43710071 18:0.56960338 19:0.61907554 20:0.57182437 21:0.75254679 22:0.58453047 23:0.96793765 24:0.64286327 25:0.63064051 26:0.4079043 27:0.60029918 28:0.66488624 29:0.58312243 30:0.77472663 31:0.65492916 32:0.69412082 33:0.68195319 34:0.44326884 35:0.62920558 #
0.50023274168615483592503778709215 1:0.68518418 2:0.52527714 3:0.61298317 4:0.69887322 5:0.92188692 6:0.50616294 7:0.34290537 8:0.40726858 9:0.63064402 10:0.73051912 11:0.56168288 12:0.61245078 13:0.65478009 14:0.98819363 15:0.49211875 16:0.38063279 17:0.44371018 18:0.66013861 19:0.76984257 20:0.60624677 21:0.67003685 22:0.75044984 23:0.94461322 24:0.56983352 25:0.40780169 26:0.48787057 27:0.70842773 28:0.80843377 29:0.63842046 30:0.67811453 31:0.70545554 32:0.54994178 33:0.44193012 34:0.52809274 35:0.74318969 #
-0.50023274168615483592503778709215 1:0.9640218 2:0.51341206 3:0.5852108 4:0.46201754 5:0.70068252 6:0.47860265 7:0.57077014 8:0.49265608 9:0.98525083 10:0.90456384 11:0.52354687 12:0.5766232 13:0.45080242 14:0.86145705 15:0.48528859 16:0.52889705 17:0.48968393 18:0.94615734 19:0.93303829 20:0.66206801 21:0.66523677 22:0.53403437 23:0.81158477 24:0.56294966 25:0.66934305 26:0.61345381 27:0.93372035 28:0.91256821 29:0.65552509 30:0.63604212 31:0.55507964 32:0.57582688 33:0.62033617 34:0.56575984 35:0.91241848 #
-0.50023274168615483592503778709215 1:0.74246341 2:0.64313853 3:0.66892445 4:0.52742827 5:0.96723551 6:0.54068935 7:0.6707356 8:0.52631521 9:0.64524198 10:0.76886415 11:0.64178765 12:0.70873308 13:0.5256955 14:0.96434981 15:0.59565002 16:0.69528097 17:0.59605277 18:0.68443239 19:0.79528147 20:0.66951323 21:0.72161049 22:0.53387952 23:0.97096294 24:0.57768703 25:0.68757898 26:0.60079056 27:0.70231301 28:0.83330649 29:0.68325567 30:0.72699362 31:0.57992864 32:0.61925542 33:0.71878827 34:0.66034472 35:0.75260878 #
-0.50023274168615483592503778709215 1:0.85176957 2:0.64372158 3:0.61688769 4:0.48176113 5:0.79030681 6:0.45936906 7:0.62981474 8:0.54547739 9:0.86547613 10:0.82651317 11:0.60346442 12:0.60732341 13:0.48136634 14:0.92944139 15:0.49197799 16:0.62844491 17:0.58919346 18:0.86354142 19:0.9007625 20:0.59778392 21:0.5822522 22:0.51842856 23:0.8780964 24:0.51962632 25:0.72213942 26:0.61017638 27:0.94084787 28:0.92024976 29:0.61106616 30:0.59150141 31:0.51843089 32:0.51740003 33:0.7020815 34:0.59036899 35:0.95459765 #
0.50023274168615483592503778709215 1:0.89900082 2:0.15513653 3:0.12287054 4:0.097393833 5:0.31864661 6:0.096910387 7:0.19389975 8:0.38549984 9:0.93760955 10:0.97034448 11:0.17288308 12:0.13894206 13:0.11483798 14:0.33679789 15:0.10796271 16:0.25198504 17:0.46159598 18:0.99306852 19:0.9384194 20:0.17056201 21:0.13064872 22:0.10815634 23:0.34267706 24:0.12043376 25:0.22726519 26:0.45752424 27:0.98076415 28:0.96256095 29:0.20060804 30:0.15805589 31:0.13788949 32:0.35077411 33:0.12360016 34:0.23998983 35:0.46590918 #
0.50023274168615483592503778709215 1:0.37166902 2:0.313968 3:0.46248859 4:0.45704439 5:0.31449807 6:0.39898664 7:0.38483226 8:0.41739926 9:0.49769071 10:0.36153668 11:0.52416754 12:0.50634199 13:0.88569564 14:0.39553446 15:0.50028384 16:0.50745916 17:0.56091213 18:0.44708341 19:0.27459675 20:0.44462711 21:0.45210683 22:0.98098487 23:0.33283561 24:0.40490216 25:0.35458195 26:0.5010702 27:0.50846249 28:0.34023374 29:0.55163568 30:0.56092006 31:0.86283702 32:0.41151091 33:0.50242257 34:0.41190419 35:0.55868292 #
0.50023274168615483592503778709215 1:0.72327209 2:0.36862853 3:0.38355446 4:0.4563092 5:0.96718752 6:0.45424652 7:0.32715571 8:0.35620061 9:0.70534426 10:0.72066003 11:0.3903341 12:0.3917129 13:0.48000112 14:0.49467045 15:0.36708409 16:0.37069833 17:0.70320857 18:0.78424668 19:0.38949868 20:0.40132269 21:0.50210446 22:0.99811149 23:0.49457905 24:0.34656915 25:0.39082465 26:0.76477182 27:0.77546841 28:0.42733657 29:0.43764922 30:0.53762776 31:0.9599691 32:0.52572137 33:0.38025716 34:0.39546919 35:0.75098008 #
-0.50023274168615483592503778709215 1:0.85384017 2:0.22812758 3:0.17664267 4:0.12684444 5:0.23141202 6:0.15109821 7:0.29791135 8:0.39723659 9:0.93108189 10:0.88572824 11:0.24940927 12:0.17645201 13:0.12153123 14:0.22869307 15:0.16878659 16:0.34005189 17:0.45105129 18:0.96484262 19:0.88563722 20:0.2293722 21:0.19470762 22:0.13711943 23:0.23924135 24:0.16359951 25:0.2967532 26:0.42321065 27:0.96604902 28:0.92148495 29:0.25539961 30:0.19224748 31:0.13422978 32:0.22944035 33:0.16712792 34:0.32245588 35:0.46369606 #
-0.50023274168615483592503778709215 1:0.32723558 2:0.19789779 3:0.2323278 4:0.20155895 5:0.18961442 6:0.21507974 7:0.16839875 8:0.30785969 9:0.33815417 10:0.22250672 11:0.27418309 12:0.22011437 13:0.99657536 14:0.21018936 15:0.22008985 16:0.17958525 17:0.32037419 18:0.3245365 19:0.20445795 20:0.23110938 21:0.21041645 22:0.98114043 23:0.18776864 24:0.2036874 25:0.15175857 26:0.31146026 27:0.34701952 28:0.22373602 29:0.25643978 30:0.2213667 31:0.97564077 32:0.1938556 33:0.20794919 34:0.16677739 35:0.33198714 #
-0.50023274168615483592503778709215 1:0.65886241 2:0.4462176 3:0.52524507 4:0.50683832 5:0.95748508 6:0.40292388 7:0.42725238 8:0.38390571 9:0.61761391 10:0.73583293 11:0.48345846 12:0.56931365 13:0.59235352 14:0.94436198 15:0.45961812 16:0.45641369 17:0.43727884 18:0.69933444 19:0.68002445 20:0.45701692 21:0.53453255 22:0.53508979 23:0.4155685 24:0.43184534 25:0.39628309 26:0.6394369 27:0.77895343 28:0.55273139 29:0.60185248 30:0.6438784 31:0.99089122 32:0.49128678 33:0.4455393 34:0.39899418 35:0.73471534 #
0.50023274168615483592503778709215 1:0.82872367 2:0.39514947 3:0.46835354 4:0.38803104 5:0.93098319 6:0.5638153 7:0.75709492 8:0.61118621 9:0.88670099 10:0.89019865 11:0.46384409 12:0.54793918 13:0.43553156 14:0.9931246 15:0.63665622 16:0.85325533 17:0.69926208 18:0.94887263 19:0.82281804 20:0.45107549 21:0.51584339 22:0.4299821 23:0.97848237 24:0.63959163 25:0.86251611 26:0.71250826 27:0.89751852 28:0.871687 29:0.5233829 30:0.60062093 31:0.47670636 32:0.69701928 33:0.95746297 34:0.77560103 35:0.93645841 #
0.50023274168615483592503778709215 1:0.84825581 2:0.43952721 3:0.40326878 4:0.35341156 5:0.735385 6:0.44209862 7:0.44332018 8:0.38520786 9:0.80947775 10:0.93416506 11:0.45195183 12:0.37557933 13:0.34123796 14:0.89830446 15:0.42460036 16:0.42676863 17:0.39617845 18:0.87345493 19:0.82741696 20:0.51846689 21:0.45347422 22:0.42668179 23:0.88170367 24:0.50312889 25:0.55006707 26:0.49140692 27:0.80107218 28:0.89460933 29:0.54870236 30:0.45351389 31:0.41306555 32:0.49238414 33:0.52799457 34:0.48353642 35:0.88669294 #
0.50023274168615483592503778709215 1:0.87640506 2:0.48675999 3:0.52264798 4:0.46819463 5:0.89106023 6:0.49903545 7:0.45635876 8:0.46293628 9:0.90576696 10:0.9220745 11:0.50595957 12:0.54792541 13:0.50176579 14:0.92875141 15:0.53924412 16:0.51744133 17:0.51939332 18:0.95129347 19:0.90408355 20:0.49860713 21:0.54186368 22:0.49848968 23:0.91175473 24:0.55680084 25:0.51338154 26:0.50673258 27:0.92994869 28:0.97389638 29:0.58350867 30:0.60736549 31:0.56968915 32:0.95436293 33:0.58522069 34:0.55188191 35:0.55071008 #
-0.50023274168615483592503778709215 1:0.79805666 2:0.37027645 3:0.41963992 4:0.35004565 5:0.67545974 6:0.28938338 7:0.40354753 8:0.40367833 9:0.85297531 10:0.89800215 11:0.46368864 12:0.49218529 13:0.42290369 14:0.69156468 15:0.40421799 16:0.52182591 17:0.51283354 18:0.93568063 19:0.84278888 20:0.36002013 21:0.41846028 22:0.36862719 23:0.77515537 24:0.34167013 25:0.47357881 26:0.50842357 27:0.90592384 28:0.95206249 29:0.44528633 30:0.49400634 31:0.44911534 32:0.69296092 33:0.42236423 34:0.51819569 35:0.55790246 #
-0.50023274168615483592503778709215 1:0.84512937 2:0.48600808 3:0.50146264 4:0.46347946 5:0.75235665 6:0.51070046 7:0.57566023 8:0.60506696 9:0.91913188 10:0.91017067 11:0.47549346 12:0.49444869 13:0.46601453 14:0.80755407 15:0.5177182 16:0.58513927 17:0.61984128 18:0.92978299 19:0.86101055 20:0.48870376 21:0.51045203 22:0.504614 23:0.81959218 24:0.59317243 25:0.64066422 26:0.64150304 27:0.97295612 28:0.94476259 29:0.51877004 30:0.56312484 31:0.54854214 32:0.82248086 33:0.57027018 34:0.67255151 35:0.67950952 #
-0.50023274168615483592503778709215 1:0.81923455 2:0.47800058 3:0.51611859 4:0.49270394 5:0.84913307 6:0.50744951 7:0.73142236 8:0.60183513 9:0.8595134 10:0.82567716 11:0.46565786 12:0.48844576 13:0.49685824 14:0.91782421 15:0.55961961 16:0.691333 17:0.60949576 18:0.85677028 19:0.899975 20:0.46860269 21:0.46476814 22:0.46321377 23:0.82331789 24:0.51841933 25:0.65654409 26:0.55665046 27:0.94896001 28:0.96075565 29:0.49417228 30:0.48743242 31:0.51575744 32:0.91828883 33:0.5638032 34:0.68348902 35:0.60150278 #
0.44347680088093222039447027782444 1:0.32795727 2:0.13022307 3:0.098718777 4:0.20065975 5:0.87232268 6:0.2392612 7:0.13831079 8:0.10765398 9:0.32718858 10:0.30522221 11:0.082085423 12:0.0526639 13:0.10394854 14:0.96261483 15:0.15177551 16:0.096693367 17:0.083251476 18:0.30382815 19:0.31047738 20:0.13605446 21:0.12707323 22:0.24201028 23:0.94592929 24:0.31266636 25:0.18017703 26:0.15481001 27:0.3118245 28:0.27241221 29:0.11064227 30:0.087838657 31:0.13317794 32:0.18574862 33:0.11772186 34:0.10703872 35:0.27211303 #
0.068450005406028580079436096639256 1:0.34582025 2:0.15663776 3:0.12402444 4:0.22941124 5:0.85918719 6:0.38298318 7:0.15369175 8:0.11736623 9:0.3364509 10:0.42387119 11:0.21880998 12:0.16917324 13:0.22841914 14:0.93760675 15:0.33895075 16:0.21582794 17:0.18157563 18:0.41648173 19:0.34018949 20:0.18567447 21:0.14917777 22:0.26904064 23:0.87044954 24:0.4157142 25:0.1683587 26:0.13185845 27:0.34360877 28:0.41134867 29:0.24666123 30:0.21180573 31:0.26706415 32:0.36210427 33:0.23057364 34:0.19607432 35:0.42472163 #
0.50023274168615483592503778709215 1:0.89354289 2:0.7978875 3:0.6638993 4:0.50356907 5:0.89557707 6:0.33150372 7:0.34772435 8:0.28746417 9:0.69508719 10:0.96696538 11:0.83115315 12:0.74433637 13:0.54942942 14:0.90183246 15:0.33385035 16:0.36956051 17:0.34300971 18:0.76709473 19:0.93080842 20:0.84448987 21:0.75133711 22:0.57279879 23:0.39747122 24:0.40822592 25:0.39286909 26:0.72957677 27:0.94024801 28:0.95477569 29:0.85857105 30:0.62053347 31:0.98546225 32:0.36012807 33:0.42729262 34:0.38544014 35:0.7607497 #
-0.50023274168615483592503778709215 1:0.45972145 2:0.12003364 3:0.12203209 4:0.15537457 5:0.61465824 6:0.26239666 7:0.85943425 8:0.64680517 9:0.54914987 10:0.5233224 11:0.14035322 12:0.12861967 13:0.16178893 14:0.67240596 15:0.32669675 16:0.84676337 17:0.66214067 18:0.54600644 19:0.12563752 20:0.11723454 21:0.16238621 22:0.69112861 23:0.3333976 24:0.98145717 25:0.82795507 26:0.68204856 27:0.50967777 28:0.14833532 29:0.13724197 30:0.16266516 31:0.64493698 32:0.30022898 33:0.93099487 34:0.76439297 35:0.6236372 #
-0.50023274168615483592503778709215 1:0.81996471 2:0.39560109 3:0.41863051 4:0.28241995 5:0.7797935 6:0.46300802 7:0.52074629 8:0.42382762 9:0.8443585 10:0.50619191 11:0.51020205 12:0.3780404 13:0.88772362 14:0.53386098 15:0.60952067 16:0.54049081 17:0.98191297 18:0.8812139 19:0.42904827 20:0.43732005 21:0.37145904 22:0.93520153 23:0.56923103 24:0.61863887 25:0.47815391 26:0.87427187 27:0.89615178 28:0.50233901 29:0.50818348 30:0.41761684 31:0.97504419 32:0.52257049 33:0.5992744 34:0.50805151 35:0.88535571 #
-0.50023274168615483592503778709215 1:0.71613085 2:0.1799546 3:0.15839747 4:0.066392057 5:0.26443142 6:0.12460297 7:0.50290203 8:0.58106744 9:0.90867209 10:0.87182015 11:0.20633341 12:0.17717329 13:0.083715037 14:0.31916031 15:0.15469125 16:0.56914181 17:0.63800424 18:0.82688361 19:0.20758013 20:0.17954811 21:0.093511343 22:0.31244019 23:0.19616804 24:0.62092716 25:0.64455074 26:0.97507095 27:0.78324813 28:0.21941833 29:0.18041268 30:0.094191574 31:0.29482141 32:0.1716944 33:0.59757334 34:0.66285282 35:0.97559309 #
0.50023274168615483592503778709215 1:0.89583647 2:0.4151791 3:0.36430353 4:0.39234179 5:0.71691972 6:0.40600047 7:0.42956871 8:0.45696983 9:0.91595209 10:0.94604385 11:0.46179894 12:0.40217859 13:0.42755529 14:0.73032224 15:0.45561498 16:0.49942571 17:0.52331549 18:0.97429174 19:0.93799537 20:0.42369536 21:0.37129363 22:0.4082754 23:0.70500028 24:0.4421972 25:0.46369189 26:0.48985717 27:0.96733761 28:0.97540534 29:0.48891148 30:0.44346932 31:0.46159714 32:0.74679255 33:0.48650828 34:0.51035845 35:0.53731513 #
0.28776482279918802476004202617332 1:0.85614669 2:0.35572764 3:0.39471221 4:0.3047637 5:0.55102485 6:0.29130384 7:0.31868002 8:0.3233178 9:0.87477487 10:0.91872287 11:0.38883519 12:0.42097682 13:0.32765043 14:0.50983942 15:0.36248913 16:0.3720111 17:0.39959431 18:0.93466192 19:0.86456317 20:0.37469694 21:0.43224922 22:0.33660328 23:0.58652622 24:0.33588222 25:0.35198936 26:0.355537 27:0.87762332 28:0.96821016 29:0.44011101 30:0.52827901 31:0.41380361 32:0.54497492 33:0.37932327 34:0.42137849 35:0.4085269 #
0.50023274168615483592503778709215 1:0.911048 2:0.58523381 3:0.46654892 4:0.30837676 5:0.36772802 6:0.35183838 7:0.51963902 8:0.51724195 9:0.94414788 10:0.93838966 11:0.62108445 12:0.50272894 13:0.33185855 14:0.44386774 15:0.38706395 16:0.52514863 17:0.54204196 18:0.98007125 19:0.90995479 20:0.60029364 21:0.46268353 22:0.34258911 23:0.4281936 24:0.43443245 25:0.56711251 26:0.5946942 27:0.96148902 28:0.95409113 29:0.66125345 30:0.52717012 31:0.38008651 32:0.50873679 33:0.47078782 34:0.58979952 35:0.60995907 #
-0.50023274168615483592503778709215 1:0.8864994 2:0.55618608 3:0.59920156 4:0.42722785 5:0.52881169 6:0.32889977 7:0.433281 8:0.42738226 9:0.82621104 10:0.90676123 11:0.6348241 12:0.6274811 13:0.45649877 14:0.55333847 15:0.35892764 16:0.47207907 17:0.48053136 18:0.8384639 19:0.94751453 20:0.56895655 21:0.62771034 22:0.47567162 23:0.56177396 24:0.33915287 25:0.42561075 26:0.42148599 27:0.85125923 28:0.64837193 29:0.67324209 30:0.51489156 31:0.59318304 32:0.38076517 33:0.47940075 34:0.48386499 35:0.92031729 #
-0.50023274168615483592503778709215 1:0.88078165 2:0.48454484 3:0.56724322 4:0.48208565 5:0.63906413 6:0.52967566 7:0.5859409 8:0.5333631 9:0.90522629 10:0.92411852 11:0.48490572 12:0.53245366 13:0.48231491 14:0.69196731 15:0.55292916 16:0.66952574 17:0.60516685 18:0.964917 19:0.9351511 20:0.47128937 21:0.53476596 22:0.45979577 23:0.61216033 24:0.53837562 25:0.56743294 26:0.53604674 27:0.94063175 28:0.9946152 29:0.49510404 30:0.55364186 31:0.48464313 32:0.68485749 33:0.55681509 34:0.59943646 35:0.56410778 #
-0.50023274168615483592503778709215 1:0.86657375 2:0.60794604 3:0.6148091 4:0.43587652 5:0.74181181 6:0.39362052 7:0.52619672 8:0.52748287 9:0.840581 10:0.88175696 11:0.63078833 12:0.60064793 13:0.41912362 14:0.79232162 15:0.40020534 16:0.54968965 17:0.54271299 18:0.86524427 19:0.91024333 20:0.62276769 21:0.6432544 22:0.45118365 23:0.75871569 24:0.41792926 25:0.56343776 26:0.54093933 27:0.8943249 28:0.71013516 29:0.65600836 30:0.4885579 31:0.86220896 32:0.44677597 33:0.60212678 34:0.5632236 35:0.9679957 #
0.50023274168615483592503778709215 1:0.8548063 2:0.25815913 3:0.25506797 4:0.24232286 5:0.66700411 6:0.29014793 7:0.33372581 8:0.44868815 9:0.9508245 10:0.92105311 11:0.36081079 12:0.36659676 13:0.36696959 14:0.56371969 15:0.41951722 16:0.436836 17:0.53791475 18:0.84214723 19:0.29375187 20:0.30392301 21:0.29226607 22:0.71629286 23:0.3307296 24:0.35514286 25:0.47511238 26:0.92153603 27:0.93440008 28:0.4234429 29:0.38425076 30:0.44688657 31:0.60803598 32:0.4863216 33:0.46867049 34:0.58830446 35:0.99092728 #
0.50023274168615483592503778709215 1:0.48388383 2:0.39697635 3:0.38951862 4:0.46471247 5:0.89652997 6:0.71881282 7:0.65399873 8:0.52443659 9:0.50232017 10:0.52040994 11:0.41054326 12:0.40463671 13:0.51330787 14:0.96445215 15:0.78402412 16:0.72482872 17:0.57867944 18:0.55036265 19:0.53633898 20:0.43637142 21:0.43927619 22:0.52635658 23:0.93744206 24:0.76529455 25:0.7064535 26:0.59187245 27:0.55725729 28:0.54361027 29:0.45047006 30:0.45856106 31:0.57751018 32:0.84206295 33:0.78824341 34:0.63264692 35:0.58430248 #
0.50023274168615483592503778709215 1:0.63031495 2:0.27227098 3:0.27605253 4:0.17241979 5:0.6444965 6:0.31856236 7:0.84310883 8:0.81566501 9:0.81351525 10:0.75273955 11:0.33547118 12:0.33767056 13:0.20093697 14:0.66572058 15:0.37598744 16:0.90166062 17:0.90459555 18:0.97381759 19:0.73534447 20:0.32610086 21:0.32158419 22:0.18823363 23:0.7216962 24:0.39241603 25:0.93230212 26:0.95402128 27:0.74296284 28:0.39631921 29:0.38961157 30:0.2254253 31:0.71494251 32:0.41220927 33:0.99012798 34:0.9701063 35:0.93961376 #
-0.50023274168615483592503778709215 1:0.90087289 2:0.46066979 3:0.39161149 4:0.37138951 5:0.8085041 6:0.40483886 7:0.53386396 8:0.54139829 9:0.92519861 10:0.91668898 11:0.48564792 12:0.41383541 13:0.40437883 14:0.8295331 15:0.42801216 16:0.57029963 17:0.55705011 18:0.94066131 19:0.94473386 20:0.50134474 21:0.45068163 22:0.43431079 23:0.49076512 24:0.62644458 25:0.62334186 26:0.98579293 27:0.95235807 28:0.56802922 29:0.50450766 30:0.50541025 31:0.9546603 32:0.49985486 33:0.6164214 34:0.62276971 35:0.97279167 #
-0.50023274168615483592503778709215 1:0.77948427 2:0.54455209 3:0.5779171 4:0.48124439 5:0.71328884 6:0.66833979 7:0.83870792 8:0.82489824 9:0.87692446 10:0.80046701 11:0.50777763 12:0.46762669 13:0.45033079 14:0.84319639 15:0.7121259 16:0.84975916 17:0.84122485 18:0.8982197 19:0.92421812 20:0.45775551 21:0.44635636 22:0.44977048 23:0.66727263 24:0.62191004 25:0.70128775 26:0.68764561 27:0.91271472 28:0.47992343 29:0.43988517 30:0.4405385 31:0.82631153 32:0.62678611 33:0.72575551 34:0.72090298 35:0.98596936 #
-0.50023274168615483592503778709215 1:0.62585205 2:0.4883005 3:0.68014002 4:0.65869159 5:0.94558382 6:0.46966743 7:0.48825648 8:0.4227069 9:0.62918454 10:0.70957327 11:0.54358894 12:0.74629039 13:0.73384887 14:0.92649984 15:0.52543914 16:0.54547322 17:0.48360771 18:0.70685792 19:0.67182076 20:0.54218084 21:0.74520451 22:0.71806014 23:0.51838112 24:0.53698426 25:0.51870865 26:0.63614118 27:0.75677288 28:0.60318202 29:0.82808405 30:0.7932995 31:0.96254385 32:0.57423544 33:0.59651703 34:0.5826847 35:0.71863127 #
0.50023274168615483592503778709215 1:0.89922929 2:0.57771319 3:0.4999803 4:0.39057514 5:0.42135546 6:0.31655926 7:0.36280689 8:0.45095265 9:0.8610853 10:0.95436424 11:0.63653004 12:0.56972027 13:0.44826493 14:0.44209835 15:0.35683987 16:0.41338551 17:0.50418651 18:0.92291409 19:0.9566229 20:0.63316172 21:0.56851053 22:0.45274922 23:0.47445437 24:0.37291116 25:0.42656109 26:0.52240688 27:0.91492367 28:0.70775974 29:0.649827 30:0.51982921 31:0.52068144 32:0.41934621 33:0.48302835 34:0.58249861 35:0.96248406 #
0.50023274168615483592503778709215 1:0.85923404 2:0.52195328 3:0.42350671 4:0.32848036 5:0.50105608 6:0.32528526 7:0.38073784 8:0.45728189 9:0.84258085 10:0.92185098 11:0.57788521 12:0.46433607 13:0.35286576 14:0.52250868 15:0.36630496 16:0.43688089 17:0.51624459 18:0.89916128 19:0.9635753 20:0.57449305 21:0.45164675 22:0.35994467 23:0.5316835 24:0.37184861 25:0.43316349 26:0.5224371 27:0.93704516 28:0.62495941 29:0.4961749 30:0.38997883 31:0.55918914 32:0.40080017 33:0.48081836 34:0.57409275 35:0.97822773 #
0.50023274168615483592503778709215 1:0.8400501 2:0.68439865 3:0.57644308 4:0.32838592 5:0.50344974 6:0.37731588 7:0.66074872 8:0.7811085 9:0.83736861 10:0.94734097 11:0.74617118 12:0.61219913 13:0.36520699 14:0.54854298 15:0.43033588 16:0.7844829 17:0.87566096 18:0.94970769 19:0.93661577 20:0.70735055 21:0.60142827 22:0.36184046 23:0.53913009 24:0.43123579 25:0.73461735 26:0.80558747 27:0.95259649 28:0.99816823 29:0.76113284 30:0.65786541 31:0.41722518 32:0.57824266 33:0.47169176 34:0.76973581 35:0.85848033 #
-0.50023274168615483592503778709215 1:0.91497898 2:0.57185686 3:0.55729425 4:0.43888885 5:0.79321748 6:0.44892198 7:0.51452446 8:0.50138944 9:0.88878208 10:0.98554891 11:0.63940525 12:0.64136654 13:0.51560533 14:0.81041098 15:0.5781886 16:0.62460053 17:0.62787104 18:0.99710339 19:0.89295131 20:0.65280491 21:0.6544404 22:0.52463746 23:0.87225789 24:0.51898563 25:0.6060679 26:0.56958532 27:0.876993 28:0.97182196 29:0.73224038 30:0.73372889 31:0.60753965 32:0.86308092 33:0.63140976 34:0.70449978 35:0.6979568 #
-0.50023274168615483592503778709215 1:0.9210372 2:0.69040483 3:0.70156044 4:0.56848973 5:0.83105171 6:0.44192171 7:0.52308923 8:0.48070017 9:0.85045874 10:0.74609363 11:0.76968354 12:0.62036043 13:0.85885859 14:0.46195489 15:0.54591537 16:0.4923493 17:0.90571415 18:0.92815304 19:0.70113355 20:0.75203001 21:0.59701294 22:0.77932328 23:0.45513552 24:0.58088207 25:0.47502807 26:0.87144697 27:0.98096573 28:0.7762627 29:0.82926959 30:0.6420235 31:0.83660322 32:0.47294629 33:0.56426859 34:0.51565403 35:0.94025153 #
-0.48694388104907931902332052231941 1:0.92090011 2:0.69039679 3:0.77277213 4:0.62404424 5:0.8546288 6:0.51558232 7:0.63146293 8:0.57263798 9:0.91889542 10:0.76150113 11:0.82951409 12:0.65089548 13:0.83238143 14:0.60198617 15:0.71157432 16:0.68871355 17:0.99789822 18:0.92152005 19:0.75694144 20:0.84487128 21:0.72367704 22:0.92360717 23:0.57579786 24:0.66880995 25:0.6088621 26:0.88729799 27:0.97551978 28:0.83801794 29:0.88763541 30:0.7430312 31:0.93960339 32:0.63921356 33:0.75217837 34:0.70676172 35:0.93767393 #
0.50023274168615483592503778709215 1:0.75316733 2:0.32748663 3:0.49052301 4:0.18468839 5:0.95245767 6:0.13762762 7:0.60896331 8:0.43811744 9:0.80031586 10:0.87290776 11:0.37898079 12:0.55883545 13:0.17888455 14:0.9114638 15:0.18254286 16:0.67971808 17:0.52826476 18:0.94309485 19:0.85355896 20:0.37941658 21:0.54370064 22:0.17859069 23:0.2297719 24:0.71105057 25:0.53284687 26:0.91221642 27:0.8444348 28:0.48428699 29:0.63558447 30:0.22068667 31:0.94693911 32:0.14922637 33:0.72647017 34:0.55604535 35:0.92434621 #
0.50023274168615483592503778709215 1:0.51298237 2:0.32373473 3:0.32258371 4:0.34353712 5:0.95094568 6:0.59793258 7:0.50813133 8:0.3769578 9:0.52317798 10:0.5505113 11:0.35849857 12:0.3516092 13:0.38627934 14:0.93268991 15:0.69050348 16:0.57526475 17:0.41546959 18:0.56709146 19:0.548567 20:0.36240831 21:0.35904437 22:0.40255582 23:0.65617126 24:0.56512058 25:0.44977015 26:0.56102496 27:0.58204997 28:0.40113598 29:0.3989321 30:0.45152494 31:0.98316723 32:0.74340445 33:0.60392088 34:0.46059376 35:0.59283388 #
-0.50023274168615483592503778709215 1:0.80827743 2:0.49134308 3:0.41979304 4:0.34599498 5:0.70668119 6:0.40762785 7:0.55136454 8:0.57938725 9:0.92078996 10:0.91820234 11:0.55149341 12:0.4818382 13:0.44366464 14:0.63572419 15:0.51401091 16:0.64068019 17:0.65026301 18:0.78631186 19:0.56681281 20:0.53180164 21:0.40824381 22:0.79651588 23:0.47091436 24:0.5973103 25:0.67217481 26:0.90016204 27:0.85511959 28:0.64697784 29:0.61101955 30:0.50675052 31:0.73121697 32:0.58166665 33:0.70268476 34:0.76721203 35:0.96545959 #
-0.50023274168615483592503778709215 1:0.92512119 2:0.5496366 3:0.51218951 4:0.44736037 5:0.86944652 6:0.42443341 7:0.55296242 8:0.55389458 9:0.89820963 10:0.94399565 11:0.62993306 12:0.57065833 13:0.479633 14:0.81902003 15:0.45750871 16:0.56672406 17:0.6038965 18:0.93284488 19:0.94394696 20:0.57602316 21:0.52386522 22:0.45631331 23:0.90587175 24:0.43966055 25:0.56861734 26:0.58573329 27:0.91447902 28:0.65631104 29:0.64213341 30:0.52136993 31:0.87650681 32:0.4951492 33:0.61787397 34:0.65693438 35:0.99775487 #
-0.16747792674037495497252336917882 1:0.80478823 2:0.52932668 3:0.44988099 4:0.39717788 5:0.91106695 6:0.41196036 7:0.5703764 8:0.61049062 9:0.82552475 10:0.97961336 11:0.65788668 12:0.58526814 13:0.50793004 14:0.88540035 15:0.54968631 16:0.67262477 17:0.70906734 18:0.9625743 19:0.88003016 20:0.58088207 21:0.51154965 22:0.45511752 23:0.48200321 24:0.59100169 25:0.65754068 26:0.90890044 27:0.9999131 28:0.70832461 29:0.64770532 30:0.56502903 31:0.86100703 32:0.58707887 33:0.66431749 34:0.74430525 35:0.99050671 #
0.34941775965283128346783314555069 1:0.45255366 2:0.45992419 3:0.33055186 4:0.61681783 5:0.19503799 6:0.2059233 7:0.19571947 8:0.90918088 9:0.98193347 10:0.45870981 11:0.46820149 12:0.29328558 13:0.65907878 14:0.2100473 15:0.23105894 16:0.22790824 17:0.90531862 18:0.97720379 19:0.50284046 20:0.49878672 21:0.32617998 22:0.63767916 23:0.21706904 24:0.23941126 25:0.26696876 26:0.89723271 27:0.9580124 28:0.53421199 29:0.53407645 30:0.35364479 31:0.67820406 32:0.23024185 33:0.25561446 34:0.29993612 35:0.88189256 #
0.50023274168615483592503778709215 1:0.89353645 2:0.58714771 3:0.59741336 4:0.34293872 5:0.8055082 6:0.22700641 7:0.28045121 8:0.31899753 9:0.80172884 10:0.8519299 11:0.55344427 12:0.56807578 13:0.32319254 14:0.74833435 15:0.26970187 16:0.28724387 17:0.32731852 18:0.77058899 19:0.83096021 20:0.55555129 21:0.57564819 22:0.30217177 23:0.75419176 24:0.22860804 25:0.2678405 26:0.30387577 27:0.73758441 28:0.70740914 29:0.70705199 30:0.42097208 31:0.78516048 32:0.30182481 33:0.32286474 34:0.37914115 35:0.89271349 #
-0.50023274168615483592503778709215 1:0.85975552 2:0.65097857 3:0.64719868 4:0.54257518 5:0.78063726 6:0.57456219 7:0.71653348 8:0.71307421 9:0.877469 10:0.92865902 11:0.70160681 12:0.69860065 13:0.58814627 14:0.84484172 15:0.64040399 16:0.77077645 17:0.779055 18:0.93809134 19:0.92464626 20:0.70771939 21:0.70552021 22:0.59441876 23:0.83837366 24:0.64368033 25:0.79431289 26:0.78582513 27:0.93877023 28:0.98467112 29:0.77530259 30:0.76528209 31:0.66083831 32:0.90706545 33:0.6960547 34:0.83064407 35:0.83246744 #
-0.27781722281606663349506902704888 1:0.69309258 2:0.40318757 3:0.49708569 4:0.54205614 5:0.9285481 6:0.59373188 7:0.69722348 8:0.57630724 9:0.73427838 10:0.71873701 11:0.4502731 12:0.5466572 13:0.61147374 14:0.8909173 15:0.63516623 16:0.77111614 17:0.64811832 18:0.77483904 19:0.74971813 20:0.492396 21:0.58399755 22:0.59189498 23:0.69018686 24:0.76562339 25:0.68011361 26:0.79801589 27:0.76770723 28:0.52217066 29:0.61063302 30:0.66317952 31:0.97933578 32:0.70566976 33:0.79327738 34:0.72843963 35:0.81147701 #
0.22539635534757374024650289356941 1:0.88046837 2:0.19490954 3:0.19653477 4:0.16949058 5:0.4775348 6:0.10194071 7:0.17409658 8:0.27730685 9:0.96503854 10:0.91679192 11:0.20204717 12:0.210508 13:0.198807 14:0.56517756 15:0.12129532 16:0.22852869 17:0.34046754 18:0.8790192 19:0.20959994 20:0.179277 21:0.18973677 22:0.51680338 23:0.1403591 24:0.23710179 25:0.36713871 26:0.92952234 27:0.89443964 28:0.25463194 29:0.22866258 30:0.23230179 31:0.55860525 32:0.15020527 33:0.25512111 34:0.38447443 35:0.94642186 #
0.24251077184591468549612613969657 1:0.95330119 2:0.49561039 3:0.39689022 4:0.27959526 5:0.50973088 6:0.27092797 7:0.33424002 8:0.46199796 9:0.97701257 10:0.97085631 11:0.50917304 12:0.39043462 13:0.2840358 14:0.58319753 15:0.29077199 16:0.3805325 17:0.51387125 18:0.93414742 19:0.52417588 20:0.40213659 21:0.29946265 22:0.55066997 23:0.30760661 24:0.38130289 25:0.48794904 26:0.94962633 27:0.93560976 28:0.56229424 29:0.42136452 30:0.33556959 31:0.60536557 32:0.31773159 33:0.40159807 34:0.54442853 35:0.96935856 #
-0.32329981953825981388916943615186 1:0.82801604 2:0.58864182 3:0.55334222 4:0.53296453 5:0.76812166 6:0.40296605 7:0.47572801 8:0.46187457 9:0.73129004 10:0.938941 11:0.70948213 12:0.63776511 13:0.61480284 14:0.73823452 15:0.54661775 16:0.57897407 17:0.55637681 18:0.83832365 19:0.88836223 20:0.6148662 21:0.59954441 22:0.5380798 23:0.79374653 24:0.45030728 25:0.48145315 26:0.53425759 27:0.77146417 28:0.71363264 29:0.67871439 30:0.6304909 31:0.78739059 32:0.57902783 33:0.58250022 34:0.60041505 35:0.90618569 #
0.12679913551095689516756692682975 1:0.28710055 2:0.17648597 3:0.20456645 4:0.30659539 5:0.94677466 6:0.6415565 7:0.43164784 8:0.23311143 9:0.29838139 10:0.30407193 11:0.19481723 12:0.2315571 13:0.35046023 14:0.95249707 15:0.71487075 16:0.53902984 17:0.28874928 18:0.32311407 19:0.32411754 20:0.18764624 21:0.21662985 22:0.35468554 23:0.98265815 24:0.6777516 25:0.50796175 26:0.25929773 27:0.3290205 28:0.35964665 29:0.21859208 30:0.2464913 31:0.3953529 32:0.76757467 33:0.56135195 34:0.30148789 35:0.37496656 #
0.11204286000605244433270257786717 1:0.51366735 2:0.21492706 3:0.24739699 4:0.33042511 5:0.99471104 6:0.36101979 7:0.36497068 8:0.39630219 9:0.597386 10:0.56156904 11:0.25279146 12:0.28260037 13:0.33453616 14:0.9393996 15:0.39035225 16:0.40260628 17:0.45517796 18:0.63976371 19:0.55941582 20:0.25563881 21:0.30046991 22:0.37468123 23:0.99071091 24:0.41551232 25:0.42214018 26:0.45348105 27:0.62674618 28:0.61232036 29:0.30187362 30:0.3359732 31:0.38378885 32:0.43684152 33:0.46179199 34:0.50392622 35:0.67638093 #
0.028909339732032860587063183288592 1:0.68104023 2:0.19919869 3:0.25820056 4:0.29919758 5:0.83776152 6:0.19392604 7:0.08189714 8:0.15208983 9:0.6951412 10:0.68807745 11:0.17319325 12:0.21104206 13:0.26345402 14:0.96648133 15:0.15975675 16:0.065226443 17:0.14335586 18:0.69217348 19:0.66459566 20:0.19473788 21:0.24624009 22:0.30685908 23:0.86626798 24:0.19403131 25:0.093895748 26:0.20782688 27:0.66635454 28:0.7001856 29:0.20427145 30:0.23815033 31:0.31172508 32:0.1829966 33:0.070883542 34:0.17435779 35:0.69882679 #
