SVM-light Version V6.02
2 # kernel type
3 # kernel parameter -d 
1 # kernel parameter -g 
1 # kernel parameter -s 
1 # kernel parameter -r 
empty# kernel parameter -u 
548 # highest feature index 
390 # number of training documents 
343 # number of support vectors plus 1 
-0.24849265 # threshold b, each following line is a SV (starting with alpha*y)
-0.50001123148730097778269509944948 1:1 2:0.0031152647 3:0 4:0 5:0 6:0 7:0 8:0 9:0.57320875 10:0.14953271 11:0 12:0 13:0 14:0 15:0 16:0 17:0.018691588 18:0.052959502 19:0 20:0 21:0 22:0 23:0 24:0 25:0 26:0.028037382 27:0 28:0 29:0 30:0 31:0 32:0 33:0 34:0 35:0 36:0 37:0 38:0 39:0 40:0 41:0 42:0 43:0 44:0 45:0 46:0 47:0 48:0 49:0 50:0 51:0 52:0 53:0 54:0 55:0 56:0 57:0 58:0 59:0 60:0 61:0 62:0 63:0 64:0 65:0 66:0 67:0 68:0 69:0 70:0 71:0 72:0 73:0.0062305294 74:0.30529594 75:0 76:0 77:0 78:0 79:0 80:0 81:0 82:0.33021808 83:0.14330219 84:0 85:0 86:0 87:0 88:0 89:0 90:0.049844235 91:0.11838006 92:0 93:0 94:0 95:0 96:0 97:0 98:0 99:0.0062305294 100:0 101:0 102:0 103:0 104:0 105:0 106:0 107:0 108:0 109:0 110:0 111:0 112:0 113:0 114:0 115:0 116:0 117:0 118:0 119:0 120:0 121:0 122:0 123:0 124:0 125:0 126:0 127:0 128:0 129:0 130:0 131:0 132:0 133:0 134:0 135:0 136:0 137:0 138:0 139:0 140:0 141:0 142:0 143:0 144:0 145:0 146:0.0031152647 147:0.21806854 148:0.0031152647 149:0 150:0 151:0 152:0 153:0 154:0 155:0.22429906 156:0.071651094 157:0 158:0 159:0 160:0 161:0 162:0 163:0.015576324 164:0.037383176 165:0 166:0 167:0 168:0 169:0 170:0 171:0 172:0.0062305294 173:0 174:0 175:0 176:0 177:0 178:0 179:0 180:0 181:0 182:0 183:0 184:0 185:0 186:0 187:0 188:0 189:0 190:0 191:0 192:0 193:0 194:0 195:0 196:0 197:0 198:0 199:0 200:0 201:0 202:0 203:0 204:0 205:0 206:0 207:0 208:0 209:0 210:0 211:0 212:0 213:0 214:0 215:0 216:0 217:0 218:0 219:0.0031152647 220:0.096573211 221:0 222:0 223:0 224:0 225:0 226:0 227:0.0062305294 228:0.084112152 229:0.018691588 230:0 231:0 232:0 233:0 234:0 235:0 236:0.059190031 237:0.015576324 238:0 239:0 240:0 241:0 242:0 243:0 244:0 245:0 246:0 247:0 248:0 249:0 250:0 251:0 252:0 253:0 254:0 255:0 256:0 257:0 258:0 259:0 260:0 261:0 262:0 263:0 264:0 265:0 266:0 267:0 268:0 269:0 270:0 271:0 272:0 273:0 274:0 275:0 276:0 277:0 278:0 279:0 280:0 281:0 282:0 283:0 284:0 285:0 286:0 287:0 288:0 289:0 290:0 291:0 292:0 293:0.024922118 294:0.0031152647 295:0 296:0 297:0 298:0 299:0 300:0 301:0.077881619 302:0.012461059 303:0 304:0 305:0 306:0 307:0 308:0 309:0.0062305294 310:0 311:0 312:0 313:0 314:0 315:0 316:0 317:0 318:0 319:0 320:0 321:0 322:0 323:0 324:0 325:0 326:0 327:0 328:0 329:0 330:0 331:0 332:0 333:0 334:0 335:0 336:0 337:0 338:0 339:0 340:0 341:0 342:0 343:0 344:0 345:0 346:0 347:0 348:0 349:0 350:0 351:0 352:0 353:0 354:0 355:0 356:0 357:0 358:0 359:0 360:0 361:0 362:0 363:0 364:0 365:0 366:0.0031152647 367:0 368:0 369:0 370:0 371:0 372:0 373:0 374:0.0031152647 375:0 376:0 377:0 378:0 379:0 380:0 381:0 382:0.0031152647 383:0 384:0 385:0 386:0 387:0 388:0 389:0 390:0 391:0 392:0 393:0 394:0 395:0 396:0 397:0 398:0 399:0 400:0 401:0 402:0 403:0 404:0 405:0 406:0 407:0 408:0 409:0 410:0 411:0 412:0 413:0 414:0 415:0 416:0 417:0 418:0 419:0 420:0 421:0 422:0 423:0 424:0 425:0 426:0 427:0 428:0 429:0 430:0 431:0 432:0 433:0 434:0 435:0 436:0 437:0 438:0 439:0 440:0 441:0 442:0 443:0 444:0 445:0 446:0 447:0 448:0 449:0 450:0 451:0 452:0 453:0 454:0 455:0 456:0 457:0 458:0 459:0 460:0 461:0 462:0 463:0 464:0 465:0 466:0 467:0 468:0 469:0 470:0 471:0 472:0 473:0 474:0 475:0 476:0 477:0 478:0 479:0 480:0 481:0 482:0 483:0 484:0 485:0 486:0 487:0 488:0 489:0 490:0 491:0 492:0 493:0 494:0 495:0 496:0 497:0 498:0 499:0 500:0 501:0 502:0 503:0 504:0 505:0 506:0 507:0 508:0 509:0 510:0 511:0 512:0 513:0.5565961 514:0.39490253 515:0.59174609 516:0.65797079 517:0.9694289 518:0.37036142 519:0.26718831 520:0.25151336 521:0.47854215 522:0.53734308 523:0.3719621 524:0.54011333 525:0.6012634 526:1 527:0.34076053 528:0.28389221 529:0.26301473 530:0.48203829 531:0.55636185 532:0.37180626 533:0.57922995 534:0.60300457 535:0.83561975 536:0.36516175 537:0.26280525 538:0.23659734 539:0.50252724 540:0.58497161 541:0.39432558 542:0.55247647 543:0.56955433 544:0.95840412 545:0.36149514 546:0.28783029 547:0.25118667 548:0.52288628 #
-0.50001123148730097778269509944948 1:0.34693879 2:0.020408163 3:0 4:0 5:0 6:0 7:0 8:0 9:0.36734694 10:0.42857143 11:0 12:0 13:0 14:0 15:0 16:0 17:0.1632653 18:0.64285713 19:0.030612245 20:0 21:0 22:0 23:0 24:0 25:0 26:0.86734694 27:0.26530612 28:0 29:0 30:0 31:0 32:0 33:0 34:0.1122449 35:0.82653064 36:0 37:0 38:0 39:0 40:0 41:0 42:0 43:0.040816326 44:0.040816326 45:0 46:0 47:0 48:0 49:0 50:0 51:0 52:0 53:0 54:0 55:0 56:0 57:0 58:0 59:0 60:0 61:0 62:0 63:0 64:0 65:0 66:0 67:0 68:0 69:0 70:0 71:0 72:0 73:0 74:0.1632653 75:0 76:0 77:0 78:0 79:0 80:0 81:0 82:0.55102038 83:0.35714287 84:0 85:0 86:0 87:0 88:0 89:0 90:0.1632653 91:0.94897962 92:0.030612245 93:0 94:0 95:0 96:0 97:0 98:0 99:1 100:0.24489796 101:0 102:0 103:0 104:0 105:0 106:0 107:0.030612245 108:0.26530612 109:0 110:0 111:0 112:0 113:0 114:0 115:0 116:0 117:0 118:0 119:0 120:0 121:0 122:0 123:0 124:0 125:0 126:0 127:0 128:0 129:0 130:0 131:0 132:0 133:0 134:0 135:0 136:0 137:0 138:0 139:0 140:0 141:0 142:0 143:0 144:0 145:0 146:0.010204081 147:0.14285715 148:0 149:0 150:0 151:0 152:0 153:0 154:0 155:0.39795917 156:0.24489796 157:0 158:0 159:0 160:0 161:0 162:0 163:0.23469388 164:0.6122449 165:0.010204081 166:0 167:0 168:0 169:0 170:0 171:0.010204081 172:0.65306121 173:0.1122449 174:0 175:0 176:0 177:0 178:0 179:0 180:0 181:0.06122449 182:0 183:0 184:0 185:0 186:0 187:0 188:0 189:0 190:0 191:0 192:0 193:0 194:0 195:0 196:0 197:0 198:0 199:0 200:0 201:0 202:0 203:0 204:0 205:0 206:0 207:0 208:0 209:0 210:0 211:0 212:0 213:0 214:0 215:0 216:0 217:0 218:0 219:0.010204081 220:0.040816326 221:0 222:0 223:0 224:0 225:0 226:0 227:0 228:0.30612245 229:0.24489796 230:0.010204081 231:0 232:0 233:0 234:0 235:0 236:0.2857143 237:0.71428573 238:0 239:0 240:0 241:0 242:0 243:0 244:0 245:0.34693879 246:0.010204081 247:0 248:0 249:0 250:0 251:0 252:0 253:0 254:0.010204081 255:0 256:0 257:0 258:0 259:0 260:0 261:0 262:0 263:0 264:0 265:0 266:0 267:0 268:0 269:0 270:0 271:0 272:0 273:0 274:0 275:0 276:0 277:0 278:0 279:0 280:0 281:0 282:0 283:0 284:0 285:0 286:0 287:0 288:0 289:0 290:0 291:0 292:0 293:0.06122449 294:0 295:0 296:0 297:0 298:0 299:0 300:0.010204081 301:0.1632653 302:0.10204082 303:0 304:0 305:0 306:0 307:0 308:0 309:0.25510204 310:0.21428572 311:0 312:0 313:0 314:0 315:0 316:0 317:0 318:0.06122449 319:0 320:0 321:0 322:0 323:0 324:0 325:0 326:0 327:0 328:0 329:0 330:0 331:0 332:0 333:0 334:0 335:0 336:0 337:0 338:0 339:0 340:0 341:0 342:0 343:0 344:0 345:0 346:0 347:0 348:0 349:0 350:0 351:0 352:0 353:0 354:0 355:0 356:0 357:0 358:0 359:0 360:0 361:0 362:0 363:0 364:0 365:0 366:0.030612245 367:0 368:0 369:0 370:0 371:0 372:0 373:0 374:0.20408164 375:0.020408163 376:0 377:0 378:0 379:0 380:0 381:0 382:0.10204082 383:0.010204081 384:0 385:0 386:0 387:0 388:0 389:0 390:0 391:0 392:0 393:0 394:0 395:0 396:0 397:0 398:0 399:0 400:0 401:0 402:0 403:0 404:0 405:0 406:0 407:0 408:0 409:0 410:0 411:0 412:0 413:0 414:0 415:0 416:0 417:0 418:0 419:0 420:0 421:0 422:0 423:0 424:0 425:0 426:0 427:0 428:0 429:0 430:0 431:0 432:0 433:0 434:0 435:0 436:0 437:0 438:0 439:0 440:0 441:0 442:0 443:0 444:0 445:0 446:0.030612245 447:0.05102041 448:0 449:0 450:0 451:0 452:0 453:0 454:0 455:0 456:0 457:0 458:0 459:0 460:0 461:0 462:0 463:0 464:0 465:0 466:0 467:0 468:0 469:0 470:0 471:0 472:0 473:0 474:0 475:0 476:0 477:0 478:0 479:0 480:0 481:0 482:0 483:0 484:0 485:0 486:0 487:0 488:0 489:0 490:0 491:0 492:0 493:0 494:0 495:0 496:0 497:0 498:0 499:0 500:0 501:0 502:0 503:0 504:0 505:0 506:0 507:0 508:0 509:0 510:0 511:0 512:0 513:0.92444003 514:0.50247633 515:0.57758445 516:0.4287917 517:0.61152518 518:0.31042418 519:0.47863251 520:0.5136416 521:0.93146646 522:0.94942069 523:0.56765527 524:0.59706366 525:0.45234737 526:0.58369267 527:0.33049512 528:0.49095929 529:0.55369413 530:0.9622038 531:0.91424823 532:0.5230633 533:0.55104119 534:0.47118735 535:0.6316393 536:0.32873037 537:0.52260053 538:0.55772007 539:0.92800874 540:0.97760445 541:0.59662616 542:0.58443964 543:0.50209862 544:0.61629105 545:0.34064215 546:0.52885622 547:0.58813226 548:1 #
-0.50001123148730097778269509944948 1:0.77332586 2:0.15032221 3:0.00028019052 4:0 5:0 6:0 7:0 8:0 9:0.57523113 10:0.87237322 11:0.020173717 12:0.00014009526 13:0 14:0 15:0 16:0 17:0.12776688 18:0.58966094 19:0.061922107 20:0.00014009526 21:0 22:0 23:0 24:0 25:0 26:0.22107033 27:0.1124965 28:0.0018212384 29:0 30:0 31:0 32:0 33:0 34:0.0028019054 35:0.065844774 36:0.0036424769 37:0 38:0 39:0 40:0 41:0 42:0 43:0.0028019054 44:0.01036705 45:0 46:0 47:0 48:0 49:0 50:0 51:0 52:0.00056038104 53:0 54:0 55:0 56:0 57:0 58:0 59:0 60:0 61:0 62:0 63:0 64:0 65:0.0028019054 66:0.0047632391 67:0 68:0 69:0 70:0 71:0 72:0 73:0.0042028581 74:0.78201175 75:0.18478565 76:0.00070047635 77:0 78:0 79:0 80:0 81:0.0012608573 82:0.58447742 83:1 84:0.033062484 85:0.0012608573 86:0 87:0 88:0 89:0 90:0.16517232 91:0.81759596 92:0.10675259 93:0.0015410479 94:0 95:0 96:0 97:0 98:0.00098066684 99:0.31241244 100:0.13631269 101:0.0070047635 102:0.00028019052 103:0 104:0 105:0 106:0 107:0.0065844776 108:0.054637153 109:0.0025217147 110:0 111:0 112:0 113:0 114:0 115:0 116:0.0019613337 117:0.0030820959 118:0 119:0 120:0 121:0 122:0 123:0 124:0 125:0 126:0 127:0 128:0 129:0 130:0 131:0 132:0 133:0 134:0 135:0 136:0 137:0 138:0.0014009527 139:0.0039226674 140:0 141:0 142:0 143:0 144:0 145:0 146:0.0042028581 147:0.51947325 148:0.16307089 149:0.0018212384 150:0 151:0 152:0 153:0 154:0.00266181 155:0.53880638 156:0.78467357 157:0.048893247 158:0.0047632391 159:0 160:0 161:0 162:0 163:0.20958252 164:0.73129725 165:0.10423087 166:0.0019613337 167:0.00014009526 168:0 169:0 170:0 171:0.0019613337 172:0.25805548 173:0.08139535 174:0.0098066684 175:0.00084057159 176:0 177:0 178:0 179:0 180:0.0025217147 181:0.020874195 182:0.0012608573 183:0.00070047635 184:0.0004202858 185:0 186:0 187:0 188:0 189:0 190:0 191:0 192:0 193:0 194:0 195:0 196:0 197:0 198:0 199:0 200:0 201:0 202:0 203:0 204:0 205:0 206:0 207:0 208:0 209:0 210:0 211:0.0011207621 212:0.0028019054 213:0 214:0 215:0 216:0 217:0 218:0 219:0.0060240962 220:0.29938358 221:0.12230317 222:0.0025217147 223:0 224:0 225:0 226:0 227:0.0023816195 228:0.37335387 229:0.48907256 230:0.040067244 231:0.005884001 232:0 233:0 234:0 235:0 236:0.24068366 237:0.47352201 238:0.05561782 239:0.0036424769 240:0.0035023817 241:0 242:0 243:0 244:0.0012608573 245:0.12678622 246:0.018492576 247:0.00532362 248:0.0025217147 249:0 250:0 251:0 252:0 253:0.00014009526 254:0.00098066684 255:0 256:0.00028019052 257:0 258:0 259:0 260:0 261:0 262:0 263:0 264:0 265:0 266:0 267:0 268:0 269:0 270:0 271:0 272:0 273:0 274:0 275:0 276:0 277:0 278:0 279:0 280:0 281:0 282:0 283:0 284:0.00056038104 285:0.002101429 286:0 287:0 288:0 289:0 290:0 291:0 292:0.0070047635 293:0.19375175 294:0.075931631 295:0.0029420005 296:0 297:0 298:0 299:0 300:0.0091061918 301:0.27360606 302:0.21616699 303:0.022975624 304:0.0077052396 305:0 306:0 307:0 308:0.0011207621 309:0.20271786 310:0.16377136 311:0.011347717 312:0.0022415242 313:0 314:0 315:0 316:0 317:0.00084057159 318:0.033482768 319:0.0049033342 320:0 321:0 322:0 323:0 324:0 325:0 326:0 327:0 328:0 329:0 330:0 331:0 332:0 333:0 334:0 335:0 336:0 337:0 338:0 339:0 340:0 341:0 342:0 343:0 344:0 345:0 346:0 347:0 348:0 349:0 350:0 351:0 352:0 353:0 354:0 355:0 356:0 357:0.0015410479 358:0.00098066684 359:0 360:0 361:0 362:0 363:0 364:0 365:0.0046231439 366:0.090781733 367:0.02157467 368:0.0004202858 369:0 370:0 371:0 372:0 373:0.013449145 374:0.14808069 375:0.052115437 376:0.0042028581 377:0 378:0 379:0 380:0 381:0.00070047635 382:0.085598208 383:0.051555056 384:0.00084057159 385:0 386:0 387:0 388:0 389:0 390:0 391:0 392:0 393:0 394:0 395:0 396:0 397:0 398:0 399:0 400:0 401:0 402:0 403:0 404:0 405:0 406:0 407:0 408:0 409:0 410:0 411:0 412:0 413:0 414:0 415:0 416:0 417:0 418:0 419:0 420:0 421:0 422:0 423:0 424:0 425:0 426:0 427:0 428:0 429:0 430:0.0012608573 431:0.00056038104 432:0 433:0 434:0 435:0 436:0 437:0 438:0.0063042869 439:0.026618101 440:0.0033622864 441:0 442:0 443:0 444:0 445:0 446:0.009386383 447:0.083776966 448:0.015270384 449:0 450:0 451:0 452:0 453:0 454:0 455:0 456:0 457:0 458:0 459:0 460:0 461:0 462:0 463:0 464:0 465:0 466:0 467:0 468:0 469:0 470:0 471:0 472:0 473:0 474:0 475:0 476:0 477:0 478:0 479:0 480:0 481:0 482:0 483:0 484:0 485:0 486:0 487:0 488:0 489:0 490:0 491:0 492:0 493:0 494:0 495:0 496:0 497:0 498:0 499:0 500:0 501:0 502:0 503:0 504:0.00014009526 505:0 506:0 507:0 508:0 509:0 510:0 511:0.0054637152 512:0.022135051 513:0.85975552 514:0.65097857 515:0.64719868 516:0.54257518 517:0.78063726 518:0.57456219 519:0.71653348 520:0.71307421 521:0.877469 522:0.92865902 523:0.70160681 524:0.69860065 525:0.58814627 526:0.84484172 527:0.64040399 528:0.77077645 529:0.779055 530:0.93809134 531:0.92464626 532:0.70771939 533:0.70552021 534:0.59441876 535:0.83837366 536:0.64368033 537:0.79431289 538:0.78582513 539:0.93877023 540:0.98467112 541:0.77530259 542:0.76528209 543:0.66083831 544:0.90706545 545:0.6960547 546:0.83064407 547:0.83246744 548:1 #
-0.39768880021378955058608539729903 1:1 2:0.081920907 3:0 4:0 5:0 6:0 7:0 8:0 9:0.036723163 10:0.52824861 11:0.031073445 12:0 13:0 14:0 15:0 16:0 17:0 18:0.0028248588 19:0.0056497175 20:0 21:0 22:0 23:0 24:0 25:0 26:0 27:0 28:0 29:0 30:0 31:0 32:0 33:0 34:0 35:0 36:0 37:0 38:0 39:0 40:0 41:0 42:0 43:0 44:0 45:0 46:0 47:0 48:0 49:0 50:0 51:0 52:0 53:0 54:0 55:0 56:0 57:0 58:0 59:0 60:0 61:0 62:0 63:0 64:0 65:0.025423728 66:0.01977401 67:0 68:0 69:0 70:0 71:0 72:0 73:0.0056497175 74:0.80508476 75:0.11016949 76:0 77:0 78:0 79:0 80:0 81:0 82:0.01977401 83:0.42655367 84:0.033898305 85:0 86:0 87:0 88:0 89:0 90:0 91:0 92:0.011299435 93:0 94:0 95:0 96:0 97:0 98:0 99:0 100:0 101:0 102:0 103:0 104:0 105:0 106:0 107:0 108:0 109:0 110:0 111:0 112:0 113:0 114:0 115:0 116:0 117:0 118:0 119:0 120:0 121:0 122:0 123:0 124:0 125:0 126:0 127:0 128:0 129:0 130:0 131:0 132:0 133:0 134:0 135:0 136:0 137:0 138:0.01977401 139:0.0084745763 140:0 141:0 142:0 143:0 144:0 145:0 146:0 147:0.47740114 148:0.076271184 149:0 150:0 151:0 152:0 153:0 154:0 155:0.025423728 156:0.30225989 157:0.0084745763 158:0 159:0 160:0 161:0 162:0 163:0 164:0 165:0.011299435 166:0 167:0 168:0 169:0 170:0 171:0 172:0 173:0 174:0 175:0 176:0 177:0 178:0 179:0 180:0 181:0 182:0 183:0 184:0 185:0 186:0 187:0 188:0 189:0 190:0 191:0 192:0 193:0 194:0 195:0 196:0 197:0 198:0 199:0 200:0 201:0 202:0 203:0 204:0 205:0 206:0 207:0 208:0 209:0 210:0 211:0.016949153 212:0 213:0 214:0 215:0 216:0 217:0 218:0 219:0.0056497175 220:0.41242939 221:0.02259887 222:0 223:0 224:0 225:0 226:0 227:0 228:0.014124294 229:0.073446326 230:0.0028248588 231:0 232:0 233:0 234:0 235:0 236:0 237:0 238:0 239:0 240:0 241:0 242:0 243:0 244:0 245:0 246:0 247:0 248:0 249:0 250:0 251:0 252:0 253:0 254:0 255:0 256:0 257:0 258:0 259:0 260:0 261:0 262:0 263:0 264:0 265:0 266:0 267:0 268:0 269:0 270:0 271:0 272:0 273:0 274:0 275:0 276:0 277:0 278:0 279:0 280:0 281:0 282:0 283:0 284:0 285:0 286:0 287:0 288:0 289:0 290:0 291:0 292:0.0028248588 293:0.048022598 294:0.0028248588 295:0 296:0 297:0 298:0 299:0 300:0 301:0 302:0 303:0 304:0 305:0 306:0 307:0 308:0 309:0 310:0 311:0 312:0 313:0 314:0 315:0 316:0 317:0 318:0 319:0 320:0 321:0 322:0 323:0 324:0 325:0 326:0 327:0 328:0 329:0 330:0 331:0 332:0 333:0 334:0 335:0 336:0 337:0 338:0 339:0 340:0 341:0 342:0 343:0 344:0 345:0 346:0 347:0 348:0 349:0 350:0 351:0 352:0 353:0 354:0 355:0 356:0 357:0.0028248588 358:0 359:0 360:0 361:0 362:0 363:0 364:0 365:0 366:0.0084745763 367:0 368:0 369:0 370:0 371:0 372:0 373:0 374:0 375:0 376:0 377:0 378:0 379:0 380:0 381:0 382:0 383:0 384:0 385:0 386:0 387:0 388:0 389:0 390:0 391:0 392:0 393:0 394:0 395:0 396:0 397:0 398:0 399:0 400:0 401:0 402:0 403:0 404:0 405:0 406:0 407:0 408:0 409:0 410:0 411:0 412:0 413:0 414:0 415:0 416:0 417:0 418:0 419:0 420:0 421:0 422:0 423:0 424:0 425:0 426:0 427:0 428:0 429:0 430:0 431:0 432:0 433:0 434:0 435:0 436:0 437:0 438:0 439:0 440:0 441:0 442:0 443:0 444:0 445:0 446:0 447:0 448:0 449:0 450:0 451:0 452:0 453:0 454:0 455:0 456:0 457:0 458:0 459:0 460:0 461:0 462:0 463:0 464:0 465:0 466:0 467:0 468:0 469:0 470:0 471:0 472:0 473:0 474:0 475:0 476:0 477:0 478:0 479:0 480:0 481:0 482:0 483:0 484:0 485:0 486:0 487:0 488:0 489:0 490:0 491:0 492:0 493:0 494:0 495:0 496:0 497:0 498:0 499:0 500:0 501:0 502:0 503:0 504:0 505:0 506:0 507:0 508:0 509:0 510:0 511:0 512:0 513:0.93919456 514:0.60672855 515:0.58750629 516:0.49719143 517:0.90640903 518:0.31158286 519:0.34930235 520:0.36383843 521:0.8843776 522:1 523:0.67128873 524:0.64114803 525:0.52975506 526:0.86434257 527:0.35157108 528:0.42668784 529:0.4244428 530:0.94123662 531:0.86904466 532:0.64971238 533:0.61958182 534:0.5142138 535:0.8656655 536:0.35721245 537:0.44427603 538:0.43284112 539:0.8242591 540:0.94067001 541:0.73012972 542:0.69545174 543:0.59672874 544:0.87626261 545:0.4122856 546:0.50802737 547:0.48893487 548:0.88664806 #
-0.50001123148730097778269509944948 1:0.21925133 2:0 3:0 4:0 5:0 6:0 7:0 8:0 9:0.49197862 10:0.37967914 11:0 12:0 13:0 14:0 15:0 16:0 17:0.03208556 18:0.2513369 19:0.042780749 20:0 21:0 22:0 23:0 24:0 25:0 26:0 27:0 28:0 29:0 30:0 31:0 32:0 33:0 34:0 35:0 36:0 37:0 38:0 39:0 40:0 41:0 42:0 43:0 44:0 45:0 46:0 47:0 48:0 49:0 50:0 51:0 52:0 53:0 54:0 55:0 56:0 57:0 58:0 59:0 60:0 61:0 62:0 63:0 64:0 65:0 66:0.0053475937 67:0 68:0 69:0 70:0 71:0 72:0 73:0 74:0.090909094 75:0.0053475937 76:0 77:0 78:0 79:0 80:0 81:0.0053475937 82:0.37433156 83:0.60427809 84:0 85:0 86:0 87:0 88:0 89:0 90:0.03208556 91:0.29411766 92:0.14438502 93:0 94:0 95:0 96:0 97:0 98:0 99:0.03208556 100:0.0053475937 101:0 102:0 103:0 104:0 105:0 106:0 107:0 108:0 109:0 110:0 111:0 112:0 113:0 114:0 115:0 116:0 117:0 118:0 119:0 120:0 121:0 122:0 123:0 124:0 125:0 126:0 127:0 128:0 129:0 130:0 131:0 132:0 133:0 134:0 135:0 136:0 137:0 138:0 139:0 140:0 141:0 142:0 143:0 144:0 145:0 146:0 147:0.090909094 148:0.042780749 149:0 150:0 151:0 152:0 153:0 154:0 155:0.21390374 156:0.74331552 157:0.01604278 158:0 159:0 160:0 161:0 162:0 163:0.021390375 164:0.28877005 165:0.11229946 166:0 167:0 168:0 169:0 170:0 171:0 172:0.0053475937 173:0.0053475937 174:0 175:0 176:0 177:0 178:0 179:0 180:0 181:0 182:0 183:0 184:0 185:0 186:0 187:0 188:0 189:0 190:0 191:0 192:0 193:0 194:0 195:0 196:0 197:0 198:0 199:0 200:0 201:0 202:0 203:0 204:0 205:0 206:0 207:0 208:0 209:0 210:0 211:0 212:0 213:0 214:0 215:0 216:0 217:0 218:0 219:0 220:0.23529412 221:0.12834224 222:0 223:0 224:0 225:0 226:0 227:0 228:0.19251336 229:1 230:0.01604278 231:0 232:0 233:0 234:0 235:0 236:0.010695187 237:0.24064171 238:0.11764706 239:0 240:0 241:0 242:0 243:0 244:0 245:0.010695187 246:0.04812834 247:0 248:0 249:0 250:0 251:0 252:0 253:0 254:0 255:0 256:0 257:0 258:0 259:0 260:0 261:0 262:0 263:0 264:0 265:0 266:0 267:0 268:0 269:0 270:0 271:0 272:0 273:0 274:0 275:0 276:0 277:0 278:0 279:0 280:0 281:0 282:0 283:0 284:0 285:0 286:0 287:0 288:0 289:0 290:0 291:0 292:0 293:0.22459893 294:0.064171121 295:0 296:0 297:0 298:0 299:0 300:0 301:0.07486631 302:0.86631018 303:0.010695187 304:0 305:0 306:0 307:0 308:0 309:0 310:0.18181819 311:0.064171121 312:0 313:0 314:0 315:0 316:0 317:0 318:0.0053475937 319:0.07486631 320:0 321:0 322:0 323:0 324:0 325:0 326:0 327:0 328:0 329:0 330:0 331:0 332:0 333:0 334:0 335:0 336:0 337:0 338:0 339:0 340:0 341:0 342:0 343:0 344:0 345:0 346:0 347:0 348:0 349:0 350:0 351:0 352:0 353:0 354:0 355:0 356:0 357:0 358:0 359:0 360:0 361:0 362:0 363:0 364:0 365:0 366:0.20320855 367:0.03208556 368:0 369:0 370:0 371:0 372:0 373:0 374:0.064171121 375:0.29411766 376:0 377:0 378:0 379:0 380:0 381:0 382:0 383:0.05882353 384:0.0053475937 385:0 386:0 387:0 388:0 389:0 390:0 391:0 392:0 393:0 394:0 395:0 396:0 397:0 398:0 399:0 400:0 401:0 402:0 403:0 404:0 405:0 406:0 407:0 408:0 409:0 410:0 411:0 412:0 413:0 414:0 415:0 416:0 417:0 418:0 419:0 420:0 421:0 422:0 423:0 424:0 425:0 426:0 427:0 428:0 429:0 430:0 431:0 432:0 433:0 434:0 435:0 436:0 437:0 438:0 439:0.085561499 440:0.0053475937 441:0 442:0 443:0 444:0 445:0 446:0 447:0.010695187 448:0.010695187 449:0 450:0 451:0 452:0 453:0 454:0 455:0 456:0 457:0 458:0 459:0 460:0 461:0 462:0 463:0 464:0 465:0 466:0 467:0 468:0 469:0 470:0 471:0 472:0 473:0 474:0 475:0 476:0 477:0 478:0 479:0 480:0 481:0 482:0 483:0 484:0 485:0 486:0 487:0 488:0 489:0 490:0 491:0 492:0 493:0 494:0 495:0 496:0 497:0 498:0 499:0 500:0 501:0 502:0 503:0 504:0 505:0 506:0 507:0 508:0 509:0 510:0 511:0 512:0.0053475937 513:0.58039182 514:0.31275931 515:0.33624148 516:0.34251311 517:0.94850987 518:0.56155527 519:0.68568832 520:0.45676628 521:0.6170786 522:0.61916208 523:0.3321107 524:0.35955918 525:0.41717094 526:0.94781667 527:0.65488487 528:0.72215742 529:0.54032153 530:0.68946826 531:0.61429268 532:0.34868363 533:0.38584229 534:0.40904763 535:1 536:0.58933604 537:0.68978029 538:0.49885798 539:0.64086461 540:0.64617926 541:0.38581029 542:0.41490191 543:0.4533433 544:0.94634902 545:0.65326494 546:0.74232399 547:0.55161268 548:0.70847547 #
0.16935780124989455175388286534144 1:1 2:0.95945948 3:0 4:0 5:0 6:0 7:0 8:0 9:0 10:0.4581081 11:0.016216217 12:0.0013513514 13:0 14:0 15:0 16:0 17:0 18:0 19:0 20:0 21:0 22:0 23:0 24:0 25:0 26:0 27:0 28:0 29:0 30:0 31:0 32:0 33:0 34:0 35:0 36:0 37:0 38:0 39:0 40:0 41:0 42:0 43:0 44:0 45:0 46:0 47:0 48:0 49:0 50:0 51:0 52:0 53:0 54:0 55:0 56:0 57:0 58:0 59:0 60:0 61:0 62:0 63:0 64:0 65:0 66:0 67:0 68:0 69:0 70:0 71:0 72:0 73:0 74:0.089189187 75:0.03108108 76:0 77:0 78:0 79:0 80:0 81:0 82:0 83:0.024324324 84:0.024324324 85:0 86:0 87:0 88:0 89:0 90:0 91:0 92:0 93:0 94:0 95:0 96:0 97:0 98:0 99:0 100:0 101:0 102:0 103:0 104:0 105:0 106:0 107:0 108:0 109:0 110:0 111:0 112:0 113:0 114:0 115:0 116:0 117:0 118:0 119:0 120:0 121:0 122:0 123:0 124:0 125:0 126:0 127:0 128:0 129:0 130:0 131:0 132:0 133:0 134:0 135:0 136:0 137:0 138:0 139:0 140:0 141:0 142:0 143:0 144:0 145:0 146:0 147:0.035135135 148:0.036486488 149:0 150:0 151:0 152:0 153:0 154:0 155:0 156:0.0040540542 157:0.010810811 158:0 159:0 160:0 161:0 162:0 163:0 164:0 165:0 166:0 167:0 168:0 169:0 170:0 171:0 172:0 173:0 174:0 175:0 176:0 177:0 178:0 179:0 180:0 181:0 182:0 183:0 184:0 185:0 186:0 187:0 188:0 189:0 190:0 191:0 192:0 193:0 194:0 195:0 196:0 197:0 198:0 199:0 200:0 201:0 202:0 203:0 204:0 205:0 206:0 207:0 208:0 209:0 210:0 211:0 212:0 213:0 214:0 215:0 216:0 217:0 218:0 219:0 220:0 221:0.0027027028 222:0 223:0 224:0 225:0 226:0 227:0 228:0 229:0 230:0 231:0 232:0 233:0 234:0 235:0 236:0 237:0 238:0 239:0 240:0 241:0 242:0 243:0 244:0 245:0 246:0 247:0 248:0 249:0 250:0 251:0 252:0 253:0 254:0 255:0 256:0 257:0 258:0 259:0 260:0 261:0 262:0 263:0 264:0 265:0 266:0 267:0 268:0 269:0 270:0 271:0 272:0 273:0 274:0 275:0 276:0 277:0 278:0 279:0 280:0 281:0 282:0 283:0 284:0 285:0 286:0 287:0 288:0 289:0 290:0 291:0 292:0 293:0 294:0 295:0 296:0 297:0 298:0 299:0 300:0 301:0 302:0 303:0 304:0 305:0 306:0 307:0 308:0 309:0 310:0 311:0 312:0 313:0 314:0 315:0 316:0 317:0 318:0 319:0 320:0 321:0 322:0 323:0 324:0 325:0 326:0 327:0 328:0 329:0 330:0 331:0 332:0 333:0 334:0 335:0 336:0 337:0 338:0 339:0 340:0 341:0 342:0 343:0 344:0 345:0 346:0 347:0 348:0 349:0 350:0 351:0 352:0 353:0 354:0 355:0 356:0 357:0 358:0 359:0 360:0 361:0 362:0 363:0 364:0 365:0 366:0 367:0 368:0 369:0 370:0 371:0 372:0 373:0 374:0 375:0 376:0 377:0 378:0 379:0 380:0 381:0 382:0 383:0 384:0 385:0 386:0 387:0 388:0 389:0 390:0 391:0 392:0 393:0 394:0 395:0 396:0 397:0 398:0 399:0 400:0 401:0 402:0 403:0 404:0 405:0 406:0 407:0 408:0 409:0 410:0 411:0 412:0 413:0 414:0 415:0 416:0 417:0 418:0 419:0 420:0 421:0 422:0 423:0 424:0 425:0 426:0 427:0 428:0 429:0 430:0 431:0 432:0 433:0 434:0 435:0 436:0 437:0 438:0 439:0 440:0 441:0 442:0 443:0 444:0 445:0 446:0 447:0 448:0 449:0 450:0 451:0 452:0 453:0 454:0 455:0 456:0 457:0 458:0 459:0 460:0 461:0 462:0 463:0 464:0 465:0 466:0 467:0 468:0 469:0 470:0 471:0 472:0 473:0 474:0 475:0 476:0 477:0 478:0 479:0 480:0 481:0 482:0 483:0 484:0 485:0 486:0 487:0 488:0 489:0 490:0 491:0 492:0 493:0 494:0 495:0 496:0 497:0 498:0 499:0 500:0 501:0 502:0 503:0 504:0 505:0 506:0 507:0 508:0 509:0 510:0 511:0 512:0 513:0.76069337 514:0.26099986 515:0.3007943 516:0.20646878 517:0.55980062 518:0.34157172 519:0.59311879 520:0.59146518 521:0.91399932 522:0.87701863 523:0.31931236 524:0.30486965 525:0.26165399 526:0.57148302 527:0.4890241 528:0.66734517 529:0.65718013 530:0.99972439 531:0.85157168 532:0.24668139 533:0.20120484 534:0.1762668 535:0.53585601 536:0.42061797 537:0.65236235 538:0.65280521 539:0.98030955 540:0.83459806 541:0.27214015 542:0.23541464 543:0.22253411 544:0.49671701 545:0.42243084 546:0.66240001 547:0.67101258 548:1 #
0.0010299170137085919725372651356565 1:0 2:0 3:0 4:0 5:0 6:0 7:0 8:0 9:0 10:0 11:0 12:0 13:0 14:0 15:0 16:0 17:0 18:0 19:0 20:0 21:0 22:0 23:0 24:0 25:0 26:0 27:0 28:0 29:0 30:0 31:0 32:0 33:0 34:0 35:0 36:0 37:0 38:0 39:0 40:0 41:0 42:0 43:0 44:0 45:0 46:0 47:0 48:0 49:0 50:0 51:0 52:0 53:0 54:0 55:0 56:0 57:0 58:0 59:0 60:0 61:0 62:0 63:0 64:0 65:0 66:0 67:0 68:0 69:0 70:0 71:0 72:0 73:0 74:0 75:0 76:0 77:0 78:0 79:0 80:0 81:0 82:0 83:0 84:0 85:0 86:0 87:0 88:0 89:0 90:0 91:0 92:0 93:0 94:0.00043898157 95:0 96:0 97:0 98:0 99:0 100:0 101:0 102:0.00043898157 103:0 104:0 105:0 106:0 107:0 108:0 109:0 110:0 111:0 112:0 113:0 114:0 115:0 116:0 117:0 118:0 119:0 120:0 121:0 122:0 123:0 124:0 125:0 126:0 127:0 128:0 129:0 130:0 131:0 132:0 133:0 134:0 135:0 136:0 137:0 138:0 139:0 140:0 141:0 142:0 143:0 144:0 145:0 146:0 147:0 148:0 149:0 150:0 151:0 152:0 153:0 154:0 155:0 156:0 157:0 158:0.00043898157 159:0 160:0 161:0 162:0 163:0 164:0 165:0 166:0 167:0.0079016685 168:0.0083406493 169:0 170:0 171:0 172:0 173:0 174:0 175:0 176:0.010974539 177:0 178:0 179:0 180:0 181:0 182:0 183:0 184:0 185:0 186:0 187:0 188:0 189:0 190:0 191:0 192:0 193:0 194:0 195:0 196:0 197:0 198:0 199:0 200:0 201:0 202:0 203:0 204:0 205:0 206:0 207:0 208:0 209:0 210:0 211:0 212:0 213:0 214:0 215:0 216:0 217:0 218:0 219:0 220:0 221:0 222:0 223:0 224:0 225:0 226:0 227:0 228:0 229:0 230:0 231:0.017559262 232:0.028533801 233:0 234:0 235:0 236:0 237:0 238:0 239:0.008779631 240:0.24582967 241:0 242:0 243:0 244:0 245:0 246:0 247:0 248:0.015364354 249:0 250:0 251:0 252:0 253:0 254:0 255:0 256:0 257:0 258:0 259:0 260:0 261:0 262:0 263:0 264:0 265:0 266:0 267:0 268:0 269:0 270:0 271:0 272:0 273:0 274:0 275:0 276:0 277:0 278:0 279:0 280:0 281:0 282:0 283:0 284:0 285:0 286:0 287:0 288:0 289:0 290:0 291:0 292:0 293:0 294:0 295:0 296:0 297:0 298:0 299:0 300:0 301:0 302:0 303:0.0013169447 304:1 305:0 306:0 307:0 308:0 309:0 310:0 311:0 312:0.17383669 313:0 314:0 315:0 316:0 317:0 318:0 319:0 320:0 321:0 322:0 323:0 324:0 325:0 326:0 327:0 328:0 329:0 330:0 331:0 332:0 333:0 334:0 335:0 336:0 337:0 338:0 339:0 340:0 341:0 342:0 343:0 344:0 345:0 346:0 347:0 348:0 349:0 350:0 351:0 352:0 353:0 354:0 355:0 356:0 357:0 358:0 359:0 360:0 361:0 362:0 363:0 364:0 365:0 366:0 367:0 368:0.0070237052 369:0 370:0 371:0 372:0 373:0 374:0 375:0 376:0.034240562 377:0 378:0 379:0 380:0 381:0 382:0 383:0 384:0 385:0 386:0 387:0 388:0 389:0 390:0 391:0 392:0 393:0 394:0 395:0 396:0 397:0 398:0 399:0 400:0 401:0 402:0 403:0 404:0 405:0 406:0 407:0 408:0 409:0 410:0 411:0 412:0 413:0 414:0 415:0 416:0 417:0 418:0 419:0 420:0 421:0 422:0 423:0 424:0 425:0 426:0 427:0 428:0 429:0 430:0 431:0 432:0 433:0 434:0 435:0 436:0 437:0 438:0 439:0 440:0 441:0 442:0 443:0 444:0 445:0 446:0 447:0 448:0 449:0 450:0 451:0 452:0 453:0 454:0 455:0 456:0 457:0 458:0 459:0 460:0 461:0 462:0 463:0 464:0 465:0 466:0 467:0 468:0 469:0 470:0 471:0 472:0 473:0 474:0 475:0 476:0 477:0 478:0 479:0 480:0 481:0 482:0 483:0 484:0 485:0 486:0 487:0 488:0 489:0 490:0 491:0 492:0 493:0 494:0 495:0 496:0 497:0 498:0 499:0 500:0 501:0 502:0 503:0 504:0 505:0 506:0 507:0 508:0 509:0 510:0 511:0 512:0 513:0.92065269 514:0.45488036 515:0.2888993 516:0.1190974 517:0.26620489 518:0.10989931 519:0.2225683 520:0.38684478 521:0.93140328 522:0.95624179 523:0.50541103 524:0.3147099 525:0.14528093 526:0.25050277 527:0.14286171 528:0.240265 529:0.41128334 530:0.96061397 531:0.96005869 532:0.49566701 533:0.31085905 534:0.13416283 535:0.26993135 536:0.13647591 537:0.26703382 538:0.4163774 539:0.99347627 540:0.96350086 541:0.56682789 542:0.36595693 543:0.17200181 544:0.28754377 545:0.16860008 546:0.31203011 547:0.46746957 548:1 #
0.50001123148730097778269509944948 1:0.77777779 2:0.42929292 3:0 4:0 5:0 6:0 7:0 8:0 9:0 10:0.23737374 11:0.21717171 12:0.005050505 13:0 14:0 15:0 16:0 17:0 18:0 19:0 20:0 21:0 22:0 23:0 24:0 25:0 26:0 27:0 28:0 29:0 30:0 31:0 32:0 33:0 34:0 35:0 36:0 37:0 38:0 39:0 40:0 41:0 42:0 43:0 44:0 45:0 46:0 47:0 48:0 49:0 50:0 51:0 52:0 53:0 54:0 55:0 56:0 57:0 58:0 59:0 60:0 61:0 62:0 63:0 64:0 65:0.005050505 66:0 67:0 68:0 69:0 70:0 71:0 72:0 73:0.005050505 74:0.52020204 75:1 76:0.085858583 77:0 78:0 79:0 80:0 81:0 82:0 83:0.39898989 84:0.62121212 85:0.13131313 86:0 87:0 88:0 89:0 90:0 91:0 92:0 93:0.070707068 94:0 95:0 96:0 97:0 98:0 99:0 100:0 101:0 102:0 103:0 104:0 105:0 106:0 107:0 108:0 109:0 110:0 111:0 112:0 113:0 114:0 115:0 116:0 117:0 118:0 119:0 120:0 121:0 122:0 123:0 124:0 125:0 126:0 127:0 128:0 129:0 130:0 131:0 132:0 133:0 134:0 135:0 136:0 137:0 138:0 139:0 140:0 141:0 142:0 143:0 144:0 145:0 146:0 147:0.44949496 148:0.8888889 149:0.10606061 150:0 151:0 152:0 153:0 154:0 155:0 156:0.36363637 157:0.85858583 158:0.34848484 159:0 160:0 161:0 162:0 163:0 164:0 165:0.005050505 166:0.30303031 167:0.015151516 168:0 169:0 170:0 171:0 172:0 173:0 174:0 175:0 176:0 177:0 178:0 179:0 180:0 181:0 182:0 183:0 184:0 185:0 186:0 187:0 188:0 189:0 190:0 191:0 192:0 193:0 194:0 195:0 196:0 197:0 198:0 199:0 200:0 201:0 202:0 203:0 204:0 205:0 206:0 207:0 208:0 209:0 210:0 211:0 212:0 213:0 214:0 215:0 216:0 217:0 218:0 219:0 220:0.12121212 221:0.33838382 222:0.035353534 223:0 224:0 225:0 226:0 227:0 228:0 229:0.1969697 230:0.72727275 231:0.11616161 232:0 233:0 234:0 235:0 236:0 237:0 238:0.01010101 239:0.085858583 240:0 241:0 242:0 243:0 244:0 245:0 246:0 247:0 248:0 249:0 250:0 251:0 252:0 253:0 254:0 255:0 256:0 257:0 258:0 259:0 260:0 261:0 262:0 263:0 264:0 265:0 266:0 267:0 268:0 269:0 270:0 271:0 272:0 273:0 274:0 275:0 276:0 277:0 278:0 279:0 280:0 281:0 282:0 283:0 284:0 285:0 286:0 287:0 288:0 289:0 290:0 291:0 292:0 293:0.045454547 294:0.025252525 295:0.005050505 296:0 297:0 298:0 299:0 300:0 301:0 302:0.030303031 303:0.35353535 304:0 305:0 306:0 307:0 308:0 309:0 310:0 311:0.055555556 312:0.01010101 313:0 314:0 315:0 316:0 317:0 318:0 319:0 320:0 321:0 322:0 323:0 324:0 325:0 326:0 327:0 328:0 329:0 330:0 331:0 332:0 333:0 334:0 335:0 336:0 337:0 338:0 339:0 340:0 341:0 342:0 343:0 344:0 345:0 346:0 347:0 348:0 349:0 350:0 351:0 352:0 353:0 354:0 355:0 356:0 357:0 358:0 359:0 360:0 361:0 362:0 363:0 364:0 365:0 366:0 367:0.04040404 368:0 369:0 370:0 371:0 372:0 373:0 374:0 375:0.065656565 376:0.13131313 377:0 378:0 379:0 380:0 381:0 382:0 383:0 384:0 385:0 386:0 387:0 388:0 389:0 390:0 391:0 392:0 393:0 394:0 395:0 396:0 397:0 398:0 399:0 400:0 401:0 402:0 403:0 404:0 405:0 406:0 407:0 408:0 409:0 410:0 411:0 412:0 413:0 414:0 415:0 416:0 417:0 418:0 419:0 420:0 421:0 422:0 423:0 424:0 425:0 426:0 427:0 428:0 429:0 430:0 431:0 432:0 433:0 434:0 435:0 436:0 437:0 438:0 439:0 440:0.035353534 441:0 442:0 443:0 444:0 445:0 446:0 447:0 448:0.01010101 449:0 450:0 451:0 452:0 453:0 454:0 455:0 456:0 457:0 458:0 459:0 460:0 461:0 462:0 463:0 464:0 465:0 466:0 467:0 468:0 469:0 470:0 471:0 472:0 473:0 474:0 475:0 476:0 477:0 478:0 479:0 480:0 481:0 482:0 483:0 484:0 485:0 486:0 487:0 488:0 489:0 490:0 491:0 492:0 493:0 494:0 495:0 496:0 497:0 498:0 499:0 500:0 501:0 502:0 503:0 504:0 505:0 506:0 507:0 508:0 509:0 510:0 511:0 512:0 513:0.98793834 514:0.3209742 515:0.18232733 516:0.15775584 517:0.53360033 518:0.16087124 519:0.14824593 520:0.16806847 521:0.96387327 522:1 523:0.32561487 524:0.19256042 525:0.17476413 526:0.56330091 527:0.18878704 528:0.15707465 529:0.17995963 530:0.99219322 531:0.96849447 532:0.37835273 533:0.25218755 534:0.20871462 535:0.57876968 536:0.22505027 537:0.19217004 538:0.23740345 539:0.93837929 540:0.98415995 541:0.42105469 542:0.2750878 543:0.2599141 544:0.68294513 545:0.24628639 546:0.19931373 547:0.2284447 548:0.98492604 #
0.25110031282064571023227017576573 1:0 2:0.1101083 3:0.079422385 4:0 5:0 6:0 7:0 8:0 9:0 10:0.10288808 11:0.61371839 12:1 13:0.0090252711 14:0 15:0 16:0 17:0 18:0 19:0 20:0.14259928 21:0.16064982 22:0.0018050541 23:0 24:0 25:0 26:0 27:0 28:0 29:0 30:0 31:0 32:0 33:0 34:0 35:0 36:0 37:0 38:0 39:0 40:0 41:0 42:0 43:0 44:0 45:0 46:0 47:0 48:0 49:0 50:0 51:0 52:0 53:0 54:0 55:0 56:0 57:0 58:0 59:0 60:0 61:0 62:0 63:0 64:0 65:0 66:0 67:0 68:0 69:0 70:0 71:0 72:0 73:0 74:0.081227437 75:0.28519857 76:0.29602888 77:0 78:0 79:0 80:0 81:0 82:0 83:0.083032489 84:0.61732852 85:0.72021663 86:0.084837548 87:0 88:0 89:0 90:0 91:0 92:0 93:0.05595668 94:0.16425993 95:0.034296028 96:0 97:0 98:0 99:0 100:0 101:0 102:0 103:0.0036101083 104:0 105:0 106:0 107:0 108:0 109:0 110:0 111:0 112:0 113:0 114:0 115:0 116:0 117:0 118:0 119:0 120:0 121:0 122:0 123:0 124:0 125:0 126:0 127:0 128:0 129:0 130:0 131:0 132:0 133:0 134:0 135:0 136:0 137:0 138:0 139:0 140:0 141:0 142:0 143:0 144:0 145:0 146:0 147:0.0036101083 148:0.048736461 149:0.03068592 150:0.0018050541 151:0 152:0 153:0 154:0 155:0 156:0.0090252711 157:0.054151624 158:0.070397109 159:0.034296028 160:0 161:0 162:0 163:0 164:0 165:0 166:0 167:0.037906136 168:0.0090252711 169:0 170:0 171:0 172:0 173:0 174:0 175:0 176:0 177:0 178:0 179:0 180:0 181:0 182:0 183:0 184:0 185:0 186:0 187:0 188:0 189:0 190:0 191:0 192:0 193:0 194:0 195:0 196:0 197:0 198:0 199:0 200:0 201:0 202:0 203:0 204:0 205:0 206:0 207:0 208:0 209:0 210:0 211:0 212:0 213:0 214:0 215:0 216:0 217:0 218:0 219:0 220:0 221:0.0036101083 222:0.0036101083 223:0 224:0 225:0 226:0 227:0 228:0 229:0 230:0.0036101083 231:0.0018050541 232:0 233:0 234:0 235:0 236:0 237:0 238:0 239:0 240:0 241:0 242:0 243:0 244:0 245:0 246:0 247:0 248:0 249:0 250:0 251:0 252:0 253:0 254:0 255:0 256:0 257:0 258:0 259:0 260:0 261:0 262:0 263:0 264:0 265:0 266:0 267:0 268:0 269:0 270:0 271:0 272:0 273:0 274:0 275:0 276:0 277:0 278:0 279:0 280:0 281:0 282:0 283:0 284:0 285:0 286:0 287:0 288:0 289:0 290:0 291:0 292:0 293:0 294:0 295:0 296:0 297:0 298:0 299:0 300:0 301:0 302:0 303:0 304:0 305:0 306:0 307:0 308:0 309:0 310:0 311:0 312:0 313:0 314:0 315:0 316:0 317:0 318:0 319:0 320:0 321:0 322:0 323:0 324:0 325:0 326:0 327:0 328:0 329:0 330:0 331:0 332:0 333:0 334:0 335:0 336:0 337:0 338:0 339:0 340:0 341:0 342:0 343:0 344:0 345:0 346:0 347:0 348:0 349:0 350:0 351:0 352:0 353:0 354:0 355:0 356:0 357:0 358:0 359:0 360:0 361:0 362:0 363:0 364:0 365:0 366:0 367:0 368:0 369:0 370:0 371:0 372:0 373:0 374:0 375:0 376:0 377:0 378:0 379:0 380:0 381:0 382:0 383:0 384:0 385:0 386:0 387:0 388:0 389:0 390:0 391:0 392:0 393:0 394:0 395:0 396:0 397:0 398:0 399:0 400:0 401:0 402:0 403:0 404:0 405:0 406:0 407:0 408:0 409:0 410:0 411:0 412:0 413:0 414:0 415:0 416:0 417:0 418:0 419:0 420:0 421:0 422:0 423:0 424:0 425:0 426:0 427:0 428:0 429:0 430:0 431:0 432:0 433:0 434:0 435:0 436:0 437:0 438:0 439:0 440:0 441:0 442:0 443:0 444:0 445:0 446:0 447:0 448:0 449:0 450:0 451:0 452:0 453:0 454:0 455:0 456:0 457:0 458:0 459:0 460:0 461:0 462:0 463:0 464:0 465:0 466:0 467:0 468:0 469:0 470:0 471:0 472:0 473:0 474:0 475:0 476:0 477:0 478:0 479:0 480:0 481:0 482:0 483:0 484:0 485:0 486:0 487:0 488:0 489:0 490:0 491:0 492:0 493:0 494:0 495:0 496:0 497:0 498:0 499:0 500:0 501:0 502:0 503:0 504:0 505:0 506:0 507:0 508:0 509:0 510:0 511:0 512:0 513:0.96948183 514:0.4449122 515:0.37970439 516:0.30029976 517:0.75463277 518:0.32472154 519:0.42645934 520:0.42784765 521:0.9547748 522:1 523:0.46398672 524:0.36676082 525:0.29287559 526:0.80730623 527:0.31678641 528:0.43470296 529:0.45614675 530:0.98479509 531:0.95888722 532:0.50379223 533:0.41697896 534:0.33975613 535:0.78888148 536:0.37200302 537:0.50331354 538:0.53082395 539:0.95739686 540:0.96423751 541:0.5254007 542:0.40030164 543:0.32444587 544:0.89617497 545:0.38249537 546:0.53913099 547:0.55864275 548:0.96880698 #
0.25144203500883366420026732157567 1:0 2:0 3:0 4:0 5:0 6:0 7:0 8:0 9:0 10:0 11:0.0029850747 12:0.0029850747 13:0 14:0 15:0 16:0 17:0 18:0 19:0 20:0 21:0 22:0 23:0 24:0 25:0 26:0 27:0 28:0 29:0 30:0 31:0 32:0 33:0 34:0 35:0 36:0 37:0 38:0 39:0 40:0 41:0 42:0 43:0 44:0 45:0 46:0 47:0 48:0 49:0 50:0 51:0 52:0 53:0 54:0 55:0 56:0 57:0 58:0 59:0 60:0 61:0 62:0 63:0 64:0 65:0 66:0 67:0 68:0 69:0 70:0 71:0 72:0 73:0 74:0 75:0.0014925373 76:0 77:0 78:0 79:0 80:0 81:0 82:0 83:0.0029850747 84:0.037313432 85:0.029850746 86:0 87:0 88:0 89:0 90:0 91:0 92:0 93:0.031343285 94:0.0014925373 95:0 96:0 97:0 98:0 99:0 100:0 101:0 102:0 103:0 104:0 105:0 106:0 107:0 108:0 109:0 110:0 111:0 112:0 113:0 114:0 115:0 116:0 117:0 118:0 119:0 120:0 121:0 122:0 123:0 124:0 125:0 126:0 127:0 128:0 129:0 130:0 131:0 132:0 133:0 134:0 135:0 136:0 137:0 138:0 139:0 140:0 141:0 142:0 143:0 144:0 145:0 146:0 147:0 148:0.0059701493 149:0.0029850747 150:0 151:0 152:0 153:0 154:0 155:0 156:0.0014925373 157:0.19253731 158:0.36567163 159:0 160:0 161:0 162:0 163:0 164:0 165:0 166:0.55671644 167:0.061194029 168:0 169:0 170:0 171:0 172:0 173:0 174:0 175:0 176:0 177:0 178:0 179:0 180:0 181:0 182:0 183:0 184:0 185:0 186:0 187:0 188:0 189:0 190:0 191:0 192:0 193:0 194:0 195:0 196:0 197:0 198:0 199:0 200:0 201:0 202:0 203:0 204:0 205:0 206:0 207:0 208:0 209:0 210:0 211:0 212:0 213:0 214:0 215:0 216:0 217:0 218:0 219:0 220:0 221:0.0014925373 222:0.0014925373 223:0 224:0 225:0 226:0 227:0 228:0 229:0.0044776117 230:0.70447761 231:1 232:0 233:0 234:0 235:0 236:0 237:0 238:0 239:0.69253731 240:0.083582088 241:0 242:0 243:0 244:0 245:0 246:0 247:0 248:0 249:0 250:0 251:0 252:0 253:0 254:0 255:0 256:0 257:0 258:0 259:0 260:0 261:0 262:0 263:0 264:0 265:0 266:0 267:0 268:0 269:0 270:0 271:0 272:0 273:0 274:0 275:0 276:0 277:0 278:0 279:0 280:0 281:0 282:0 283:0 284:0 285:0 286:0 287:0 288:0 289:0 290:0 291:0 292:0 293:0 294:0.0014925373 295:0.0014925373 296:0 297:0 298:0 299:0 300:0 301:0 302:0.0029850747 303:0.24776119 304:0.094029851 305:0 306:0 307:0 308:0 309:0 310:0 311:0.0014925373 312:0.020895522 313:0 314:0 315:0 316:0 317:0 318:0 319:0 320:0 321:0 322:0 323:0 324:0 325:0 326:0 327:0 328:0 329:0 330:0 331:0 332:0 333:0 334:0 335:0 336:0 337:0 338:0 339:0 340:0 341:0 342:0 343:0 344:0 345:0 346:0 347:0 348:0 349:0 350:0 351:0 352:0 353:0 354:0 355:0 356:0 357:0 358:0 359:0 360:0 361:0 362:0 363:0 364:0 365:0 366:0 367:0.0014925373 368:0 369:0 370:0 371:0 372:0 373:0 374:0 375:0.0014925373 376:0.032835823 377:0 378:0 379:0 380:0 381:0 382:0 383:0 384:0.0014925373 385:0 386:0 387:0 388:0 389:0 390:0 391:0 392:0 393:0 394:0 395:0 396:0 397:0 398:0 399:0 400:0 401:0 402:0 403:0 404:0 405:0 406:0 407:0 408:0 409:0 410:0 411:0 412:0 413:0 414:0 415:0 416:0 417:0 418:0 419:0 420:0 421:0 422:0 423:0 424:0 425:0 426:0 427:0 428:0 429:0 430:0 431:0 432:0 433:0 434:0 435:0 436:0 437:0 438:0 439:0 440:0 441:0 442:0 443:0 444:0 445:0 446:0 447:0 448:0 449:0 450:0 451:0 452:0 453:0 454:0 455:0 456:0 457:0 458:0 459:0 460:0 461:0 462:0 463:0 464:0 465:0 466:0 467:0 468:0 469:0 470:0 471:0 472:0 473:0 474:0 475:0 476:0 477:0 478:0 479:0 480:0 481:0 482:0 483:0 484:0 485:0 486:0 487:0 488:0 489:0 490:0 491:0 492:0 493:0 494:0 495:0 496:0 497:0 498:0 499:0 500:0 501:0 502:0 503:0 504:0 505:0 506:0 507:0 508:0 509:0 510:0 511:0 512:0 513:0.8243708 514:0.33907685 515:0.35856453 516:0.2009148 517:0.42350945 518:0.1269432 519:0.42478916 520:0.46391153 521:0.94699681 522:0.9254691 523:0.32771817 524:0.32716501 525:0.1677641 526:0.43875989 527:0.14711511 528:0.51561129 529:0.51079053 530:0.96674001 531:0.96259266 532:0.33235174 533:0.32373244 534:0.16895488 535:0.42855954 536:0.14577384 537:0.49624562 538:0.53304583 539:1 540:0.89191467 541:0.35638261 542:0.349424 543:0.19435118 544:0.46274531 545:0.15539925 546:0.46357402 547:0.50031471 548:0.98288637 #
-0.50001123148730097778269509944948 1:0 2:0.030230327 3:0.027831094 4:0 5:0 6:0 7:0 8:0 9:0 10:0.007677543 11:0.2240883 12:1 13:0.00047984644 14:0 15:0 16:0 17:0 18:0 19:0 20:0.45441458 21:0.15067178 22:0 23:0 24:0 25:0 26:0 27:0 28:0 29:0 30:0 31:0 32:0 33:0 34:0 35:0 36:0 37:0 38:0 39:0 40:0 41:0 42:0 43:0 44:0 45:0 46:0 47:0 48:0 49:0 50:0 51:0 52:0 53:0 54:0 55:0 56:0 57:0 58:0 59:0 60:0 61:0 62:0 63:0 64:0 65:0 66:0 67:0 68:0 69:0 70:0 71:0 72:0 73:0 74:0 75:0 76:0.0081573892 77:0 78:0 79:0 80:0 81:0 82:0 83:0 84:0.29990402 85:0.57581574 86:0 87:0 88:0 89:0 90:0 91:0 92:0 93:0.012955854 94:0.0086372364 95:0 96:0 97:0 98:0 99:0 100:0 101:0 102:0 103:0 104:0 105:0 106:0 107:0 108:0 109:0 110:0 111:0 112:0 113:0 114:0 115:0 116:0 117:0 118:0 119:0 120:0 121:0 122:0 123:0 124:0 125:0 126:0 127:0 128:0 129:0 130:0 131:0 132:0 133:0 134:0 135:0 136:0 137:0 138:0 139:0 140:0 141:0 142:0 143:0 144:0 145:0 146:0 147:0 148:0 149:0 150:0 151:0 152:0 153:0 154:0 155:0 156:0 157:0.0038387715 158:0.0014395394 159:0 160:0 161:0 162:0 163:0 164:0 165:0 166:0.0014395394 167:0 168:0 169:0 170:0 171:0 172:0 173:0 174:0 175:0 176:0 177:0 178:0 179:0 180:0 181:0 182:0 183:0 184:0 185:0 186:0 187:0 188:0 189:0 190:0 191:0 192:0 193:0 194:0 195:0 196:0 197:0 198:0 199:0 200:0 201:0 202:0 203:0 204:0 205:0 206:0 207:0 208:0 209:0 210:0 211:0 212:0 213:0 214:0 215:0 216:0 217:0 218:0 219:0 220:0 221:0 222:0 223:0 224:0 225:0 226:0 227:0 228:0 229:0 230:0.00095969287 231:0 232:0 233:0 234:0 235:0 236:0 237:0 238:0 239:0 240:0 241:0 242:0 243:0 244:0 245:0 246:0 247:0 248:0 249:0 250:0 251:0 252:0 253:0 254:0 255:0 256:0 257:0 258:0 259:0 260:0 261:0 262:0 263:0 264:0 265:0 266:0 267:0 268:0 269:0 270:0 271:0 272:0 273:0 274:0 275:0 276:0 277:0 278:0 279:0 280:0 281:0 282:0 283:0 284:0 285:0 286:0 287:0 288:0 289:0 290:0 291:0 292:0 293:0 294:0 295:0 296:0 297:0 298:0 299:0 300:0 301:0 302:0 303:0 304:0 305:0 306:0 307:0 308:0 309:0 310:0 311:0 312:0 313:0 314:0 315:0 316:0 317:0 318:0 319:0 320:0 321:0 322:0 323:0 324:0 325:0 326:0 327:0 328:0 329:0 330:0 331:0 332:0 333:0 334:0 335:0 336:0 337:0 338:0 339:0 340:0 341:0 342:0 343:0 344:0 345:0 346:0 347:0 348:0 349:0 350:0 351:0 352:0 353:0 354:0 355:0 356:0 357:0 358:0 359:0 360:0 361:0 362:0 363:0 364:0 365:0 366:0 367:0 368:0 369:0 370:0 371:0 372:0 373:0 374:0 375:0 376:0 377:0 378:0 379:0 380:0 381:0 382:0 383:0 384:0 385:0 386:0 387:0 388:0 389:0 390:0 391:0 392:0 393:0 394:0 395:0 396:0 397:0 398:0 399:0 400:0 401:0 402:0 403:0 404:0 405:0 406:0 407:0 408:0 409:0 410:0 411:0 412:0 413:0 414:0 415:0 416:0 417:0 418:0 419:0 420:0 421:0 422:0 423:0 424:0 425:0 426:0 427:0 428:0 429:0 430:0 431:0 432:0 433:0 434:0 435:0 436:0 437:0 438:0 439:0 440:0 441:0 442:0 443:0 444:0 445:0 446:0 447:0 448:0 449:0 450:0 451:0 452:0 453:0 454:0 455:0 456:0 457:0 458:0 459:0 460:0 461:0 462:0 463:0 464:0 465:0 466:0 467:0 468:0 469:0 470:0 471:0 472:0 473:0 474:0 475:0 476:0 477:0 478:0 479:0 480:0 481:0 482:0 483:0 484:0 485:0 486:0 487:0 488:0 489:0 490:0 491:0 492:0 493:0 494:0 495:0 496:0 497:0 498:0 499:0 500:0 501:0 502:0 503:0 504:0 505:0 506:0 507:0 508:0 509:0 510:0 511:0 512:0 513:0.89283055 514:0.65979099 515:0.65380251 516:0.36881149 517:0.71403486 518:0.35229596 519:0.64327532 520:0.58222109 521:0.8383128 522:0.93665302 523:0.71472067 524:0.70553064 525:0.38108754 526:0.72778112 527:0.43599415 528:0.72381049 529:0.68121237 530:0.89304131 531:0.89581531 532:0.71035045 533:0.70222151 534:0.36888298 535:0.77277929 536:0.448044 537:0.74625033 538:0.70435905 539:0.89404154 540:1 541:0.79916674 542:0.77612978 543:0.41663164 544:0.78161782 545:0.4482908 546:0.76399213 547:0.71642774 548:0.97734612 #
-0.50001123148730097778269509944948 1:0 2:0.00087983912 3:0 4:0 5:0 6:0 7:0 8:0 9:0 10:0.00037707391 11:0.0022624435 12:0 13:0 14:0 15:0 16:0 17:0 18:0 19:0 20:0 21:0 22:0 23:0 24:0 25:0 26:0 27:0 28:0 29:0 30:0 31:0 32:0 33:0 34:0 35:0 36:0 37:0 38:0 39:0 40:0 41:0 42:0 43:0 44:0 45:0 46:0 47:0 48:0 49:0 50:0 51:0 52:0 53:0 54:0 55:0 56:0 57:0 58:0 59:0 60:0 61:0 62:0 63:0 64:0 65:0 66:0 67:0 68:0 69:0 70:0 71:0 72:0 73:0 74:0.00062845653 75:0.016716944 76:0.00037707391 77:0 78:0 79:0 80:0 81:0 82:0 83:0.010809452 84:0.1026898 85:0 86:0 87:0 88:0 89:0 90:0 91:0 92:0 93:0 94:0 95:0 96:0 97:0 98:0 99:0 100:0 101:0 102:0 103:0 104:0 105:0 106:0 107:0 108:0 109:0 110:0 111:0 112:0 113:0 114:0 115:0 116:0 117:0 118:0 119:0 120:0 121:0 122:0 123:0 124:0 125:0 126:0 127:0 128:0 129:0 130:0 131:0 132:0 133:0 134:0 135:0 136:0 137:0 138:0 139:0 140:0 141:0 142:0 143:0 144:0 145:0 146:0 147:0.0010055305 148:0.10608346 149:0.029034691 150:0 151:0 152:0 153:0 154:0 155:0 156:0.01923077 157:0.39542484 158:0.0099296132 159:0 160:0 161:0 162:0 163:0 164:0 165:0.0013826044 166:0.0080442438 167:0 168:0 169:0 170:0 171:0 172:0 173:0 174:0 175:0 176:0 177:0 178:0 179:0 180:0 181:0 182:0 183:0 184:0 185:0 186:0 187:0 188:0 189:0 190:0 191:0 192:0 193:0 194:0 195:0 196:0 197:0 198:0 199:0 200:0 201:0 202:0 203:0 204:0 205:0 206:0 207:0 208:0 209:0 210:0 211:0 212:0 213:0 214:0 215:0 216:0 217:0 218:0 219:0 220:0.00075414783 221:0.11739568 222:0.023378583 223:0 224:0 225:0 226:0 227:0 228:0 229:0.050025139 230:1 231:0.00062845653 232:0 233:0 234:0 235:0 236:0 237:0 238:0.0028909 239:0.0032679739 240:0 241:0 242:0 243:0 244:0 245:0 246:0 247:0 248:0 249:0 250:0 251:0 252:0 253:0 254:0 255:0 256:0 257:0 258:0 259:0 260:0 261:0 262:0 263:0 264:0 265:0 266:0 267:0 268:0 269:0 270:0 271:0 272:0 273:0 274:0 275:0 276:0 277:0 278:0 279:0 280:0 281:0 282:0 283:0 284:0 285:0.00012569131 286:0 287:0 288:0 289:0 290:0 291:0 292:0 293:0.0011312218 294:0.1098542 295:0.00087983912 296:0 297:0 298:0 299:0 300:0 301:0 302:0.10482655 303:0.49044746 304:0.00012569131 305:0 306:0 307:0 308:0 309:0 310:0 311:0 312:0 313:0 314:0 315:0 316:0 317:0 318:0 319:0 320:0 321:0 322:0 323:0 324:0 325:0 326:0 327:0 328:0 329:0 330:0 331:0 332:0 333:0 334:0 335:0 336:0 337:0 338:0 339:0 340:0 341:0 342:0 343:0 344:0 345:0 346:0 347:0 348:0 349:0 350:0 351:0 352:0 353:0 354:0 355:0 356:0 357:0 358:0 359:0 360:0 361:0 362:0 363:0 364:0 365:0 366:0.00087983912 367:0.19318753 368:0.00075414783 369:0 370:0 371:0 372:0 373:0 374:0 375:0.22247361 376:0.033936653 377:0 378:0 379:0 380:0 381:0 382:0 383:0 384:0 385:0 386:0 387:0 388:0 389:0 390:0 391:0 392:0 393:0 394:0 395:0 396:0 397:0 398:0 399:0 400:0 401:0 402:0 403:0 404:0 405:0 406:0 407:0 408:0 409:0 410:0 411:0 412:0 413:0 414:0 415:0 416:0 417:0 418:0 419:0 420:0 421:0 422:0 423:0 424:0 425:0 426:0 427:0 428:0 429:0 430:0 431:0 432:0 433:0 434:0 435:0 436:0 437:0 438:0 439:0.00062845653 440:0.022498744 441:0 442:0 443:0 444:0 445:0 446:0 447:0 448:0 449:0 450:0 451:0 452:0 453:0 454:0 455:0 456:0 457:0 458:0 459:0 460:0 461:0 462:0 463:0 464:0 465:0 466:0 467:0 468:0 469:0 470:0 471:0 472:0 473:0 474:0 475:0 476:0 477:0 478:0 479:0 480:0 481:0 482:0 483:0 484:0 485:0 486:0 487:0 488:0 489:0 490:0 491:0 492:0 493:0 494:0 495:0 496:0 497:0 498:0 499:0 500:0 501:0 502:0 503:0 504:0 505:0 506:0 507:0 508:0 509:0 510:0 511:0 512:0.0011312218 513:0.85923404 514:0.52195328 515:0.42350671 516:0.32848036 517:0.50105608 518:0.32528526 519:0.38073784 520:0.45728189 521:0.84258085 522:0.92185098 523:0.57788521 524:0.46433607 525:0.35286576 526:0.52250868 527:0.36630496 528:0.43688089 529:0.51624459 530:0.89916128 531:0.9635753 532:0.57449305 533:0.45164675 534:0.35994467 535:0.5316835 536:0.37184861 537:0.43316349 538:0.5224371 539:0.93704516 540:1 541:0.62495941 542:0.4961749 543:0.38997883 544:0.55918914 545:0.40080017 546:0.48081836 547:0.57409275 548:0.97822773 #
-0.50001123148730097778269509944948 1:1 2:0.12271805 3:0 4:0 5:0 6:0 7:0 8:0 9:0.0081135901 10:0.24137931 11:0.0050709941 12:0 13:0 14:0 15:0 16:0 17:0 18:0 19:0 20:0 21:0 22:0 23:0 24:0 25:0 26:0 27:0 28:0 29:0 30:0 31:0 32:0 33:0 34:0 35:0 36:0 37:0 38:0 39:0 40:0 41:0 42:0 43:0 44:0 45:0 46:0 47:0 48:0 49:0 50:0 51:0 52:0 53:0 54:0 55:0 56:0 57:0 58:0 59:0 60:0 61:0 62:0 63:0 64:0 65:0.0020283975 66:0 67:0 68:0 69:0 70:0 71:0 72:0 73:0 74:0.1724138 75:0.049695741 76:0 77:0 78:0 79:0 80:0 81:0 82:0.0070993914 83:0.070993915 84:0.004056795 85:0 86:0 87:0 88:0 89:0 90:0 91:0 92:0 93:0 94:0 95:0 96:0 97:0 98:0 99:0 100:0 101:0 102:0 103:0 104:0 105:0 106:0 107:0 108:0 109:0 110:0 111:0 112:0 113:0 114:0 115:0 116:0 117:0 118:0 119:0 120:0 121:0 122:0 123:0 124:0 125:0 126:0 127:0 128:0 129:0 130:0 131:0 132:0 133:0 134:0 135:0 136:0 137:0 138:0 139:0 140:0 141:0 142:0 143:0 144:0 145:0 146:0 147:0.010141988 148:0.0020283975 149:0 150:0 151:0 152:0 153:0 154:0 155:0 156:0.0060851928 157:0 158:0 159:0 160:0 161:0 162:0 163:0 164:0 165:0 166:0 167:0 168:0 169:0 170:0 171:0 172:0 173:0 174:0 175:0 176:0 177:0 178:0 179:0 180:0 181:0 182:0 183:0 184:0 185:0 186:0 187:0 188:0 189:0 190:0 191:0 192:0 193:0 194:0 195:0 196:0 197:0 198:0 199:0 200:0 201:0 202:0 203:0 204:0 205:0 206:0 207:0 208:0 209:0 210:0 211:0 212:0 213:0 214:0 215:0 216:0 217:0 218:0 219:0 220:0 221:0 222:0 223:0 224:0 225:0 226:0 227:0 228:0 229:0 230:0 231:0 232:0 233:0 234:0 235:0 236:0 237:0 238:0 239:0 240:0 241:0 242:0 243:0 244:0 245:0 246:0 247:0 248:0 249:0 250:0 251:0 252:0 253:0 254:0 255:0 256:0 257:0 258:0 259:0 260:0 261:0 262:0 263:0 264:0 265:0 266:0 267:0 268:0 269:0 270:0 271:0 272:0 273:0 274:0 275:0 276:0 277:0 278:0 279:0 280:0 281:0 282:0 283:0 284:0 285:0 286:0 287:0 288:0 289:0 290:0 291:0 292:0 293:0 294:0 295:0 296:0 297:0 298:0 299:0 300:0 301:0 302:0 303:0 304:0 305:0 306:0 307:0 308:0 309:0 310:0 311:0 312:0 313:0 314:0 315:0 316:0 317:0 318:0 319:0 320:0 321:0 322:0 323:0 324:0 325:0 326:0 327:0 328:0 329:0 330:0 331:0 332:0 333:0 334:0 335:0 336:0 337:0 338:0 339:0 340:0 341:0 342:0 343:0 344:0 345:0 346:0 347:0 348:0 349:0 350:0 351:0 352:0 353:0 354:0 355:0 356:0 357:0 358:0 359:0 360:0 361:0 362:0 363:0 364:0 365:0 366:0 367:0 368:0 369:0 370:0 371:0 372:0 373:0 374:0 375:0 376:0 377:0 378:0 379:0 380:0 381:0 382:0 383:0 384:0 385:0 386:0 387:0 388:0 389:0 390:0 391:0 392:0 393:0 394:0 395:0 396:0 397:0 398:0 399:0 400:0 401:0 402:0 403:0 404:0 405:0 406:0 407:0 408:0 409:0 410:0 411:0 412:0 413:0 414:0 415:0 416:0 417:0 418:0 419:0 420:0 421:0 422:0 423:0 424:0 425:0 426:0 427:0 428:0 429:0 430:0 431:0 432:0 433:0 434:0 435:0 436:0 437:0 438:0 439:0 440:0 441:0 442:0 443:0 444:0 445:0 446:0 447:0 448:0 449:0 450:0 451:0 452:0 453:0 454:0 455:0 456:0 457:0 458:0 459:0 460:0 461:0 462:0 463:0 464:0 465:0 466:0 467:0 468:0 469:0 470:0 471:0 472:0 473:0 474:0 475:0 476:0 477:0 478:0 479:0 480:0 481:0 482:0 483:0 484:0 485:0 486:0 487:0 488:0 489:0 490:0 491:0 492:0 493:0 494:0 495:0 496:0 497:0 498:0 499:0 500:0 501:0 502:0 503:0 504:0 505:0 506:0 507:0 508:0 509:0 510:0 511:0 512:0 513:0.88915038 514:0.42329353 515:0.43708014 516:0.40648517 517:0.75205338 518:0.50765574 519:0.51679003 520:0.49390337 521:0.92412359 522:0.9166888 523:0.46249041 524:0.43840414 525:0.41002101 526:0.81877613 527:0.57789701 528:0.59199232 529:0.57973182 530:0.97309351 531:0.93741143 532:0.40279296 533:0.39919168 534:0.40144491 535:0.7425043 536:0.58820438 537:0.59851789 538:0.56409347 539:0.95417601 540:0.96455365 541:0.43097177 542:0.42603588 543:0.3912915 544:0.75192052 545:0.54106653 546:0.58172083 547:0.56091464 548:1 #
0.50001123148730097778269509944948 1:1 2:0.46551725 3:0 4:0 5:0 6:0 7:0 8:0 9:0 10:0.14039409 11:0.03325123 12:0 13:0 14:0 15:0 16:0 17:0 18:0 19:0 20:0 21:0 22:0 23:0 24:0 25:0 26:0 27:0 28:0 29:0 30:0 31:0 32:0 33:0 34:0 35:0 36:0 37:0 38:0 39:0 40:0 41:0 42:0 43:0 44:0 45:0 46:0 47:0 48:0 49:0 50:0 51:0 52:0 53:0 54:0 55:0 56:0 57:0 58:0 59:0 60:0 61:0 62:0 63:0 64:0 65:0 66:0 67:0 68:0 69:0 70:0 71:0 72:0 73:0 74:0.050492611 75:0.10221675 76:0 77:0 78:0 79:0 80:0 81:0 82:0 83:0.017241379 84:0.0036945813 85:0 86:0 87:0 88:0 89:0 90:0 91:0 92:0 93:0 94:0 95:0 96:0 97:0 98:0 99:0 100:0 101:0 102:0 103:0 104:0 105:0 106:0 107:0 108:0 109:0 110:0 111:0 112:0 113:0 114:0 115:0 116:0 117:0 118:0 119:0 120:0 121:0 122:0 123:0 124:0 125:0 126:0 127:0 128:0 129:0 130:0 131:0 132:0 133:0 134:0 135:0 136:0 137:0 138:0 139:0 140:0 141:0 142:0 143:0 144:0 145:0 146:0 147:0.0012315271 148:0.0049261083 149:0 150:0 151:0 152:0 153:0 154:0 155:0 156:0.0036945813 157:0.0012315271 158:0 159:0 160:0 161:0 162:0 163:0 164:0 165:0 166:0 167:0 168:0 169:0 170:0 171:0 172:0 173:0 174:0 175:0 176:0 177:0 178:0 179:0 180:0 181:0 182:0 183:0 184:0 185:0 186:0 187:0 188:0 189:0 190:0 191:0 192:0 193:0 194:0 195:0 196:0 197:0 198:0 199:0 200:0 201:0 202:0 203:0 204:0 205:0 206:0 207:0 208:0 209:0 210:0 211:0 212:0 213:0 214:0 215:0 216:0 217:0 218:0 219:0 220:0.0012315271 221:0 222:0 223:0 224:0 225:0 226:0 227:0 228:0 229:0 230:0 231:0 232:0 233:0 234:0 235:0 236:0 237:0 238:0 239:0 240:0 241:0 242:0 243:0 244:0 245:0 246:0 247:0 248:0 249:0 250:0 251:0 252:0 253:0 254:0 255:0 256:0 257:0 258:0 259:0 260:0 261:0 262:0 263:0 264:0 265:0 266:0 267:0 268:0 269:0 270:0 271:0 272:0 273:0 274:0 275:0 276:0 277:0 278:0 279:0 280:0 281:0 282:0 283:0 284:0 285:0 286:0 287:0 288:0 289:0 290:0 291:0 292:0 293:0 294:0 295:0 296:0 297:0 298:0 299:0 300:0 301:0 302:0 303:0 304:0 305:0 306:0 307:0 308:0 309:0 310:0 311:0 312:0 313:0 314:0 315:0 316:0 317:0 318:0 319:0 320:0 321:0 322:0 323:0 324:0 325:0 326:0 327:0 328:0 329:0 330:0 331:0 332:0 333:0 334:0 335:0 336:0 337:0 338:0 339:0 340:0 341:0 342:0 343:0 344:0 345:0 346:0 347:0 348:0 349:0 350:0 351:0 352:0 353:0 354:0 355:0 356:0 357:0 358:0 359:0 360:0 361:0 362:0 363:0 364:0 365:0 366:0 367:0 368:0 369:0 370:0 371:0 372:0 373:0 374:0 375:0 376:0 377:0 378:0 379:0 380:0 381:0 382:0 383:0 384:0 385:0 386:0 387:0 388:0 389:0 390:0 391:0 392:0 393:0 394:0 395:0 396:0 397:0 398:0 399:0 400:0 401:0 402:0 403:0 404:0 405:0 406:0 407:0 408:0 409:0 410:0 411:0 412:0 413:0 414:0 415:0 416:0 417:0 418:0 419:0 420:0 421:0 422:0 423:0 424:0 425:0 426:0 427:0 428:0 429:0 430:0 431:0 432:0 433:0 434:0 435:0 436:0 437:0 438:0 439:0 440:0 441:0 442:0 443:0 444:0 445:0 446:0 447:0 448:0 449:0 450:0 451:0 452:0 453:0 454:0 455:0 456:0 457:0 458:0 459:0 460:0 461:0 462:0 463:0 464:0 465:0 466:0 467:0 468:0 469:0 470:0 471:0 472:0 473:0 474:0 475:0 476:0 477:0 478:0 479:0 480:0 481:0 482:0 483:0 484:0 485:0 486:0 487:0 488:0 489:0 490:0 491:0 492:0 493:0 494:0 495:0 496:0 497:0 498:0 499:0 500:0 501:0 502:0 503:0 504:0 505:0 506:0 507:0 508:0 509:0 510:0 511:0 512:0 513:0.74516571 514:0.55620128 515:0.68795979 516:0.62074769 517:0.91207194 518:0.46183741 519:0.3749266 520:0.32793736 521:0.66464013 522:0.76076955 523:0.56990099 524:0.6718123 525:0.61136806 526:0.94469011 527:0.45813826 528:0.37267876 529:0.31881097 530:0.69554424 531:0.74093401 532:0.56471723 533:0.67865121 534:0.66183501 535:0.97274929 536:0.4715865 537:0.40815389 538:0.35965779 539:0.69261926 540:0.79025519 541:0.58779997 542:0.69294453 543:0.6532253 544:1 545:0.46902382 546:0.40441531 547:0.34761044 548:0.73474443 #
0.10393252215394419013527738115954 1:1 2:0.5572207 3:0.0054495912 4:0 5:0 6:0 7:0 8:0 9:0 10:0.11444142 11:0.088555858 12:0.021798365 13:0 14:0 15:0 16:0 17:0 18:0 19:0 20:0.0081743868 21:0 22:0 23:0 24:0 25:0 26:0 27:0 28:0 29:0 30:0 31:0 32:0 33:0 34:0 35:0 36:0 37:0 38:0 39:0 40:0 41:0 42:0 43:0 44:0 45:0 46:0 47:0 48:0 49:0 50:0 51:0 52:0 53:0 54:0 55:0 56:0 57:0 58:0 59:0 60:0 61:0 62:0 63:0 64:0 65:0 66:0 67:0 68:0 69:0 70:0 71:0 72:0 73:0 74:0.025885558 75:0.032697547 76:0.0027247956 77:0 78:0 79:0 80:0 81:0 82:0 83:0 84:0.0054495912 85:0.010899182 86:0 87:0 88:0 89:0 90:0 91:0 92:0 93:0.0081743868 94:0.0013623978 95:0 96:0 97:0 98:0 99:0 100:0 101:0 102:0 103:0 104:0 105:0 106:0 107:0 108:0 109:0 110:0 111:0 112:0 113:0 114:0 115:0 116:0 117:0 118:0 119:0 120:0 121:0 122:0 123:0 124:0 125:0 126:0 127:0 128:0 129:0 130:0 131:0 132:0 133:0 134:0 135:0 136:0 137:0 138:0 139:0 140:0 141:0 142:0 143:0 144:0 145:0 146:0 147:0 148:0 149:0 150:0 151:0 152:0 153:0 154:0 155:0 156:0 157:0.0013623978 158:0 159:0 160:0 161:0 162:0 163:0 164:0 165:0 166:0 167:0 168:0 169:0 170:0 171:0 172:0 173:0 174:0 175:0 176:0 177:0 178:0 179:0 180:0 181:0 182:0 183:0 184:0 185:0 186:0 187:0 188:0 189:0 190:0 191:0 192:0 193:0 194:0 195:0 196:0 197:0 198:0 199:0 200:0 201:0 202:0 203:0 204:0 205:0 206:0 207:0 208:0 209:0 210:0 211:0 212:0 213:0 214:0 215:0 216:0 217:0 218:0 219:0 220:0 221:0 222:0 223:0 224:0 225:0 226:0 227:0 228:0 229:0 230:0 231:0 232:0 233:0 234:0 235:0 236:0 237:0 238:0 239:0 240:0 241:0 242:0 243:0 244:0 245:0 246:0 247:0 248:0 249:0 250:0 251:0 252:0 253:0 254:0 255:0 256:0 257:0 258:0 259:0 260:0 261:0 262:0 263:0 264:0 265:0 266:0 267:0 268:0 269:0 270:0 271:0 272:0 273:0 274:0 275:0 276:0 277:0 278:0 279:0 280:0 281:0 282:0 283:0 284:0 285:0 286:0 287:0 288:0 289:0 290:0 291:0 292:0 293:0 294:0 295:0 296:0 297:0 298:0 299:0 300:0 301:0 302:0 303:0 304:0 305:0 306:0 307:0 308:0 309:0 310:0 311:0 312:0 313:0 314:0 315:0 316:0 317:0 318:0 319:0 320:0 321:0 322:0 323:0 324:0 325:0 326:0 327:0 328:0 329:0 330:0 331:0 332:0 333:0 334:0 335:0 336:0 337:0 338:0 339:0 340:0 341:0 342:0 343:0 344:0 345:0 346:0 347:0 348:0 349:0 350:0 351:0 352:0 353:0 354:0 355:0 356:0 357:0 358:0 359:0 360:0 361:0 362:0 363:0 364:0 365:0 366:0 367:0 368:0 369:0 370:0 371:0 372:0 373:0 374:0 375:0 376:0 377:0 378:0 379:0 380:0 381:0 382:0 383:0 384:0 385:0 386:0 387:0 388:0 389:0 390:0 391:0 392:0 393:0 394:0 395:0 396:0 397:0 398:0 399:0 400:0 401:0 402:0 403:0 404:0 405:0 406:0 407:0 408:0 409:0 410:0 411:0 412:0 413:0 414:0 415:0 416:0 417:0 418:0 419:0 420:0 421:0 422:0 423:0 424:0 425:0 426:0 427:0 428:0 429:0 430:0 431:0 432:0 433:0 434:0 435:0 436:0 437:0 438:0 439:0 440:0 441:0 442:0 443:0 444:0 445:0 446:0 447:0 448:0 449:0 450:0 451:0 452:0 453:0 454:0 455:0 456:0 457:0 458:0 459:0 460:0 461:0 462:0 463:0 464:0 465:0 466:0 467:0 468:0 469:0 470:0 471:0 472:0 473:0 474:0 475:0 476:0 477:0 478:0 479:0 480:0 481:0 482:0 483:0 484:0 485:0 486:0 487:0 488:0 489:0 490:0 491:0 492:0 493:0 494:0 495:0 496:0 497:0 498:0 499:0 500:0 501:0 502:0 503:0 504:0 505:0 506:0 507:0 508:0 509:0 510:0 511:0 512:0 513:0.71958441 514:0.46807534 515:0.53095943 516:0.49971369 517:1 518:0.24921164 519:0.18246476 520:0.18092975 521:0.68567175 522:0.76278621 523:0.39319572 524:0.47284901 525:0.46628457 526:0.93582171 527:0.25435904 528:0.1841221 529:0.18254158 530:0.70363599 531:0.72837538 532:0.38163036 533:0.47439894 534:0.48479697 535:0.86414945 536:0.25898448 537:0.17623849 538:0.17320311 539:0.69128162 540:0.79012525 541:0.43103197 542:0.5070951 543:0.5202018 544:0.93993413 545:0.31869131 546:0.21595849 547:0.20271799 548:0.73280841 #
0.43005153383318733828488689141523 1:1 2:0.0021321962 3:0 4:0 5:0 6:0 7:0 8:0 9:0 10:0.0014214641 11:0 12:0 13:0 14:0 15:0 16:0 17:0 18:0 19:0 20:0 21:0 22:0 23:0 24:0 25:0 26:0 27:0 28:0 29:0 30:0 31:0 32:0 33:0 34:0 35:0 36:0 37:0 38:0 39:0 40:0 41:0 42:0 43:0 44:0 45:0 46:0 47:0 48:0 49:0 50:0 51:0 52:0 53:0 54:0 55:0 56:0 57:0 58:0 59:0 60:0 61:0 62:0 63:0 64:0 65:0 66:0 67:0 68:0 69:0 70:0 71:0 72:0 73:0 74:0 75:0 76:0 77:0 78:0 79:0 80:0 81:0 82:0 83:0 84:0 85:0 86:0 87:0 88:0 89:0 90:0 91:0 92:0 93:0 94:0 95:0 96:0 97:0 98:0 99:0 100:0 101:0 102:0 103:0 104:0 105:0 106:0 107:0 108:0 109:0 110:0 111:0 112:0 113:0 114:0 115:0 116:0 117:0 118:0 119:0 120:0 121:0 122:0 123:0 124:0 125:0 126:0 127:0 128:0 129:0 130:0 131:0 132:0 133:0 134:0 135:0 136:0 137:0 138:0 139:0 140:0 141:0 142:0 143:0 144:0 145:0 146:0 147:0 148:0 149:0 150:0 151:0 152:0 153:0 154:0 155:0 156:0 157:0 158:0 159:0 160:0 161:0 162:0 163:0 164:0 165:0 166:0 167:0 168:0 169:0 170:0 171:0 172:0 173:0 174:0 175:0 176:0 177:0 178:0 179:0 180:0 181:0 182:0 183:0 184:0 185:0 186:0 187:0 188:0 189:0 190:0 191:0 192:0 193:0 194:0 195:0 196:0 197:0 198:0 199:0 200:0 201:0 202:0 203:0 204:0 205:0 206:0 207:0 208:0 209:0 210:0 211:0 212:0 213:0 214:0 215:0 216:0 217:0 218:0 219:0 220:0 221:0 222:0 223:0 224:0 225:0 226:0 227:0 228:0 229:0 230:0 231:0 232:0 233:0 234:0 235:0 236:0 237:0 238:0 239:0 240:0 241:0 242:0 243:0 244:0 245:0 246:0 247:0 248:0 249:0 250:0 251:0 252:0 253:0 254:0 255:0 256:0 257:0 258:0 259:0 260:0 261:0 262:0 263:0 264:0 265:0 266:0 267:0 268:0 269:0 270:0 271:0 272:0 273:0 274:0 275:0 276:0 277:0 278:0 279:0 280:0 281:0 282:0 283:0 284:0 285:0 286:0 287:0 288:0 289:0 290:0 291:0 292:0 293:0 294:0 295:0 296:0 297:0 298:0 299:0 300:0 301:0 302:0 303:0 304:0 305:0 306:0 307:0 308:0 309:0 310:0 311:0 312:0 313:0 314:0 315:0 316:0 317:0 318:0 319:0 320:0 321:0 322:0 323:0 324:0 325:0 326:0 327:0 328:0 329:0 330:0 331:0 332:0 333:0 334:0 335:0 336:0 337:0 338:0 339:0 340:0 341:0 342:0 343:0 344:0 345:0 346:0 347:0 348:0 349:0 350:0 351:0 352:0 353:0 354:0 355:0 356:0 357:0 358:0 359:0 360:0 361:0 362:0 363:0 364:0 365:0 366:0 367:0 368:0 369:0 370:0 371:0 372:0 373:0 374:0 375:0 376:0 377:0 378:0 379:0 380:0 381:0 382:0 383:0 384:0 385:0 386:0 387:0 388:0 389:0 390:0 391:0 392:0 393:0 394:0 395:0 396:0 397:0 398:0 399:0 400:0 401:0 402:0 403:0 404:0 405:0 406:0 407:0 408:0 409:0 410:0 411:0 412:0 413:0 414:0 415:0 416:0 417:0 418:0 419:0 420:0 421:0 422:0 423:0 424:0 425:0 426:0 427:0 428:0 429:0 430:0 431:0 432:0 433:0 434:0 435:0 436:0 437:0 438:0 439:0 440:0 441:0 442:0 443:0 444:0 445:0 446:0 447:0 448:0 449:0 450:0 451:0 452:0 453:0 454:0 455:0 456:0 457:0 458:0 459:0 460:0 461:0 462:0 463:0 464:0 465:0 466:0 467:0 468:0 469:0 470:0 471:0 472:0 473:0 474:0 475:0 476:0 477:0 478:0 479:0 480:0 481:0 482:0 483:0 484:0 485:0 486:0 487:0 488:0 489:0 490:0 491:0 492:0 493:0 494:0 495:0 496:0 497:0 498:0 499:0 500:0 501:0 502:0 503:0 504:0 505:0 506:0 507:0 508:0 509:0 510:0 511:0 512:0 513:0.80763268 514:0.46623102 515:0.49646267 516:0.39993551 517:0.96175599 518:0.28974953 519:0.29491508 520:0.34735736 521:0.77388942 522:0.87898821 523:0.53859103 524:0.56851476 525:0.47494507 526:0.92614812 527:0.34904125 528:0.35214871 529:0.42227072 530:0.82578009 531:0.86685944 532:0.51861626 533:0.58549446 534:0.45111388 535:1 536:0.31721365 537:0.33600128 538:0.37102196 539:0.82999873 540:0.96120703 541:0.63501734 542:0.67842144 543:0.55858499 544:0.98005873 545:0.37040025 546:0.4037213 547:0.46680698 548:0.92005122 #
-0.50001123148730097778269509944948 1:0 2:0.23186609 3:0.12182269 4:0 5:0 6:0 7:0 8:0 9:0 10:0.00092994422 11:1 12:0.16398016 13:0 14:0 15:0 16:0 17:0 18:0 19:0 20:0.0037197769 21:0.0012399256 22:0 23:0 24:0 25:0 26:0 27:0 28:0 29:0 30:0 31:0 32:0 33:0 34:0 35:0 36:0 37:0 38:0 39:0 40:0 41:0 42:0 43:0 44:0 45:0 46:0 47:0 48:0 49:0 50:0 51:0 52:0 53:0 54:0 55:0 56:0 57:0 58:0 59:0 60:0 61:0 62:0 63:0 64:0 65:0 66:0 67:0 68:0 69:0 70:0 71:0 72:0 73:0 74:0 75:0.00030998141 76:0.0012399256 77:0 78:0 79:0 80:0 81:0 82:0 83:0 84:0.0074395537 85:0.001549907 86:0 87:0 88:0 89:0 90:0 91:0 92:0 93:0 94:0 95:0 96:0 97:0 98:0 99:0 100:0 101:0 102:0 103:0 104:0 105:0 106:0 107:0 108:0 109:0 110:0 111:0 112:0 113:0 114:0 115:0 116:0 117:0 118:0 119:0 120:0 121:0 122:0 123:0 124:0 125:0 126:0 127:0 128:0 129:0 130:0 131:0 132:0 133:0 134:0 135:0 136:0 137:0 138:0 139:0 140:0 141:0 142:0 143:0 144:0 145:0 146:0 147:0 148:0 149:0 150:0 151:0 152:0 153:0 154:0 155:0 156:0 157:0.0018598884 158:0 159:0 160:0 161:0 162:0 163:0 164:0 165:0 166:0 167:0 168:0 169:0 170:0 171:0 172:0 173:0 174:0 175:0 176:0 177:0 178:0 179:0 180:0 181:0 182:0 183:0 184:0 185:0 186:0 187:0 188:0 189:0 190:0 191:0 192:0 193:0 194:0 195:0 196:0 197:0 198:0 199:0 200:0 201:0 202:0 203:0 204:0 205:0 206:0 207:0 208:0 209:0 210:0 211:0 212:0 213:0 214:0 215:0 216:0 217:0 218:0 219:0 220:0 221:0 222:0 223:0 224:0 225:0 226:0 227:0 228:0 229:0 230:0.00030998141 231:0 232:0 233:0 234:0 235:0 236:0 237:0 238:0 239:0 240:0 241:0 242:0 243:0 244:0 245:0 246:0 247:0 248:0 249:0 250:0 251:0 252:0 253:0 254:0 255:0 256:0 257:0 258:0 259:0 260:0 261:0 262:0 263:0 264:0 265:0 266:0 267:0 268:0 269:0 270:0 271:0 272:0 273:0 274:0 275:0 276:0 277:0 278:0 279:0 280:0 281:0 282:0 283:0 284:0 285:0 286:0 287:0 288:0 289:0 290:0 291:0 292:0 293:0 294:0 295:0 296:0 297:0 298:0 299:0 300:0 301:0 302:0 303:0 304:0 305:0 306:0 307:0 308:0 309:0 310:0 311:0 312:0 313:0 314:0 315:0 316:0 317:0 318:0 319:0 320:0 321:0 322:0 323:0 324:0 325:0 326:0 327:0 328:0 329:0 330:0 331:0 332:0 333:0 334:0 335:0 336:0 337:0 338:0 339:0 340:0 341:0 342:0 343:0 344:0 345:0 346:0 347:0 348:0 349:0 350:0 351:0 352:0 353:0 354:0 355:0 356:0 357:0 358:0 359:0 360:0 361:0 362:0 363:0 364:0 365:0 366:0 367:0 368:0 369:0 370:0 371:0 372:0 373:0 374:0 375:0 376:0 377:0 378:0 379:0 380:0 381:0 382:0 383:0 384:0 385:0 386:0 387:0 388:0 389:0 390:0 391:0 392:0 393:0 394:0 395:0 396:0 397:0 398:0 399:0 400:0 401:0 402:0 403:0 404:0 405:0 406:0 407:0 408:0 409:0 410:0 411:0 412:0 413:0 414:0 415:0 416:0 417:0 418:0 419:0 420:0 421:0 422:0 423:0 424:0 425:0 426:0 427:0 428:0 429:0 430:0 431:0 432:0 433:0 434:0 435:0 436:0 437:0 438:0 439:0 440:0 441:0 442:0 443:0 444:0 445:0 446:0 447:0 448:0 449:0 450:0 451:0 452:0 453:0 454:0 455:0 456:0 457:0 458:0 459:0 460:0 461:0 462:0 463:0 464:0 465:0 466:0 467:0 468:0 469:0 470:0 471:0 472:0 473:0 474:0 475:0 476:0 477:0 478:0 479:0 480:0 481:0 482:0 483:0 484:0 485:0 486:0 487:0 488:0 489:0 490:0 491:0 492:0 493:0 494:0 495:0 496:0 497:0 498:0 499:0 500:0 501:0 502:0 503:0 504:0 505:0 506:0 507:0 508:0 509:0 510:0 511:0 512:0 513:0.89509708 514:0.8110733 515:0.92118716 516:0.36587918 517:0.62692475 518:0.2113097 519:0.2861973 520:0.3155801 521:0.72984606 522:0.85143805 523:0.75483382 524:0.84729522 525:0.36712468 526:0.68360305 527:0.21396139 528:0.30495787 529:0.35593379 530:0.73248231 531:0.92659068 532:0.73112738 533:0.88979274 534:0.40407246 535:0.68830788 536:0.26435211 537:0.33979878 538:0.33812624 539:0.7755 540:1 541:0.80785477 542:0.84724939 543:0.45006001 544:0.77554917 545:0.24621496 546:0.34583491 547:0.36592779 548:0.83511603 #
-0.2946306331080900675623013285076 1:0 2:0 3:0 4:0 5:0 6:0 7:0 8:0 9:0 10:0 11:0 12:0 13:0 14:0 15:0 16:0 17:0 18:0 19:0 20:0 21:0 22:0 23:0 24:0 25:0 26:0 27:0 28:0 29:0 30:0 31:0 32:0 33:0 34:0 35:0 36:0 37:0 38:0 39:0 40:0 41:0 42:0 43:0 44:0 45:0 46:0 47:0 48:0 49:0 50:0 51:0 52:0 53:0 54:0 55:0 56:0 57:0 58:0 59:0 60:0 61:0 62:0 63:0 64:0 65:0 66:0 67:0 68:0 69:0 70:0 71:0 72:0 73:0 74:0.0049423394 75:0 76:0 77:0 78:0 79:0 80:0 81:0 82:0.0016474464 83:0.0032948928 84:0 85:0 86:0 87:0 88:0 89:0 90:0 91:0 92:0 93:0 94:0 95:0 96:0 97:0 98:0 99:0 100:0 101:0 102:0 103:0 104:0 105:0 106:0 107:0 108:0 109:0 110:0 111:0 112:0 113:0 114:0 115:0 116:0 117:0 118:0 119:0 120:0 121:0 122:0 123:0 124:0 125:0 126:0 127:0 128:0 129:0 130:0 131:0 132:0 133:0 134:0 135:0 136:0 137:0 138:0 139:0 140:0 141:0 142:0 143:0 144:0 145:0 146:0.0016474464 147:0.028006589 148:0.0016474464 149:0 150:0 151:0 152:0 153:0 154:0 155:0.011532125 156:0.0082372325 157:0 158:0 159:0 160:0 161:0 162:0 163:0 164:0 165:0 166:0 167:0 168:0 169:0 170:0 171:0 172:0 173:0 174:0 175:0 176:0 177:0 178:0 179:0 180:0 181:0 182:0 183:0 184:0 185:0 186:0 187:0 188:0 189:0 190:0 191:0 192:0 193:0 194:0 195:0 196:0 197:0 198:0 199:0 200:0 201:0 202:0 203:0 204:0 205:0 206:0 207:0 208:0 209:0 210:0 211:0 212:0 213:0 214:0 215:0 216:0 217:0 218:0 219:0.0032948928 220:0.13014828 221:0.0016474464 222:0 223:0 224:0 225:0 226:0 227:0 228:0.029654035 229:0.036243822 230:0.0016474464 231:0 232:0 233:0 234:0 235:0 236:0 237:0 238:0 239:0 240:0 241:0 242:0 243:0 244:0 245:0 246:0 247:0 248:0 249:0 250:0 251:0 252:0 253:0 254:0 255:0 256:0 257:0 258:0 259:0 260:0 261:0 262:0 263:0 264:0 265:0 266:0 267:0 268:0 269:0 270:0 271:0 272:0 273:0 274:0 275:0 276:0 277:0 278:0 279:0 280:0 281:0 282:0 283:0 284:0.018121911 285:0 286:0 287:0 288:0 289:0 290:0 291:0 292:0.049423393 293:0.51235586 294:0.013179571 295:0 296:0 297:0 298:0 299:0 300:0 301:0.067545302 302:0.15650742 303:0 304:0 305:0 306:0 307:0 308:0 309:0 310:0 311:0 312:0 313:0 314:0 315:0 316:0 317:0 318:0 319:0 320:0 321:0 322:0 323:0 324:0 325:0 326:0 327:0 328:0 329:0 330:0 331:0 332:0 333:0 334:0 335:0 336:0 337:0 338:0 339:0 340:0 341:0 342:0 343:0 344:0 345:0 346:0 347:0 348:0 349:0 350:0 351:0 352:0 353:0 354:0 355:0 356:0 357:0.042833608 358:0.0032948928 359:0 360:0 361:0 362:0 363:0 364:0 365:0.17298187 366:1 367:0 368:0 369:0 370:0 371:0 372:0 373:0 374:0.044481054 375:0.019769358 376:0 377:0 378:0 379:0 380:0 381:0 382:0 383:0 384:0 385:0 386:0 387:0 388:0 389:0 390:0 391:0 392:0 393:0 394:0 395:0 396:0 397:0 398:0 399:0 400:0 401:0 402:0 403:0 404:0 405:0 406:0 407:0 408:0 409:0 410:0 411:0 412:0 413:0 414:0 415:0 416:0 417:0 418:0 419:0 420:0 421:0 422:0 423:0 424:0 425:0 426:0 427:0 428:0 429:0 430:0.082372323 431:0.0016474464 432:0 433:0 434:0 435:0 436:0 437:0 438:0.11367381 439:0.20757826 440:0 441:0 442:0 443:0 444:0 445:0 446:0 447:0.0016474464 448:0.0016474464 449:0 450:0 451:0 452:0 453:0 454:0 455:0 456:0 457:0 458:0 459:0 460:0 461:0 462:0 463:0 464:0 465:0 466:0 467:0 468:0 469:0 470:0 471:0 472:0 473:0 474:0 475:0 476:0 477:0 478:0 479:0 480:0 481:0 482:0 483:0 484:0 485:0 486:0 487:0 488:0 489:0 490:0 491:0 492:0 493:0 494:0 495:0 496:0 497:0 498:0 499:0 500:0 501:0 502:0 503:0.0016474464 504:0 505:0 506:0 507:0 508:0 509:0 510:0 511:0.0032948928 512:0.0049423394 513:0.68625432 514:0.47620875 515:0.5995236 516:0.42986432 517:0.96344382 518:0.40857685 519:0.5238806 520:0.36576301 521:0.69981396 522:0.71702415 523:0.52648759 524:0.70709479 525:0.48361033 526:0.90983176 527:0.46581161 528:0.57605046 529:0.42180842 530:0.73417217 531:0.6786769 532:0.53624707 533:0.67327499 534:0.46979281 535:0.97904587 536:0.44506174 537:0.53287506 538:0.41524649 539:0.67804873 540:0.74562353 541:0.66819221 542:0.78540242 543:0.62823588 544:1 545:0.47271445 546:0.57529718 547:0.47438049 548:0.75769264 #
-0.50001123148730097778269509944948 1:0.0020435967 2:0.0078337872 3:0.00034059945 4:0 5:0 6:0 7:0 8:0 9:0 10:0.0006811989 11:0.0010217984 12:0.0010217984 13:0 14:0 15:0 16:0 17:0 18:0 19:0 20:0.0013623978 21:0.00034059945 22:0 23:0 24:0 25:0 26:0 27:0 28:0 29:0 30:0 31:0 32:0 33:0 34:0 35:0 36:0 37:0 38:0 39:0 40:0 41:0 42:0 43:0 44:0 45:0 46:0 47:0 48:0 49:0 50:0 51:0 52:0 53:0 54:0 55:0 56:0 57:0 58:0 59:0 60:0 61:0 62:0 63:0 64:0 65:0 66:0 67:0 68:0 69:0 70:0 71:0 72:0 73:0 74:0 75:0.0006811989 76:0.00034059945 77:0 78:0 79:0 80:0 81:0 82:0 83:0 84:0.0054495912 85:0.0030653952 86:0 87:0 88:0 89:0 90:0 91:0 92:0 93:0.0040871934 94:0.0013623978 95:0 96:0 97:0 98:0 99:0 100:0 101:0 102:0 103:0 104:0 105:0 106:0 107:0 108:0 109:0 110:0 111:0 112:0 113:0 114:0 115:0 116:0 117:0 118:0 119:0 120:0 121:0 122:0 123:0 124:0 125:0 126:0 127:0 128:0 129:0 130:0 131:0 132:0 133:0 134:0 135:0 136:0 137:0 138:0 139:0 140:0 141:0 142:0 143:0 144:0 145:0 146:0 147:0 148:0.0006811989 149:0 150:0 151:0 152:0 153:0 154:0 155:0 156:0 157:0.0051089916 158:0.0030653952 159:0 160:0 161:0 162:0 163:0 164:0 165:0 166:0.0088555859 167:0.0010217984 168:0 169:0 170:0 171:0 172:0 173:0 174:0 175:0 176:0 177:0 178:0 179:0 180:0 181:0 182:0 183:0 184:0 185:0 186:0 187:0 188:0 189:0 190:0 191:0 192:0 193:0 194:0 195:0 196:0 197:0 198:0 199:0 200:0 201:0 202:0 203:0 204:0 205:0 206:0 207:0 208:0 209:0 210:0 211:0 212:0 213:0 214:0 215:0 216:0 217:0 218:0 219:0 220:0 221:0 222:0 223:0 224:0 225:0 226:0 227:0 228:0 229:0.00034059945 230:0.0088555859 231:0.013623978 232:0 233:0 234:0 235:0 236:0 237:0 238:0 239:0.13760218 240:0.087534063 241:0 242:0 243:0 244:0 245:0 246:0 247:0 248:0.00034059945 249:0 250:0 251:0 252:0 253:0 254:0 255:0 256:0 257:0 258:0 259:0 260:0 261:0 262:0 263:0 264:0 265:0 266:0 267:0 268:0 269:0 270:0 271:0 272:0 273:0 274:0 275:0 276:0 277:0 278:0 279:0 280:0 281:0 282:0 283:0 284:0 285:0 286:0 287:0 288:0 289:0 290:0 291:0 292:0 293:0 294:0.00034059945 295:0 296:0 297:0 298:0 299:0 300:0 301:0 302:0 303:0.037465941 304:1 305:0 306:0 307:0 308:0 309:0 310:0 311:0.00034059945 312:0.034400545 313:0 314:0 315:0 316:0 317:0 318:0 319:0 320:0 321:0 322:0 323:0 324:0 325:0 326:0 327:0 328:0 329:0 330:0 331:0 332:0 333:0 334:0 335:0 336:0 337:0 338:0 339:0 340:0 341:0 342:0 343:0 344:0 345:0 346:0 347:0 348:0 349:0 350:0 351:0 352:0 353:0 354:0 355:0 356:0 357:0 358:0 359:0 360:0 361:0 362:0 363:0 364:0 365:0 366:0 367:0.00034059945 368:0 369:0 370:0 371:0 372:0 373:0 374:0 375:0 376:0.0088555859 377:0 378:0 379:0 380:0 381:0 382:0 383:0 384:0 385:0 386:0 387:0 388:0 389:0 390:0 391:0 392:0 393:0 394:0 395:0 396:0 397:0 398:0 399:0 400:0 401:0 402:0 403:0 404:0 405:0 406:0 407:0 408:0 409:0 410:0 411:0 412:0 413:0 414:0 415:0 416:0 417:0 418:0 419:0 420:0 421:0 422:0 423:0 424:0 425:0 426:0 427:0 428:0 429:0 430:0 431:0 432:0 433:0 434:0 435:0 436:0 437:0 438:0 439:0 440:0 441:0 442:0 443:0 444:0 445:0 446:0 447:0 448:0 449:0 450:0 451:0 452:0 453:0 454:0 455:0 456:0 457:0 458:0 459:0 460:0 461:0 462:0 463:0 464:0 465:0 466:0 467:0 468:0 469:0 470:0 471:0 472:0 473:0 474:0 475:0 476:0 477:0 478:0 479:0 480:0 481:0 482:0 483:0 484:0 485:0 486:0 487:0 488:0 489:0 490:0 491:0 492:0 493:0 494:0 495:0 496:0 497:0 498:0 499:0 500:0 501:0 502:0 503:0 504:0 505:0 506:0 507:0 508:0 509:0 510:0 511:0 512:0 513:0.59441531 514:0.57848191 515:0.72085273 516:0.5959326 517:0.94260681 518:0.60786211 519:0.57303667 520:0.38552326 521:0.52923816 522:0.59227741 523:0.56829107 524:0.83068353 525:0.63723063 526:0.92379886 527:0.63004297 528:0.64051616 529:0.43710071 530:0.56960338 531:0.61907554 532:0.57182437 533:0.75254679 534:0.58453047 535:0.96793765 536:0.64286327 537:0.63064051 538:0.4079043 539:0.60029918 540:0.66488624 541:0.58312243 542:0.77472663 543:0.65492916 544:1 545:0.69412082 546:0.68195319 547:0.44326884 548:0.62920558 #
0.34508231687095236583928681284306 1:0 2:0.0071428572 3:0.0017857143 4:0 5:0 6:0 7:0 8:0 9:0 10:0.014285714 11:0.023214286 12:0 13:0 14:0 15:0 16:0 17:0 18:0 19:0 20:0.0017857143 21:0.0071428572 22:0 23:0 24:0 25:0 26:0 27:0 28:0 29:0 30:0 31:0 32:0 33:0 34:0 35:0 36:0 37:0 38:0 39:0 40:0 41:0 42:0 43:0 44:0 45:0 46:0 47:0 48:0 49:0 50:0 51:0 52:0 53:0 54:0 55:0 56:0 57:0 58:0 59:0 60:0 61:0 62:0 63:0 64:0 65:0 66:0 67:0 68:0 69:0 70:0 71:0 72:0 73:0 74:0.014285714 75:0.091071427 76:0.010714286 77:0 78:0 79:0 80:0 81:0 82:0 83:0.050000001 84:0.18392856 85:0.060714286 86:0 87:0 88:0 89:0 90:0 91:0 92:0.0035714286 93:0.048214287 94:0.0125 95:0 96:0 97:0 98:0 99:0 100:0 101:0 102:0 103:0 104:0 105:0 106:0 107:0 108:0 109:0 110:0 111:0 112:0 113:0 114:0 115:0 116:0 117:0 118:0 119:0 120:0 121:0 122:0 123:0 124:0 125:0 126:0 127:0 128:0 129:0 130:0 131:0 132:0 133:0 134:0 135:0 136:0 137:0 138:0 139:0 140:0 141:0 142:0 143:0 144:0 145:0 146:0 147:0.0125 148:0.20714286 149:0.037500001 150:0 151:0 152:0 153:0 154:0 155:0 156:0.080357142 157:0.48750001 158:0.19821429 159:0 160:0 161:0 162:0 163:0 164:0 165:0.0035714286 166:0.2857143 167:0 168:0 169:0 170:0 171:0 172:0 173:0 174:0 175:0 176:0 177:0 178:0 179:0 180:0 181:0 182:0 183:0 184:0 185:0 186:0 187:0 188:0 189:0 190:0 191:0 192:0 193:0 194:0 195:0 196:0 197:0 198:0 199:0 200:0 201:0 202:0 203:0 204:0 205:0 206:0 207:0 208:0 209:0 210:0 211:0 212:0.0071428572 213:0 214:0 215:0 216:0 217:0 218:0 219:0 220:0.017857144 221:0.26428571 222:0.028571429 223:0 224:0 225:0 226:0 227:0 228:0 229:0.13571429 230:1 231:0.010714286 232:0 233:0 234:0 235:0 236:0 237:0 238:0.08392857 239:0.032142859 240:0 241:0 242:0 243:0 244:0 245:0 246:0 247:0 248:0 249:0 250:0 251:0 252:0 253:0 254:0 255:0 256:0 257:0 258:0 259:0 260:0 261:0 262:0 263:0 264:0 265:0 266:0 267:0 268:0 269:0 270:0 271:0 272:0 273:0 274:0 275:0 276:0 277:0 278:0 279:0 280:0 281:0 282:0 283:0 284:0 285:0.005357143 286:0 287:0 288:0 289:0 290:0 291:0 292:0 293:0.023214286 294:0.16249999 295:0.0035714286 296:0 297:0 298:0 299:0 300:0 301:0 302:0.2375 303:0.27857143 304:0 305:0 306:0 307:0 308:0 309:0 310:0 311:0.0035714286 312:0.0089285718 313:0 314:0 315:0 316:0 317:0 318:0 319:0 320:0 321:0 322:0 323:0 324:0 325:0 326:0 327:0 328:0 329:0 330:0 331:0 332:0 333:0 334:0 335:0 336:0 337:0 338:0 339:0 340:0 341:0 342:0 343:0 344:0 345:0 346:0 347:0 348:0 349:0 350:0 351:0 352:0 353:0 354:0 355:0 356:0 357:0 358:0 359:0 360:0 361:0 362:0 363:0 364:0 365:0 366:0.016071429 367:0.026785715 368:0 369:0 370:0 371:0 372:0 373:0 374:0 375:0.014285714 376:0.0017857143 377:0 378:0 379:0 380:0 381:0 382:0 383:0 384:0 385:0 386:0 387:0 388:0 389:0 390:0 391:0 392:0 393:0 394:0 395:0 396:0 397:0 398:0 399:0 400:0 401:0 402:0 403:0 404:0 405:0 406:0 407:0 408:0 409:0 410:0 411:0 412:0 413:0 414:0 415:0 416:0 417:0 418:0 419:0 420:0 421:0 422:0 423:0 424:0 425:0 426:0 427:0 428:0 429:0 430:0 431:0 432:0 433:0 434:0 435:0 436:0 437:0 438:0 439:0.0089285718 440:0.0017857143 441:0 442:0 443:0 444:0 445:0 446:0 447:0 448:0 449:0 450:0 451:0 452:0 453:0 454:0 455:0 456:0 457:0 458:0 459:0 460:0 461:0 462:0 463:0 464:0 465:0 466:0 467:0 468:0 469:0 470:0 471:0 472:0 473:0 474:0 475:0 476:0 477:0 478:0 479:0 480:0 481:0 482:0 483:0 484:0 485:0 486:0 487:0 488:0 489:0 490:0 491:0 492:0 493:0 494:0 495:0 496:0 497:0 498:0 499:0 500:0 501:0 502:0 503:0 504:0 505:0 506:0 507:0 508:0 509:0 510:0 511:0 512:0 513:0.96168691 514:0.3132138 515:0.3301726 516:0.29576823 517:0.51767796 518:0.29133695 519:0.32241201 520:0.39592808 521:1 522:0.98532838 523:0.34501481 524:0.34182596 525:0.31844199 526:0.56943542 527:0.31171346 528:0.34601858 529:0.38910398 530:0.99987561 531:0.92582816 532:0.31933784 533:0.38027182 534:0.33957174 535:0.56465256 536:0.32910615 537:0.35098347 538:0.39391053 539:0.96316689 540:0.95990586 541:0.35242775 542:0.38387567 543:0.37556982 544:0.60269827 545:0.34744859 546:0.3692809 547:0.3883214 548:0.98551673 #
0.50001123148730097778269509944948 1:0.0021119325 2:0.017951425 3:0.004223865 4:0 5:0 6:0 7:0 8:0 9:0 10:0.011615628 11:0.03379092 12:0.0063357973 13:0 14:0 15:0 16:0 17:0 18:0 19:0 20:0.0010559662 21:0 22:0 23:0 24:0 25:0 26:0 27:0 28:0 29:0 30:0 31:0 32:0 33:0 34:0 35:0 36:0 37:0 38:0 39:0 40:0 41:0 42:0 43:0 44:0 45:0 46:0 47:0 48:0 49:0 50:0 51:0 52:0 53:0 54:0 55:0 56:0 57:0 58:0 59:0 60:0 61:0 62:0 63:0 64:0 65:0 66:0 67:0 68:0 69:0 70:0 71:0 72:0 73:0 74:0.0031678986 75:0.030623021 76:0.015839493 77:0 78:0 79:0 80:0 81:0 82:0 83:0.015839493 84:0.11087645 85:0.031678986 86:0 87:0 88:0 89:0 90:0 91:0 92:0 93:0.0031678986 94:0 95:0 96:0 97:0 98:0 99:0 100:0 101:0 102:0 103:0 104:0 105:0 106:0 107:0 108:0 109:0 110:0 111:0 112:0 113:0 114:0 115:0 116:0 117:0 118:0 119:0 120:0 121:0 122:0 123:0 124:0 125:0 126:0 127:0 128:0 129:0 130:0 131:0 132:0 133:0 134:0 135:0 136:0 137:0 138:0 139:0 140:0 141:0 142:0 143:0 144:0 145:0 146:0 147:0.0021119325 148:0.068637803 149:0.017951425 150:0 151:0 152:0 153:0 154:0 155:0 156:0.042238649 157:0.20591341 158:0.05596621 159:0 160:0 161:0 162:0 163:0 164:0 165:0 166:0.012671595 167:0.004223865 168:0 169:0 170:0 171:0 172:0 173:0 174:0 175:0 176:0 177:0 178:0 179:0 180:0 181:0 182:0 183:0 184:0 185:0 186:0 187:0 188:0 189:0 190:0 191:0 192:0 193:0 194:0 195:0 196:0 197:0 198:0 199:0 200:0 201:0 202:0 203:0 204:0 205:0 206:0 207:0 208:0 209:0 210:0 211:0 212:0 213:0 214:0 215:0 216:0 217:0 218:0 219:0 220:0.0031678986 221:0.071805701 222:0.013727561 223:0 224:0 225:0 226:0 227:0 228:0 229:0.09398099 230:0.45195353 231:0.12354805 232:0 233:0 234:0 235:0 236:0 237:0 238:0 239:0.099260822 240:0 241:0 242:0 243:0 244:0 245:0 246:0 247:0 248:0 249:0 250:0 251:0 252:0 253:0 254:0 255:0 256:0 257:0 258:0 259:0 260:0 261:0 262:0 263:0 264:0 265:0 266:0 267:0 268:0 269:0 270:0 271:0 272:0 273:0 274:0 275:0 276:0 277:0 278:0 279:0 280:0 281:0 282:0 283:0 284:0 285:0 286:0 287:0 288:0 289:0 290:0 291:0 292:0 293:0 294:0.14572334 295:0.011615628 296:0 297:0 298:0 299:0 300:0 301:0 302:0.14572334 303:1 304:0.1626188 305:0 306:0 307:0 308:0 309:0 310:0 311:0.015839493 312:0.084477298 313:0 314:0 315:0 316:0 317:0 318:0 319:0 320:0 321:0 322:0 323:0 324:0 325:0 326:0 327:0 328:0 329:0 330:0 331:0 332:0 333:0 334:0 335:0 336:0 337:0 338:0 339:0 340:0 341:0 342:0 343:0 344:0 345:0 346:0 347:0 348:0 349:0 350:0 351:0 352:0 353:0 354:0 355:0 356:0 357:0 358:0 359:0 360:0 361:0 362:0 363:0 364:0 365:0 366:0.0052798311 367:0.082365364 368:0.0063357973 369:0 370:0 371:0 372:0 373:0 374:0 375:0.076029569 376:0.39281943 377:0 378:0 379:0 380:0 381:0 382:0 383:0 384:0.0010559662 385:0 386:0 387:0 388:0 389:0 390:0 391:0 392:0 393:0 394:0 395:0 396:0 397:0 398:0 399:0 400:0 401:0 402:0 403:0 404:0 405:0 406:0 407:0 408:0 409:0 410:0 411:0 412:0 413:0 414:0 415:0 416:0 417:0 418:0 419:0 420:0 421:0 422:0 423:0 424:0 425:0 426:0 427:0 428:0 429:0 430:0 431:0 432:0 433:0 434:0 435:0 436:0 437:0 438:0 439:0.0021119325 440:0.050686378 441:0 442:0 443:0 444:0 445:0 446:0 447:0 448:0.043294616 449:0 450:0 451:0 452:0 453:0 454:0 455:0 456:0 457:0 458:0 459:0 460:0 461:0 462:0 463:0 464:0 465:0 466:0 467:0 468:0 469:0 470:0 471:0 472:0 473:0 474:0 475:0 476:0 477:0 478:0 479:0 480:0 481:0 482:0 483:0 484:0 485:0 486:0 487:0 488:0 489:0 490:0 491:0 492:0 493:0 494:0 495:0 496:0 497:0 498:0 499:0 500:0 501:0 502:0 503:0 504:0 505:0 506:0 507:0 508:0 509:0 510:0 511:0 512:0.019007392 513:0.8474943 514:0.55285239 515:0.51455891 516:0.39286685 517:0.63505709 518:0.39665335 519:0.60143578 520:0.59884292 521:0.87653369 522:0.9244504 523:0.61412233 524:0.60341418 525:0.46722117 526:0.63799632 527:0.46567458 528:0.66575855 529:0.67801237 530:0.96397227 531:0.92421079 532:0.63453281 533:0.57493383 534:0.4487139 535:0.71530885 536:0.48002127 537:0.65957797 538:0.69370067 539:0.96598804 540:0.94817418 541:0.67200065 542:0.62995958 543:0.52419615 544:0.70832157 545:0.53435183 546:0.71257102 547:0.74673992 548:1 #
0.50001123148730097778269509944948 1:0.0021536252 2:0.088298634 3:0.0050251256 4:0 5:0 6:0 7:0 8:0 9:0 10:0.0035893754 11:0.3374013 12:1 13:0 14:0 15:0 16:0 17:0 18:0 19:0 20:0.26346016 21:0.072505385 22:0 23:0 24:0 25:0 26:0 27:0 28:0 29:0 30:0 31:0 32:0 33:0 34:0 35:0 36:0 37:0 38:0 39:0 40:0 41:0 42:0 43:0 44:0 45:0 46:0 47:0 48:0 49:0 50:0 51:0 52:0 53:0 54:0 55:0 56:0 57:0 58:0 59:0 60:0 61:0 62:0 63:0 64:0 65:0 66:0 67:0 68:0 69:0 70:0 71:0 72:0 73:0 74:0 75:0 76:0 77:0 78:0 79:0 80:0 81:0 82:0 83:0 84:0.0050251256 85:0.040201005 86:0 87:0 88:0 89:0 90:0 91:0 92:0 93:0.00071787508 94:0 95:0 96:0 97:0 98:0 99:0 100:0 101:0 102:0 103:0 104:0 105:0 106:0 107:0 108:0 109:0 110:0 111:0 112:0 113:0 114:0 115:0 116:0 117:0 118:0 119:0 120:0 121:0 122:0 123:0 124:0 125:0 126:0 127:0 128:0 129:0 130:0 131:0 132:0 133:0 134:0 135:0 136:0 137:0 138:0 139:0 140:0 141:0 142:0 143:0 144:0 145:0 146:0 147:0 148:0 149:0 150:0 151:0 152:0 153:0 154:0 155:0 156:0 157:0 158:0 159:0 160:0 161:0 162:0 163:0 164:0 165:0 166:0 167:0 168:0 169:0 170:0 171:0 172:0 173:0 174:0 175:0 176:0 177:0 178:0 179:0 180:0 181:0 182:0 183:0 184:0 185:0 186:0 187:0 188:0 189:0 190:0 191:0 192:0 193:0 194:0 195:0 196:0 197:0 198:0 199:0 200:0 201:0 202:0 203:0 204:0 205:0 206:0 207:0 208:0 209:0 210:0 211:0 212:0 213:0 214:0 215:0 216:0 217:0 218:0 219:0 220:0 221:0 222:0 223:0 224:0 225:0 226:0 227:0 228:0 229:0 230:0 231:0 232:0 233:0 234:0 235:0 236:0 237:0 238:0 239:0 240:0 241:0 242:0 243:0 244:0 245:0 246:0 247:0 248:0 249:0 250:0 251:0 252:0 253:0 254:0 255:0 256:0 257:0 258:0 259:0 260:0 261:0 262:0 263:0 264:0 265:0 266:0 267:0 268:0 269:0 270:0 271:0 272:0 273:0 274:0 275:0 276:0 277:0 278:0 279:0 280:0 281:0 282:0 283:0 284:0 285:0 286:0 287:0 288:0 289:0 290:0 291:0 292:0 293:0 294:0 295:0 296:0 297:0 298:0 299:0 300:0 301:0 302:0 303:0 304:0 305:0 306:0 307:0 308:0 309:0 310:0 311:0 312:0 313:0 314:0 315:0 316:0 317:0 318:0 319:0 320:0 321:0 322:0 323:0 324:0 325:0 326:0 327:0 328:0 329:0 330:0 331:0 332:0 333:0 334:0 335:0 336:0 337:0 338:0 339:0 340:0 341:0 342:0 343:0 344:0 345:0 346:0 347:0 348:0 349:0 350:0 351:0 352:0 353:0 354:0 355:0 356:0 357:0 358:0 359:0 360:0 361:0 362:0 363:0 364:0 365:0 366:0 367:0 368:0 369:0 370:0 371:0 372:0 373:0 374:0 375:0 376:0 377:0 378:0 379:0 380:0 381:0 382:0 383:0 384:0 385:0 386:0 387:0 388:0 389:0 390:0 391:0 392:0 393:0 394:0 395:0 396:0 397:0 398:0 399:0 400:0 401:0 402:0 403:0 404:0 405:0 406:0 407:0 408:0 409:0 410:0 411:0 412:0 413:0 414:0 415:0 416:0 417:0 418:0 419:0 420:0 421:0 422:0 423:0 424:0 425:0 426:0 427:0 428:0 429:0 430:0 431:0 432:0 433:0 434:0 435:0 436:0 437:0 438:0 439:0 440:0 441:0 442:0 443:0 444:0 445:0 446:0 447:0 448:0 449:0 450:0 451:0 452:0 453:0 454:0 455:0 456:0 457:0 458:0 459:0 460:0 461:0 462:0 463:0 464:0 465:0 466:0 467:0 468:0 469:0 470:0 471:0 472:0 473:0 474:0 475:0 476:0 477:0 478:0 479:0 480:0 481:0 482:0 483:0 484:0 485:0 486:0 487:0 488:0 489:0 490:0 491:0 492:0 493:0 494:0 495:0 496:0 497:0 498:0 499:0 500:0 501:0 502:0 503:0 504:0 505:0 506:0 507:0 508:0 509:0 510:0 511:0 512:0 513:0.77430242 514:0.46112037 515:0.44026622 516:0.33426869 517:0.95918053 518:0.39106753 519:0.53364992 520:0.63941813 521:0.88765407 522:0.85306454 523:0.49646676 524:0.51795387 525:0.42979166 526:0.82888013 527:0.54188937 528:0.6690743 529:0.74537081 530:0.964854 531:0.79121536 532:0.49003521 533:0.48918533 534:0.3831636 535:1 536:0.45942849 537:0.6353876 538:0.70401919 539:0.8598966 540:0.8896848 541:0.59903777 542:0.62776178 543:0.54305911 544:0.97461295 545:0.66179729 546:0.81307673 547:0.84384602 548:0.99210399 #
-0.50001123148730097778269509944948 1:0.010884354 2:0.16734694 3:0.0013605442 4:0 5:0 6:0 7:0 8:0 9:0 10:0.053061225 11:0.034013607 12:0 13:0 14:0 15:0 16:0 17:0 18:0 19:0 20:0 21:0 22:0 23:0 24:0 25:0 26:0 27:0 28:0 29:0 30:0 31:0 32:0 33:0 34:0 35:0 36:0 37:0 38:0 39:0 40:0 41:0 42:0 43:0 44:0 45:0 46:0 47:0 48:0 49:0 50:0 51:0 52:0 53:0 54:0 55:0 56:0 57:0 58:0 59:0 60:0 61:0 62:0 63:0 64:0 65:0.0013605442 66:0.0027210885 67:0 68:0 69:0 70:0 71:0 72:0 73:0 74:0.069387756 75:0.12789115 76:0 77:0 78:0 79:0 80:0 81:0 82:0 83:0.03809524 84:0.063945577 85:0 86:0 87:0 88:0 89:0 90:0 91:0 92:0 93:0 94:0 95:0 96:0 97:0 98:0 99:0 100:0 101:0 102:0 103:0 104:0 105:0 106:0 107:0 108:0 109:0 110:0 111:0 112:0 113:0 114:0 115:0 116:0 117:0 118:0 119:0 120:0 121:0 122:0 123:0 124:0 125:0 126:0 127:0 128:0 129:0 130:0 131:0 132:0 133:0 134:0 135:0 136:0 137:0 138:0.0027210885 139:0 140:0 141:0 142:0 143:0 144:0 145:0 146:0 147:0.06666667 148:0.12108844 149:0.0027210885 150:0 151:0 152:0 153:0 154:0 155:0 156:0.029931974 157:0.074829929 158:0.0013605442 159:0 160:0 161:0 162:0 163:0 164:0 165:0 166:0.0027210885 167:0 168:0 169:0 170:0 171:0 172:0 173:0 174:0 175:0 176:0 177:0 178:0 179:0 180:0 181:0 182:0 183:0 184:0 185:0 186:0 187:0 188:0 189:0 190:0 191:0 192:0 193:0 194:0 195:0 196:0 197:0 198:0 199:0 200:0 201:0 202:0 203:0 204:0 205:0 206:0 207:0 208:0 209:0 210:0 211:0.0013605442 212:0.0013605442 213:0 214:0 215:0 216:0 217:0 218:0 219:0 220:0.03809524 221:0.10884354 222:0.0068027209 223:0 224:0 225:0 226:0 227:0 228:0 229:0.074829929 230:0.36462584 231:0.0068027209 232:0 233:0 234:0 235:0 236:0 237:0 238:0 239:0 240:0 241:0 242:0 243:0 244:0 245:0 246:0 247:0 248:0 249:0 250:0 251:0 252:0 253:0 254:0 255:0 256:0 257:0 258:0 259:0 260:0 261:0 262:0 263:0 264:0 265:0 266:0 267:0 268:0 269:0 270:0 271:0 272:0 273:0 274:0 275:0 276:0 277:0 278:0 279:0 280:0 281:0 282:0 283:0 284:0.0027210885 285:0 286:0 287:0 288:0 289:0 290:0 291:0 292:0.0013605442 293:0.057142857 294:0.36190477 295:0.008163265 296:0 297:0 298:0 299:0 300:0 301:0 302:0.22857143 303:1 304:0 305:0 306:0 307:0 308:0 309:0 310:0 311:0 312:0 313:0 314:0 315:0 316:0 317:0 318:0 319:0 320:0 321:0 322:0 323:0 324:0 325:0 326:0 327:0 328:0 329:0 330:0 331:0 332:0 333:0 334:0 335:0 336:0 337:0 338:0 339:0 340:0 341:0 342:0 343:0 344:0 345:0 346:0 347:0 348:0 349:0 350:0 351:0 352:0 353:0 354:0 355:0 356:0 357:0 358:0 359:0 360:0 361:0 362:0 363:0 364:0 365:0 366:0.03809524 367:0.20952381 368:0 369:0 370:0 371:0 372:0 373:0 374:0 375:0.088435374 376:0.0027210885 377:0 378:0 379:0 380:0 381:0 382:0 383:0 384:0 385:0 386:0 387:0 388:0 389:0 390:0 391:0 392:0 393:0 394:0 395:0 396:0 397:0 398:0 399:0 400:0 401:0 402:0 403:0 404:0 405:0 406:0 407:0 408:0 409:0 410:0 411:0 412:0 413:0 414:0 415:0 416:0 417:0 418:0 419:0 420:0 421:0 422:0 423:0 424:0 425:0 426:0 427:0 428:0 429:0 430:0 431:0 432:0 433:0 434:0 435:0 436:0 437:0 438:0 439:0.008163265 440:0.0027210885 441:0 442:0 443:0 444:0 445:0 446:0 447:0 448:0.0013605442 449:0 450:0 451:0 452:0 453:0 454:0 455:0 456:0 457:0 458:0 459:0 460:0 461:0 462:0 463:0 464:0 465:0 466:0 467:0 468:0 469:0 470:0 471:0 472:0 473:0 474:0 475:0 476:0 477:0 478:0 479:0 480:0 481:0 482:0 483:0 484:0 485:0 486:0 487:0 488:0 489:0 490:0 491:0 492:0 493:0 494:0 495:0 496:0 497:0 498:0 499:0 500:0 501:0 502:0 503:0 504:0 505:0 506:0 507:0 508:0 509:0 510:0 511:0 512:0 513:1 514:0.45255366 515:0.45992419 516:0.33055186 517:0.61681783 518:0.19503799 519:0.2059233 520:0.19571947 521:0.90918088 522:0.98193347 523:0.45870981 524:0.46820149 525:0.29328558 526:0.65907878 527:0.2100473 528:0.23105894 529:0.22790824 530:0.90531862 531:0.97720379 532:0.50284046 533:0.49878672 534:0.32617998 535:0.63767916 536:0.21706904 537:0.23941126 538:0.26696876 539:0.89723271 540:0.9580124 541:0.53421199 542:0.53407645 543:0.35364479 544:0.67820406 545:0.23024185 546:0.25561446 547:0.29993612 548:0.88189256 #
-0.50001123148730097778269509944948 1:0 2:0 3:0 4:0 5:0 6:0 7:0 8:0 9:0 10:0 11:0.00023980816 12:0 13:0 14:0 15:0 16:0 17:0 18:0 19:0 20:0 21:0 22:0 23:0 24:0 25:0 26:0 27:0 28:0 29:0 30:0 31:0 32:0 33:0 34:0 35:0 36:0 37:0 38:0 39:0 40:0 41:0 42:0 43:0 44:0 45:0 46:0 47:0 48:0 49:0 50:0 51:0 52:0 53:0 54:0 55:0 56:0 57:0 58:0 59:0 60:0 61:0 62:0 63:0 64:0 65:0 66:0 67:0 68:0 69:0 70:0 71:0 72:0 73:0 74:0 75:0.00023980816 76:0 77:0 78:0 79:0 80:0 81:0 82:0 83:0 84:0.0050359713 85:0.0011990408 86:0 87:0 88:0 89:0 90:0 91:0 92:0 93:0.0011990408 94:0 95:0 96:0 97:0 98:0 99:0 100:0 101:0 102:0 103:0 104:0 105:0 106:0 107:0 108:0 109:0 110:0 111:0 112:0 113:0 114:0 115:0 116:0 117:0 118:0 119:0 120:0 121:0 122:0 123:0 124:0 125:0 126:0 127:0 128:0 129:0 130:0 131:0 132:0 133:0 134:0 135:0 136:0 137:0 138:0 139:0 140:0 141:0 142:0 143:0 144:0 145:0 146:0 147:0 148:0.0011990408 149:0.00071942445 150:0 151:0 152:0 153:0 154:0 155:0 156:0.00095923262 157:0.013669065 158:0.0050359713 159:0 160:0 161:0 162:0 163:0 164:0 165:0 166:0.019664269 167:0 168:0 169:0 170:0 171:0 172:0 173:0 174:0 175:0 176:0 177:0 178:0 179:0 180:0 181:0 182:0 183:0 184:0 185:0 186:0 187:0 188:0 189:0 190:0 191:0 192:0 193:0 194:0 195:0 196:0 197:0 198:0 199:0 200:0 201:0 202:0 203:0 204:0 205:0 206:0 207:0 208:0 209:0 210:0 211:0 212:0 213:0 214:0 215:0 216:0 217:0 218:0 219:0 220:0.00023980816 221:0.00095923262 222:0.00047961631 223:0 224:0 225:0 226:0 227:0 228:0 229:0.00023980816 230:0.014148681 231:0.0023980816 232:0 233:0 234:0 235:0 236:0 237:0 238:0 239:0.001678657 240:0 241:0 242:0 243:0 244:0 245:0 246:0 247:0 248:0 249:0 250:0 251:0 252:0 253:0 254:0 255:0 256:0 257:0 258:0 259:0 260:0 261:0 262:0 263:0 264:0 265:0 266:0 267:0 268:0 269:0 270:0 271:0 272:0 273:0 274:0 275:0 276:0 277:0 278:0 279:0 280:0 281:0 282:0 283:0 284:0 285:0 286:0 287:0 288:0 289:0 290:0 291:0 292:0 293:0 294:0.001678657 295:0.00071942445 296:0 297:0 298:0 299:0 300:0 301:0 302:0.00071942445 303:0.014868106 304:0.0091127101 305:0 306:0 307:0 308:0 309:0 310:0 311:0 312:0.056834534 313:0 314:0 315:0 316:0 317:0 318:0 319:0 320:0 321:0 322:0 323:0 324:0 325:0 326:0 327:0 328:0 329:0 330:0 331:0 332:0 333:0 334:0 335:0 336:0 337:0 338:0 339:0 340:0 341:0 342:0 343:0 344:0 345:0 346:0 347:0 348:0 349:0 350:0 351:0 352:0 353:0 354:0 355:0 356:0 357:0 358:0 359:0 360:0 361:0 362:0 363:0 364:0 365:0 366:0 367:0.00047961631 368:0.00023980816 369:0 370:0 371:0 372:0 373:0 374:0 375:0.00023980816 376:1 377:0 378:0 379:0 380:0 381:0 382:0 383:0 384:0.00095923262 385:0 386:0 387:0 388:0 389:0 390:0 391:0 392:0 393:0 394:0 395:0 396:0 397:0 398:0 399:0 400:0 401:0 402:0 403:0 404:0 405:0 406:0 407:0 408:0 409:0 410:0 411:0 412:0 413:0 414:0 415:0 416:0 417:0 418:0 419:0 420:0 421:0 422:0 423:0 424:0 425:0 426:0 427:0 428:0 429:0 430:0 431:0 432:0 433:0 434:0 435:0 436:0 437:0 438:0 439:0 440:0.0019184652 441:0 442:0 443:0 444:0 445:0 446:0 447:0 448:0.001678657 449:0 450:0 451:0 452:0 453:0 454:0 455:0 456:0 457:0 458:0 459:0 460:0 461:0 462:0 463:0 464:0 465:0 466:0 467:0 468:0 469:0 470:0 471:0 472:0 473:0 474:0 475:0 476:0 477:0 478:0 479:0 480:0 481:0 482:0 483:0 484:0 485:0 486:0 487:0 488:0 489:0 490:0 491:0 492:0 493:0 494:0 495:0 496:0 497:0 498:0 499:0 500:0 501:0 502:0 503:0 504:0 505:0 506:0 507:0 508:0 509:0 510:0 511:0 512:0 513:0.73494136 514:0.50266659 515:0.53160101 516:0.42602479 517:0.72141713 518:0.23799874 519:0.64272487 520:0.70851582 521:0.82375377 522:0.88644683 523:0.54174733 524:0.57759452 525:0.46118465 526:0.78129101 527:0.28666618 528:0.77271956 529:0.80433613 530:1 531:0.83728462 532:0.52145422 533:0.56474841 534:0.46038356 535:0.76995581 536:0.30636153 537:0.70641482 538:0.75711262 539:0.96086872 540:0.86629385 541:0.57312036 542:0.63463545 543:0.55982733 544:0.88766527 545:0.34331563 546:0.74629247 547:0.83096063 548:0.98869276 #
-0.50001123148730097778269509944948 1:0 2:0 3:0 4:0 5:0 6:0 7:0 8:0 9:0 10:0 11:0.00013014056 12:0 13:0 14:0 15:0 16:0 17:0 18:0 19:0 20:0 21:0 22:0 23:0 24:0 25:0 26:0 27:0 28:0 29:0 30:0 31:0 32:0 33:0 34:0 35:0 36:0 37:0 38:0 39:0 40:0 41:0 42:0 43:0 44:0 45:0 46:0 47:0 48:0 49:0 50:0 51:0 52:0 53:0 54:0 55:0 56:0 57:0 58:0 59:0 60:0 61:0 62:0 63:0 64:0 65:0 66:0 67:0 68:0 69:0 70:0 71:0 72:0 73:0 74:0 75:0 76:0 77:0 78:0 79:0 80:0 81:0 82:0 83:0.00091098389 84:0.00039042166 85:0 86:0 87:0 88:0 89:0 90:0 91:0 92:0 93:0 94:0 95:0 96:0 97:0 98:0 99:0 100:0 101:0 102:0 103:0 104:0 105:0 106:0 107:0 108:0 109:0 110:0 111:0 112:0 113:0 114:0 115:0 116:0 117:0 118:0 119:0 120:0 121:0 122:0 123:0 124:0 125:0 126:0 127:0 128:0 129:0 130:0 131:0 132:0 133:0 134:0 135:0 136:0 137:0 138:0 139:0 140:0 141:0 142:0 143:0 144:0 145:0 146:0 147:0 148:0.00013014056 149:0 150:0 151:0 152:0 153:0 154:0 155:0 156:0.00078084331 157:0.0031233733 158:0.0015616866 159:0 160:0 161:0 162:0 163:0 164:0 165:0 166:0.0010411245 167:0 168:0 169:0 170:0 171:0 172:0 173:0 174:0 175:0 176:0 177:0 178:0 179:0 180:0 181:0 182:0 183:0 184:0 185:0 186:0 187:0 188:0 189:0 190:0 191:0 192:0 193:0 194:0 195:0 196:0 197:0 198:0 199:0 200:0 201:0 202:0 203:0 204:0 205:0 206:0 207:0 208:0 209:0 210:0 211:0 212:0 213:0 214:0 215:0 216:0 217:0 218:0 219:0 220:0 221:0.00013014056 222:0 223:0 224:0 225:0 226:0 227:0 228:0 229:0.0013014055 230:0.0055960435 231:0.0041644978 232:0 233:0 234:0 235:0 236:0 237:0 238:0 239:0.0035137949 240:0.0027329517 241:0 242:0 243:0 244:0 245:0 246:0 247:0 248:0 249:0 250:0 251:0 252:0 253:0 254:0 255:0 256:0 257:0 258:0 259:0 260:0 261:0 262:0 263:0 264:0 265:0 266:0 267:0 268:0 269:0 270:0 271:0 272:0 273:0 274:0 275:0 276:0 277:0 278:0 279:0 280:0 281:0 282:0 283:0 284:0 285:0 286:0 287:0 288:0 289:0 290:0 291:0 292:0 293:0 294:0 295:0 296:0 297:0 298:0 299:0 300:0 301:0 302:0.00078084331 303:0.016918272 304:0.0045549194 305:0 306:0 307:0 308:0 309:0 310:0 311:0 312:0.0089796977 313:0 314:0 315:0 316:0 317:0 318:0 319:0 320:0 321:0 322:0 323:0 324:0 325:0 326:0 327:0 328:0 329:0 330:0 331:0 332:0 333:0 334:0 335:0 336:0 337:0 338:0 339:0 340:0 341:0 342:0 343:0 344:0 345:0 346:0 347:0 348:0 349:0 350:0 351:0 352:0 353:0 354:0 355:0 356:0 357:0 358:0 359:0 360:0 361:0 362:0 363:0 364:0 365:0 366:0 367:0.00013014056 368:0 369:0 370:0 371:0 372:0 373:0 374:0 375:0.0011712649 376:1 377:0 378:0 379:0 380:0 381:0 382:0 383:0 384:0.18492973 385:0 386:0 387:0 388:0 389:0 390:0 391:0 392:0 393:0 394:0 395:0 396:0 397:0 398:0 399:0 400:0 401:0 402:0 403:0 404:0 405:0 406:0 407:0 408:0 409:0 410:0 411:0 412:0 413:0 414:0 415:0 416:0 417:0 418:0 419:0 420:0 421:0 422:0 423:0 424:0 425:0 426:0 427:0 428:0 429:0 430:0 431:0 432:0 433:0 434:0 435:0 436:0 437:0 438:0 439:0 440:0.0010411245 441:0 442:0 443:0 444:0 445:0 446:0 447:0 448:0.0080687143 449:0 450:0 451:0 452:0 453:0 454:0 455:0 456:0 457:0 458:0 459:0 460:0 461:0 462:0 463:0 464:0 465:0 466:0 467:0 468:0 469:0 470:0 471:0 472:0 473:0 474:0 475:0 476:0 477:0 478:0 479:0 480:0 481:0 482:0 483:0 484:0 485:0 486:0 487:0 488:0 489:0 490:0 491:0 492:0 493:0 494:0 495:0 496:0 497:0 498:0 499:0 500:0 501:0 502:0 503:0 504:0 505:0 506:0 507:0 508:0 509:0 510:0 511:0 512:0 513:0.88146472 514:0.48704457 515:0.46459863 516:0.27209473 517:0.82266277 518:0.37180299 519:0.57306224 520:0.45184901 521:0.88003206 522:0.91499943 523:0.5486868 524:0.54391295 525:0.33862469 526:0.83655781 527:0.45283142 528:0.65222204 529:0.52624834 530:0.91853291 531:0.94797426 532:0.4996143 533:0.51323479 534:0.31377965 535:0.91980696 536:0.42165649 537:0.64312434 538:0.50216299 539:0.9446516 540:1 541:0.56596792 542:0.5993408 543:0.3712633 544:0.89988691 545:0.45217621 546:0.69604844 547:0.54140776 548:0.99852926 #
